SVM-light Version V6.02
0 # kernel type
3 # kernel parameter -d 
1 # kernel parameter -g 
1 # kernel parameter -s 
1 # kernel parameter -r 
empty# kernel parameter -u 
37137 # highest feature index 
21590 # number of training documents 
4694 # number of support vectors plus 1 
1.1274951 # threshold b, each following line is a SV (starting with alpha*y)
-0.53536134041916894 124:0.031771325 168:0.021911478 437:0.035061788 470:0.045045543 649:0.045045543 829:0.055211715 838:0.024384202 966:0.047792926 969:0.047792926 986:0.045045543 1102:0.046245679 1267:0.035408895 1380:0.044064961 1669:0.028276224 1924:0.04188424 4597:0.061252326 5154:0.076312557 6212:0.054171231 6219:0.047792926 6243:0.036389478 7294:0.045045543 7454:0.029621078 7827:0.025683347 9645:0.14735173 10025:0.033228174 10653:0.055044942 11363:0.031863265 11734:0.033728845 12654:0.024596067 13328:0.28187373 14084:0.052033514 15406:0.15262511 15903:0.077579506 16716:0.16674522 16922:0.037716273 18379:0.16321988 19471:0.38567966 20149:0.16736344 20189:0.037077006 20223:0.12241491 20622:0.047792926 21059:0.031168323 21115:0.038463693 22063:0.034137521 22427:0.14930882 24127:0.040576503 24146:0.085035428 24523:0.23142742 25819:0.49550098 26558:0.062500872 26661:0.1706876 28108:0.14691001 28119:0.026611287 28199:0.14643613 28976:0.29318967 29083:0.034280952 29430:0.032348126 29533:0.02583234 32079:0.021641439 32523:0.17889981 32720:0.032247592 32994:0.026087819 33040:0.047792926 33096:0.047792926 33120:0.047792926 33153:0.047792926 33201:0.047792926 33208:0.037327204 34296:0.10916843 35177:0.027820161 35856:0.069792576 #
-0.56729168849844291 5361:0.15120533 8389:0.49410146 11174:0.37061009 15136:0.43827772 15583:0.34953341 27561:0.37952083 28725:0.37061009 #
-0.13728245049632187 138:0.19202903 787:0.29974085 1073:0.19202903 2856:0.21576975 3061:0.21576975 3064:0.20079102 3065:0.21576975 4491:0.18099022 6649:0.13802642 6988:0.21576975 7092:0.16828829 7523:0.087404184 8249:0.22878186 12654:0.19765095 14070:0.073926531 14825:0.19202903 18473:0.075149164 18518:0.12276001 20501:0.15454474 20508:0.21576975 21277:0.21576975 21428:0.13605402 21795:0.17705029 21807:0.21576975 22209:0.11805507 24338:0.061742131 25108:0.25531045 29621:0.15724948 33545:0.21576975 #
-1.0000000001676255 10609:0.31140694 11553:0.42809507 12684:0.30704036 18604:0.19061503 21779:0.34736487 22325:0.21515717 23514:0.25117403 27246:0.39160895 30254:0.45359844 #
-0.20396642084324471 5361:0.16453238 5466:0.26702359 7412:0.38675171 10580:0.23845349 12913:0.20799008 14276:0.22109975 18604:0.26170075 20852:0.38675171 22325:0.29539531 28157:0.33305514 32009:0.35990342 35681:0.23930483 #
1.0000000001676255 4298:0.085585907 4581:0.15633559 5361:0.058026742 5785:0.10295219 8394:0.21598405 9216:0.11705431 9221:0.09848474 9524:0.24278137 10333:0.21276608 11619:0.19880977 12360:0.22384383 14070:0.093464956 15039:0.27279666 17588:0.18378191 18455:0.22882506 18457:0.27279666 18569:0.18713152 19090:0.22882506 23865:0.21963227 26792:0.37193751 27506:0.1064373 27558:0.11228713 31836:0.26275718 32994:0.066261232 34350:0.17341383 34474:0.21276608 #
1.0000000001676255 4850:0.27655706 6045:0.54721105 6649:0.11776336 10585:0.23036191 10891:0.21369514 13142:0.20436598 14855:0.27087283 16517:0.15390345 20079:0.14501858 21199:0.16040634 31171:0.16133992 31964:0.2427692 33366:0.32459551 37064:0.36818707 #
1.0000000001676255 4607:0.200407 5870:0.16076507 7997:0.11757221 9490:0.23911305 9595:0.15429772 9735:0.11240814 9951:0.22127554 10525:0.16402692 11192:0.19300377 12124:0.14618941 13052:0.158424 13498:0.14761944 14837:0.075499855 14879:0.13793115 18406:0.10151017 18427:0.23911305 19324:0.12870204 20129:0.21553315 20364:0.22867878 21310:0.13090917 22446:0.22127554 22575:0.25695053 27636:0.21931875 29573:0.20343804 32291:0.16697116 32324:0.17516626 32994:0.062412273 33244:0.16545695 33403:0.20343804 35279:0.19524293 35336:0.080860421 35888:0.200407 #
1.0000000001676255 3282:0.37855592 7466:0.17304675 8777:0.29525238 11257:0.24376173 12781:0.24486074 13254:0.40069249 14523:0.16155718 15657:0.32599723 22062:0.30478048 23772:0.14278965 30134:0.35227659 34350:0.24064383 34625:0.1788352 #
1.0000000001676255 5517:0.276871 12373:0.29177606 15233:0.51801753 29705:0.4274047 32026:0.48430362 32994:0.14611039 35586:0.36234513 #
-0.14161036478451131 4437:0.27354559 5361:0.079839937 6142:0.27613914 13903:0.12401358 14241:0.31484413 14370:0.23309186 15805:0.12564409 17698:0.18162522 18680:0.25914833 22209:0.20536439 26583:0.21672758 27054:0.34928891 27923:0.18340503 30416:0.31484413 30538:0.24063538 31171:0.16447671 32006:0.18845896 32994:0.091169909 35336:0.11811839 35696:0.26669186 #
-0.18023352965431561 21118:0.6722033 31369:0.74036664 #
-0.050417700924136305 21310:0.41788492 24050:0.72998255 35987:0.54083055 #
-0.011068502296997185 12373:1 #
-0.3172963375701201 8777:1 #
1.0000000001676255 2906:0.59991527 9221:0.21658073 12222:0.18469919 27243:0.53390777 27558:0.24693398 29748:0.46156991 #
1.0000000001676255 4153:0.72264832 4298:0.12181661 7464:0.18090604 8305:0.24892683 10025:0.2402495 13258:0.24386948 14853:0.18527547 20366:0.21691521 23710:0.21644384 26566:0.1316835 27558:0.15982114 31115:0.20479108 32006:0.19495259 #
1.0000000001676255 10143:0.76061767 36773:0.64920008 #
0.94616852034775789 5361:0.094831869 7190:0.26689723 11001:0.39677244 12137:0.41487658 14806:0.18968622 16666:0.44582579 18303:0.38392735 26566:0.1512005 27558:0.18350847 32994:0.10828933 34592:0.31932202 35039:0.19455092 #
1.0000000001676255 8329:0.39596716 9964:0.31879848 14725:0.21579441 19258:0.34099108 19338:0.39596716 19340:0.39596716 23710:0.22072987 26339:0.34099108 27558:0.16298592 27580:0.18706051 35172:0.19647585 #
-0.068692927456773425 1636:0.07820709 1642:0.077076152 5229:0.12792206 7079:0.11669569 7307:0.071345024 7655:0.16685261 7994:0.11575433 10140:0.090406887 10143:0.44823521 10265:0.23090035 10332:0.14133416 12491:0.14133416 12624:0.15114516 12684:0.10840504 13408:0.14025705 13716:0.10840504 17245:0.067956217 17414:0.097075686 17423:0.10421559 18399:0.13400844 19552:0.12398574 21618:0.10601155 22347:0.14025705 23510:0.1106458 23642:0.14025705 23679:0.11515059 25697:0.14941174 27848:0.16322044 27968:0.19891542 27992:0.39783084 28005:0.12593086 28725:0.10370692 32006:0.0998744 33108:0.12019973 34818:0.12925887 36274:0.17129801 36773:0.2550509 #
1.0000000001676255 6768:0.1693936 9735:0.14281967 9999:0.20585462 10971:0.32646739 11211:0.23196287 11440:0.32646739 15222:0.14923586 15583:0.1605279 18544:0.30380404 21471:0.17970552 21511:0.23196287 21645:0.11556077 22103:0.27717543 31006:0.2905468 31171:0.42917499 33250:0.14019342 35101:0.1915253 #
-1.0000000001676255 5271:0.45604125 5721:0.28055149 8136:0.39572808 10106:0.42320472 10143:0.48210505 11860:0.19314986 32936:0.32845414 #
-0.32412198204839071 12137:0.78102303 16239:0.52921349 18406:0.33156613 #
-1.0000000001676255 6649:0.24276486 13259:0.2696453 15792:0.29198578 16457:0.29198578 16707:0.17041114 19154:0.20084697 23710:0.63465446 23772:0.14314653 24127:0.14337435 28217:0.2238849 29024:0.18855524 31608:0.1490307 33094:0.15851954 33158:0.227192 #
1.0000000001676255 11288:0.29993775 12373:0.57195902 12391:0.54865527 27763:0.19312617 33285:0.4945502 #
1.0000000001676255 7523:0.52735889 22325:0.49717119 32416:0.68899447 #
1.0000000001676255 7464:0.34725538 10140:0.33874449 10152:0.59009486 12373:0.36151659 12684:0.40618157 32006:0.18710911 33058:0.29285902 #
1.0000000001676255 4578:0.32487732 11824:0.69800693 12373:0.33857024 33870:0.37400836 36940:0.39080554 #
1.0000000001676255 12373:0.28744018 13767:0.25629571 13901:0.32686767 22460:0.36800563 24192:0.51031965 25208:0.34861708 30185:0.34484759 32793:0.22052754 36805:0.24476057 #
-0.15969656193015416 182:0.13308124 9623:0.27133533 11544:0.10001359 13930:0.19961965 14879:0.14565292 17110:0.12918134 18051:0.15707392 20666:0.42325267 24709:0.17248489 24711:0.25249925 24731:0.27133533 24736:0.15191734 26566:0.092022583 26809:0.27133533 27580:0.12818268 28908:0.27133533 30154:0.21845575 31146:0.35965991 31608:0.10655356 32099:0.12846428 32379:0.12804295 34649:0.18279742 #
-0.15775835986156092 12391:0.84526181 25208:0.53435242 #
-1.0000000001676255 5361:0.2812748 12373:0.6414026 30529:0.71378374 #
-1.0000000001676255 8119:0.56304324 22325:0.48358676 32416:0.67016876 #
1.0000000001676255 5271:0.45360675 5721:0.27905384 6707:0.6384117 14070:0.21873112 31780:0.46967533 35336:0.2009034 #
1.0000000001676255 7863:0.30938503 10375:0.22070116 14523:0.17578398 16239:0.25971907 17245:0.14071609 17606:0.4118917 23710:0.45921385 24925:0.34549963 25734:0.33797854 25741:0.23270226 34409:0.26293513 #
1.0000000001676255 6649:0.12460284 8105:0.3267765 9505:0.30843872 11000:0.20617568 11195:0.19621301 14363:0.38957071 16574:0.30843872 22690:0.26097956 24338:0.11147496 27452:0.24104908 28888:0.29601386 34921:0.38957071 35577:0.27679929 #
0.11100228197472527 3381:0.30095962 3726:0.32642129 4651:0.42611557 12152:0.55099595 13547:0.23833843 14620:0.2903921 14806:0.15605323 16567:0.18321244 20226:0.21232438 28936:0.20867409 34625:0.17327069 #
-0.18881421153054173 891:0.18075556 1509:0.18900315 3575:0.2804547 5229:0.065307394 5255:0.10159166 5352:0.12707424 8349:0.15840858 11544:0.074863136 11664:0.20310253 11959:0.12393864 14289:0.40636665 16107:0.14942122 17386:0.086745121 17788:0.10159166 20445:0.1235277 21899:0.096805118 22325:0.077563375 22777:0.1703648 23932:0.12707424 25343:0.17490378 25763:0.082166158 25986:0.18900315 26010:0.32704118 27636:0.086678535 28368:0.12707424 30385:0.089375727 30740:0.12806667 32152:0.12158898 32709:0.10555089 33256:0.11757448 33431:0.20310253 33671:0.18075556 34440:0.12522377 35588:0.14320941 36694:0.086218461 36745:0.26156572 #
-0.21509451571418431 12887:0.28825063 26360:0.77615571 26566:0.26323092 32994:0.18852517 33871:0.45788825 #
-1.0000000001676255 5522:0.51349956 7464:0.42445031 14084:0.4413498 16625:0.35606736 32333:0.43083957 32994:0.22127765 #
-0.019519478917057621 8344:0.2276879 11544:0.13202249 13183:0.30844599 15280:0.1804001 16217:0.19636193 17727:0.29390121 17737:0.35817498 18260:0.18859465 19143:0.30044141 21310:0.36496043 27370:0.2835815 27379:0.35817498 31453:0.10496399 32793:0.2665813 #
-0.29777659250936223 7464:0.12204705 11672:0.1615061 12373:0.12705933 12615:0.23312767 12701:0.46625534 13924:0.21089904 17256:0.19271451 17386:0.11187866 18101:0.12374865 18153:0.21972631 19177:0.26194948 20136:0.23312767 20510:0.13701513 21922:0.21089904 23689:0.14666229 26378:0.19675863 26566:0.088839389 27742:0.24376494 28079:0.17271999 28484:0.23312767 29926:0.19675863 30090:0.19271451 36318:0.19904134 #
-0.6029200034139619 7523:1 #
1.0000000001676255 5361:0.28209943 17190:0.63870251 30529:0.7158764 #
1.0000000001676255 5361:0.23061378 13505:0.56253988 15422:0.5365451 30529:0.58522266 #
1.0000000001676255 1651:0.33538157 10420:0.47180822 12786:0.48108652 16707:0.29070377 25770:0.47628155 30529:0.34945548 #
1.0000000001676255 5361:0.12659846 11860:0.17910524 12887:0.22103482 23114:0.55385107 30529:0.32126564 31608:0.2337227 34204:0.27964884 36281:0.31233576 37027:0.51253456 #
-1.0000000001676255 5361:0.36662295 30529:0.93036962 #
-0.13715653593349433 5361:0.080230579 13720:0.27244604 15743:0.30367419 15748:0.20515704 16892:0.27488402 20213:0.28331336 23313:0.25558734 23990:0.3509979 29886:0.37718186 30040:0.19696704 33259:0.21510775 33931:0.46189088 #
-0.022823478101021949 28082:1 #
-0.42687874230481843 15591:0.738249 17190:0.44906148 30529:0.50332123 #
1.0000000001676255 7523:0.35838878 8119:0.39338827 14757:0.4576197 30499:0.71231127 #
1.0000000001676255 3979:0.43034557 5083:0.30814075 5930:0.14762357 7523:0.26826689 7977:0.26659533 8119:0.44169796 13547:0.21517278 13586:0.21322146 15805:0.11084253 18145:0.22062157 20079:0.13042191 32324:0.22573368 33729:0.22573368 35681:0.20488711 35856:0.21517278 #
1.0000000001676255 5785:0.30564547 7523:0.32806742 8370:0.60183549 32038:0.51272577 33911:0.41696393 #
1.0000000001676255 5229:0.18579578 7464:0.2692146 11210:0.35752633 13514:0.36731064 17184:0.38498285 17785:0.23360671 18169:0.32644227 18200:0.33195782 18406:0.22827002 18604:0.19549315 19394:0.34697554 #
1.0000000001676255 7466:0.2812025 12312:0.28997687 12373:0.2983835 20887:0.32902002 23470:0.47329655 23514:0.27424964 27763:0.20150279 36475:0.54747224 #
-0.19783003676794969 4312:0.49464896 5951:0.62470222 21288:0.40926632 34912:0.44448915 #
-0.38652541177825966 8391:0.40904301 10420:0.54484576 13258:0.46955782 22282:0.56155354 #
-0.58251048775510994 8370:0.56973338 18200:0.44046292 31171:0.33596084 31628:0.36460379 34262:0.48537683 #
-0.4852366166294666 9048:0.25628307 12169:0.28126082 12786:0.75940597 21335:0.2509267 25037:0.29282385 34763:0.36028311 #
-0.13265524710611226 4298:0.076941498 8916:0.20571311 10136:0.19744882 10226:0.15229775 10523:0.19416907 12312:0.11560458 14986:0.34093031 15197:0.28178734 15222:0.22421302 17461:0.16521944 18210:0.18868832 18652:0.19744882 20022:0.18868832 22707:0.35428855 23152:0.34093031 29695:0.20571311 33168:0.20123501 36132:0.24524346 36300:0.24524346 36805:0.10129324 #
0.39902668354808318 3882:0.40415722 7158:0.34993961 13442:0.23551579 14806:0.22047411 17386:0.22131798 18353:0.37764665 22776:0.26026693 24338:0.14827845 30529:0.55942512 32994:0.12586571 #
1.0000000001676255 5361:0.15748745 6175:0.63758886 30529:0.39965186 32620:0.41009024 33113:0.49069598 #
-0.92963828497623924 319:0.14326034 382:0.159044 629:0.21281277 1224:0.16819425 5361:0.066402726 7464:0.14544758 8249:0.16549993 8964:0.11109968 14494:0.43702605 14797:0.21553317 14837:0.18345237 15707:0.17046316 17245:0.10664917 17842:0.2778261 18246:0.16757512 18604:0.10561837 20018:0.3017543 21199:0.1360034 22185:0.17979549 24523:0.12230144 26566:0.1058729 27466:0.16979793 27636:0.13322723 29430:0.18804359 30529:0.16850847 32793:0.23234385 36013:0.23448388 #
-1.0000000001676255 5361:0.49700537 12887:0.86774749 #
-1.0000000001676255 12887:1 #
1.0000000001676255 2024:0.26869845 5930:0.14878815 8249:0.17693311 12169:0.18370868 12299:0.20880949 12684:0.18188174 12690:0.20650342 13546:0.27994493 16560:0.23532297 16787:0.20961495 17414:0.16287336 19850:0.17818278 19956:0.17818278 20679:0.33373985 21315:0.14698793 22806:0.2235776 24011:0.15485577 28137:0.208023 30536:0.22751446 32857:0.33373985 32936:0.170788 35336:0.10502544 #
1.0000000001676255 13903:0.55034477 27898:0.47967678 36291:0.68339652 #
1.0000000001676255 2322:0.10987914 2444:0.085092798 4298:0.048890244 4598:0.11464521 5229:0.050107878 5488:0.087248899 5704:0.1233791 6649:0.14952779 7307:0.055892587 7610:0.20138851 8195:0.096422456 9575:0.072605371 9788:0.088243306 10011:0.13868685 10168:0.061825205 10332:0.22144592 10650:0.15583284 11860:0.14068547 12486:0.078597799 12531:0.11840902 12538:0.14501493 12735:0.095743783 12743:0.12546313 13591:0.094778098 17110:0.1483824 17415:0.1233791 17644:0.07186906 18072:0.11705104 18473:0.10854819 18518:0.088659517 18604:0.10544638 19150:0.10327963 19154:0.082472689 20403:0.10689735 21239:0.15583284 21899:0.074274883 22322:0.07049311 22327:0.1233791 22394:0.059061814 22555:0.078487501 24133:0.13071443 24767:0.07089331 25876:0.13868685 27462:0.14501493 27558:0.064143099 27576:0.091171153 27763:0.10209025 27858:0.096079431 28425:0.076920271 28920:0.094165981 29725:0.15583284 31786:0.089526795 32199:0.11072296 32416:0.082472689 32442:0.09865582 34625:0.073617652 35712:0.13868685 37120:0.52285773 37132:0.12786895 #
1.0000000001676255 4353:0.35359463 4355:0.30987939 6989:0.2276922 7071:0.23373276 7506:0.2708509 7523:0.1609426 8391:0.21738192 13254:0.21027154 18986:0.25940365 20870:0.20124793 21335:0.19511406 21474:0.39730987 27636:0.16956085 27923:0.19413754 32333:0.18790047 33947:0.21870109 36694:0.16866085 #
1.0000000001676255 7203:0.67583126 13903:0.2399511 17245:0.24811058 28953:0.52927727 32994:0.17640263 33888:0.33595297 #
-1.0000000001676255 13505:0.23501417 14757:0.23427655 14837:0.13308632 14879:0.24313623 15422:0.22415423 16118:0.37165752 17245:0.15473822 20732:0.3300924 21779:0.27925971 23745:0.45293602 27923:0.22131816 29249:0.2205008 32073:0.33322209 #
-0.045398837042994036 5229:0.19745426 5785:0.23174801 9216:0.26349226 9221:0.22169168 10597:0.378609 13547:0.39903539 14070:0.21039201 19653:0.28377548 22932:0.37472346 30267:0.32443392 32620:0.3401278 #
-0.75268286239889859 31836:0.8371281 35336:0.54700691 #
-0.042576060233350289 7042:0.4072319 13658:0.91332477 #
-0.51345499057008137 12654:0.47341993 13258:0.64920574 30374:0.59531963 #
1.0000000001676255 5361:0.22782728 10168:0.42493564 12887:0.39777547 36583:0.78057611 #
-0.20920248937985228 1651:0.26500285 5517:0.23544802 11111:0.4118464 17190:0.49271268 19324:0.25622061 20079:0.20148063 21087:0.37280083 22061:0.25948027 24338:0.14637579 27335:0.23833507 32006:0.12842037 34723:0.23383611 #
1.0000000001676255 5361:0.27986935 12887:0.4886384 32801:0.82638109 #
1.0000000001676255 5361:0.1437723 11099:0.52003634 12887:0.50203907 16714:0.6759057 #
1.0000000001676255 5361:0.27247104 12887:0.47572133 36557:0.83633053 #
-1.0000000001676255 5361:0.49700537 12887:0.86774749 #
-1.0000000001676255 12887:1 #
-0.18920217107516554 9216:0.34016448 14523:0.33832714 16567:0.39599839 26668:0.54381168 36972:0.56327349 #
1.0000000001676255 14837:1 #
1.0000000001676255 11195:0.40849489 16707:0.36419079 28617:0.53477389 34769:0.59107661 35336:0.25522992 #
1.0000000001676255 2304:0.29032591 4280:0.098701835 6959:0.29032591 7466:0.13271475 7948:0.142939 8265:0.13597912 8433:0.18865909 8964:0.20664832 9097:0.12743489 10058:0.16850466 11544:0.10701347 14637:0.19791865 18037:0.2018013 19009:0.14168628 19653:0.13416559 21243:0.15760982 22126:0.11604141 22347:0.20471141 22756:0.20794548 24338:0.083076246 24523:0.11374194 25493:0.17837641 26037:0.15671508 27629:0.18234757 27636:0.12390306 28136:0.15822199 28744:0.21359089 30970:0.19559129 31171:0.12722109 31210:0.2382275 31742:0.19241613 31746:0.13526815 32006:0.072885565 32079:0.11699967 35336:0.0913634 #
1.0000000001676255 7464:0.17341819 9216:0.15971042 11157:0.25698173 13371:0.37220731 13860:0.20284575 16884:0.33125407 19795:0.37220731 22608:0.25221646 24127:0.14061841 28860:0.26885283 31836:0.17925467 32994:0.090407692 36088:0.50443292 #
1.0000000001676255 184:0.10655659 794:0.097948574 2173:0.1881731 3775:0.31568363 4757:0.1881731 6054:0.11913003 6724:0.13079637 7606:0.3240943 7610:0.16212201 8311:0.16746877 8879:0.14676446 9445:0.12751053 10358:0.099248804 10390:0.10631023 11489:0.11165045 11493:0.20027317 12222:0.057933878 12338:0.15784182 12789:0.11685669 13029:0.20276918 14837:0.055290956 17303:0.1881731 20079:0.074116118 20260:0.10101139 21847:0.12407452 22057:0.10757554 22452:0.10810644 22615:0.086018316 27612:0.10064544 28768:0.13843772 29244:0.1881731 30103:0.17511013 31394:0.1881731 31628:0.17897542 31630:0.14298263 32006:0.094480731 32994:0.045706503 33007:0.078713506 33722:0.1881731 33849:0.1881731 34706:0.078657001 35039:0.082115591 35306:0.085769795 35336:0.17765002 #
-0.51914334930641926 10478:0.69670457 14837:0.26607108 25770:0.66618985 #
-0.27936701140393205 36557:0.54669434 36706:0.83733225 #
-0.52074842142879718 3244:0.58701396 11493:0.38652536 36557:0.71134573 #
-0.2614737669844206 162:0.10802186 2395:0.16937487 3110:0.094810203 3702:0.30135977 3703:0.19031484 4157:0.11500262 4159:0.14843489 5268:0.13055111 5355:0.19031484 5361:0.040481985 5371:0.19031484 7496:0.11652827 8366:0.16389154 8375:0.14142592 10491:0.08007291 11938:0.19031484 12222:0.058593269 13107:0.16937487 13302:0.085381106 14245:0.16389154 14289:0.095195279 16716:0.11818673 16922:0.066831954 17190:0.18331087 18921:0.17710319 20294:0.15963835 20446:0.12048595 21920:0.19031484 22690:0.12749493 23769:0.19031484 24338:0.10891651 27063:0.14642669 27912:0.19031484 28979:0.15963835 30040:0.099383757 31516:0.15322505 32006:0.047778048 32994:0.046226729 33366:0.08389125 33374:0.16937487 33379:0.15322505 33675:0.15322505 34167:0.14295156 34301:0.14295156 34454:0.19031484 35186:0.11907342 #
-0.19116445638121593 530:0.15542807 895:0.26172504 4581:0.11986486 6179:0.075509742 6255:0.20915733 8043:0.18614416 8935:0.11466612 8964:0.074437052 11860:0.062942222 11943:0.17544363 11997:0.15892743 13455:0.16559824 17008:0.16839539 19492:0.13935599 21297:0.19463763 21551:0.085340947 21594:0.20915733 21714:0.2409268 22142:0.14258505 22188:0.067665294 23432:0.090029441 26348:0.20915733 28250:0.17162445 30722:0.20915733 30890:0.15542807 31836:0.10072996 32717:0.18614416 32801:0.52546918 33529:0.11398669 #
1.0000000001676255 4651:0.41952693 12887:0.40232527 14807:0.81371462 #
1.0000000001676255 5361:0.14150025 12887:0.49410528 21599:0.47265774 24229:0.48480463 36096:0.5266847 #
-0.27889240546835953 5361:0.23232508 15748:0.59407675 34119:0.77012849 #
-0.53238066981481824 771:0.11456834 913:0.20746394 1636:0.094718844 4848:0.16745453 4966:0.1740157 8265:0.22567068 8782:0.13078448 10168:0.095579617 10470:0.22418804 11058:0.20746394 11493:0.085467838 12403:0.11728218 15382:0.16139087 17696:0.13739282 18392:0.14422403 19457:0.13642108 20437:0.08722046 21384:0.24370831 21555:0.14604586 23762:0.19396164 23858:0.15729158 25597:0.15314521 25763:0.097462237 26405:0.15582883 27311:0.16986933 27312:0.24091217 30084:0.15190761 30385:0.21202788 32416:0.12749991 32994:0.058516614 33937:0.13429525 34227:0.16863173 34320:0.17117386 34912:0.23371026 35450:0.20746394 35905:0.14212464 36325:0.15654913 #
1.0000000001676255 5361:0.24804464 12887:0.433074 19733:0.86655682 #
-1.0000000001676255 5361:0.49700537 12887:0.86774749 #
-0.089412631419775263 5147:0.24652097 8725:0.29481933 13302:0.1760876 13586:0.25274068 16766:0.32923365 20000:0.39250004 24461:0.32206666 24736:0.21975596 26023:0.18665755 31219:0.39250004 36311:0.39250004 #
-1.0000000001676255 5361:0.62519723 6119:0.78046679 #
-0.40817765164108821 5361:0.20446996 21551:0.39221549 29861:0.47448471 36096:0.76106721 #
1.0000000001676255 5225:0.25596935 5716:0.25596935 9692:0.30022973 15868:0.4084574 17106:0.48134533 25008:0.48694763 31351:0.30022973 32333:0.23029301 #
1.0000000001676255 6943:0.29930106 7566:0.36475575 8845:0.21971714 14070:0.12497176 14730:0.27715832 22095:0.23702495 28119:0.180751 28552:0.19652443 30023:0.36475575 32006:0.091570981 32994:0.088597737 34024:0.36475575 36557:0.47629812 #
1.0000000001676255 771:0.13611692 3110:0.14258987 4298:0.08979857 5398:0.23486176 5466:0.19761668 5785:0.10801965 7879:0.16885614 9216:0.1228159 9221:0.10333231 10491:0.12042569 10774:0.177747 13029:0.15421288 13860:0.15598659 13903:0.094568044 15438:0.14758785 15591:0.2266151 16097:0.16097006 17570:0.21499209 18068:0.28622413 19353:0.23486176 23932:0.17908055 30508:0.18872581 30535:0.15364522 30917:0.16885614 33241:0.28954619 33644:0.24648477 34722:0.2266151 35160:0.16362973 35634:0.25473145 #
1.0000000001676255 4821:0.29558775 5522:0.38337317 5918:0.57050997 8107:0.44196779 11493:0.24129187 13254:0.35995635 16922:0.23884173 #
1.0000000001676255 4298:0.26647887 5517:0.19547284 5716:0.22324167 5815:0.31899643 6212:0.21420074 7982:0.3952058 24127:0.32089049 31836:0.20452911 32519:0.36572397 33158:0.50848538 #
-0.31443263451104037 4298:1 #
-1.0000000001676255 6649:0.33680835 7158:0.35556361 14807:0.79096538 18473:0.36675394 #
-0.9010851482068073 5716:0.45253509 14523:0.36740309 14730:0.6541425 34556:0.48200056 #
-0.40601036331331103 4456:0.37578207 5361:0.17670041 20404:0.52591085 22200:0.52591085 30185:0.48341173 32994:0.20177571 #
1.0000000001676255 5361:0.11217663 5721:0.23051566 12373:0.25580105 14545:0.37185147 18669:0.2795853 21243:0.286293 22615:0.24107194 24011:0.24469924 28872:0.43273234 29918:0.37470713 31648:0.3274985 32006:0.13239421 #
1.0000000001676255 5361:0.2527867 7158:0.20063709 12439:0.38795543 12654:0.2721532 13683:0.55295378 15222:0.27162421 18704:0.35465237 24152:0.3809461 32994:0.14432965 #
1.0000000001676255 3314:0.88299394 5361:0.23328657 12887:0.40730715 #
-0.34696888037220558 23573:0.67677516 24523:0.37879014 30389:0.63126338 #
-0.06012836347357723 4298:0.15899642 10333:0.39526421 15264:0.23941265 15805:0.16964269 16753:0.31830123 18959:0.38066277 23097:0.29491234 32527:0.33950359 33935:0.45102483 36940:0.28374296 #
1.0000000001676255 11493:0.12992431 12654:0.16773543 14757:0.18942548 17414:0.17872629 19437:0.34080046 20305:0.31537721 26080:0.34080046 26908:0.22060139 30506:0.34080046 32235:0.21146066 32275:0.36622369 33710:0.23910749 35240:0.39317805 #
-1.0000000001676255 5517:0.76074123 31608:0.6490553 #
-1.0000000001676255 151:0.28341109 523:0.28196889 2320:0.35679424 3129:0.45558861 7948:0.24103722 8601:0.22905865 8964:0.17423493 9581:0.28341109 14806:0.20830023 20437:0.17724696 21256:0.2792058 21717:0.19883625 35681:0.30292726 #
1.0000000001676255 34556:1 #
1.0000000001676255 18027:0.68756199 34556:0.72612566 #
1.0000000001676255 1012:0.24021979 6630:0.2148362 7158:0.26026252 9456:0.26272807 9999:0.24301122 13389:0.33188635 14837:0.11324058 17328:0.32327345 19324:0.19303738 22128:0.38539448 22890:0.22672309 29861:0.19023365 35101:0.22609547 36617:0.34867689 36694:0.16360268 #
1.0000000001676255 771:0.30148223 3110:0.31581903 6119:0.33667621 9479:0.51040268 17413:0.41592261 22188:0.205092 22473:0.38431415 33079:0.26972827 #
1.0000000001676255 152:0.26967266 2966:0.29724184 6119:0.26123506 6685:0.33961922 9221:0.17758438 10491:0.20696066 11819:0.23392722 14492:0.22356713 17245:0.16804887 17460:0.3243396 20226:0.2847558 23772:0.1855417 26873:0.29917404 32006:0.12348966 32238:0.31400782 35336:0.15479657 #
-0.94173455997951439 34556:1 #
1.0000000001676255 5517:0.37404403 9677:0.60389608 21590:0.44375134 27923:0.39708737 31608:0.31912988 32994:0.19739054 #
1.0000000001676255 4030:0.287606 4298:0.090232119 5361:0.061176844 5488:0.16102707 5517:0.13237768 5815:0.21603006 6649:0.18397957 10199:0.26764038 10471:0.14465486 12794:0.23599567 13860:0.15673968 14127:0.23155546 14247:0.22431654 14923:0.14252023 15805:0.096273981 18565:0.16211416 28534:0.20960258 30422:0.287606 30842:0.24767479 31271:0.26764038 32006:0.21660821 32073:0.21158986 32416:0.15221207 32994:0.069858365 34554:0.21603006 36281:0.15093167 #
1.0000000001676255 1651:0.11290858 4298:0.068378225 5361:0.092720069 6573:0.20281886 7158:0.073592022 7311:0.11809215 7996:0.16998789 8107:0.14162715 8115:0.17255884 8201:0.19396837 9682:0.37537771 9735:0.095346078 11493:0.077321202 11544:0.080335461 12973:0.16370836 13792:0.23109239 13814:0.18281808 14523:0.093014538 15525:0.19396837 16579:0.17883837 17238:0.10558943 17707:0.14857836 19488:0.24859357 20734:0.20281886 23231:0.2143361 24011:0.10112859 24338:0.062365681 27362:0.093446791 29502:0.15255807 29519:0.21794887 30765:0.20281886 31453:0.063870408 31627:0.21794887 32006:0.10943099 35336:0.20576066 35856:0.14162715 #
1.0000000001676255 2396:0.67513704 5517:0.43020862 9507:0.55140775 32006:0.23464862 #
1.0000000001676255 5517:0.31986323 5530:0.69494021 12286:0.55021203 31836:0.33468249 #
-0.19958131423657283 5785:0.12086127 5930:0.14277458 6371:0.22260186 7158:0.10813511 9216:0.13741653 12441:0.26278266 12662:0.42022052 12887:0.11893564 13860:0.17453063 14837:0.094099469 19876:0.23339379 24338:0.09163928 24690:0.29801926 26967:0.22260186 30450:0.32025108 31802:0.32025108 32006:0.080398202 32720:0.19230944 32735:0.29801926 32755:0.20274696 32994:0.077787727 #
-0.10859697602252857 13200:0.44283351 14070:0.16304088 17056:0.35743988 17328:0.3991639 17644:0.21946724 20158:0.26036394 21566:0.37676397 23603:0.28235123 24338:0.13616885 30057:0.36612916 #
-0.29765742191352851 5600:0.26834211 8601:0.20290707 9221:0.15656675 9406:0.38596323 9425:0.38596323 21511:0.30814019 23001:0.31605911 23019:0.3491618 23877:0.29749355 28177:0.3014448 35586:0.26123506 #
-1.0000000001676255 151:0.071607865 154:0.064387798 258:0.06274645 382:0.063020743 425:0.0680902 473:0.13304648 619:0.068806507 2328:0.10375942 2366:0.087890454 2435:0.10652386 3083:0.057753485 3110:0.12324674 4607:0.096477568 4821:0.16127683 4952:0.12369809 5027:0.079652332 5484:0.078633517 5522:0.069724597 6212:0.062389918 7158:0.04176756 7875:0.077393621 8091:0.066042066 8276:0.20751885 8301:0.084853731 8391:0.067679487 8776:0.30450213 9070:0.08934962 9097:0.054295719 9158:0.10375942 9556:0.10150071 10328:0.12369809 10491:0.05204463 10536:0.072175376 11493:0.04388408 11837:0.12369809 11860:0.037224766 11905:0.084853731 12152:0.09291359 12348:0.087890454 12690:0.076538898 13254:0.065465748 13772:0.10652386 13860:0.13482612 14070:0.084762305 14523:0.052790921 14806:0.05263003 14821:0.10150071 15386:0.11511097 15387:0.11008783 15697:0.09399154 16100:0.11511097 17106:0.061137479 17957:0.096477568 17965:0.080762498 18233:0.068514995 18246:0.066401184 18604:0.041850988 20079:0.097442433 20651:0.12369809 20731:0.072175376 21234:0.099591002 21251:0.097936735 21290:0.11511097 21555:0.074988306 22427:0.085980743 24542:0.097936735 24902:0.11511097 25741:0.069884449 27370:0.097936735 27452:0.076538898 28260:0.12369809 28394:0.10804885 28491:0.095172301 28919:0.12369809 28975:0.088598564 29642:0.10150071 31115:0.065242529 32006:0.031054085 32069:0.083334856 32668:0.075233631 32703:0.087890454 32769:0.076000176 33079:0.26315016 33158:0.07405287 33419:0.082416765 33659:0.095172301 34168:0.067545556 34203:0.12369809 34227:0.086585186 34361:0.088598564 35049:0.067152239 35856:0.16076256 35873:0.087220632 36097:0.10150071 36617:0.055956516 36652:0.091003887 36738:0.17317036 36805:0.051091194 #
-1.0000000001676255 12541:0.25606039 13505:0.20349459 14084:0.19000347 17090:0.16561835 17413:0.25730744 17790:0.25254056 18379:0.29800355 22325:0.14977421 22561:0.23338433 26558:0.22822565 27259:0.31575686 29810:0.24632578 29842:0.39218923 34342:0.27653614 35082:0.3017472 #
1.0000000001676255 743:0.29487437 2755:0.23937918 5361:0.086065188 7464:0.18851596 7610:0.17429817 9216:0.1736148 9645:0.55510646 13890:0.19135371 14276:0.23130997 14923:0.20050119 17245:0.13822897 18604:0.13689294 22394:0.15335083 27571:0.2236414 27576:0.23672101 33279:0.30391675 34219:0.23245153 #
1.0000000001676255 4429:0.17467836 4571:0.1838349 6838:0.19178453 7307:0.098962486 12382:0.1623176 12684:0.15036835 12689:0.27591506 13498:0.15851465 14165:0.21845299 14837:0.081072196 15537:0.1367269 15956:0.1726305 17291:0.22214292 18082:0.18102229 19850:0.44193083 19852:0.25676101 19857:0.20503676 21243:0.14978656 22126:0.11028148 23156:0.13136171 24338:0.078952603 24770:0.27591506 27362:0.11830012 28137:0.17198028 32936:0.14119674 32937:0.19929898 33094:0.11525083 #
1.0000000001676255 1636:0.11519427 4662:0.17334098 5229:0.094210699 5361:0.12464428 6500:0.13539685 8389:0.20365328 9072:0.17819776 9912:0.2726509 11544:0.10799555 12374:0.2457637 12936:0.29299027 12939:0.2457637 13751:0.17284779 13767:0.12671737 14853:0.13980666 17386:0.1251362 18406:0.11574794 21767:0.13902412 21779:0.18064445 24338:0.083838649 24543:0.15038627 28362:0.2081766 28450:0.29299027 32006:0.073554449 32936:0.29986966 32937:0.21163276 32941:0.17487228 34395:0.17761667 34706:0.12247094 36478:0.15967402 #
1.0000000001676255 4697:0.28376618 5344:0.21847779 8411:0.18646504 10143:0.27328357 12537:0.26059192 12541:0.23754399 20411:0.27645412 21288:0.32498342 25984:0.36382899 27997:0.23533493 28562:0.26766661 29962:0.19986425 32006:0.091338322 33108:0.21985297 35039:0.15876889 35390:0.27328357 #
1.0000000001676255 11273:0.39628172 12403:0.2794216 17414:0.28011003 20967:0.24705754 21315:0.25279021 21618:0.30589432 26634:0.39372644 26661:0.36486429 31608:0.22539708 35731:0.3591111 #
-0.23609310812125486 743:0.69580698 8964:0.33978656 33113:0.63276988 #
-0.88481354076818242 2831:0.10415161 4614:0.086749703 7307:0.071418412 7674:0.17147422 8384:0.15530245 9121:0.1178048 9999:0.12555552 10525:0.12711024 11273:0.41243318 11455:0.11328733 12887:0.073949695 17414:0.19435108 17930:0.17721124 18604:0.20210586 21310:0.50723064 21315:0.17539555 22057:0.11383373 22325:0.076042488 22608:0.13492844 22665:0.14382841 23514:0.088771842 23772:0.075107209 24160:0.15320133 24338:0.056977846 25080:0.14147955 26873:0.12110553 27609:0.18529713 28644:0.19912004 31970:0.11957075 32006:0.049988568 32047:0.10851655 32900:0.11052361 33058:0.078240998 33286:0.14382841 33888:0.092110448 36617:0.090074658 #
-0.72389337316489144 1223:0.25645122 4443:0.25343484 10471:0.22562325 11493:0.15914491 13767:0.19401339 13932:0.24846853 14853:0.21405403 17245:0.15325318 18406:0.17721841 19733:0.33335358 20437:0.16240837 24543:0.23025218 26392:0.44858915 28428:0.38630706 32936:0.22956099 #
-0.66099840795667564 2153:0.14315858 4298:0.048264395 4329:0.10693056 4395:0.090755783 4614:0.067021891 5361:0.03272298 5517:0.07080771 5668:0.08242999 6711:0.098626159 6744:0.083354697 7638:0.15383802 10140:0.069919243 10488:0.1940057 10497:0.13691153 11146:0.14315858 11592:0.11317763 11620:0.15383802 11860:0.046294846 12312:0.072517246 14081:0.10930559 14853:0.073407143 15572:0.087524585 15973:0.12385707 16135:0.12385707 16220:0.15383802 16922:0.054022562 17644:0.14189813 18473:0.10715865 19324:0.077054776 19733:0.34295827 19747:0.12904115 19850:0.24640107 19956:0.16426738 19960:0.22422929 20437:0.055695914 20794:0.11431942 21315:0.067754366 22209:0.084170081 22716:0.099506803 23156:0.073241472 23160:0.18363753 23231:0.075643986 24123:0.30767605 24223:0.088827372 25208:0.090501115 26122:0.17151244 26503:0.087946728 26566:0.052173711 27506:0.12004621 27636:0.065653808 28136:0.083838731 28425:0.07593561 29981:0.13247916 31786:0.17676152 31934:0.084170081 32006:0.077241272 32394:0.11211465 32937:0.11112029 32994:0.037366647 33337:0.11998502 35610:0.12179972 #
-0.25449754444491851 4283:0.22228238 5229:0.10211075 14958:0.24129607 15213:0.26057369 15422:0.1571573 15805:0.10630054 17414:0.15497673 17597:0.25567105 19044:0.28261864 20501:0.22745116 21846:0.13767515 26082:0.22937927 26261:0.31755903 27640:0.23852874 30382:0.31755903 31008:0.29551411 35537:0.24432732 35545:0.28261864 #
1.0000000001676255 162:0.1107149 771:0.092762612 2425:0.12348972 3110:0.19434774 3208:0.13067344 4456:0.088237815 4614:0.084980659 5361:0.12447367 5655:0.15213546 6649:0.062389106 7523:0.079014853 7875:0.12204199 8372:0.076062277 8930:0.18151847 10390:0.22040156 10491:0.082069166 11493:0.069200791 13507:0.16361821 13842:0.1123438 13903:0.064447381 14070:0.066830829 14182:0.16797744 14853:0.093076862 15486:0.17359747 15805:0.06529472 16134:0.10509486 16239:0.24599025 16625:0.076239876 17556:0.11786969 20730:0.19505949 20912:0.12069417 22325:0.074491799 23772:0.073575586 23844:0.13141072 24338:0.055815928 25423:0.17359747 27747:0.19505949 28119:0.09665975 28394:0.085191101 29727:0.11749757 30988:0.11824904 31453:0.17148787 31456:0.14651543 31934:0.10672377 31970:0.11713241 32006:0.097938359 32973:0.16005644 33747:0.19505949 34141:0.17956179 34271:0.22824198 34625:0.092148878 34920:0.092453331 35039:0.0851207 36694:0.082804136 36776:0.16361821 36820:0.18151847 #
1.0000000001676255 162:0.17182811 619:0.16839211 3110:0.15081261 4434:0.21866785 4821:0.13156579 5235:0.26069885 7523:0.12263005 8119:0.13460585 11493:0.10739875 12264:0.1894076 13262:0.18235473 13717:0.18799716 15748:0.16466105 21736:0.23968334 22776:0.15205029 23772:0.22837676 25037:0.17348984 25058:0.17348984 25957:0.24373189 29414:0.20394777 32416:0.16021618 32461:0.1680333 32639:0.28171435 33079:0.12880296 34263:0.20637457 35511:0.28171435 35741:0.21042311 #
1.0000000001676255 162:0.12807517 607:0.19431657 4514:0.20081784 5494:0.1396192 5501:0.20998085 5785:0.17031483 6245:0.16298801 6496:0.10245831 7464:0.10513219 7466:0.10314766 8372:0.087988965 9026:0.16948928 10223:0.28235671 12261:0.11067166 12304:0.14012706 12789:0.14012706 14070:0.077310011 14694:0.16161796 15628:0.18927379 17090:0.095288113 17245:0.077087983 18509:0.18515356 22325:0.086172231 23152:0.15684263 25251:0.16600566 25447:0.14172293 27951:0.13679066 28079:0.14878222 28108:0.12345823 28394:0.098549202 29270:0.15034138 29485:0.14117835 30000:0.20998085 30262:0.15290247 30360:0.20081784 31453:0.06612581 31608:0.088610984 32638:0.11512921 32648:0.15910441 32810:0.11983468 34301:0.16948928 35208:0.19431657 35921:0.15478678 36129:0.13349776 #
1.0000000001676255 162:0.18502843 485:0.21283658 4273:0.32598642 5310:0.15908951 7158:0.11007169 7453:0.16008799 7466:0.14901601 8964:0.11601538 9575:0.15188304 9765:0.29011878 10168:0.12933202 11646:0.20319021 14070:0.11168871 16351:0.2208961 17790:0.2099109 18406:0.1287833 22322:0.14746439 24338:0.093280435 25908:0.19286239 27409:0.22658841 28386:0.12997064 30385:0.14345106 32099:0.15433894 32793:0.12131205 33256:0.188711 34263:0.22222885 34376:0.17107318 36297:0.1989257 36359:0.24769959 36805:0.13464262 #
1.0000000001676255 28394:0.873936 32994:0.48604107 #
-0.057169885098020373 4324:0.18057358 5360:0.18707825 8046:0.23534459 8431:0.20066637 10489:0.27149752 15276:0.20690688 16808:0.29589653 21306:0.28100762 23529:0.25729087 25532:0.36457467 28024:0.33613697 32006:0.10284091 35101:0.48064733 #
-0.30641539394258061 793:0.16133887 4729:0.26815861 5395:0.21895951 5427:0.13159856 11984:0.23200382 11997:0.21895951 14551:0.18170165 15760:0.19199529 16922:0.10119278 17917:0.20318623 18473:0.10036253 20932:0.23200382 21555:0.1746902 21923:0.28816289 25129:0.18474235 25142:0.21644835 26908:0.17358007 26909:0.25645688 29398:0.22171016 30205:0.24171443 31254:0.17704743 33007:0.12053961 34393:0.21000843 34717:0.17304061 35681:0.17830242 #
-0.38967254925403244 4699:0.28528494 6254:0.37686992 7721:0.30330449 10140:0.19246343 13498:0.24328156 21846:0.18358882 22809:0.29236981 27619:0.42346269 29185:0.53838116 #
-1.0000000001676255 14070:0.61722159 28394:0.78678936 #
1.0000000001676255 14542:0.38813812 14837:0.17117104 18233:0.32266831 23787:0.54211003 29861:0.28755143 31551:0.5825507 #
1.0000000001676255 523:0.50080055 6840:0.59647286 11493:0.30847979 19140:0.54613113 #
1.0000000001676255 523:0.48304296 6840:0.57532287 11493:0.29754159 19140:0.52676618 35336:0.26393086 #
1.0000000001676255 14523:0.49663395 16567:0.58129013 18233:0.64455914 #
-0.67846006623222688 4816:0.59192443 6840:0.43633541 8964:0.22637507 9735:0.2782664 19140:0.39950913 21618:0.33899814 32793:0.23671021 #
-0.4600834330602217 4578:0.17772682 4651:0.14787588 5648:0.25177836 6284:0.33983621 7307:0.13695836 12222:0.11756239 16897:0.20573479 19140:0.47966442 21618:0.40701282 21645:0.13516492 26037:0.4122383 29051:0.22929962 30385:0.16803417 31171:0.16732726 #
-1.0000000001676255 2958:0.55519766 2961:0.29500914 4651:0.1811835 5361:0.099518493 7523:0.18952055 9048:0.23466426 12654:0.21428561 12887:0.1737545 14806:0.19906057 18233:0.25914168 22126:0.18700011 32718:0.38390231 33947:0.25753501 36694:0.19860931 #
-1.0000000001676255 4280:0.10796577 4429:0.20105293 4663:0.13319294 5427:0.072515324 5494:0.098250747 6496:0.072100438 6760:0.14131653 7382:0.093154326 7464:0.073982067 8034:0.14776459 8442:0.26058701 8638:0.23599513 9221:0.057325333 9271:0.14131653 9333:0.10093955 9735:0.069464818 10239:0.11114687 11266:0.14776459 11457:0.13674156 11489:0.094214909 11492:0.10052647 11493:0.11266542 12373:0.077020392 12374:0.13319294 12382:0.093412913 12403:0.15460373 12684:0.17307235 12707:0.44785035 13756:0.11927047 13767:0.27470058 18167:0.15878764 18169:0.089708634 18331:0.12784207 18500:0.093154326 19140:0.29919347 20513:0.13319294 20523:0.099731155 22325:0.06063984 23097:0.092402868 23514:0.07079082 26566:0.053852357 26583:0.091685325 27580:0.075013533 27744:0.10417736 33094:0.066326231 33966:0.07921049 #
-0.085280438920145279 5427:0.16736382 13464:0.3664785 13484:0.32615557 14259:0.3664785 19291:0.16736382 28679:0.3664785 32801:0.46035478 33913:0.47196954 #
1.0000000001676255 258:0.27461085 3849:0.40663788 12169:0.29799786 12261:0.26552293 21222:0.45410481 21851:0.32508847 26409:0.48180121 28394:0.23643878 #
1.0000000001676255 1:0.43013301 3992:0.30125186 5361:0.10280532 5466:0.33369049 8431:0.23675047 12261:0.23704834 14070:0.16559081 15805:0.16178469 18579:0.48331076 21307:0.25077465 24523:0.18934825 28394:0.21108317 32842:0.24411318 #
1.0000000001676255 10223:0.35888043 12261:0.28133133 16172:0.48114076 20324:0.57359797 28394:0.25051558 28975:0.41083863 #
1.0000000001676255 168:0.21743721 4743:0.24243525 5407:0.37864149 6289:0.40028173 12261:0.26137257 14523:0.22742896 26409:0.47427019 28394:0.23274301 33656:0.43727598 #
1.0000000001676255 61:0.11160941 650:0.11160941 895:0.069830149 958:0.11160941 1135:0.11160941 2226:0.093619294 4192:0.18356256 4193:0.18356256 4280:0.037943751 4614:0.097248711 5069:0.22321883 5352:0.069830149 5360:0.10193983 5361:0.023740506 5427:0.10193983 5681:0.06702099 5785:0.042120874 6700:0.051320035 7464:0.10400174 7747:0.088365644 7767:0.055162676 8136:0.20643984 8284:0.089858241 8535:0.048078984 8539:0.11160941 8964:0.11916211 9042:0.081339128 9511:0.079301156 9606:0.10386149 9716:0.076085478 9793:0.14131705 10384:0.049713697 10443:0.076085478 10491:0.04695845 10835:0.063499048 10852:0.089858241 11493:0.039595407 11956:0.061065357 13243:0.20501266 13302:0.050071422 13658:0.075629175 13860:0.060824964 14068:0.070948876 14070:0.076478712 14289:0.11165381 14523:0.047631808 14837:0.098382682 14870:0.11160941 14927:0.10386149 15264:0.052725874 15276:0.056372277 15330:0.11160941 15522:0.081339128 15805:0.037360426 15972:0.054202024 16215:0.080617718 16216:0.075629175 16547:0.069310158 16657:0.058095355 16870:0.064120203 17245:0.038129538 17264:0.1357625 17788:0.055826906 17846:0.093619294 18604:0.037761003 18789:0.069310158 20149:0.13913426 20260:0.059911974 20262:0.14953782 20437:0.04040736 20447:0.17409816 20967:0.048041027 21288:0.049846508 21555:0.0676599 21645:0.039506763 21814:0.1366751 21869:0.079940066 22103:0.14213696 23772:0.084197171 23962:0.07812345 24338:0.031936835 24474:0.10386149 24523:0.17490235 24985:0.085871369 24993:0.09611357 25270:0.064120203 25433:0.11509997 25493:0.068572886 25763:0.045152154 25822:0.099329248 26877:0.089858241 26925:0.067442842 27185:0.067442842 27997:0.07219214 27998:0.069058955 28294:0.10386149 28394:0.19497906 28725:0.058188897 28736:0.088365644 28744:0.082110323 28939:0.075190768 29728:0.067881249 29773:0.052841708 30153:0.084806003 30740:0.070375524 31171:0.048907354 31199:0.11160941 31453:0.032707389 32458:0.079301156 32810:0.059273064 33344:0.058668707 35927:0.048989546 #
-1.0000000001676255 3879:0.41533083 4619:0.31743738 12261:0.48570225 13860:0.26984268 14523:0.21131283 16172:0.41533083 19984:0.36085132 35240:0.26579234 #
-0.76146660901222851 14523:0.63523614 21307:0.77231801 #
-0.10977413976320699 13903:0.53797901 14523:0.6949017 31453:0.47716898 #
-0.36071965010156032 270:0.34497258 330:0.30206403 8964:0.18118079 11493:0.18060927 14918:0.33919436 16517:0.2128021 31171:0.22308451 33396:0.43840948 34333:0.25064614 36689:0.50909173 #
-0.34227921777720638 1717:0.52918488 1724:0.52918488 4821:0.22998267 8302:0.43422368 11493:0.18773766 16567:0.26433837 32235:0.30555582 #
1.0000000001676255 1651:0.082213782 3829:0.15869829 4456:0.071789332 4662:0.093890205 5361:0.033756811 6449:0.12777014 6538:0.088275209 7378:0.15869829 8421:0.15869829 9735:0.069425732 10309:0.10130662 11493:0.056301016 11889:0.14768146 12376:0.133118 12411:0.11920337 12707:0.78329712 13756:0.11920337 13767:0.068636514 15805:0.053123079 17245:0.054216687 17270:0.099675044 18406:0.062694915 19092:0.12777014 19140:0.099675044 21076:0.13666463 21717:0.064453825 21767:0.075302467 22103:0.067368552 23514:0.070750996 24338:0.045411237 25021:0.10218985 27763:0.051983744 30283:0.14123704 34912:0.076977059 35122:0.14123704 35697:0.14123704 36603:0.095297664 #
1.0000000001676255 473:0.41128203 6840:0.52461088 11493:0.27131471 12403:0.37230825 19140:0.48033422 35927:0.33568501 #
1.0000000001676255 473:0.39986488 6840:0.51004767 11493:0.26378304 12403:0.36197299 19140:0.46700019 35336:0.23398571 35927:0.32636639 #
1.0000000001676255 184:0.14115989 4504:0.22185275 4614:0.10860293 5385:0.16891843 5427:0.11384176 5977:0.11384176 7307:0.089409515 7498:0.1443066 8412:0.17711984 8569:0.13666287 9221:0.17999001 9538:0.1800604 9554:0.24928062 11455:0.14182568 12690:0.1542438 13182:0.12369112 14837:0.073246196 17245:0.085162662 17268:0.18724264 17360:0.13666287 17361:0.2045477 18406:0.098480113 19078:0.18724264 19140:0.15656789 20343:0.22185275 23619:0.20069918 24338:0.071331203 25359:0.19179447 25597:0.15846494 25639:0.12590797 26037:0.26911846 28425:0.1230468 28810:0.13081904 32893:0.31313577 33286:0.1800604 34912:0.12091427 #
-0.55358094288687953 11493:1 #
-0.53376554465435166 6768:0.46777487 6840:0.61842585 11547:0.22136499 15674:0.3178381 19316:0.31552246 24590:0.36291659 31453:0.13209756 #
-0.2922791065227609 11:0.19167894 14:0.22136134 777:0.16517879 2910:0.17699148 2917:0.16462171 2992:0.40996942 5229:0.086744651 6840:0.37011239 8265:0.126352 11547:0.13248141 12684:0.1470201 17106:0.13333379 17696:0.15385124 18406:0.1065751 19850:0.14403014 21866:0.13744098 22555:0.13587427 23101:0.26977128 23156:0.12843668 23160:0.16101395 23185:0.26977128 24338:0.15438914 26037:0.14561988 28425:0.13316114 32099:0.12772377 33149:0.16878656 34737:0.21719649 35336:0.084895007 #
-0.6721649454601577 1598:0.63068318 6840:0.43263254 7131:0.46867049 8119:0.28042707 30644:0.34172571 #
1.0000000001676255 5361:0.27460468 12887:0.47944656 14084:0.62543857 14523:0.55095363 #
1.0000000001676255 3879:0.71914297 15355:0.59192693 36694:0.36394492 #
1.0000000001676255 5361:0.089271933 5517:0.19317134 13413:0.37350991 14523:0.35822183 19291:0.19166328 23019:0.3378959 24117:0.25124919 24428:0.30586126 29404:0.23765591 31442:0.31889784 31492:0.21776246 32994:0.10194039 34168:0.22917096 36694:0.17816022 36767:0.28115514 #
1.0000000001676255 1083:0.17008801 2125:0.18716191 4298:0.089936078 7775:0.2551215 8515:0.18998811 8964:0.10202035 16439:0.26676232 18959:0.2153213 18993:0.24045581 20210:0.17674297 20437:0.10378399 20641:0.20368049 21551:0.11696477 22188:0.092739254 25852:0.2866624 27506:0.11184731 30536:0.1954212 32793:0.10667808 32994:0.06962917 33101:0.18627846 33857:0.12668712 34723:0.13104007 35468:0.16552129 36988:0.46867633 36993:0.26676232 #
1.0000000001676255 4578:0.24129336 4727:0.37446862 4793:0.42539445 7158:0.1750499 12982:0.51842475 18604:0.17539953 19594:0.28036773 22180:0.23652661 24011:0.24054985 31628:0.24654239 32793:0.19292574 #
0.36578518159392526 1226:0.2221444 3445:0.26320577 3899:0.23415408 4058:0.21013471 5361:0.062908344 5427:0.1350617 6331:0.1562521 11078:0.27521545 12181:0.2028743 21851:0.17759433 22561:0.17599289 23681:0.20040457 26408:0.27521545 27335:0.13779354 27424:0.1857519 28394:0.25833082 29612:0.18960401 30357:0.21977356 33079:0.25166318 33437:0.29574615 33463:0.17165056 34271:0.17302845 35049:0.16055232 #
-0.43897272033800117 12887:0.56580675 13442:0.69243616 14837:0.44765484 #
-0.0052710609274988721 473:0.25079152 794:0.24274094 5361:0.099195413 9221:0.16835745 10435:0.24120951 10842:0.38265601 11672:0.28752387 11701:0.22930482 12403:0.22702608 15805:0.15610379 17386:0.19917378 18101:0.22030553 23322:0.27917808 23514:0.20790395 24523:0.18269947 32793:0.17354292 33344:0.24513659 33674:0.26407376 35336:0.14675365 #
-0.027957822256682193 1480:0.15567371 1642:0.11769737 11202:0.27032828 13189:0.20131256 14070:0.2081397 14405:0.15363735 15494:0.23690735 16311:0.16020754 16331:0.21261591 17090:0.12827085 17167:0.16652414 17245:0.10377097 17707:0.20706949 18719:0.18932956 21384:0.15363735 21475:0.28266296 24296:0.2141763 28386:0.12110468 30623:0.24924202 31453:0.089014389 31555:0.18598323 31976:0.22346634 33863:0.30374923 35039:0.13255109 36020:0.30374923 #
-0.046139680437235937 4291:0.28192222 5168:0.25412074 5361:0.064441361 7892:0.26961988 10449:0.26961988 12124:0.17236218 12861:0.25412074 13395:0.20781817 14670:0.24858886 15062:0.28192222 16148:0.2608912 17940:0.28192222 21195:0.26961988 27063:0.23308973 30917:0.17872538 31854:0.20409825 32179:0.28192222 #
1.0000000001676255 800:0.25604799 1669:0.16745509 1673:0.18709169 2580:0.3180272 7464:0.14817469 7874:0.20865121 8964:0.11318278 11493:0.2256515 13150:0.3180272 14022:0.28303528 16922:0.11168009 18200:0.18270831 20158:0.17400365 22307:0.18410347 22822:0.24804336 23514:0.14178312 26037:0.17166796 30961:0.26676497 31161:0.25179487 33344:0.16717447 33729:0.21680295 35240:0.17071712 #
1.0000000001676255 8265:0.60455269 14070:0.44223946 24543:0.66252571 #
1.0000000001676255 4298:0.18842678 11493:0.21307054 18200:0.34504318 28136:0.32731089 28367:0.4418515 32929:0.3260445 35933:0.41466442 36268:0.46842793 #
1.0000000001676255 4651:0.2271256 6496:0.26630747 6989:0.33610958 12248:0.2962285 15458:0.50506347 15805:0.19632386 21059:0.34039897 27506:0.22883208 31608:0.23031579 35921:0.40231851 #
1.0000000001676255 6087:0.28416353 7464:0.19871266 10140:0.19384243 12687:0.367282 14853:0.20351219 18406:0.16849066 18604:0.28859478 19265:0.4264968 19956:0.22770546 21645:0.15096852 24338:0.12204131 29957:0.34337834 32818:0.27981594 32936:0.21825545 33888:0.1972921 #
-0.41996582118288489 8265:0.51634449 16311:0.58146143 17696:0.62872165 #
-0.36752196858032238 4324:0.15153238 10332:0.24425311 18565:0.19376905 22611:0.31990066 24543:0.70579147 26882:0.20977455 27362:0.14739108 29512:0.27217239 31608:0.13499667 32929:0.18662031 32994:0.083499119 33408:0.20977455 34514:0.18846186 #
-1.0000000001676255 12222:0.24833561 13029:0.43458861 17788:0.40346575 18200:0.46340206 25804:0.50466835 36694:0.34241191 #
-1.0000000001676255 10140:0.48114941 24543:0.54337776 34724:0.6879214 #
-0.70361020071911129 4997:0.32857132 5361:0.09304703 6838:0.30405459 6955:0.3463347 12735:0.2687602 18200:0.25130865 18406:0.17281182 19850:0.23354524 21645:0.15484031 22307:0.25322762 25745:0.40706813 28367:0.32181796 33344:0.22994241 33888:0.20235191 #
1.0000000001676255 4298:0.095856309 4324:0.13467951 7712:0.22477832 7716:0.568645 7737:0.24190238 7830:0.153458 10249:0.25628433 10276:0.25070536 10491:0.12854952 12222:0.094065979 20969:0.227046 23520:0.2321578 26836:0.30553257 27413:0.18837747 29520:0.17597038 31453:0.089537002 32006:0.076703154 35927:0.13410966 36576:0.25628433 #
1.0000000001676255 5229:0.11579955 5357:0.25794289 5361:0.076603569 7997:0.164784 9527:0.18013687 12293:0.37735847 13442:0.16367899 13842:0.20741583 19897:0.20956978 21471:0.19823553 21977:0.22283278 22394:0.13649215 26049:0.5006429 26872:0.2899459 32079:0.1451305 35306:0.16414842 35550:0.22204004 35927:0.15807474 36276:0.18401887 #
1.0000000001676255 156:0.15718965 779:0.12698369 1417:0.18739562 3439:0.086951837 3474:0.17438662 3888:0.27851319 4280:0.12741745 4443:0.10587099 5346:0.27071923 5517:0.17250682 6500:0.17319876 7456:0.10515366 8584:0.18739562 9003:0.14615807 9097:0.082254939 9368:0.17438662 9595:0.11253028 9735:0.081979945 10265:0.1087641 11544:0.069073603 11672:0.1155396 12373:0.18179356 16507:0.10357936 17259:0.16137762 18406:0.148064 23514:0.083544858 23844:0.1262476 24011:0.086951837 24223:0.21640763 24868:0.1392566 25830:0.12854861 26566:0.063554674 27004:0.14836861 27090:0.18739562 28425:0.092499897 29392:0.099348307 29435:0.15718965 30087:0.11474084 31226:0.15718965 33215:0.15087473 33352:0.12419815 33888:0.086686872 34542:0.15718965 34669:0.18739562 34936:0.14615807 35927:0.082254939 36102:0.11474084 #
1.0000000001676255 7307:0.15127224 8353:0.39248016 10502:0.31341541 13052:0.26003718 13442:0.19168894 13547:0.27406648 13903:0.13934846 19291:0.19260924 20079:0.16611893 22890:0.2481157 23231:0.4147675 29785:0.36320171 33352:0.27952436 35336:0.1327243 #
1.0000000001676255 3883:0.57409322 4099:0.53423965 12887:0.21320815 16625:0.2243869 21256:0.32740679 30820:0.42661759 #
-0.85321263664344349 2392:0.093006603 3825:0.12333907 5229:0.048332758 5758:0.088675819 7079:0.17636439 7438:0.092675731 8164:0.091420501 9807:0.12608375 10168:0.11926998 10249:0.50433499 10265:0.17448203 10276:0.12333907 10326:0.087941326 12111:0.10126474 12222:0.046277475 14084:0.072821639 14466:0.08701463 14653:0.10857361 15583:0.14782071 15748:0.081757993 18406:0.059381973 19138:0.22339885 20401:0.17271045 21310:0.076579958 21645:0.053206563 21796:0.15031232 22103:0.063808642 22561:0.08944799 22776:0.075496465 23333:0.12101848 26293:0.11900829 26294:0.13987765 26327:0.21532193 27424:0.094407991 28328:0.1105838 30185:0.087470852 31453:0.088098727 32268:0.11421426 32871:0.13987765 32955:0.12333907 33250:0.064547941 33297:0.17540851 33572:0.11421426 34748:0.12608375 35851:0.12333907 36576:0.12608375 36583:0.32863551 #
-0.068653338045272405 9793:0.43524265 13052:0.42387632 21866:0.35025814 30087:0.42094594 33352:0.45564163 36276:0.35129356 #
-1.0000000001676255 9097:0.49226767 11544:0.41338184 22473:0.67987525 35336:0.35292724 #
-0.26759303075028973 4269:0.2903699 15438:0.22707582 23080:0.24191585 23793:0.4098078 24432:0.39192486 26792:0.30021158 30970:0.29668131 32431:0.4403789 34961:0.3346203 #
-0.1561868579816085 11157:0.50313783 12543:0.35347497 13052:0.44930479 24127:0.27531311 33352:0.48297572 34723:0.33312178 #
1.0000000001676255 4614:0.39871857 5517:0.21062034 11455:0.26034534 17788:0.22888966 23772:0.1726037 24543:0.23487589 32449:0.35690022 32936:0.23417081 33344:0.24054101 33397:0.383838 33408:0.27923819 34724:0.29735509 36694:0.19425328 #
1.0000000001676255 1654:0.1058199 5076:0.1362042 5361:0.084469847 5930:0.088520296 6700:0.091299564 7158:0.13408762 8601:0.18579762 10471:0.099865995 12222:0.061130457 12953:0.49965283 13328:0.094745196 13767:0.343499 14837:0.058341708 15805:0.06646508 17090:0.083848514 17360:0.10885406 17414:0.09690018 17478:0.12076236 17698:0.096078821 17785:0.16054954 18669:0.10526491 19504:0.17098832 19547:0.11494241 19733:0.1475499 19897:0.11554505 20018:0.095964208 21767:0.094214879 22322:0.089819416 22345:0.14000347 24224:0.1985558 24543:0.10191487 27576:0.11616653 28573:0.10335302 28832:0.11585336 31453:0.058187224 31577:0.15276721 31648:0.12330442 31732:0.10526491 32006:0.049846917 32079:0.080016844 32205:0.083479106 32929:0.10779039 32994:0.04822842 33113:0.13159466 33857:0.087749436 33888:0.091849431 34514:0.21770811 34912:0.096310049 35336:0.06248403 36617:0.089819416 36988:0.10820905 #
1.0000000001676255 17414:0.43145987 25804:0.55314702 26037:0.47722527 34751:0.52927005 #
1.0000000001676255 9430:0.55819631 13232:0.65514308 25804:0.50912124 #
1.0000000001676255 1651:0.26876426 4338:0.34037358 5648:0.34207729 8265:0.24298842 10463:0.27092054 14837:0.15243888 15749:0.20827569 16320:0.39420757 16323:0.34207729 17696:0.29587242 26962:0.36861914 #
-0.2186499711959845 319:0.15644084 529:0.22593139 829:0.17524064 1655:0.31723025 4631:0.23695128 6649:0.10903415 9380:0.26587912 12781:0.22050071 13910:0.31723025 15222:0.15583116 16922:0.11971053 18246:0.18299267 19341:0.31723025 20389:0.16848661 20487:0.25332454 22172:0.19683577 22200:0.21581648 30988:0.2066576 32842:0.17218116 32994:0.082802102 33677:0.27445933 #
-0.51950212293491671 4614:0.43898425 16134:0.5428881 29918:0.71593666 #
-0.18968695792731194 1886:0.32560852 3393:0.31048682 3492:0.38579431 4684:0.32938612 14725:0.23624386 15425:0.32560852 18271:0.29929322 29861:0.21397416 32523:0.28882319 33079:0.18443787 35172:0.21509461 35856:0.28169 #
-0.13782670107530162 11455:0.35937235 12222:0.19447033 19144:0.63165259 24338:0.18074627 26037:0.34095988 32941:0.37700409 34751:0.37814397 #
-0.16902286900916003 3239:0.53959656 14276:0.44070157 14791:0.71736854 #
1.0000000001676255 5206:0.40196851 5229:0.21109621 5356:0.38004163 10208:0.41908202 11544:0.2419837 12222:0.20211965 17386:0.28039041 23908:0.37440249 24338:0.18785575 30267:0.34684879 #
1.0000000001676255 154:0.24580625 2800:0.30545092 11860:0.1421089 13029:0.50885814 14070:0.16179387 19313:0.36831182 25770:0.34741554 32043:0.47222865 33442:0.24823214 #
1.0000000001676255 8964:0.16759044 10140:0.21402584 10143:0.35371169 12412:0.38640189 13048:0.47090486 20850:0.41909212 21645:0.16668779 22180:0.21484607 26649:0.34993672 36276:0.24062216 #
1.0000000001676255 5361:0.15804756 9735:0.32504752 18200:0.4268671 21645:0.26300818 26307:0.34654549 28321:0.54663265 29051:0.4461785 #
1.0000000001676255 11860:0.26188713 13901:0.4800193 19077:0.6008451 19112:0.42629433 34723:0.39781263 #
-1.0000000001676255 4280:0.18903007 11174:0.28988832 12222:0.17118531 13901:0.30669379 17286:0.33707145 19077:0.38389179 19112:0.27236786 29728:0.33817419 34723:0.25417033 35279:0.42249078 35306:0.253436 #
-0.063857438854601684 11860:0.23775792 11956:0.432275 12312:0.37242913 13901:0.43579233 19077:0.54548573 34723:0.36115983 #
-1.0000000001676255 5361:0.22160597 13498:0.59853059 13901:0.57465327 15583:0.51227486 #
-0.3062068759166478 5361:0.082309879 6496:0.17570499 8531:0.30180484 12304:0.24030283 13901:0.21344028 16507:0.21388319 17251:0.38695711 17321:0.2654427 18169:0.21861522 19077:0.53433079 26566:0.13123536 27763:0.12675297 33263:0.2100682 34723:0.17688712 35051:0.24497771 #
-0.0020498204078029277 5361:0.19048102 16820:0.69843489 20446:0.56692594 35927:0.39306572 #
1.0000000001676255 924:0.19124097 8693:0.26630765 14837:0.18657166 15184:0.47185165 17071:0.41456807 18967:0.18949026 20313:0.34604305 23160:0.18949026 24127:0.23988684 30265:0.26630765 31171:0.27824184 32900:0.17622162 35101:0.18625394 #
1.0000000001676255 10265:0.59699416 20666:0.80224556 #
1.0000000001676255 182:0.46437749 198:0.18936107 330:0.22471064 1997:0.15538059 2238:0.11847667 4298:0.11881845 4332:0.11517008 4651:0.073332191 5361:0.080558211 7307:0.067918159 10584:0.14569286 13990:0.12908971 14565:0.15245715 15972:0.18392271 16134:0.20404929 16517:0.079153575 16870:0.10878894 17245:0.12938425 18528:0.16852602 21717:0.076907218 22126:0.07568641 22135:0.14071715 23097:0.11019439 24466:0.092299014 24523:0.29674643 26934:0.10299741 27466:0.10299741 27743:0.1393117 28756:0.15245715 31164:0.088318624 32446:0.12423597 32793:0.14093703 34333:0.18645999 34721:0.18936107 35160:0.10825468 35927:0.24935295 36805:0.15642412 #
1.0000000001676255 1651:0.17091672 4747:0.44712684 5703:0.26121303 6809:0.30701947 8372:0.12865138 10330:0.32992271 13128:0.22491227 13149:0.32992271 15357:0.20972823 15805:0.11043918 20437:0.11944607 21271:0.24044231 21310:0.16808645 32006:0.082826242 33408:0.20132773 34738:0.32992271 35336:0.10382422 #
1.0000000001676255 182:0.14913362 4466:0.21439829 7496:0.186176 8143:0.17024174 10584:0.2339444 15381:0.47430581 15382:0.40739465 17245:0.10387854 19929:0.19097622 20169:0.30406407 21866:0.1549122 22806:0.20369732 23021:0.16949897 23642:0.21439829 24543:0.15607023 32793:0.1131539 34333:0.29940569 36805:0.125588 #
-0.33581309216713767 15382:0.76952571 32793:0.42747167 36805:0.47444507 #
-0.63485619392624326 9735:0.3273668 10493:0.37415922 10963:0.30124062 11493:0.13273957 12403:0.18215024 13232:0.30124062 13720:0.27026272 15748:0.20351297 16269:0.28430352 16567:0.18689997 18406:0.14781432 20313:0.2039095 24523:0.14658558 24890:0.37415922 27362:0.16042285 33250:0.1606735 35336:0.11774512 #
-0.21146528719309038 486:0.31301498 4578:0.24032241 7466:0.23603044 8143:0.28909168 8964:0.18375988 14853:0.24638216 19594:0.27923954 27466:0.28084731 27832:0.3324835 31453:0.1513142 33344:0.27141905 34333:0.25421408 36805:0.4265281 #
-1.0000000001676255 21645:0.53916728 24523:0.59674358 27506:0.59430271 #
-1.0000000001676255 182:0.3777523 4280:0.13092004 5517:0.1772489 7466:0.17603542 11489:0.22849128 12304:0.23914577 12684:0.2098687 13190:0.2962881 13767:0.33310381 15625:0.28065017 16507:0.21285334 19394:0.23124729 26594:0.21111967 29799:0.34272277 32006:0.096676826 32793:0.14330822 35306:0.17552683 36805:0.15905586 #
1.0000000001676255 13498:0.4478828 15583:0.38333729 17264:0.47415394 21893:0.65393543 #
1.0000000001676255 4899:0.28139415 9097:0.21225058 11455:0.275114 11860:0.14551751 12304:0.30029103 16507:0.26727611 17400:0.40561202 17550:0.38931704 35057:0.48355547 35240:0.25957274 #
1.0000000001676255 319:0.13043208 822:0.17067313 6649:0.090906896 9097:0.12475494 11544:0.20952596 11589:0.23840739 12222:0.087504469 15583:0.13975453 16822:0.17402585 16922:0.1996166 17110:0.13531582 20737:0.17230016 21199:0.12382495 22191:0.15256959 22322:0.12857094 26355:0.1855675 29387:0.24475922 30236:0.19623323 31267:0.20713517 32099:0.13456471 32994:0.069036007 33007:0.11889043 33094:0.23743996 33347:0.19894624 33352:0.18836962 33888:0.13147679 34985:0.43192759 34992:0.28422034 #
1.0000000001676255 5361:0.060640845 10273:0.19955227 10508:0.17066914 11257:0.18357417 11544:0.1050821 11860:0.085791662 11956:0.15598045 13680:0.28508615 15756:0.57017231 18604:0.096453682 19565:0.18797547 20904:0.28508615 26594:0.1562925 27636:0.12166687 32901:0.1955618 34488:0.22571412 34723:0.26063907 35264:0.20256051 37013:0.28508615 #
1.0000000001676255 5361:0.096021794 9847:0.37865633 10168:0.17909656 10699:0.2764008 15422:0.2234039 15583:0.22196853 17788:0.22579972 20304:0.28243783 29238:0.26863134 30307:0.25999364 31836:0.4348067 32620:0.25003642 33581:0.34300974 #
-0.14738750126541178 21893:1 #
-1.0000000001676255 787:0.11061124 924:0.14388879 2586:0.16603641 4747:0.16186526 4821:0.20762654 5361:0.1016212 9462:0.17942436 9479:0.38463804 9505:0.18912449 11257:0.15381569 11860:0.071884312 13002:0.21258932 14835:0.20036861 15222:0.21838789 18072:0.17942436 19158:0.23887195 20260:0.2564531 21843:0.23887195 22133:0.11948349 22384:0.15915406 23858:0.15595952 29727:0.14388879 30988:0.14480904 32709:0.12413999 34271:0.13975379 34625:0.225693 35004:0.16002409 36129:0.1413231 37075:0.18150598 #
-1.0000000001676255 5361:0.21726193 17414:0.49846706 23514:0.45535988 31732:0.54149634 33857:0.45139447 #
-0.0024814437445314285 6600:0.39862344 10736:0.39862344 11174:0.22333068 12362:0.59150231 23091:0.35149178 29530:0.39862344 #
-0.18369296327800863 1172:0.30191073 13228:0.44814116 13792:0.23758328 17071:0.29259142 21471:0.24668142 24647:0.44814116 30305:0.4170312 33250:0.19244324 35188:0.30550322 #
1.0000000001676255 6221:0.23581716 6768:0.17948645 9735:0.15132917 10358:0.36489862 11163:0.20465507 11165:0.34591904 15222:0.15812767 19077:0.23883162 21645:0.24489227 24127:0.26137364 31171:0.15158206 33263:0.18778978 33857:0.15287492 33933:0.29789165 35063:0.32190534 35101:0.2029368 35279:0.26284531 #
1.0000000001676255 1636:0.17786525 7307:0.16225895 12425:0.45239046 12684:0.49308804 13182:0.22447266 17423:0.23701601 17430:0.38958061 18283:0.26764643 21618:0.24110055 21758:0.24465592 26023:0.21513908 #
1.0000000001676255 2238:0.25042367 5229:0.12870049 6119:0.21256404 7874:0.26259708 16921:0.3121739 17270:0.25138965 18565:0.2256089 18604:0.13541785 22325:0.15285322 23772:0.15097322 26357:0.22612615 29524:0.26813498 33094:0.16718677 33649:0.30412981 34741:0.3121739 36198:0.26813498 36371:0.30064189 36805:0.16531652 #
1.0000000001676255 1498:0.63456333 5393:0.63456333 8964:0.24268186 24523:0.26715055 32793:0.25376147 #
-0.32399474889725827 6179:0.22402115 8431:0.30396497 18406:0.24514283 20105:0.36206388 28136:0.33817396 29063:0.43434989 31171:0.27191457 32936:0.31754732 33888:0.28704703 34376:0.32564285 #
-0.79779301171806893 2444:0.37931061 10168:0.27559274 21199:0.30263156 24229:0.506244 27547:0.52176803 30307:0.40007669 #
-0.6409191793164255 10358:0.32078737 11544:0.22418272 12789:0.37769875 17245:0.20778309 18409:0.49906322 24573:0.44745195 33888:0.28134772 34751:0.36410645 #
1.0000000001676255 4743:0.17332292 5361:0.081039898 7466:0.17415787 14401:0.35453853 14746:0.38098663 16239:0.24023183 16269:0.2894913 18473:0.13269156 20104:0.23022091 23665:0.28617123 28082:0.24425201 33537:0.32809046 33659:0.29312798 35863:0.3390674 #
1.0000000001676255 2513:0.28363571 3173:0.26870736 4280:0.13231274 5361:0.16556989 9913:0.28363571 11174:0.2029091 11271:0.17705512 12222:0.1198222 12486:0.19629699 14346:0.26697472 14879:0.2089176 15155:0.31935102 23481:0.30813771 27763:0.25496909 32079:0.15684153 32107:0.31334251 32205:0.16362794 32994:0.09453284 34035:0.24740411 #
1.0000000001676255 5361:0.11955369 5716:0.29544696 7767:0.27779111 19017:0.45251286 23603:0.33348536 27580:0.26551974 27620:0.29745755 27763:0.1841065 31453:0.1647096 34694:0.43836632 35049:0.30512044 #
1.0000000001676255 4280:0.17501174 4571:0.34298906 5361:0.10950069 19850:0.54968691 22307:0.2980063 25800:0.47905067 31453:0.15085953 33049:0.44331414 #
1.0000000001676255 614:0.26654094 4821:0.12447952 7767:0.14156461 11248:0.2004891 12671:0.19408801 14532:0.20689018 15441:0.25490978 17106:0.42469385 19505:0.26654094 22796:0.21763863 26239:0.22677377 26587:0.17307934 27983:0.25490978 28138:0.22339505 30181:0.17199673 31453:0.083937347 31555:0.17537545 32168:0.18362789 32755:0.18133178 35584:0.19908951 36561:0.19775504 #
-1.0000000001676255 4280:0.083762132 5361:0.05240798 5427:0.11251784 5716:0.12951317 5785:0.092983268 6685:0.17010835 6786:0.21217398 9430:0.33802295 11302:0.25946116 12222:0.075854845 14938:0.1795589 16921:0.19216383 17245:0.084172264 17785:0.099610418 18268:0.14749835 18604:0.16671741 19078:0.37013021 19140:0.15474707 19166:0.2066678 19394:0.14795113 20079:0.097042821 20083:0.19507019 20096:0.22927779 22307:0.28525677 25108:0.14576602 26566:0.083559595 27335:0.1147937 27636:0.10514884 27763:0.080705583 32333:0.11652169 33729:0.1679613 33857:0.21777099 #
-0.34223777158242608 4860:0.46627599 5344:0.32513908 5361:0.11517237 16311:0.28557944 16778:0.30053791 20666:0.42230141 24709:0.34419444 27763:0.17735951 33094:0.22616626 35039:0.23628017 35927:0.23766309 #
-0.69137811380754777 2451:0.22112979 4974:0.2421679 5050:0.35737821 5361:0.076018132 11271:0.1625827 15805:0.11962971 18799:0.31805658 20427:0.21143462 20887:0.19114575 20945:0.28295064 22180:0.16305056 23470:0.54992771 27939:0.28773001 35101:0.20965943 #
-0.33203487588567238 7874:1 #
-0.032277798116988832 30618:1 #
1.0000000001676255 4614:0.36417046 19394:0.5019514 26583:0.48265278 28295:0.48265278 33888:0.38667455 #
1.0000000001676255 4280:0.14037539 11562:0.22084527 13903:0.13642368 14289:0.20653529 14879:0.22164828 22103:0.17528166 24127:0.15599434 24906:0.56648636 25214:0.24028149 26566:0.14003597 27228:0.25031221 27547:0.31014714 31355:0.28700516 31608:0.16214858 32745:0.24950922 34625:0.19506282 #
1.0000000001676255 2513:0.4423092 5361:0.12909709 5564:0.48863479 27547:0.45587265 27763:0.19880284 32038:0.38422978 32333:0.28702903 33366:0.26752928 #
1.0000000001676255 3451:0.28744009 5412:0.27157426 6500:0.18055344 6649:0.12496606 6700:0.17965385 9048:0.1959669 9449:0.34043437 11544:0.14401345 21182:0.3907063 26077:0.3907063 26566:0.13250689 27481:0.29347199 27506:0.1524422 27701:0.28474039 29318:0.2734834 #
-1.0000000001676255 4614:0.2779057 8693:0.53506804 12690:0.39469683 13478:0.45688629 14070:0.21855171 26307:0.2975131 28295:0.36832196 #
-0.5478949008362386 2125:0.68942875 24906:0.72435349 #
-0.80896823734483903 3406:0.25982293 6045:0.38615692 7307:0.09319073 8833:0.17131783 9486:0.16449064 10168:0.10308228 13107:0.23123512 16931:0.18186873 20967:0.22367576 21767:0.24657238 22061:0.26359284 22443:0.22374913 26391:0.23123512 27620:0.13750821 32858:0.22374913 33366:0.34359175 33386:0.25982293 33779:0.19307846 36554:0.21319821 #
-0.29586943699628948 185:0.41918471 186:0.57518393 5427:0.26267567 11934:0.35851723 11947:0.40261257 26566:0.19507194 35039:0.25100067 35336:0.1810061 #
-0.049562204352730413 10699:0.6556626 14545:0.75505406 #
-0.11997556561266109 16936:1 #
1.0000000001676255 128:0.05728342 207:0.45972389 525:0.080431655 569:0.086431742 616:0.086431742 876:0.086431742 972:0.086431742 974:0.086431742 1082:0.086431742 1083:0.10256666 1092:0.086431742 1093:0.086431742 1095:0.086431742 1097:0.086431742 1106:0.086431742 1172:0.058228683 1453:0.086431742 1536:0.086431742 1581:0.086431742 1591:0.086431742 1845:0.049174465 1972:0.076921828 2116:0.074431561 2121:0.076921828 2213:0.086431742 2786:0.23886752 2790:0.086431742 2791:0.086431742 3575:0.11934951 4280:0.029384121 4585:0.058228683 4727:0.062431384 5084:0.060943797 5197:0.086431742 5310:0.042180844 5361:0.018384948 5494:0.05348013 5758:0.05098987 5787:0.076921828 6068:0.086431742 6503:0.058228683 7835:0.058568187 8431:0.042338714 8535:0.074465945 8833:0.05698996 9527:0.043233063 9575:0.040270131 10128:0.086431742 10435:0.13411783 10438:0.059674755 10684:0.086431742 10696:0.059674755 10996:0.086431742 11030:0.076921828 11271:0.039320543 11786:0.040876318 11860:0.026010113 11988:0.15819342 13453:0.056164924 13493:0.16086331 13658:0.058568187 13903:0.028556926 14542:0.05758718 14837:0.025396265 15583:0.042499516 16044:0.086431742 16134:0.04656801 16517:0.036128763 16657:0.13496934 16798:0.086431742 17090:0.072998852 17791:0.05348013 18260:0.091020115 18290:0.086431742 18473:0.030102797 19763:0.25196019 21217:0.080431655 21310:0.044034574 21645:0.030594537 21866:0.1761383 22188:0.11184746 22394:0.032758277 23772:0.032601677 24073:0.086431742 24523:0.10158495 24527:0.063587271 26307:0.040312048 28739:0.044776034 29063:0.24199915 29078:0.10169357 29430:0.052063707 29697:0.086431742 29917:0.066499874 29918:0.06141182 30385:0.038034484 31171:0.11362342 31453:0.025329016 31711:0.060943797 32554:0.038846608 32564:0.070921734 32793:0.064329132 32852:0.051587094 33108:0.052228592 33539:0.069587365 34141:0.039782323 34354:0.045135267 34717:0.10380381 34746:0.086431742 36694:0.036690887 36805:0.035699021 #
1.0000000001676255 62:0.23909888 149:0.17739493 429:0.25693533 1654:0.13693315 4358:0.22866523 10491:0.10810275 14487:0.25693533 15361:0.25693533 15805:0.0860072 16311:0.13551632 16465:0.15898019 17812:0.23909888 18970:0.19093263 20226:0.14873786 20335:0.25693533 21645:0.090948269 21835:0.12021299 22467:0.16137564 23514:0.1145471 23710:0.14322728 24523:0.2013208 25763:0.20788898 26043:0.19299234 27081:0.25693533 30389:0.1677531 32006:0.12900589 32793:0.095615491 32994:0.062408578 33871:0.1515774 36694:0.21814172 #
1.0000000001676255 10168:0.29029375 10862:0.52407664 12222:0.22527148 33204:0.41530782 34567:0.41150019 35336:0.23025952 35817:0.44214651 #
1.0000000001676255 4581:0.15266055 9216:0.11430267 10168:0.1056853 10375:0.14273471 11493:0.094504394 11931:0.20008948 13860:0.14517407 14217:0.20241085 14390:0.22939919 14853:0.12711085 16499:0.17654836 17816:0.17946167 18268:0.1594729 19547:0.15420759 20408:0.15671057 20703:0.26638392 20879:0.17077978 21199:0.11605424 22105:0.21090683 23256:0.2144693 24338:0.076225288 26661:0.16933733 26882:0.16255465 27555:0.24789156 28326:0.16864434 29512:0.21090683 31295:0.21858186 31369:0.17564391 32333:0.12598144 32994:0.064703606 33857:0.11772529 35453:0.17392209 35496:0.22939919 36301:0.14273471 #
1.0000000001676255 1197:0.19562636 1259:0.45986301 1483:0.15642583 2444:0.13492069 4652:0.14266844 5361:0.052557401 7307:0.17724337 8036:0.16552553 9097:0.10845444 9735:0.10809185 10435:0.12780173 11271:0.11240639 11544:0.091074631 13029:0.13312486 13903:0.081636235 14717:0.24708408 16517:0.20656398 17245:0.084412247 18330:0.18559276 18406:0.097612359 18604:0.083596379 19849:0.2299315 21469:0.20725703 23367:0.14057599 23514:0.22031042 27763:0.080935687 28203:0.21277894 33256:0.14303505 33344:0.12988244 33345:0.18774593 33408:0.15077737 34335:0.2198979 34556:0.13833934 #
-0.66606906873786542 319:0.095770687 487:0.15857296 829:0.10727964 1636:0.082050458 1642:0.080863945 1669:0.10988476 1845:0.11873253 4280:0.14189686 4312:0.11264926 5361:0.044390753 7453:0.10248554 7546:0.17505233 8964:0.074271023 9575:0.097232871 9673:0.16522889 9735:0.27388787 10134:0.15508139 10145:0.1680198 10168:0.082796104 11271:0.094940081 11338:0.19420351 11339:0.15857296 16704:0.1797162 16922:0.073284961 17386:0.089131877 17550:0.1680198 18027:0.11063802 18604:0.070606723 21645:0.073871002 22180:0.095213294 22307:0.1208095 22325:0.079697505 22630:0.16276713 23367:0.11873253 24295:0.1797162 24338:0.11943302 24859:0.12019472 26318:0.13760316 26561:0.20869082 26583:0.36149955 31171:0.091448523 31945:0.13831173 32652:0.20869082 32994:0.15207054 34333:0.1027468 34385:0.11989398 35933:0.14408565 36022:0.17124167 #
-0.27542837452802382 140:0.6208716 3404:0.57777071 14084:0.30079296 21199:0.27049226 22322:0.28085974 35336:0.19538367 #
-0.56457879927862009 1852:0.35168734 4610:0.35168734 5084:0.2479779 6500:0.16252197 9956:0.3028591 11271:0.15999374 13903:0.116197 14217:0.26722834 21288:0.15706906 21851:0.21118678 22095:0.22853287 22615:0.16076449 24466:0.17142065 24523:0.13778171 26357:0.19868921 27400:0.19690543 31171:0.15410973 32709:0.18276933 32810:0.18677266 34800:0.24445274 36478:0.19166277 #
-0.14605799428581653 4498:0.3537015 5361:0.084537566 6768:0.20621383 6840:0.27262679 6991:0.36984038 7042:0.24015722 10014:0.33336893 10342:0.34225079 12373:0.19277453 17458:0.30997306 25413:0.34225079 32900:0.22059757 33250:0.17066656 #
-0.21144983749055393 182:0.045587026 388:0.092946015 426:0.092946015 924:0.055987693 1642:0.036014911 2286:0.060120124 2657:0.067136772 3075:0.10679596 4280:0.031598773 4449:0.057106085 4490:0.047852851 4586:0.059084758 4614:0.040493358 4726:0.04353286 4763:0.1654387 5167:0.054087829 5361:0.079082415 5427:0.042446695 5517:0.08556135 5519:0.062617317 5754:0.080041394 6249:0.053945709 6538:0.051700801 6623:0.13427354 6670:0.069069631 7169:0.076267034 7307:0.03333696 7513:0.052632447 7523:0.037650649 7942:0.076267034 8107:0.06039802 8202:0.071511902 8305:0.059588056 8411:0.047635518 8553:0.080041394 8964:0.066157162 9575:0.086610496 10004:0.062266007 10104:0.057720069 10140:0.042243883 10168:0.036875453 10208:0.059333004 10309:0.059333004 10358:0.04902285 10580:0.057306278 10891:0.053945709 11260:0.062982418 11493:0.032974236 11553:0.070624687 11728:0.092946015 11988:0.085058145 12003:0.049190577 12130:0.086493708 12185:0.076267034 12222:0.028615797 12373:0.045083728 12612:0.05985029 12848:0.072492674 12887:0.069037043 12913:0.049985167 13029:0.050077792 13158:0.047779843 13164:0.14005031 13328:0.044351205 13808:0.057720069 13903:0.061418466 13932:0.051481761 14070:0.031844947 14083:0.073589087 14398:0.059333004 14523:0.039666787 14853:0.044351205 14878:0.062617317 15077:0.070624687 15537:0.046058454 16231:0.058842961 16338:0.058607284 16657:0.048380613 17110:0.04425111 17142:0.092946015 17245:0.031753492 17386:0.039697256 17414:0.045359973 17644:0.085732155 17791:0.057510875 17825:0.092946015 18037:0.064605422 18498:0.092946015 18945:0.13675956 18968:0.044815447 19112:0.045529742 19653:0.12885681 20079:0.073217668 20080:0.061285235 20104:0.05616501 20404:0.058842961 20870:0.047079608 21044:0.080041394 21150:0.067136772 21645:0.032900415 21714:0.053531919 21826:0.092946015 21849:0.044975486 22103:0.039456241 23234:0.051058564 23514:0.041437265 23801:0.065537065 24117:0.055642888 24238:0.052632447 24338:0.079789013 24486:0.080041394 24523:0.036413766 24736:0.10407867 25208:0.054679058 25321:0.071511902 25433:0.047926441 25514:0.060980003 25878:0.05616501 26158:0.21811077 26198:0.089950971 26496:0.080041394 26755:0.065537065 26877:0.074832089 27335:0.043305248 27400:0.052039336 27416:0.068379782 27519:0.065059595 27521:0.066572435 27558:0.076515906 27562:0.086493708 28386:0.14823014 28739:0.048150755 28910:0.062982418 29257:0.092946015 29773:0.044005483 30095:0.092946015 30196:0.082719348 30243:0.092946015 30459:0.062982418 31161:0.073589087 31311:0.04232448 31746:0.043305248 31819:0.14732192 32006:0.09333542 32511:0.092946015 32793:0.10376633 32805:0.086493708 32818:0.060980003 32821:0.074832089 32893:0.058377426 32936:0.047564186 32994:0.045152441 33058:0.036521632 33059:0.052039336 33361:0.18281065 33366:0.040970832 33526:0.057934072 33649:0.070624687 33846:0.054832924 33888:0.042995669 33911:0.095705703 34191:0.052880693 34278:0.080041394 34376:0.04877679 34532:0.092946015 34706:0.15540701 34846:0.092946015 34985:0.21187407 35073:0.092946015 35240:0.049893457 35400:0.064605422 35453:0.060684465 35927:0.040797479 36102:0.056910105 36281:0.04877679 36651:0.082719348 36652:0.068379782 36805:0.11516886 #
1.0000000001676255 16292:0.45836791 22312:0.5507279 33674:0.47533876 35768:0.51053959 #
1.0000000001676255 1306:0.55284464 2567:0.55284464 11701:0.2718403 12222:0.17020731 25514:0.36271021 29176:0.39280933 #
1.0000000001676255 3083:0.22944134 4280:0.16706902 16283:0.4373537 20510:0.25704405 26558:0.28597316 26631:0.33710441 27795:0.3956522 28394:0.21462664 31504:0.36518493 36143:0.36153755 #
1.0000000001676255 3895:0.49332106 13767:0.23973766 14545:0.3908495 15805:0.18555143 19112:0.27152994 21842:0.36190957 21998:0.5543108 #
1.0000000001676255 21310:0.42687315 24543:0.4300642 27898:0.48257005 28136:0.45662466 30040:0.43754333 #
-0.14096720631572324 22312:1 #
1.0000000001676255 4298:0.082104713 4761:0.33555469 5572:0.14290212 6008:0.26170069 6649:0.083704062 7640:0.26170069 7655:0.21951763 10358:0.13802972 10853:0.45073235 11302:0.13779674 12690:0.16192879 12864:0.28694382 14165:0.20719892 14539:0.23290627 14837:0.076895595 16012:0.26170069 18604:0.088541642 19550:0.14435054 25108:0.1548292 27636:0.11168661 32099:0.12390273 35453:0.1708644 35454:0.1925315 #
1.0000000001676255 829:0.19861796 4429:0.24460667 12382:0.22729759 12403:0.18809527 12641:0.38637105 13751:0.22793719 14797:0.26676077 16011:0.29727072 16922:0.13568008 21767:0.18333337 22188:0.12499639 22307:0.44733438 24017:0.24991578 25804:0.24173902 27744:0.25349024 #
1.0000000001676255 2546:0.24443468 3693:0.22635105 4332:0.18117811 4726:0.13952214 5229:0.095786378 6179:0.10754411 7106:0.16397527 9029:0.27721101 9735:0.26063633 10873:0.26511425 11452:0.20567149 12261:0.14610572 16778:0.1653472 17264:0.18117811 18169:0.16829619 25639:0.30092031 26038:0.21915615 26566:0.1010287 28425:0.14704104 30385:0.13108741 31171:0.13053593 31648:0.18499193 32994:0.07235644 33259:0.16988774 33857:0.13164929 35400:0.20705938 36145:0.29789054 #
1.0000000001676255 182:0.17515935 4651:0.13830148 5147:0.22430401 6119:0.18966159 10502:0.26538673 12222:0.10995068 13560:0.23924512 15537:0.17697072 17110:0.17002635 18604:0.12082743 19104:0.35712713 19394:0.21445335 20521:0.27136174 20522:0.31783313 21428:0.22518718 30087:0.43733218 33366:0.15742251 35336:0.11238524 36805:0.1475047 #
1.0000000001676255 6649:0.30215308 18246:0.50710529 24338:0.2703189 34054:0.76057571 #
-0.18360748408586303 3567:0.35436213 4101:0.3228066 8491:0.3693389 10223:0.32522842 13990:0.35436213 14070:0.17809679 15805:0.17400324 25763:0.21029261 28295:0.30014387 28394:0.4540498 #
-1.0000000001676255 9507:0.71554458 27898:0.69856709 #
-0.48401301410399244 8344:0.52918392 17106:0.41143996 23772:0.31399924 27898:0.47945073 33674:0.47139475 #
-0.28188769416744353 32982:1 #
-0.90288753834615321 5314:0.54105926 12403:0.42258579 19112:0.42521244 21645:0.30726436 24127:0.32794338 30385:0.38198459 #
1.0000000001676255 2444:0.19137557 4312:0.18918107 4429:0.22187911 5068:0.26325035 7307:0.12570366 9936:0.26630446 12844:0.29397961 16043:0.28216931 16239:0.22099045 17079:0.3504715 21109:0.26044083 26594:0.38427728 30231:0.29397961 31309:0.28758007 #
1.0000000001676255 2860:0.21139954 4556:0.15278123 5229:0.081037588 6486:0.21703179 7894:0.2345272 8515:0.16703026 9456:0.17180683 11174:0.13139498 11258:0.19390413 11449:0.17400305 14797:0.17400305 16185:0.13708033 16270:0.1522911 16276:0.15955235 16344:0.14141792 21674:0.15538566 21861:0.16228373 22715:0.15181032 28936:0.14338571 29216:0.2029068 29243:0.25202259 29810:0.15829007 30338:0.22429304 30369:0.21139954 32006:0.063269623 32372:0.25202259 34567:0.14173542 35157:0.22429304 35775:0.25202259 36458:0.20679764 #
1.0000000001676255 4298:0.13015449 5361:0.088243984 7617:0.26833978 10275:0.21594173 10488:0.26158738 20404:0.26263928 27746:0.35725626 28810:0.21771 29063:0.29038659 29990:0.26596496 32638:0.4233363 32994:0.10076656 33257:0.28111529 33879:0.28111529 34333:0.20424947 #
1.0000000001676255 5437:0.44990242 7307:0.16136657 11544:0.16583301 12248:0.22723912 12699:0.25476581 13544:0.44990242 24736:0.25189486 27298:0.30139676 27890:0.32497355 27923:0.21983585 34961:0.34185672 #
1.0000000001676255 638:0.32928932 4298:0.11101639 6179:0.12774791 7697:0.35385385 8964:0.12593313 9507:0.20875387 13767:0.15304066 16613:0.30472478 18636:0.217408 20442:0.19641019 21814:0.21666189 22180:0.16144261 22307:0.20484324 26566:0.12000848 27845:0.35385385 28202:0.20591722 32638:0.18054417 32792:0.35385385 36805:0.14615273 #
-1.0000000001676255 32638:1 #
-0.73705931806208591 184:0.14913985 4571:0.17547832 4614:0.1147424 5361:0.11204437 8851:0.16018429 9221:0.095082551 9430:0.180667 10168:0.10449066 10224:0.19571643 10435:0.13622691 12403:0.12821659 16395:0.26337281 18200:0.15130907 18604:0.17821473 18649:0.26337281 19850:0.28122801 20442:0.14618777 22806:0.1764376 23156:0.37617123 23689:0.14745921 24388:0.24508947 24543:0.13518418 27946:0.19376166 28136:0.28706613 28454:0.19023946 32638:0.13437872 33094:0.11001188 34333:0.12966892 #
-0.071382259636741274 27636:1 #
-1.0000000001676255 5536:0.20653331 10491:0.33171782 11455:0.22428088 11493:0.13985237 13717:0.24480592 20408:0.2319082 20442:0.2188094 21767:0.18705219 22103:0.16734424 25058:0.22591479 25412:0.3942084 29520:0.45408577 30185:0.22940065 33477:0.2687366 35336:0.12405445 #
0.58457313320360837 3304:0.28436512 4726:0.17310721 6212:0.1864147 6332:0.36959729 6649:0.11821441 13589:0.36959729 14806:0.15725315 15328:0.30327377 15677:0.36959729 17956:0.36959729 21590:0.20181924 32195:0.36959729 #
1.0000000001676255 5758:0.47772875 9507:0.47772875 27898:0.46639383 30537:0.570988 #
1.0000000001676255 9507:0.75730461 10168:0.25464579 12222:0.19760823 22325:0.24511582 27898:0.36966813 33743:0.35476747 #
1.0000000001676255 9507:0.44746801 18604:0.25662211 22325:0.28966281 27898:0.43685108 28295:0.43796006 36295:0.51707351 #
1.0000000001676255 14837:0.31403285 18392:0.63981938 27898:0.61554605 35336:0.33632952 #
1.0000000001676255 4298:0.086663157 7266:0.22666131 7738:0.20527102 8249:0.29288852 8428:0.25705439 15805:0.092466041 17785:0.11167804 17851:0.19784951 18406:0.10912678 19850:0.14747858 19856:0.42505866 20007:0.27623028 20717:0.16296034 21645:0.097778171 22473:0.16745642 22751:0.17867361 23156:0.26302359 23772:0.10419286 27898:0.15909383 28267:0.19071667 28394:0.12064198 32994:0.06709525 34706:0.11546521 35336:0.17385523 35750:0.24583721 37083:0.18830951 #
-0.6036516506248375 13890:0.36417481 18392:0.4609887 22325:0.29407138 27898:0.4434998 29905:0.60966885 #
-0.37695180997553723 2759:0.4959237 4298:0.40444595 12222:0.19844601 18392:0.3858746 23855:0.48977101 27898:0.37123537 32994:0.15656251 #
-0.53921662080582577 4021:0.31179005 5517:0.143509 5648:0.20558307 7899:0.21672073 9322:0.23691253 9507:0.36787722 12668:0.26850113 12789:0.19362362 12965:0.26850113 13539:0.26153317 16185:0.16958909 27580:0.14729406 27868:0.31179005 27898:0.35914871 32793:0.11602904 34385:0.17912504 34514:0.17093237 #
-1.0000000001676255 11860:0.15471546 20967:0.22129735 21861:0.33105507 23772:0.38784787 27898:0.59221143 34514:0.28185567 35264:0.36529478 35731:0.32166731 #
1.0000000001676255 6556:0.4600147 13717:0.32098997 18234:0.51688677 25058:0.29621989 32638:0.26372722 33250:0.22196436 34065:0.4600147 #
1.0000000001676255 1651:0.45858631 14492:0.40232944 25513:0.46003973 27356:0.64513028 #
1.0000000001676255 5361:0.1877684 12408:0.59136224 24466:0.4302687 26037:0.47649503 32638:0.45039433 #
1.0000000001676255 794:0.22479136 1222:0.20822649 5361:0.045930184 10491:0.090849377 13767:0.093388192 14879:0.11591025 16160:0.20093831 16186:0.21592803 18406:0.08530394 18604:0.073055297 18969:0.13783979 19956:0.23056675 19965:0.43185607 20022:0.16613327 20079:0.085048012 20105:0.12598972 21645:0.15286556 21779:0.13313138 22325:0.082461342 23772:0.08144711 25714:0.16841175 29216:0.17384657 32006:0.054208171 32139:0.17384657 32638:0.33051398 32994:0.052448068 33280:0.23355077 33875:0.1859486 34059:0.17384657 34068:0.21592803 36196:0.20093831 #
1.0000000001676255 9208:0.77046132 15805:0.32033524 29520:0.55115759 #
-0.87425247058014843 9507:0.31339291 10265:0.3083221 13756:0.39902011 17412:0.44559783 18604:0.17973027 19394:0.3189984 21315:0.23396567 32554:0.23875822 32842:0.26831397 36295:0.36214247 #
-1.0000000001676255 9507:0.54957855 11544:0.3433775 18406:0.36802658 24338:0.26656935 25514:0.61118942 #
-1.0000000001676255 7456:0.43850991 9595:0.46927181 14837:0.22962071 19140:0.49082723 21199:0.34046111 26037:0.42183197 #
-1.0000000001676255 3083:0.51198447 16567:0.54776514 18936:0.56457108 35336:0.34508657 #
-0.80864998838978208 377:0.31205571 3390:0.19313475 5361:0.071329229 5427:0.15314101 10142:0.26549786 14923:0.16617167 15458:0.57755357 17787:0.2984384 18604:0.11345433 21199:0.14609368 26023:0.15947194 27506:0.1308378 27636:0.14311153 28337:0.23472479 31453:0.098270565 34012:0.33533463 35768:0.20395173 #
1.0000000001676255 5517:0.47429797 10104:0.63992703 20967:0.44355333 28386:0.41084701 #
1.0000000001676255 8372:0.18121618 8472:0.38981566 9048:0.23309182 17106:0.45937699 18473:0.16185582 26318:0.30642191 31351:0.2865274 31813:0.31680766 32994:0.11287954 36088:0.3149077 36194:0.36794031 #
1.0000000001676255 5360:0.15609063 5668:0.18314087 5930:0.1523786 8366:0.29433885 9061:0.21384834 10471:0.17190908 14245:0.29433885 15653:0.31806615 18205:0.20461743 18392:0.40923485 24295:0.29433885 24338:0.097803585 28848:0.26657969 29216:0.27518252 32780:0.34179345 #
1.0000000001676255 3791:0.58682996 5229:0.11718504 10375:0.19527504 11860:0.10967159 12887:0.13534637 13547:0.2368193 15477:0.24999602 18146:0.23364344 22716:0.23572968 23367:0.20734403 24573:0.26811561 26892:0.29904136 27858:0.22469665 28177:0.25331643 30385:0.16037232 #
1.0000000001676255 2125:0.14863257 5361:0.048423521 5427:0.10396337 5671:0.21184634 7830:0.11434028 7931:0.21184634 8049:0.18023945 8265:0.10662367 9221:0.082185864 12293:0.11927007 12300:0.1691701 13554:0.14725035 15948:0.21184634 16185:0.12382344 17386:0.09722925 17391:0.22764978 17394:0.1960429 21645:0.080581963 21899:0.10850511 22705:0.22764978 23097:0.13247563 23180:0.22764978 23772:0.171737 24657:0.10696482 25207:0.19095533 25746:0.21184634 27120:0.14935642 27685:0.14354499 29807:0.14471446 30359:0.12455504 31115:0.12007014 31555:0.13938814 31742:0.15087695 32006:0.057150885 32379:0.10742777 32994:0.055295236 33148:0.1691701 33237:0.22764978 33442:0.11966659 36940:0.12745832 36988:0.12406471 37032:0.21184634 #
-1.0000000001676255 5361:0.18853085 7307:0.31789851 10104:0.55041385 18169:0.50073832 28386:0.35337761 34912:0.42991474 #
-1.0000000001676255 5361:0.27626538 5517:0.59779763 30040:0.67823482 32006:0.32605666 #
-1.0000000001676255 10375:0.80029392 15749:0.59960788 #
-0.29146892157502036 4578:0.21901898 5261:0.30039153 6500:0.21745904 10508:0.28170919 11472:0.26288682 12159:0.28170919 13903:0.1554749 15583:0.23138374 16719:0.21970366 20079:0.18534344 25460:0.32279742 27298:0.31524074 27923:0.22993353 28386:0.18761513 32449:0.3670164 #
-1.0000000001676255 1251:0.17447545 4448:0.29144421 10104:0.3619774 13029:0.15702537 15748:0.15852255 16567:0.14558218 16657:0.15170364 17245:0.09956716 17270:0.18304993 17386:0.24895172 17698:0.14102642 17788:0.14578007 18571:0.14035922 19763:0.2123998 20967:0.1254489 21645:0.30949047 21714:0.16785623 22103:0.12372012 22132:0.15644735 23039:0.16959935 24062:0.20549992 24659:0.23074804 26307:0.13593054 28295:0.16828234 28386:0.11619867 31171:0.12771113 36694:0.12372012 36767:0.19524308 36805:0.1203756 #
1.0000000001676255 382:0.15136421 5361:0.18958896 6307:0.29710001 7416:0.22077963 13167:0.22077963 14276:0.33969459 14370:0.18450099 18571:0.14308305 18747:0.29710001 28337:0.41592327 31453:0.26119748 33058:0.23348127 33182:0.29710001 33674:0.33647704 #
1.0000000001676255 5536:0.22701524 6510:0.26267654 11462:0.27214789 13029:0.23345608 13593:0.26622105 13720:0.3129828 18936:0.2230837 24127:0.16369978 24338:0.12398863 28697:0.30118197 31819:0.17169885 33007:0.18125188 33079:0.18435775 33442:0.22776997 33888:0.20044014 34723:0.19807251 35306:0.19750024 35336:0.13635693 36481:0.3379513 #
1.0000000001676255 3319:0.36309823 6649:0.14153366 7879:0.261053 9065:0.39381692 16567:0.22103998 21199:0.19278404 23859:0.44250485 30228:0.44250485 31608:0.17377195 32994:0.10748269 33973:0.26032045 35927:0.19423193 #
-1.0000000001676255 14276:0.74894267 33241:0.66263479 #
-0.090134325896569251 4298:0.23586307 6768:0.39008024 9644:0.5190559 20682:0.69960111 32994:0.18260692 #
-1.0000000001676255 11493:0.55941492 33442:0.82888776 #
-0.46997705264821799 2672:0.25477141 5488:0.23453228 5785:0.15808775 10961:0.2492744 14276:0.47894722 18260:0.22056459 21959:0.29321235 21977:0.25919157 27561:0.22364508 31608:0.164499 32793:0.15588564 32994:0.10174713 35969:0.50003392 #
-1.0000000001676255 32994:1 #
1.0000000001676255 5361:0.10554639 9216:0.21291322 9882:0.37703356 12789:0.30814156 13674:0.41621599 13903:0.16394283 14523:0.21176319 15583:0.24398603 25433:0.25585777 27336:0.3870059 27898:0.28578293 32006:0.249138 33094:0.20726353 #
1.0000000001676255 5977:0.22209246 14112:0.43280974 18169:0.27475035 20079:0.38309443 22002:0.36528933 25674:0.48631841 27156:0.23852351 35400:0.33803284 #
1.0000000001676255 182:0.13060084 4298:0.083540812 4614:0.11600815 7774:0.20487221 7874:0.17469969 9013:0.20001002 9221:0.096131422 10471:0.13392775 11493:0.094466858 11544:0.098149508 11701:0.13093212 13029:0.14346629 18604:0.090090327 19394:0.31979781 20445:0.16195132 21714:0.15336192 21767:0.25269836 22577:0.26627812 24543:0.13667543 25129:0.17071195 28295:0.15375124 29885:0.23698005 32006:0.066848427 32793:0.099092297 32936:0.13626514 32941:0.15892904 33344:0.139972 33529:0.1451164 33546:0.18919696 33655:0.26627812 33870:0.14267801 34514:0.1459814 35336:0.083795741 35597:0.21438411 36767:0.17838392 36805:0.10998122 #
1.0000000001676255 5229:0.12766084 5361:0.084450036 7158:0.13405618 7206:0.35333529 10954:0.34189644 12864:0.43531412 13756:0.29821327 13767:0.17170922 14655:0.26596895 23772:0.14975363 24873:0.33302379 25470:0.24227138 25478:0.31433544 34514:0.21765706 #
1.0000000001676255 330:0.13759737 389:0.17060985 4332:0.1410445 4614:0.10103229 4651:0.089807197 5199:0.23190342 6343:0.23190342 6538:0.12899522 6955:0.18360724 7145:0.20638753 7307:0.083176836 10140:0.10539991 12003:0.12273214 12256:0.19970596 12541:0.30281955 13182:0.11506869 17245:0.079226024 17644:0.1069523 19594:0.125415 20887:0.12403485 21767:0.11003835 22001:0.18670857 23810:0.12688236 25021:0.14932849 28136:0.12638286 28368:0.14509396 28386:0.09245979 28446:0.16232587 28923:0.18360724 29799:0.20638753 30479:0.19970596 32099:0.10979515 32705:0.13969117 32793:0.086300157 32936:0.11867424 33032:0.13531104 33857:0.10248704 34333:0.11417529 35336:0.07297828 35580:0.19028881 36805:0.19156678 36893:0.19970596 #
-1.0000000001676255 1651:0.10040743 5204:0.1242573 5361:0.041227087 6050:0.16690809 7817:0.11603056 9221:0.069971859 9449:0.084439673 9575:0.090303227 10856:0.15903752 11237:0.49490184 11288:0.19720086 13029:0.20885165 13767:0.25147668 14070:0.13281076 14837:0.056949522 15805:0.064879052 15972:0.094125688 16517:0.081016473 17245:0.066214673 17360:0.10625651 17788:0.096947417 18281:0.12779638 18945:0.14259045 19516:0.16690809 20079:0.45803627 22055:0.19381773 23160:0.1156808 23664:0.11788065 25763:0.078409947 26566:0.06573271 27558:0.079778239 27763:0.063487582 28386:0.077275045 28768:0.14259045 29249:0.094355412 32745:0.11711933 33564:0.13057415 35336:0.060992997 #
-0.91068050578630011 10140:0.30653796 14797:0.46565959 19394:0.40500575 32099:0.3193208 32793:0.25098953 32936:0.34514412 33007:0.28212589 33250:0.28962699 36805:0.27856991 #
-0.55099291433459285 5930:0.3772839 11860:0.25466952 13029:0.45595542 14878:0.57012707 35586:0.50976473 #
-0.46704984910117414 13903:0.34481117 14523:0.44538888 36194:0.8262772 #
-0.83457082115977721 17106:0.62546945 31351:0.78024864 #
1.0000000001676255 8:0.35264331 2008:0.18243104 2123:0.14843832 2396:0.20729257 2755:0.16978608 4597:0.16366632 10471:0.1443408 10491:0.24148878 11493:0.10181178 12312:0.1352794 13029:0.15462099 13505:0.14890566 13890:0.13572273 14070:0.19664992 14276:0.16406277 14551:0.18095678 14837:0.084323891 14923:0.14221081 18101:0.13557419 18604:0.19418995 20731:0.16744806 21590:0.1567068 23772:0.1082482 25763:0.11609986 28394:0.25067508 28551:0.26705936 30529:0.15490985 31918:0.15294625 32994:0.069706701 33279:0.21556106 33767:0.19947672 34723:0.13118599 #
1.0000000001676255 5361:0.11122526 13328:0.24951057 13903:0.17276371 14276:0.29893056 14598:0.46536168 16707:0.23480003 23083:0.42906234 24400:0.37769741 31601:0.30509871 31608:0.20534112 33911:0.2692101 #
1.0000000001676255 3310:0.46101192 5522:0.33317453 10207:0.44398168 18260:0.31123105 21199:0.25751457 29810:0.37124702 31608:0.23211884 35969:0.35279027 #
1.0000000001676255 5488:0.31034881 13856:0.42118692 14276:0.3168875 15422:0.27432108 19309:0.49331626 32435:0.55430543 #
1.0000000001676255 1669:0.53742033 4743:0.15477648 8770:0.17208394 12439:0.22212911 12486:0.17159717 14070:0.11656509 14276:0.19449781 19154:0.18005694 23624:0.28537983 23772:0.12832917 28579:0.24368142 31699:0.34021914 32006:0.085411124 33084:0.29298311 33241:0.17208394 33303:0.22432816 34724:0.2210806 #
-0.30519905699671995 7464:0.26234293 16698:0.28901112 23152:0.39137921 26566:0.1909623 32006:0.14135635 33372:0.56306636 34806:0.35793507 34910:0.43916014 #
-0.57320154102995002 16707:0.35460716 20158:0.43207359 31628:0.37555152 34769:0.57552254 35172:0.39184442 35336:0.24851358 #
-1.0000000001676255 13547:0.86213899 22325:0.50667185 #
-1.0000000001676255 5361:0.24341057 5815:0.85954094 31608:0.4493781 #
-0.87572702977452233 2547:0.22516467 5600:0.20560369 9371:0.24446046 10471:0.16712707 15422:0.32889086 23317:0.54531544 24543:0.17055587 27228:0.20143838 29535:0.2213932 31732:0.17616221 33408:0.20276973 35087:0.47219393 #
1.0000000001676255 1209:0.29800677 2329:0.2359439 5716:0.15665051 5785:0.11246637 5799:0.21344687 7466:0.13622585 8077:0.29800677 9193:0.29800677 13029:0.16056117 13164:0.14967805 14443:0.18866436 15805:0.099755563 16907:0.21924165 17106:0.14728911 18604:0.10082514 20437:0.10789113 20442:0.1654117 21878:0.20714016 22325:0.11380661 24523:0.1167511 28337:0.20859635 31453:0.087331556 31608:0.11702745 32554:0.13393866 32994:0.21715401 33241:0.1507328 33366:0.13136211 33871:0.17580724 34748:0.2499716 36694:0.12650599 36805:0.12308614 #
1.0000000001676255 168:0.10993326 5358:0.22600044 5517:0.1240114 6013:0.23202172 7464:0.12553203 9334:0.19821736 9735:0.1178672 10701:0.20472483 10861:0.20237693 10864:0.23978449 11544:0.19862203 12943:0.23978449 13442:0.12245537 13903:0.089019053 16922:0.094614185 17106:0.13316475 17657:0.25072551 17790:0.17349231 18406:0.10643999 20297:0.1776519 20658:0.20472483 22761:0.23978449 24127:0.10178929 24338:0.077096708 24657:0.12659557 26755:0.18997699 27763:0.088255152 31084:0.26942927 31164:0.1256627 31351:0.16611782 32852:0.16080981 32900:0.14954947 35840:0.18997699 #
1.0000000001676255 829:0.14193887 1347:0.14304075 4556:0.16738553 6312:0.14768077 9667:0.44460517 10058:0.16025572 11302:0.14538564 11544:0.10177475 11959:0.16849181 13478:0.19776575 13719:0.21861 17106:0.13646834 20210:0.51071674 21441:0.23777778 22586:0.16738553 23432:0.11884991 27946:0.2031348 30436:0.16382885 32810:0.14663713 34317:0.20980372 35586:0.16632181 #
1.0000000001676255 8389:0.40579599 10420:0.42546934 10491:0.24563062 12785:0.3484475 14523:0.24915282 16567:0.29162341 21335:0.28670076 25763:0.47236449 32994:0.14180452 #
1.0000000001676255 10140:0.21132055 10523:0.36812159 13029:0.25050887 14070:0.31860197 16567:0.23225307 19394:0.2792021 20105:0.2712906 21645:0.3291617 28454:0.33584461 32994:0.11293516 37085:0.46495262 #
-0.99541713219843686 20210:0.69566357 21767:0.53538322 36694:0.47897491 #
-0.056539690574904128 3263:0.43374327 3439:0.20125751 3611:0.23116258 3637:0.1945906 3647:0.30360809 3941:0.31910211 4058:0.6163699 4128:0.32579845 #
-1.0000000001676255 1562:0.053696856 1669:0.047228493 4280:0.030493651 4298:0.056281179 4478:0.047070891 4556:0.10875031 4651:0.069471061 4821:0.038981423 4835:0.052620664 4899:0.052196182 5229:0.057682887 5361:0.076316617 5619:0.068154693 6045:0.066654019 6119:0.047635041 6744:0.048600014 7874:0.058847312 8372:0.034976166 8416:0.079826355 8964:0.031921703 9097:0.039370649 9221:0.032381717 9244:0.07101541 9430:0.061528724 9449:0.039077159 9468:0.33387485 9523:0.066654019 9726:0.079826355 9735:0.11771707 9821:0.10983951 9999:0.056557577 10435:0.092788026 10445:0.075237527 10713:0.069957346 10891:0.052059032 11288:0.045630507 11302:0.047228493 11492:0.05678501 11493:0.063642018 11786:0.042419787 11913:0.075237527 12222:0.082845002 12373:0.087013975 12374:0.15047505 12403:0.043665987 12543:0.043506987 12684:0.14664669 12707:0.18973501 13395:0.061528724 13489:0.13630939 13498:0.10306092 13586:0.057757109 13767:0.19396479 13798:0.089695357 14070:0.092193648 14289:0.044865519 14523:0.11483849 14540:0.089695357 14624:0.089695357 14837:0.052710429 16192:0.089695357 16343:0.073599704 16546:0.075237527 16822:0.054919753 17110:0.042703491 17245:0.091928877 17785:0.036263227 18119:0.079826355 18161:0.061146405 18604:0.060693566 19178:0.079826355 19488:0.051153488 20079:0.035328493 20105:0.05233546 20249:0.055499513 20275:0.089695357 20635:0.061528724 20891:0.067373052 21040:0.054734528 21645:0.09524931 21692:0.067373052 21846:0.077773392 21899:0.042751659 22106:0.089695357 22152:0.066654019 22180:0.040922694 22325:0.10276201 22394:0.033995211 23514:0.079976104 23810:0.049075425 23889:0.065368518 24238:0.050791703 24338:0.025666168 24342:0.068154693 24467:0.089695357 25021:0.11551422 25206:0.055108879 25208:0.052766733 25214:0.10439236 25270:0.051530462 25271:0.077242061 25953:0.18026502 26566:0.030419918 26774:0.069957346 28005:0.05678501 28386:0.035761498 28391:0.069957346 28592:0.064244159 28617:0.059141871 28662:0.07101541 29051:0.053861689 29156:0.051277395 29295:0.052059032 29404:0.050791703 29683:0.17939071 29684:0.089695357 29686:0.089695357 29812:0.16693743 29874:0.089695357 30040:0.04683955 30995:0.072214946 31309:0.073599704 31819:0.035542388 32006:0.045035575 32124:0.057757109 32793:0.066758171 32900:0.049786326 32994:0.06535995 33058:0.14097737 33156:0.069957346 33256:0.051923946 33366:0.15815175 33403:0.07101541 33653:0.17939071 35240:0.096297003 36694:0.11422894 36961:0.075237527 #
-0.47353013354737866 16217:0.46112114 17707:0.57339507 31367:0.67718935 #
-0.70825153148076636 8206:0.55194443 10168:0.33040473 16567:0.41599917 22615:0.38069141 23367:0.47381198 32006:0.20907177 #
1.0000000001676255 5027:0.37302095 5815:0.43512493 11463:0.32652822 14563:0.45181546 19678:0.32578915 32793:0.21557687 33079:0.24647242 33113:0.38393119 #
1.0000000001676255 13547:0.50232023 27622:0.68796295 32980:0.5238142 #
1.0000000001676255 13717:0.45193738 14606:0.67722958 20442:0.40394506 25058:0.41706237 #
1.0000000001676255 776:0.31801733 787:0.21037994 2924:0.32035127 4497:0.34955683 4821:0.19745037 9391:0.23686971 9527:0.22725475 11493:0.16118114 12397:0.2572723 19927:0.29956794 20037:0.42278928 20158:0.24857894 30644:0.24617086 #
1.0000000001676255 5815:0.48520499 5816:0.64596504 9216:0.27717713 24843:0.52007514 #
-0.9737813633452973 9216:1 #
-1.0000000001676255 794:0.14045735 4353:0.24014866 4355:0.21045886 5536:0.14137353 5930:0.12029959 6131:0.17534596 7523:0.10930638 9216:0.34735495 9245:0.26983845 14757:0.1395712 16907:0.19851841 17556:0.16305681 17785:0.10909387 18260:0.14208165 18969:0.17225404 20442:0.14977659 21307:0.14001064 22455:0.21045886 22822:0.21045886 30385:0.11874302 30387:0.32021141 32638:0.13767764 32936:0.13808712 33284:0.26983845 34625:0.12747553 35172:0.13389176 35240:0.14484939 35597:0.21725059 #
-0.29457785209221848 2924:0.57377756 4298:0.12764992 6245:0.29389149 11616:0.28281048 21271:0.29652137 21590:0.22217292 24338:0.11642557 27576:0.23804319 32674:0.40687156 32994:0.19765499 36088:0.27570575 #
-0.87865745284006003 9216:0.18550834 14923:0.42847317 17791:0.26750645 21846:0.18743303 24843:0.69614893 25158:0.40231737 31608:0.16977614 #
-0.19704217205888291 771:0.39780048 3220:0.26699001 6649:0.13377382 7523:0.16942251 9216:0.35892838 11860:0.12586309 13856:0.31780097 13860:0.22793472 19956:0.22329916 25058:0.23968908 26882:0.2552236 27351:0.3431907 28936:0.23795554 34330:0.28176895 #
1.0000000001676255 777:0.39665008 10835:0.36856604 12403:0.31537133 21288:0.28932291 23514:0.28880799 24117:0.38781786 26198:0.31346858 33344:0.34052941 36694:0.27500072 #
1.0000000001676255 11493:0.29759151 12222:0.25825673 13767:0.36279351 17788:0.41958436 22061:0.42550308 22615:0.38345107 36478:0.45714879 #
1.0000000001676255 8431:0.37159377 12222:0.23354958 12684:0.41341388 20210:0.46770871 25478:0.60060179 35336:0.23872092 #
