SVM-light Version V6.02
0 # kernel type
3 # kernel parameter -d 
1 # kernel parameter -g 
1 # kernel parameter -s 
1 # kernel parameter -r 
empty# kernel parameter -u 
10387 # highest feature index 
5870 # number of training documents 
1232 # number of support vectors plus 1 
0.94993069 # threshold b, each following line is a SV (starting with alpha*y)
-0.28185864447330045 65:0.10044689 179:0.13437769 216:0.26066819 452:0.16024417 554:0.040081892 681:0.25428039 1567:0.25233519 1747:0.33422747 2738:0.18444575 3396:0.27697 3666:0.21699661 5625:0.29716396 6328:0.39758798 6329:0.34737596 6330:0.33422747 #
-0.62523362459939957 13:0.19752514 36:0.26541167 233:0.34891227 4867:0.50873923 8173:0.71413243 #
-0.40432861041952067 30:0.080206536 31:0.21502304 33:0.11723678 47:0.12982993 55:0.065440126 137:0.14088245 145:0.11257004 262:0.094899878 278:0.08205913 321:0.11032874 514:0.077622242 554:0.020622686 572:0.10499598 585:0.1588048 941:0.11611677 958:0.12095755 972:0.1504173 1252:0.17872971 2003:0.14612986 2316:0.10241632 2368:0.16242978 2558:0.14250487 2975:0.31132939 2980:0.3765291 3210:0.14612986 3315:0.11164773 3990:0.12886997 5227:0.11304513 5822:0.13532357 6994:0.13411736 7492:0.15289493 7692:0.18826455 7909:0.20456448 7910:0.20456448 7911:0.20456448 7912:0.20456448 7914:0.20456448 7915:0.20456448 #
0.9999999999334479 64:0.33312082 270:0.46064791 1924:0.60535365 1925:0.55711842 #
-0.36158371194653832 23:0.21973248 57:0.33646899 554:0.058298446 4885:0.40777475 7014:0.5782851 7015:0.5782851 #
0.69015148493303113 1:0.19452834 2:0.23637962 3:0.2253658 4:0.061661851 6:0.33079979 8:0.17639221 9:0.25680214 11:0.2517243 12:0.19670191 13:0.16841361 14:0.054382592 15:0.12970142 16:0.22088684 17:0.2054681 18:0.21883081 19:0.18438917 22:0.17772664 23:0.12569486 24:0.2517243 25:0.27808279 27:0.33079979 28:0.15683602 #
0.9999999999334479 29:0.55022568 30:0.30594406 31:0.41009766 32:0.31301069 33:0.44719419 34:0.25744519 36:0.26689604 #
0.35804597826481338 13:0.089247972 37:0.23885767 39:0.4058961 40:0.37117168 41:0.26679415 42:0.24423949 44:0.30632532 45:0.25045237 46:0.11639237 47:0.22251587 48:0.32266712 49:0.14605467 50:0.30632532 51:0.25045237 #
0.9999999999334479 45:0.46802607 49:0.27293572 52:0.48175791 55:0.20959224 56:0.5339635 57:0.38121006 #
-0.093190019183439957 4:0.15822895 100:0.23762755 121:0.2736153 196:0.27826554 223:0.1992549 252:0.19689742 299:0.19292134 313:0.34590343 385:0.18094327 549:0.15847011 552:0.13422145 554:0.042787764 599:0.2891528 610:0.18693952 913:0.37082681 1413:0.2012265 3242:0.23657826 3401:0.31722507 #
0.58812497732485325 15:0.26952916 178:0.34519681 605:0.19760107 748:0.32839945 767:0.41112024 1341:0.57787663 2334:0.39791903 #
-0.9999999999334479 4:0.23982158 31:0.67617905 255:0.6966114 #
-0.9999999999334479 14:0.12077638 36:0.25128523 52:0.54020035 505:0.324891 605:0.21117882 865:0.50595748 1791:0.47361246 #
-0.05118276909429114 4:0.17395186 455:0.3143968 675:0.57197219 1312:0.29738209 3149:0.25886181 4574:0.62313533 #
-0.44276987882308727 4:0.1416786 33:0.4355987 36:0.25997555 55:0.24314582 143:0.26930836 317:0.21937464 780:0.41153482 1247:0.47539547 1367:0.38400489 #
0.9999999999334479 100:0.36925468 449:0.38177046 455:0.22219495 678:0.33962056 1001:0.45421401 1265:0.41548499 1289:0.27474695 1578:0.31426987 #
0.9999999999334479 14:0.064255208 46:0.12975432 106:0.13719907 156:0.20841448 171:0.22624665 177:0.18530804 249:0.14331229 437:0.17727086 455:0.13167825 605:0.11235094 788:0.28311399 798:0.18577364 1136:0.34149173 1427:0.35970959 1448:0.32856596 1576:0.35970959 1577:0.34149173 1578:0.18624413 #
0.9984476199027954 2:0.18422066 4:0.048055694 13:0.065625936 14:0.084765315 15:0.20216364 22:0.13850991 28:0.12222895 65:0.065132357 72:0.16241084 82:0.094648838 115:0.11543306 143:0.091346182 167:0.30659628 212:0.1484817 262:0.23919877 370:0.1279394 388:0.26130623 415:0.14433967 450:0.15801223 455:0.17370962 526:0.15700752 532:0.12684837 605:0.14821309 619:0.13597535 699:0.14703573 785:0.044082694 826:0.16619934 974:0.17384043 1151:0.33239868 1152:0.30836576 1153:0.2578063 1155:0.16488196 1156:0.14246728 #
0.9999999999334479 505:0.55498952 727:0.47490141 816:0.44571635 1009:0.51748645 #
0.9999999999334479 471:0.5938893 727:0.45931 816:0.43108311 1009:0.50049692 #
-0.15432616447900785 4:0.18640141 455:0.33689785 554:0.10081214 785:0.17099071 1313:0.59805411 3850:0.67430311 #
0.83170510404992448 4:0.032601003 8:0.18651932 36:0.05982177 47:0.11100032 71:0.08534012 82:0.064209811 123:0.14075761 127:0.113685 165:0.075542927 179:0.059111718 204:0.073367268 209:0.09584555 320:0.12493622 325:0.16096 327:0.10651397 329:0.10176131 337:0.28507549 338:0.17672317 358:0.064209811 368:0.11017959 380:0.10521641 385:0.074561991 396:0.27154577 432:0.17953624 444:0.12044987 449:0.10123906 587:0.14702411 864:0.10399753 1237:0.098361984 1246:0.27154577 1255:0.14253774 1625:0.13887213 1735:0.13887213 1959:0.1266856 2196:0.111856 2292:0.1330882 2298:0.111856 2300:0.14253774 2301:0.34979182 2302:0.17489591 2305:0.17489591 2307:0.32192001 #
0.64832372937737481 39:0.45545635 40:0.41649204 693:0.78682518 #
-0.19038545410341368 15:0.093391784 36:0.081472069 65:0.060177263 257:0.13932031 317:0.068748407 480:0.13457586 689:0.15905003 872:0.064152583 927:0.090631589 1148:0.12071337 1277:0.11855054 1537:0.16593143 3507:0.16227512 3726:0.18913181 3860:0.11997328 4218:0.16227512 4223:0.23819308 4769:0.18491092 5309:0.23819308 5310:0.23819308 5312:0.23819308 5313:0.23819308 5314:0.19412407 5315:0.21921359 5316:0.23819308 5317:0.23819308 5318:0.19412407 5319:0.13107558 5320:0.23819308 5321:0.23819308 5322:0.23819308 #
0.9999999999334479 4:0.19454964 36:0.35699216 46:0.34648719 385:0.44495583 865:0.71879619 #
0.9999999999334479 4:0.18474077 30:0.38858938 36:0.33899322 162:0.48228145 165:0.42808062 299:0.45049199 605:0.28488818 #
0.12706190478084775 4:0.12972584 14:0.11441155 36:0.47608534 70:0.32832304 87:0.32515419 97:0.25882366 192:0.39692143 246:0.55259967 #
0.9999999999334479 13:0.2070806 65:0.20552315 161:0.5124824 223:0.38191074 269:0.43874878 865:0.5602529 #
0.9999999999334479 4:0.069396108 14:0.061203811 36:0.25467914 65:0.18811224 87:0.17393939 93:0.14185162 97:0.13845626 160:0.23628078 161:0.46906742 255:0.20157537 452:0.1500489 463:0.10026948 513:0.18639006 694:0.18583784 695:0.27374825 696:0.37229207 699:0.21233088 700:0.27825737 701:0.25934824 #
-0.37977011906037478 177:0.49583492 262:0.4851678 865:0.72024989 #
-0.47069951725600201 100:0.48305464 162:0.41984907 455:0.29067281 3149:0.23932843 4312:0.66978818 #
-0.9999999999334479 28:0.44167566 97:0.34645885 177:0.44167566 262:0.4321737 552:0.29460508 694:0.46502173 #
-0.11547433681627065 4:0.18358105 30:0.38615 36:0.33686519 97:0.36627331 299:0.44766399 551:0.32394212 1125:0.51401395 #
-0.20871385506654028 13:0.11194571 14:0.072296984 15:0.17242689 65:0.11110377 463:0.23688659 684:0.24406524 872:0.1184433 889:0.29365009 1688:0.25203401 1689:0.24512957 1691:0.31414795 4098:0.25203401 5929:0.35840639 7402:0.34139639 8487:0.43976989 #
0.9999999999334479 31:0.26592562 46:0.16797456 86:0.25804153 106:0.17761223 465:0.28998065 727:0.19147162 818:0.46566513 842:0.27289391 1167:0.44208106 1168:0.44208106 #
0.9999999999334479 13:0.31329775 186:0.35267848 322:0.48863071 355:0.40000817 702:0.61538273 #
0.9999999999334479 46:0.27704269 350:0.44174027 616:0.40720409 727:0.3157967 1255:0.68012512 #
0.99647429693190759 4:0.074342728 14:0.065566473 23:0.15154423 31:0.20960997 34:0.13158593 78:0.26383379 106:0.13999891 153:0.15196294 206:0.24772301 255:0.21594384 392:0.22857083 437:0.18088844 455:0.13436542 624:0.28490224 645:0.28889152 956:0.34846058 1142:0.24605565 1162:0.19792376 1163:0.34846058 1164:0.27467164 #
-0.9999999999334479 14:0.20321152 86:0.6303879 471:0.60481459 3096:0.44217125 #
-0.94240876036931032 46:0.46676269 65:0.35521498 750:0.56848478 1336:0.57687086 #
-0.0086245764114561922 32:0.37738454 46:0.15615848 123:0.1892865 271:0.25994354 727:0.35600531 965:0.21151114 1009:0.38792878 2457:0.30324471 4434:0.41098309 5795:0.38336077 #
-0.18714983335006366 171:0.29521871 455:0.1718208 465:0.29228669 554:0.051415063 577:0.29830509 872:0.13736002 1167:0.44559664 1283:0.29087389 2690:0.41564792 3181:0.32878438 6459:0.35123846 #
-0.6399231392517043 4:0.17781523 161:0.60095108 554:0.096168444 990:0.29940501 3069:0.71298516 #
0.9999999999334479 97:0.55331022 100:0.83297527 #
0.9999999999334479 4:0.20237717 14:0.17848629 178:0.54519355 225:0.61340624 262:0.50366944 #
0.9999999999334479 4:0.1578804 262:0.39292738 574:0.74001986 589:0.52254421 #
0.9999999999334479 4:0.14101897 204:0.3173576 262:0.35096326 1091:0.52101821 1092:0.69624895 #
0.9999999999334479 15:0.36839992 177:0.44547218 505:0.41551852 535:0.702268 #
-0.67719333452758468 4:0.24576327 100:0.73817247 1578:0.62825298 #
0.76288536614044489 36:0.16210073 46:0.15733071 47:0.30078071 249:0.17377013 257:0.27719837 364:0.17625204 385:0.20204271 450:0.29047084 727:0.17933886 893:0.3341825 1162:0.23518854 1384:0.47392038 1385:0.41406822 #
-0.7648991289863255 11:0.16200057 14:0.034998652 15:0.083471105 71:0.10387959 82:0.078158893 94:0.09876249 123:0.17133608 145:0.11715187 231:0.12141882 265:0.12386815 285:0.15653959 319:0.13957623 321:0.11481935 336:0.13838218 364:0.079174511 414:0.1450372 437:0.096556231 1172:0.13048296 1280:0.13838218 1281:0.16526848 1358:0.41514653 1459:0.18600437 1460:0.15911807 1531:0.17896393 1660:0.19592731 2689:0.12885082 2690:0.17350295 2691:0.17350295 2692:0.21289067 2693:0.21289067 2694:0.30023751 2696:0.21289067 2697:0.21289067 2698:0.19592731 #
-0.37604423476388105 14:0.076323085 36:0.15879647 72:0.29247096 106:0.16296665 165:0.20052817 234:0.34699574 551:0.15270463 554:0.046803273 2055:0.32341546 3126:0.28836361 5576:0.40562788 6604:0.36863512 9750:0.42726722 #
0.9999999999334479 30:0.3089436 299:0.35815859 471:0.38553903 599:0.53681237 605:0.22649714 777:0.53681237 #
0.9999999999334479 13:0.17073108 708:0.58599937 749:0.48582321 750:0.27118236 752:0.56381875 #
0.9999999999334479 86:0.57197332 471:0.54876971 1273:0.60967064 #
-0.81230660061489945 93:0.28985998 388:0.38553512 554:0.15338494 681:0.48653865 785:0.13008055 6325:0.70012575 #
0.9999999999334479 23:0.17619474 143:0.16429999 278:0.18601045 548:0.25624907 549:0.17313443 550:0.35997644 551:0.15252168 552:0.14664187 554:0.046747204 556:0.25847045 557:0.27896163 558:0.20940092 559:0.4267554 560:0.38980696 561:0.27122265 562:0.19768718 #
-0.096209112308376171 13:0.075915359 111:0.13615891 214:0.15729479 259:0.24305129 322:0.47360155 364:0.11091147 476:0.20769501 551:0.098093137 626:0.16551147 1223:0.21303768 1465:0.16849448 1466:0.35882401 1494:0.27416274 3409:0.2744644 5215:0.21029358 7826:0.29822749 7829:0.29822749 #
-0.14272464388882039 14:0.073830403 36:0.15361023 46:0.14909005 132:0.28291896 399:0.3128528 662:0.2752566 757:0.1974093 1027:0.23686846 2904:0.44909742 2905:0.35659561 2906:0.41331282 2907:0.31667873 #
-0.0095364487859859182 87:0.34890485 1217:0.43679547 2870:0.59296393 3096:0.26713434 4795:0.51430357 #
0.61596207372684686 4:0.041504391 106:0.15631843 111:0.40663153 123:0.089599356 187:0.21384081 214:0.1174382 221:0.26632708 224:0.30296162 358:0.16349122 431:0.12955248 449:0.12888761 902:0.19454014 985:0.37233526 1297:0.13476381 1607:0.16372322 1765:0.14131469 2008:0.17679831 2009:0.22266026 2010:0.19454014 2011:0.22266026 2013:0.28708366 2016:0.16128364 #
0.9999999999334479 4:0.17270054 87:0.21643451 194:0.29627293 253:0.28037736 255:0.25082222 256:0.2986401 257:0.27095529 259:0.37753966 260:0.34062767 261:0.38942268 262:0.21490562 263:0.27391455 #
0.9999999999334479 22:0.2218864 81:0.20097059 100:0.2312254 268:0.25652078 471:0.20207472 476:0.14381088 684:0.22920485 801:0.15162301 1048:0.31427026 1411:0.26413319 1470:0.29122034 1578:0.19679418 1856:0.34717804 1857:0.38008586 1860:0.2312254 1861:0.20865422 #
0.9999999999334479 36:0.21561612 184:0.36871171 186:0.36127281 253:0.38153309 262:0.29244018 364:0.23443928 518:0.39154422 605:0.18120269 1949:0.46352077 #
0.9999999999334479 4:0.12268075 115:0.14734377 131:0.21390387 204:0.13804407 262:0.15266185 364:0.12238378 431:0.3829377 455:0.11086526 684:0.18263143 1280:0.21390387 1281:0.2554633 1283:0.18768279 1284:0.32907516 1285:0.57503146 1286:0.28751573 #
0.9999999999334479 123:0.1112594 155:0.14531127 262:0.12826551 286:0.39501467 287:0.41330189 288:0.33676845 289:0.17547655 290:0.1829017 291:0.25445607 292:0.16348475 293:0.18836373 294:0.18836373 295:0.40660438 296:0.27648687 297:0.20330219 #
-0.9999999999334479 4:0.16091338 14:0.070958681 30:0.16923507 36:0.14763539 167:0.25665766 177:0.20464042 278:0.17314403 532:0.21237442 556:0.48118386 557:0.51933146 788:0.31265002 955:0.22082664 1217:0.25246206 2373:0.15590957 #
-0.9999999999334479 32:0.17203993 93:0.16341168 178:0.21536398 191:0.19162761 288:0.26119176 457:0.32635665 471:0.20984623 605:0.12328084 684:0.23801973 744:0.29218328 801:0.15745422 1235:0.15665901 2826:0.32635665 4537:0.27219313 5296:0.25359187 5712:0.3063665 5936:0.31065631 #
-0.82029118664229617 4:0.15899348 287:0.63751572 370:0.42329076 554:0.085989021 749:0.61783946 #
-0.59580284212642343 14:0.084034838 471:0.50022262 554:0.051532317 1366:0.36515176 4015:0.44661283 4016:0.5111692 4017:0.38205647 #
-0.4883302352270848 4:0.058065064 14:0.10242082 16:0.20800233 42:0.21700168 49:0.12976651 55:0.09965004 71:0.15199776 81:0.15158378 82:0.11436295 106:0.10934554 115:0.13947625 153:0.23738 169:0.18971013 364:0.11584902 439:0.19770069 616:0.30399552 694:0.15549411 737:0.193483 1156:0.17214136 1280:0.20248233 1281:0.24182266 1424:0.17440373 1466:0.18739906 1897:0.22252168 2825:0.28668299 2826:0.23704103 2827:0.31150398 #
0.9999999999334479 15:0.15961316 55:0.13022761 146:0.29933447 735:0.24792258 764:0.28358856 872:0.2192826 960:0.2546193 1162:0.2020226 1283:0.46435332 1695:0.34221426 1804:0.27182776 1805:0.40708882 #
0.9999999999334479 308:0.22893003 549:0.21961054 581:0.40507653 840:0.38232613 994:0.33386827 1348:0.36287463 1988:0.58818024 #
0.9999999999334479 4:0.18699805 13:0.25536874 141:0.63198572 703:0.70739847 #
0.9999999999334479 4:0.15148342 13:0.20686916 177:0.38529584 359:0.47789383 419:0.45101833 455:0.27378783 1520:0.5282473 #
0.9999999999334479 13:0.08184842 115:0.14396769 302:0.19229631 519:0.2959148 1009:0.13258454 1023:0.26204664 1024:0.24467425 1025:0.64307016 1027:0.16958797 1029:0.26204664 1030:0.32153508 1031:0.2959148 #
-0.9999999999334479 13:0.10256232 94:0.18691376 385:0.17176856 455:0.27147898 798:0.1915033 974:0.27168342 994:0.22870232 997:0.15591507 1023:0.32836443 1348:0.2485719 2215:0.32836443 3418:0.21405068 3419:0.31991994 3420:0.35202408 3421:0.33869967 #
-0.16486391890860316 4:0.087567896 13:0.11958468 14:0.077230394 155:0.24689846 156:0.25050002 497:0.29382971 1457:0.3107684 2636:0.32353425 8793:0.43234646 8794:0.43234646 8795:0.43234646 #
-0.14757720494357626 4:0.0994891 14:0.17548858 561:0.31218317 802:0.26642472 1390:0.25179687 5256:0.44867626 6989:0.49120471 7218:0.53373319 #
-0.9999999999334479 87:0.26109052 94:0.2592462 359:0.65724093 605:0.16063493 1914:0.30751732 2937:0.55882645 #
0.9999999999334479 4:0.074744605 55:0.12827511 71:0.19566002 82:0.14721438 112:0.12115172 220:0.25080177 236:0.25260967 249:0.14702739 358:0.14721438 364:0.29825467 368:0.25260967 498:0.28644234 503:0.23981211 619:0.2114926 664:0.25850222 941:0.22761098 2211:0.36903438 2234:0.2731815 2457:0.25850222 #
0.9999999999334479 4:0.11001338 23:0.22425723 64:0.32477814 65:0.1491068 153:0.22487684 167:0.3509438 179:0.19947484 223:0.2770758 439:0.37457502 605:0.16965131 872:0.15895683 1578:0.28123093 2448:0.49613869 #
0.9999999999334479 4:0.12653692 14:0.11159908 81:0.33033538 82:0.24922276 290:0.44906497 864:0.40365404 990:0.21306267 2245:0.62474716 #
0.9999999999334479 14:0.078377225 34:0.15729594 74:0.35633469 111:0.21766751 153:0.18165433 155:0.25056478 224:0.21623147 364:0.17730623 418:0.26346132 552:0.15076917 748:0.22775684 799:0.25145593 872:0.12840448 908:0.31257197 985:0.26574519 1006:0.27885634 1417:0.3885487 #
0.9999999999334479 1089:0.59771293 1424:0.46199489 1444:0.6552099 #
-0.4405043245841434 106:0.128583 177:0.17367074 471:0.17923164 518:0.22752297 1211:0.25227416 2671:0.36630771 2672:0.36630771 2673:0.24955648 2674:0.36630771 2675:0.33711991 2676:0.33711991 2677:0.33711991 #
-0.18599869640334685 262:0.29709166 1223:0.45747125 1224:0.39251137 3927:0.53834909 7100:0.50849944 #
-0.24839300671299683 4:0.051777974 8:0.14811803 23:0.10554703 68:0.56191713 81:0.13517079 364:0.20661055 474:0.17765333 654:0.18211618 985:0.15483314 1352:0.18375407 3908:0.37096107 4630:0.25564191 4631:0.1749908 4632:0.27777538 4633:0.27777538 4634:0.27777538 #
-0.9999999999334479 14:0.063804634 17:0.24106644 160:0.24632141 419:0.21539618 452:0.3128503 699:0.22135377 1089:0.2811287 1534:0.19669068 1798:0.35718721 2790:0.31630626 3195:0.32626197 3244:0.38811243 3245:0.28538105 #
-0.0019205361725923575 505:0.33010146 1024:0.56801134 1424:0.41791624 4400:0.62748879 #
0.9999999999334479 4:0.15760373 14:0.046332803 23:0.10708932 143:0.099859819 249:0.10333885 385:0.1201522 410:0.22378415 415:0.15779239 455:0.094949841 556:0.15709563 557:0.16954996 558:0.38181505 561:0.16484629 640:0.21878991 641:0.21446371 713:0.18024927 785:0.048191283 798:0.13395666 872:0.075906485 989:0.28183433 990:0.088457637 991:0.22969107 992:0.24624102 993:0.24624102 994:0.15997739 996:0.24624102 997:0.10906266 1001:0.19409777 1002:0.16152047 1005:0.20132728 #
0.9999999999334479 19:0.36177015 192:0.37016204 239:0.39281955 1007:0.47012153 2447:0.59731144 #
0.9999999999334479 93:0.21991347 177:0.27364144 190:0.37516719 192:0.32917792 300:0.43138415 400:0.31895024 415:0.32314205 2451:0.48518819 #
0.67841146885284809 4:0.06354326 14:0.11208379 23:0.12953001 94:0.15814431 233:0.15328299 234:0.50957841 271:0.18838215 299:0.1549508 385:0.14533024 389:0.22986637 666:0.50957841 1046:0.25940484 1172:0.20893697 1652:0.21976267 1726:0.24037898 1791:0.21976267 #
0.32161641631043603 192:0.45088169 231:0.45088169 400:0.21843632 520:0.31386197 1007:0.57263893 2190:0.34535819 #
-0.9999999999334479 192:1 #
-0.28143398018672156 192:0.77588475 605:0.39104873 1272:0.49505934 #
-0.82889248780149805 55:0.32509559 192:0.57959759 3793:0.74724799 #
-0.9999999999334479 81:0.51748019 192:0.60650444 994:0.60362792 #
0.9999999999334479 2:0.11380383 4:0.059373599 16:0.2126898 55:0.10189572 455:0.10731055 465:0.18254742 534:0.44378391 551:0.10476904 554:0.032111235 611:0.16244124 780:0.17246291 1075:0.20534202 1532:0.25291669 1534:0.16142406 1536:0.29314357 1537:0.44378391 1538:0.31852391 1539:0.31852391 #
0.9999999999334479 4:0.22282401 15:0.23434742 33:0.34254238 55:0.19120294 115:0.26761925 143:0.21177639 196:0.39186409 572:0.30677724 1020:0.32235849 1366:0.42696217 1367:0.30197048 #
0.9999999999334479 67:0.29284292 95:0.25517207 108:0.27240139 630:0.32247621 689:0.29284292 1079:0.27628139 1080:0.35742125 1081:0.38317454 1083:0.29572457 1084:0.38317454 #
0.9999999999334479 17:0.41494039 213:0.41214752 495:0.45512354 554:0.067347504 1781:0.66804624 #
0.9999999999334479 4:0.13406906 14:0.11824204 32:0.14425933 67:0.240133 95:0.20924269 97:0.13374452 208:0.18834299 257:0.21034516 354:0.27365738 465:0.20610137 476:0.12522632 561:0.21034516 651:0.25358617 872:0.096857272 1682:0.26443249 1705:0.27917764 1706:0.35962281 1707:0.22041665 1708:0.22041665 1709:0.26878816 1710:0.22493103 #
-0.9999999999334479 2:0.066904038 4:0.1047153 15:0.07342045 23:0.071152441 29:0.13204314 30:0.07342045 46:0.062164959 95:0.10895334 96:0.14868699 223:0.087910742 252:0.086870626 319:0.12277002 431:0.10895334 432:0.096112527 497:0.11712231 588:0.11552705 603:0.092660956 651:0.13204314 715:0.14868699 817:0.1101172 842:0.20198819 857:0.15741511 906:0.12277002 1099:0.13204314 1196:0.11976147 1242:0.11552705 1277:0.093199141 1695:0.15741511 1762:0.14249429 2151:0.14536871 2160:0.24343951 2448:0.15741511 2700:0.14536871 2786:0.23261982 2907:0.13204314 2974:0.18725677 2975:0.14249429 2976:0.37451354 2977:0.18725677 2978:0.17233594 2979:0.12503803 2980:0.17233594 2981:0.17233594 2982:0.18725677 2983:0.16360782 #
-0.9999999999334479 65:0.58055973 143:0.81421769 #
-0.9999999999334479 14:0.10104069 65:0.15527621 111:0.28060797 223:0.28854001 385:0.26202303 463:0.16553378 748:0.29361472 872:0.16553378 1622:0.36546433 1860:0.34410724 1914:0.33821607 5008:0.47712815 #
-0.9999999999334479 14:0.26647535 167:0.96384174 #
0.9999999999334479 192:0.76660281 748:0.64212155 #
0.9999999999334479 192:0.49506274 385:0.37005708 1504:0.47185075 1815:0.62875074 #
0.85919780503572729 2:0.13172415 3:0.25117326 13:0.093849629 93:0.28095135 94:0.17103541 192:0.21027128 224:0.16721463 233:0.16577782 266:0.26705348 350:0.19515473 370:0.36592442 373:0.36868086 374:0.23579264 376:0.33930397 378:0.32211959 380:0.22179636 #
0.9999999999334479 4:0.098545477 14:0.086912066 60:0.31804544 192:0.30151904 1099:0.37278953 1325:0.30448419 1326:0.52867085 1327:0.52867085 #
0.9999999999334479 4:0.12911843 70:0.32678571 165:0.29919273 192:0.39506289 212:0.39894798 213:0.42734936 1978:0.53773749 #
-0.97167863068760363 4:0.091969848 60:0.59364653 212:0.28416693 364:0.18349443 455:0.3324486 554:0.099480763 558:0.22280864 785:0.084366255 2541:0.43108276 3382:0.40210953 #
-0.41368661003310475 14:0.084599562 64:0.28318226 728:0.23090157 735:0.31340098 748:0.24583836 1681:0.33174869 1699:0.33450067 2738:0.23873103 3666:0.28086209 7079:0.4086099 7080:0.41939542 #
-0.9999999999334479 55:0.28361976 213:0.54697663 748:0.42354429 817:0.52136308 2738:0.41129935 #
0.9999999999334479 167:1 #
0.9999999999334479 167:0.60186028 248:0.55468273 602:0.57453573 #
0.9999999999334479 14:0.095403679 49:0.24175169 143:0.20562094 619:0.30608153 642:0.36297154 767:0.34706682 841:0.33097854 842:0.31298888 1374:0.58032387 #
0.9999999999334479 46:0.15935849 82:0.17623365 167:0.28543714 212:0.27646902 248:0.26306278 614:0.32053223 1242:0.29615104 1265:0.30240473 1399:0.20316529 1522:0.48002857 1523:0.40353015 #
0.9999999999334479 14:0.13912252 65:0.21379918 94:0.39258903 358:0.31068802 649:0.63250744 1117:0.53311908 #
-0.9999999999334479 14:0.26647535 167:0.96384174 #
-0.36648107518522421 14:0.073071428 23:0.16889049 112:0.13429318 338:0.22456226 400:0.24562612 554:0.044809274 581:0.30611148 619:0.23443346 695:0.32682893 1296:0.21513149 1358:0.28891924 1652:0.2865423 1654:0.24258985 2241:0.27242696 5379:0.35292983 5380:0.33221239 #
-0.30619246755820778 228:0.1831287 280:0.20165981 412:0.19591178 760:0.17405897 799:0.14465001 960:0.17153548 1086:0.23961739 1508:0.13730639 1678:0.16216405 1755:0.1831287 3108:0.19591178 3932:0.20498151 4365:0.17680217 5426:0.17034563 6000:0.18887675 6782:0.21776459 8283:0.25240046 8284:0.27425328 8285:0.50480092 8286:0.23054765 #
-0.9999999999334479 295:0.35340372 358:0.17645147 392:0.27544647 513:0.24062598 599:0.32743594 2349:0.41992339 2358:0.44232538 2600:0.48062187 #
0.9999999999334479 4:0.094513893 23:0.19266224 55:0.16220276 143:0.17965579 455:0.17082235 1237:0.57032442 1682:0.3728309 2159:0.36220384 2160:0.32958534 2162:0.40260556 #
0.9999999999334479 13:0.11083075 15:0.17070955 34:0.14364833 111:0.59634542 131:0.28301004 191:0.19453771 276:0.28801927 351:0.36600512 387:0.28068167 738:0.24163437 748:0.20799576 1622:0.25889382 #
-0.49731458636589343 28:0.42081764 51:0.63404793 179:0.29999036 554:0.089480489 588:0.54759508 785:0.15177071 #
0.9999999999334479 4:0.082331046 55:0.14129481 452:0.17801693 2035:0.24954583 2036:0.45340341 2037:0.31145167 2038:0.44168466 2039:0.44168466 2040:0.26263687 2041:0.34288281 #
0.9999999999334479 111:0.21876246 179:0.32389063 664:0.30889454 805:0.31994775 848:0.62291384 1148:0.24282905 1914:0.26367384 1915:0.36461484 #
-0.9999999999334479 211:0.41800576 257:0.34672827 848:0.77065057 1237:0.33338925 #
-0.39939384141635464 13:0.18563244 86:0.37189999 165:0.31498224 168:0.3860116 223:0.34235471 805:0.48694122 848:0.47401869 #
-0.62114578838184931 111:0.21108763 179:0.15626378 805:0.61744606 848:0.60106015 1725:0.35182306 1914:0.25442338 #
-0.9999999999334479 2:0.17066589 4:0.089039609 71:0.23308028 111:0.21808727 322:0.3792865 700:0.35702187 701:0.33276024 2209:0.35123637 3401:0.35702187 7169:0.47767437 #
0.9999999999334479 2:0.073697977 13:0.052507665 14:0.16955297 71:0.10065013 112:0.18696618 115:0.092358619 319:0.13523701 479:0.36044353 788:0.149413 813:0.28411713 836:0.13909067 1148:0.20907252 1220:0.59765202 1658:0.149413 1740:0.18983622 1741:0.18022177 1742:0.18022177 1743:0.18983622 1744:0.18983622 1745:0.20627221 #
0.9999999999334479 65:0.10755524 97:0.15832776 463:0.22932072 801:0.15629679 1273:0.23142064 1517:0.18788809 1604:0.33803663 1918:0.42572418 1919:0.34695932 1920:0.24900818 1921:0.37195879 1922:0.42572418 #
0.9999999999334479 14:0.052148849 23:0.12053198 112:0.095840946 224:0.14387114 509:0.22368063 826:0.20449647 907:0.22977231 1117:0.19983499 1296:0.15353277 1890:0.22977231 1971:0.24625409 2142:0.22659941 2347:0.31721231 2348:0.63442463 2349:0.27715108 #
0.9999999999334479 14:0.12835152 71:0.19048025 77:0.20815678 82:0.14331713 177:0.1850789 213:0.24083662 278:0.15659325 455:0.13151543 782:0.27194172 783:0.28704098 784:0.30996439 785:0.066749953 786:0.39036992 787:0.39036992 788:0.28276393 790:0.32815969 #
-0.088546370480608871 82:0.39186403 1220:0.77314562 3109:0.49868673 #
-0.053955335944670592 4:0.1417935 34:0.25097317 82:0.2792716 819:0.44492859 1273:0.41350314 4109:0.46040028 5152:0.50793672 #
-0.9999999999334479 93:0.24474515 155:0.33758906 186:0.3681266 780:0.34779012 1273:0.34917036 2107:0.43313259 8595:0.51003385 #
-0.9999999999334479 31:0.2364977 93:0.17145599 269:0.48538974 415:0.25193837 452:0.18136403 554:0.045364603 687:0.28348079 705:0.27761844 1235:0.16437091 2041:0.34932974 2077:0.35730374 2182:0.30990517 3613:0.2246221 #
0.9999999999334479 65:0.1602221 847:0.63418961 848:0.41223291 849:0.63418961 #
0.9999999999334479 12:0.16097881 14:0.089012295 47:0.17181851 82:0.099391006 86:0.13806373 94:0.2511833 111:0.12360149 112:0.081794932 187:0.25999993 196:0.17749256 211:0.190899 233:0.12173099 364:0.20136505 415:0.15157148 471:0.13246281 561:0.15834729 731:0.17597415 848:0.17597415 872:0.0729139 1107:0.15157148 1152:0.16190787 1329:0.14228205 1529:0.21496154 1730:0.22758007 1797:0.24915159 2004:0.18255033 2392:0.24915159 2540:0.24915159 2541:0.23653306 2544:0.23653306 #
0.9999999999334479 4:0.066300102 14:0.058473289 55:0.056891419 70:0.083899431 125:0.084528521 187:0.17079721 213:0.10971829 288:0.21661562 317:0.10265884 358:0.065291196 455:0.059914678 503:0.1063593 700:0.5316866 701:0.37166667 831:0.12115899 1096:0.10698839 1107:0.099569209 1172:0.10900089 1211:0.12247841 1237:0.10001854 1297:0.10763746 1298:0.1380595 1299:0.15538153 1300:0.1778414 1302:0.1380595 1303:0.13532959 1305:0.12540394 1306:0.1778414 1307:0.11764571 1308:0.1778414 1312:0.056672178 1313:0.1063593 1314:0.13076767 1316:0.12704033 1318:0.16367079 1319:0.16367079 1320:0.1778414 1321:0.11659708 #
0.9999999999334479 4:0.054016594 86:0.29556984 106:0.10172164 364:0.10777167 469:0.37066832 471:0.14178963 472:0.80008376 473:0.23617074 474:0.18533416 #
-0.80173498441454227 4:0.18795137 70:0.47568595 642:0.63066149 3576:0.58366364 #
-0.9999999999334479 36:0.13308699 94:0.18050592 177:0.1844746 233:0.1749572 299:0.35372168 351:0.65417647 364:0.14470541 535:0.2908164 882:0.24336502 1011:0.30895233 1214:0.26796785 #
-0.94063518197759755 15:0.098720491 196:0.16507548 358:0.092437781 361:0.1999232 385:0.10734099 455:0.084825836 614:0.33625007 682:0.15333973 689:0.16812503 1444:0.1999232 1755:0.33625007 1778:0.17754404 2025:0.53958237 2561:0.20520031 3454:0.20520031 3455:0.21165897 3457:0.17153414 3458:0.21998562 3459:0.21998562 #
-0.021908939670864283 4:0.096821018 14:0.25617352 77:0.27696985 111:0.23714647 121:0.3348529 177:0.24626283 455:0.17499219 463:0.13989535 785:0.088816352 985:0.28952664 990:0.16302708 1074:0.32965747 1919:0.42331976 2589:0.28123668 3242:0.28952664 #
-0.69428363695640372 45:0.17413695 141:0.15356906 179:0.24717093 194:0.15590563 415:0.13648169 437:0.110562 498:0.17413695 503:0.14578903 605:0.070072114 738:0.13528904 985:0.13587902 1297:0.14754102 2157:0.15141238 3096:0.087200515 3191:0.15715131 3209:0.37099847 3717:0.32554933 4193:0.24377109 4194:0.48754218 4195:0.24377109 4198:0.24377109 #
0.9999999999334479 65:0.24920163 155:0.51840883 161:0.6213969 269:0.53199315 #
0.9999999999334479 603:0.49261844 604:0.51433432 2294:0.7019881 #
0.9999999999334479 4:0.11939543 145:0.35247555 163:0.64052546 165:0.5533253 167:0.38087264 #
-0.9999999999334479 13:0.50772864 165:0.86151701 #
-0.64624421508048024 117:0.32350451 165:0.4726305 249:0.20060758 572:0.28081486 1513:0.50351906 2630:0.54711372 #
-0.098200801235466012 2:0.16696414 165:0.20184712 269:0.25203848 474:0.29887393 604:0.24143627 678:0.2406404 1974:0.27050599 2152:0.32952377 4472:0.2678194 4509:0.36277872 5234:0.30376095 5352:0.43007752 #
-0.21857155844447476 14:0.090130344 65:0.13850953 100:0.30695063 162:0.2667875 548:0.30296883 549:0.2047006 603:0.27129114 785:0.093745619 1289:0.22838911 2103:0.33388987 2160:0.35636899 9669:0.5482471 #
0.9999999999334479 4:0.094051041 15:0.19782984 122:0.34374395 123:0.20303667 168:0.26707962 169:0.30728346 171:0.29206583 174:0.39169288 175:0.5045594 176:0.36547691 #
0.9999999999334479 560:0.3614949 728:0.19295084 729:0.23469993 990:0.1349692 1312:0.13703462 1390:0.20287074 2372:0.43002456 2373:0.15532994 2374:0.3614949 2375:0.37571609 2376:0.24766958 2378:0.39575973 #
0.9999999999334479 13:0.16735803 93:0.50100851 1403:0.39791945 1428:0.60506624 1429:0.44332463 #
0.9999999999334479 392:0.66735643 681:0.74473852 #
0.9999999999334479 2:0.20234129 14:0.093103148 15:0.1110246 106:0.099397898 192:0.16149871 359:0.33303308 539:0.21547636 602:0.16073276 1725:0.43095273 1786:0.42328471 2117:0.43095273 2118:0.2831651 2119:0.14219366 2120:0.26060218 #
-0.59125464995957866 4:0.15882823 15:0.33408415 176:0.61719728 3249:0.69442701 #
-0.6139894566247599 681:0.71971583 5213:0.69426876 #
-0.6967871720039498 93:0.36671755 145:0.26481572 156:0.25660515 208:0.50406134 308:0.37460494 801:0.17667411 826:0.31023225 1235:0.17578185 1955:0.42045322 #
-0.9999999999334479 2:0.46324757 15:0.5083676 812:0.72592294 #
0.9999999999334479 4:0.073520415 14:0.064841233 46:0.13093771 55:0.12617418 97:0.14668489 248:0.21614686 249:0.14461933 278:0.15821706 727:0.14925389 1268:0.39441788 1270:0.27163348 1272:0.28706223 1273:0.21440277 1274:0.26870728 1275:0.33156258 1276:0.39441788 1277:0.19630483 1278:0.29479459 #
0.9999999999334479 82:0.30568495 86:0.42462596 122:0.56725073 165:0.35963872 236:0.52453417 #
0.9999999999334479 13:0.15681286 600:0.40751436 623:0.46876979 1832:0.5669412 1833:0.51785553 #
0.9999999999334479 13:0.17516975 321:0.37113816 455:0.2318342 604:0.35552594 675:0.4217687 676:0.68814057 #
0.9999999999334479 165:0.14917208 301:0.25016183 465:0.19792791 521:0.60348976 878:0.43202165 1411:0.22087827 1828:0.30174488 1829:0.31784233 1830:0.29032356 #
-0.27506746868592002 13:0.24548203 122:0.65699267 1494:0.44327015 4488:0.55822104 #
-0.94328416114563518 86:0.43982357 97:0.3207399 471:0.42198098 3033:0.72499186 #
-0.9999999999334479 4:0.26236397 70:0.33200836 86:0.35890302 350:0.37252146 1278:0.52599996 1892:0.52599996 #
-0.57776258171316297 86:0.63337946 471:0.3038424 990:0.38980839 1176:0.50609261 1861:0.31373543 #
-0.30284462576939358 278:0.20504868 434:0.33226442 465:0.2929503 2564:0.35609004 3123:0.41659164 4124:0.3446812 6876:0.34824356 10037:0.47043392 #
0.9999999999334479 2:0.14951764 14:0.068797439 30:0.16408056 36:0.14313875 95:0.24348973 123:0.16839913 192:0.23867503 233:0.18817131 299:0.19021873 634:0.27683491 875:0.29894158 927:0.15923116 982:0.31844726 983:0.22483553 985:0.46652812 986:0.38513762 #
0.9999999999334479 2:0.28395268 4:0.098762311 14:0.13065495 15:0.10386983 93:0.10093933 112:0.080040716 280:0.19479485 354:0.20159039 761:0.22269928 980:0.24380817 1864:0.44539857 1939:0.26491705 1941:0.19800347 1942:0.26491705 1943:0.20565692 1944:0.24380817 1945:0.26491705 1946:0.19800347 1947:0.18680489 1948:0.23146026 #
0.9999999999334479 2:0.16085593 4:0.041960787 13:0.05730259 15:0.17652321 16:0.15031312 17:0.13982071 32:0.18060051 57:0.26195419 204:0.18886217 223:0.10568095 338:0.45492116 426:0.10443059 1141:0.31363302 1767:0.36692098 2339:0.18923488 2380:0.22510871 2381:0.4143436 2382:0.19667937 #
0.9999999999334479 2:0.1431427 23:0.15223224 52:0.29459268 65:0.10121798 223:0.188087 255:0.21692422 738:0.22234881 1261:0.33679318 1406:0.33679318 1413:0.1899481 2189:0.27909619 2485:0.26042217 2486:0.24555658 2487:0.35004261 2488:0.36871663 #
0.9999999999334479 4:0.055630971 18:0.19742791 39:0.17275625 40:0.15797697 82:0.10956884 208:0.15630308 385:0.12723398 619:0.15740988 687:0.37602508 777:0.20332375 785:0.051031686 1046:0.22710423 1148:0.15124866 1283:0.17021376 1663:0.27466521 1791:0.19239825 1839:0.21044745 2182:0.61661381 #
-0.9999999999334479 4:0.074220888 13:0.10135771 14:0.06545902 55:0.12737633 67:0.2658762 82:0.14618291 115:0.17828365 233:0.17904024 338:0.2011679 410:0.31616244 455:0.13414522 554:0.04014115 1068:0.3347216 1148:0.20179066 1652:0.25669098 7459:0.39817578 7460:0.3347216 7462:0.39817578 #
-0.9999999999334479 14:0.089991756 65:0.13829654 338:0.27656159 355:0.35582101 455:0.18442017 561:0.32017937 3635:0.30927587 3636:0.30786172 5480:0.43465382 9595:0.50378633 #
-0.9999999999334479 2:0.16792472 4:0.087609485 14:0.15453415 23:0.17858791 36:0.16076052 37:0.32020092 71:0.22933662 112:0.14200409 255:0.25447989 257:0.27490655 263:0.27790895 1694:0.33141956 2137:0.61628926 #
-0.9999999999334479 65:0.13075064 186:0.29660207 248:0.28361738 599:0.3525846 1270:0.35642421 1413:0.24536979 1466:0.31134674 3067:0.328462 4789:0.3060154 7260:0.45217553 #
0.9999999999334479 249:0.59968156 471:0.80023873 #
0.9999999999334479 4:0.075179204 14:0.066304207 86:0.20568407 271:0.22287843 526:0.24562542 2555:0.40331689 2556:0.40331689 2557:0.40331689 2558:0.28096092 2559:0.40331689 2561:0.32869768 #
0.9999999999334479 86:0.43590495 199:0.63885224 249:0.31340599 664:0.5510276 #
-0.34151546121568854 249:0.37718406 278:0.41264853 505:0.45491889 863:0.41264853 947:0.55697703 #
-0.068614781655720186 143:0.29535332 249:0.30564317 278:0.33438104 505:0.36863396 863:0.33438104 1020:0.44957632 5190:0.50765878 #
-0.42993153781914079 249:0.36396319 278:0.39818457 863:0.39818457 5230:0.74190897 #
-0.9999999999334479 46:0.14650494 141:0.27801335 249:0.32362634 616:0.21533655 727:0.16699873 731:0.28685847 1105:0.27410901 1272:0.16059557 1350:0.30392808 1497:0.30742815 5524:0.27226406 7133:0.35966185 7824:0.38557658 #
0.9999999999334479 4:0.25752559 13:0.087920681 14:0.056781091 70:0.16294281 338:0.17449898 603:0.17091033 604:0.1784445 681:0.22089642 684:0.1916856 689:0.23062888 872:0.18604758 1148:0.17503919 1237:0.19424807 1272:0.12568936 1289:0.14388254 1470:0.24354959 1892:0.25814989 1893:0.34538946 1894:0.31786844 1896:0.34538946 1897:0.24672763 #
0.8425805518373789 4:0.10809126 13:0.14761186 31:0.30476427 455:0.19536179 477:0.31521949 715:0.46044177 716:0.43341321 717:0.57988149 #
0.9999999999334479 4:0.1447363 14:0.12764999 153:0.29585347 388:0.39350691 419:0.43092984 437:0.35216793 1465:0.43869644 1466:0.46712157 #
0.9999999999334479 4:0.1353544 36:0.24837087 455:0.24463658 572:0.37270355 699:0.41414309 707:0.54273015 785:0.12416399 974:0.48964164 #
0.9999999999334479 65:0.085513636 350:0.17916805 745:0.24888554 930:0.26876181 1171:0.42341304 1193:0.2957322 1194:0.41764596 1195:0.22191513 1196:0.21647699 1198:0.2957322 1199:0.31150889 1201:0.18866977 1202:0.2627638 #
-0.9999999999334479 2:0.17324498 82:0.17801952 87:0.2265479 153:0.18475509 223:0.2276409 532:0.23858176 603:0.23994136 604:0.25051862 605:0.13938271 664:0.31259474 687:0.30546916 1272:0.17645554 1289:0.201997 1403:0.29347861 2262:0.42365506 2750:0.27523938 #
-0.67426583641067972 4:0.13316984 321:0.38531244 358:0.26228672 455:0.24068826 1079:0.45006585 1195:0.4683919 4012:0.53397071 #
-0.9999999999334479 4:0.17522396 455:0.31669596 1465:0.53110474 3840:0.76611227 #
-0.80941047034401148 4:0.29956403 321:0.43337795 2004:0.54183322 2884:0.65487528 #
-0.9999999999334479 32:0.16327754 77:0.21704209 93:0.15508874 94:0.18882747 145:0.22398676 204:0.34149349 419:0.22589685 518:0.25281855 688:0.29929352 1870:0.23442781 2191:0.35562825 4111:0.41648597 5802:0.37460026 #
0.9999999999334479 14:0.1813437 249:0.40446186 278:0.44249105 863:0.44249105 1137:0.6418165 #
0.9999999999334479 248:0.55402356 249:0.37068558 251:0.57938814 252:0.4689984 #
0.9999999999334479 8:0.22334628 14:0.034429379 23:0.079576857 28:0.099292189 71:0.40875971 141:0.26386756 153:0.079796717 165:0.1809167 878:0.13098955 1019:0.11384352 1080:0.17068084 1118:0.19274044 1497:0.14589286 1599:0.29920802 1647:0.14589286 1771:0.38548088 1772:0.19274044 1773:0.20942789 1774:0.15652993 1775:0.20942789 1776:0.19274044 1778:0.14767699 1779:0.16629146 1780:0.20942789 #
0.9999999999334479 32:0.18289593 65:0.1151889 83:0.30161339 93:0.17372324 358:0.16738985 359:0.26811743 599:0.62124109 672:0.34695032 673:0.29636773 674:0.37158453 #
0.9999999999334479 32:0.1907866 55:0.15214759 143:0.16851869 265:0.27672872 278:0.1907866 358:0.17461154 572:0.24411455 674:0.38761577 694:0.23741138 767:0.28444207 893:0.33537412 956:0.41554466 957:0.36921948 #
-0.4885050672562069 14:0.090108633 278:0.21987124 317:0.15819955 572:0.2813288 674:0.44670621 854:0.46076623 1074:0.34786949 1148:0.27777809 2643:0.47889274 #
-0.28032397565896983 388:0.23500909 392:0.26576152 425:0.17406461 572:0.23801312 982:0.35287294 2177:0.36820856 2220:0.35999116 3506:0.2573587 3551:0.25107998 3604:0.38982287 3605:0.3409777 #
-0.32524160722248452 1099:0.44084466 1137:0.36375609 1920:0.36567271 2599:0.38570336 8845:0.62518311 #
-0.85473699532626657 4:0.20829955 251:0.64042848 3448:0.73923111 #
-0.98839787666442913 14:0.10002878 187:0.29217845 271:0.33624193 738:0.33768415 971:0.35043675 2002:0.43464932 4661:0.4630098 5612:0.38914359 #
0.9999999999334479 4:0.03878966 13:0.05297203 194:0.13308965 235:0.54544681 321:0.22446731 455:0.14021516 463:0.056046646 577:0.12171663 581:0.14331488 684:0.11549018 796:0.13109501 1142:0.12838396 1348:0.12838396 1445:0.20809643 1446:0.32309335 1447:0.20809643 1448:0.17493372 1449:0.16154668 1450:0.29347625 1451:0.1237394 1452:0.16523425 1453:0.15301436 1454:0.15553477 1456:0.16959572 1457:0.13766004 1458:0.19151507 #
0.9999999999334479 4:0.21917011 13:0.29930362 455:0.39612326 726:0.83992153 #
0.9999999999334479 4:0.17395325 87:0.14533632 179:0.1051366 186:0.1782763 997:0.24075326 1273:0.16909617 1517:0.13728747 1878:0.27178565 1879:0.2614983 1880:0.25351882 1881:0.27178565 1882:0.31107134 1883:0.31107134 1884:0.27178565 1885:0.2862848 1886:0.27178565 1887:0.31107134 #
0.9999999999334479 13:0.20030062 14:0.12935852 189:0.53058821 259:0.64128423 321:0.42438379 455:0.26509449 #
0.9999999999334479 4:0.21448748 34:0.18982039 455:0.19382998 785:0.098377377 2499:0.57533473 2500:0.57533473 2502:0.45683151 #
-0.9999999999334479 13:0.26534906 31:0.27392417 46:0.17302693 600:0.34478536 726:0.37231824 727:0.19723076 1367:0.2633234 1837:0.39661169 2636:0.35894862 5056:0.2633234 5177:0.3215524 #
-0.79297903296492023 13:0.42408693 1273:0.90562147 #
-0.9999999999334479 4:0.23640858 13:0.32284486 36:0.43380195 55:0.40571943 3009:0.69791818 #
-0.031347985093009789 15:0.20445283 36:0.17835826 46:0.17310983 121:0.3361626 123:0.20983398 476:0.18157749 551:0.17151596 552:0.16490389 554:0.052568864 777:0.35525191 816:0.18519863 1156:0.28816101 1162:0.25877625 4795:0.35912058 8934:0.45559624 #
-0.53098473892312781 4:0.3658759 14:0.16134189 455:0.33063805 785:0.16781357 872:0.26432452 1655:0.64922571 2871:0.45962948 #
0.9999999999334479 4:0.14121266 31:0.19907518 55:0.1211731 87:0.17697278 143:0.13421133 477:0.20590463 503:0.2265348 572:0.38883448 974:0.25541687 1020:0.20429173 1329:0.19907518 1348:0.23368911 1350:0.52173382 1351:0.30870423 1352:0.25057375 #
0.85993545241540947 266:0.4532263 353:0.44121045 392:0.35859242 1067:0.44121045 1068:0.52598864 #
0.9999999999334479 69:0.3579284 447:0.20949739 914:0.27915287 954:0.26823089 1724:0.30841458 1753:0.37200931 1755:0.28430983 1756:0.34700641 1757:0.32400161 1758:0.37200931 #
0.9999999999334479 4:0.077055797 179:0.13971657 186:0.23691231 187:0.19850521 518:0.25676343 531:0.22748177 605:0.11882751 747:0.32823843 971:0.23808573 1032:0.28469554 1299:0.36117736 1748:0.20949815 1823:0.25855687 1824:0.29943436 1825:0.41338429 #
0.9999999999334479 15:0.095343575 46:0.080727227 74:0.18175015 81:0.11833168 89:0.20441878 94:0.11280993 187:0.1167696 205:0.15552188 211:0.17147082 364:0.090435863 424:0.24317107 425:0.091277547 426:0.11280993 427:0.20441878 428:0.24317107 431:0.14148648 432:0.24962287 433:0.18175015 434:0.1580649 435:0.18175015 437:0.11028986 438:0.13218607 439:0.15433219 440:0.24317107 441:0.24317107 442:0.33879843 444:0.1674706 445:0.21246061 446:0.24317107 447:0.1196474 449:0.14076036 #
-0.9999999999334479 4:0.029836286 12:0.19035609 14:0.078942224 60:0.096293554 68:0.10793212 97:0.059528124 155:0.084123671 239:0.19375548 300:0.23926893 301:0.23188415 308:0.062299673 319:0.10494173 412:0.22868209 425:0.060082149 426:0.074255534 531:0.17616354 554:0.032272931 570:0.18928935 595:0.19035609 614:0.10688039 640:0.24851741 641:0.24360339 662:0.29431462 914:0.20988347 1157:0.095178045 1755:0.21376078 1786:0.11963446 2013:0.103188 2406:0.11434104 3012:0.38128534 3625:0.10404398 3677:0.16006391 3679:0.14730984 3680:0.13984919 3682:0.13044988 #
-0.22489598786797002 32:0.31580397 34:0.25974262 214:0.4152289 415:0.44077107 1213:0.44687456 1375:0.51614976 #
-0.38382953536914222 14:0.085352287 29:0.36609924 32:0.20826542 265:0.30208108 425:0.19488236 455:0.1749125 572:0.26647899 614:0.34667706 785:0.088775903 1804:0.34667706 3302:0.38175792 6606:0.43644485 #
-0.75487946654855231 47:0.1657057 82:0.09585496 95:0.30382666 123:0.10506427 249:0.095733203 549:0.097484507 562:0.1113091 872:0.070319831 1280:0.1697135 1281:0.20268716 1313:0.15614766 1348:0.16107903 1362:0.1657057 1446:0.40537432 1900:0.1778753 2099:0.2402875 2119:0.13110927 2391:0.21948344 2509:0.2402875 2512:0.20731384 2812:0.2281179 2813:0.26109156 2814:0.26109156 2818:0.26109156 #
0.9999999999334479 13:0.28153327 36:0.37829217 611:0.56402969 662:0.67786765 #
0.72131976962599553 4:0.10256895 13:0.14007047 36:0.18821065 64:0.30280092 65:0.13901699 145:0.30280092 216:0.36076087 349:0.55025578 350:0.2912682 351:0.46256578 #
0.9999999999334479 4:0.07260114 13:0.099145748 82:0.14299271 364:0.14485079 388:0.19738691 583:0.65483367 584:0.38948622 585:0.30236083 586:0.26007387 587:0.32741684 588:0.24029143 #
0.9999999999334479 4:0.17202121 14:0.075856946 34:0.15223795 86:0.23531787 437:0.20927836 799:0.24337016 853:0.33423221 1273:0.2508271 1517:0.20364399 1872:0.36638367 1873:0.35820702 1874:0.30252096 1877:0.46142453 #
0.9999999999334479 13:0.19898781 206:0.48553851 625:0.50812203 1632:0.68298477 #
-0.21453798332334939 13:0.094666146 23:0.14130743 46:0.12345845 463:0.10016078 510:0.26223522 1273:0.20215593 1409:0.22943458 1517:0.16412836 1520:0.24173318 1975:0.21313088 2003:0.2656571 2234:0.25335851 3059:0.13115054 3719:0.28869957 4100:0.27345148 5848:0.34225598 6197:0.29528961 7011:0.37188846 #
-0.086343415348302172 452:0.22954208 1032:0.39222926 1114:0.32801422 1277:0.28345731 1299:0.49759936 1325:0.32801422 2020:0.30482656 6887:0.39674622 #
-0.9999999999334479 2:0.18365045 4:0.0958139 14:0.08450295 86:0.26213887 392:0.29458514 471:0.25150454 932:0.35400048 2589:0.27831131 3631:0.51401663 3632:0.51401663 #
-0.73898480337294292 30:0.096170157 36:0.16779168 106:0.086099036 111:0.22396965 155:0.12890969 259:0.1998992 269:0.13228764 605:0.070505641 875:0.17521431 902:0.21430255 1312:0.078162394 1880:0.1998992 2049:0.13989113 2570:0.18035507 2930:0.15567018 2959:0.17086783 3438:0.13333206 5360:0.18035507 5435:0.19041196 5487:0.14584924 6107:0.19041196 6396:0.18035507 8231:0.49055851 8232:0.24527925 8233:0.24527925 8236:0.24527925 #
-0.89472178389928025 29:0.17377368 87:0.1151383 186:0.28246802 437:0.11177105 490:0.10077721 605:0.070838392 798:0.11713214 831:0.3357828 1141:0.17167425 1211:0.16971973 1303:0.18752776 2214:0.62149239 2667:0.24643685 2668:0.24643685 2669:0.24643685 2670:0.24643685 #
0.9999999999334479 4:0.11765214 34:0.20824318 455:0.21264191 509:0.44506848 705:0.38939884 793:0.48029539 1297:0.38201383 1375:0.41381222 #
0.9999999999334479 32:0.24414214 690:0.45489267 1676:0.60861981 1677:0.48326072 1678:0.35987261 #
0.9999999999334479 4:0.10608039 331:0.47840169 785:0.097310208 1742:0.49722198 1782:0.52374768 1783:0.47840169 #
0.9999999999334479 4:0.070607983 13:0.048211921 14:0.062272619 17:0.11763909 23:0.071965568 36:0.064781658 46:0.12575075 49:0.078899004 71:0.092415765 82:0.069533519 112:0.057223383 153:0.072164401 385:0.080744006 425:0.07109262 463:0.051010251 496:0.13529482 532:0.093188822 550:0.14702997 572:0.097210892 589:0.11684729 616:0.18483153 619:0.099893942 711:0.16547751 712:0.15038617 727:0.14334135 757:0.083252937 767:0.11327005 796:0.1193147 812:0.10603876 813:0.13043651 831:0.12903136 955:0.096897617 1020:0.10214825 1257:0.16547751 1297:0.11463126 1494:0.087056905 1705:0.14702997 1900:0.25806272 2163:0.085713699 2233:0.1441227 2234:0.12903136 2235:0.18939672 2236:0.17430538 2237:0.17430538 2239:0.52291614 2241:0.11608327 2243:0.16547751 2245:0.17430538 #
0.9999999999334479 4:0.1177944 14:0.10388862 36:0.21614885 49:0.26325241 55:0.20215628 249:0.23170908 257:0.36962268 640:0.49057648 641:0.48087615 642:0.39525324 #
-0.9999999999334479 34:1 #
-0.96345357937472254 248:0.47439292 249:0.31740636 1270:0.59617335 1399:0.36637712 3364:0.42959249 #
-0.11890126415675141 4:0.25164828 14:0.11097044 55:0.21593672 97:0.25103912 111:0.30818462 191:0.30160472 872:0.18180156 990:0.21186247 1466:0.40608451 9354:0.62122792 #
-0.9999999999334479 4:0.053553436 23:0.10916622 30:0.11264594 49:0.11968371 72:0.18099122 299:0.13059053 385:0.12248244 455:0.096791312 554:0.028963497 599:0.19573064 729:0.15680349 908:0.18836093 1296:0.13905515 1305:0.20258829 1488:0.21473305 2030:0.24151544 3351:0.23414575 3832:0.26440784 3833:0.28730026 3834:0.28730026 3835:0.28730026 3836:0.28730026 3838:0.28730026 3839:0.28730026 #
0.9999999999334479 4:0.051706638 15:0.10876133 55:0.088737845 65:0.070080675 106:0.097371638 179:0.093753807 463:0.074710213 550:0.21534182 603:0.13726324 604:0.14331415 610:0.12217758 699:0.15820651 872:0.14942043 927:0.10554688 1277:0.27612096 2036:0.14237621 2043:0.27739266 2045:0.27739266 2046:0.43068364 2047:0.27739266 2049:0.15820651 2051:0.17882605 2053:0.2552897 2054:0.27739266 2055:0.19323887 2056:0.200929 #
0.9999999999334479 49:0.19352131 84:0.26369047 93:0.17700285 111:0.42418775 415:0.26008895 437:0.2106946 872:0.12511654 985:0.25894049 1147:0.26126269 1260:0.42753145 1494:0.21353079 1495:0.29265183 1497:0.32361546 #
0.9999999999334479 87:0.17291124 263:0.21883251 415:0.20720549 464:0.34060216 1147:0.20814057 1480:0.25488001 1481:0.29386273 1484:0.32335204 1485:0.2036581 1487:0.32335204 1488:0.27661261 1489:0.37009147 1490:0.32335204 #
0.9999999999334479 2:0.088654608 4:0.092505559 31:0.13041012 82:0.091097876 106:0.087101169 127:0.16129097 157:0.16414578 184:0.14513488 187:0.11915284 225:0.1401924 252:0.11511235 329:0.14437419 364:0.092281632 577:0.14513488 748:0.35561818 882:0.1551989 1127:0.17973562 1465:0.1401924 1591:0.19262822 1655:0.16414578 1728:0.21679688 1735:0.19702527 2075:0.24813414 2076:0.20222589 2077:0.19702527 2078:0.21679688 2083:0.45672506 2084:0.17285661 #
0.9999999999334479 13:0.1226479 37:0.32824716 65:0.12172547 97:0.17918718 269:0.25985831 272:0.36663851 1863:0.40502989 2085:0.48181263 2086:0.48181263 #
-0.62065593465036728 4:0.12705533 46:0.11314092 65:0.086102314 106:0.11963247 182:0.25059888 282:0.25934118 503:0.20382346 558:0.15390384 706:0.2434559 728:0.15292025 954:0.21470051 2046:0.26457265 2189:0.2374166 3572:0.29776803 3862:0.24031998 5027:0.21970876 5030:0.23218511 5423:0.24686483 6305:0.27061197 7724:0.3408094 #
-0.39648956790851758 4:0.058528572 65:0.079326794 426:0.14566393 610:0.13829713 799:0.16560875 1155:0.20081504 1172:0.19244817 1235:0.11469367 1237:0.17658925 1444:0.24931709 1678:0.18566044 1707:0.19244817 1708:0.19244817 2196:0.20081504 3108:0.22429797 4365:0.20241952 5440:0.18778428 5921:0.23087886 6147:0.24375303 6782:0.24931709 7620:0.22140883 8225:0.25589797 8846:0.27433622 8847:0.31399056 #
-0.9999999999334479 4:0.048785795 14:0.04302657 65:0.066121899 87:0.24456045 153:0.099722371 190:0.17012401 214:0.1380412 231:0.14926963 290:0.17313518 317:0.075539753 358:0.096086815 437:0.1187041 603:0.1295094 604:0.13521852 619:0.1380412 1162:0.12988316 1297:0.63362545 1578:0.24942556 1861:0.13222875 1914:0.14402393 2457:0.16872439 2645:0.14588554 2843:0.24086872 2844:0.20781529 2845:0.2617231 #
-0.9999999999334479 14:0.1093155 49:0.27700406 65:0.16799268 374:0.42527193 872:0.17909029 2056:0.48165351 3716:0.35456944 6321:0.55897963 #
-0.9999999999334479 4:0.24488415 82:0.24115768 84:0.37285852 93:0.25028214 171:0.38023129 196:0.43065962 552:0.20772877 3005:0.38840258 3583:0.39516926 #
0.9999999999334479 4:0.093260691 34:0.33014107 93:0.19063288 94:0.23210405 387:0.32253963 687:0.63037473 1705:0.38840133 2147:0.37394711 #
0.9999999999334479 4:0.1604203 14:0.070741244 34:0.14197122 249:0.15777847 549:0.16066481 550:0.33404997 558:0.19431929 767:0.25734791 932:0.59269965 2089:0.20939541 2090:0.36173198 2091:0.39601928 #
0.9999999999334479 16:0.20113148 46:0.099996217 95:0.17525825 438:0.16373791 727:0.11398415 826:0.19418301 997:0.11656218 2520:0.27721313 2521:0.24548541 2522:0.30121419 2523:0.1517158 2524:0.30121419 2525:0.30121419 2526:0.27721313 2527:0.24548541 2528:0.30121419 2530:0.30121419 2531:0.27721313 #
-0.18175652820934143 12:0.28869089 179:0.16409057 438:0.26391464 452:0.19567651 1705:0.37689736 1915:0.36944485 4051:0.35167164 6220:0.42418587 10102:0.44681528 #
-0.9999999999334479 548:0.55667472 549:0.37611675 1682:0.74070871 #
-0.98695266105016966 61:0.5110563 224:0.31999618 764:0.49149671 785:0.12064122 2523:0.35536653 3369:0.50399923 #
-0.067785156252821333 95:0.30581176 249:0.19271739 317:0.15169968 625:0.3416447 936:0.27623326 1079:0.33111027 1707:0.32214272 1708:0.32214272 3666:0.28686059 4781:0.35807496 5442:0.35441202 #
0.9999999999334479 4:0.15591557 82:0.30708593 86:0.42657208 115:0.37451985 171:0.48417979 1583:0.56985056 #
0.9999999999334479 13:0.12121078 374:0.30453619 502:0.31499419 503:0.28477502 514:0.18068215 764:0.33171016 1235:0.17393306 1289:0.5950858 1804:0.31795371 1982:0.28999212 #
0.9999999999334479 4:0.096650615 65:0.13099556 156:0.2764824 466:0.41170746 1302:0.40251932 1618:0.32664409 2390:0.51850545 2391:0.43587524 #
0.9999999999334479 56:0.264263 65:0.081919894 872:0.087331533 1348:0.20004711 1861:0.16382115 2503:0.32425457 2504:0.32425457 2505:0.20004711 2506:0.29841763 2507:0.32425457 2508:0.32425457 2509:0.29841763 2510:0.32425457 2511:0.32425457 #
0.9999999999334479 13:0.098674588 184:0.22672983 214:0.20445137 215:0.32586089 332:0.27003673 385:0.1652575 794:0.31591743 803:0.30779302 1063:0.32586089 1411:0.24791509 1699:0.25196886 2352:0.33868024 2353:0.38763532 #
-0.9999999999334479 4:0.1536476 82:0.10087301 153:0.10468964 187:0.13193837 251:0.15746602 364:0.10218378 385:0.11713617 439:0.3487609 588:0.16951159 626:0.15248729 777:0.18718714 963:0.19374546 1627:0.1892256 1629:0.20203228 1656:0.37437427 1854:0.21816678 2565:0.15523556 3149:0.076215521 3480:0.17859806 3804:0.18175922 3865:0.21329792 4760:0.15183602 5468:0.25286663 9804:0.2747598 9805:0.2747598 #
0.9999999999334479 4:0.090755254 31:0.51177049 137:0.67062098 447:0.23955862 603:0.24092381 729:0.26572973 954:0.3067199 #
-0.75737492536832762 31:0.59516281 49:0.23587398 112:0.17107323 252:0.26267359 554:0.057081576 872:0.15249863 1748:0.28695065 1982:0.34483227 3428:0.39443958 5002:0.32944584 #
-0.06903371328276231 13:0.34646076 192:0.77624971 997:0.52668905 #
-0.81347889493333037 4:0.096358463 123:0.20801792 143:0.18316202 271:0.28566706 514:0.19615281 611:0.26362875 1756:0.4212974 3049:0.40130258 5132:0.40130258 5918:0.28328973 7051:0.38010719 #
-0.6214690272147283 141:0.29796916 249:0.17342815 673:0.30744922 729:0.25814846 1105:0.29378462 1451:0.28125045 3417:0.37556514 5294:0.37556514 5432:0.2880559 9687:0.43529952 #
0.9999999999334479 101:0.45816118 392:0.40049502 418:0.38617584 1157:0.41553426 1854:0.55487978 #
0.9999999999334479 4:0.098714814 12:0.10496708 41:0.13432896 71:0.08613573 81:0.17180225 87:0.082475297 93:0.067260526 94:0.081892692 155:0.092775762 171:0.1021829 204:0.14810251 224:0.24018985 271:0.097550914 337:0.1438666 338:0.089185357 385:0.075257115 396:0.13703868 431:0.10271001 532:0.17371251 587:0.14839478 626:0.097969338 737:0.10964502 828:0.10271001 864:0.10496708 1059:0.11573496 1177:0.1401668 1246:0.27407736 1654:0.096345052 1828:0.15423262 1839:0.1244767 2004:0.23806581 2008:0.1401668 2017:0.1438666 2018:0.21929005 2020:0.18896407 2021:0.35305285 2024:0.17652643 2025:0.12610099 2026:0.17652643 2028:0.16246061 2029:0.16246061 2030:0.14839478 2031:0.15423262 #
0.9999999999334479 65:0.087994307 288:0.21211833 364:0.12953289 444:0.23987113 936:0.18305267 1446:0.27038631 2109:0.29279265 2110:0.34829825 2111:0.34829825 2112:0.34829825 2113:0.34829825 2114:0.32054546 2115:0.3043111 #
0.9999999999334479 81:0.2923542 93:0.11445658 95:0.17478062 168:0.15900789 301:0.21758947 364:0.11171693 388:0.15223567 397:0.27645761 651:0.21182078 1048:0.22858627 1567:0.19064912 1707:0.18411425 1708:0.18411425 1711:0.26245615 1712:0.26245615 1713:0.30039328 1715:0.30039328 1716:0.30039328 1717:0.27645761 #
0.9999999999334479 49:0.1426298 437:0.15528694 722:0.6302017 1378:0.34238225 1380:0.29914227 1381:0.34238225 1382:0.34238225 1383:0.34238225 #
-0.13778031704057897 4:0.065180026 14:0.057485446 82:0.12837633 93:0.13323359 97:0.13004451 191:0.3124775 199:0.26135215 418:0.38646916 463:0.09417773 554:0.03525155 572:0.35895142 785:0.059791278 1184:0.2939491 2424:0.257117 2916:0.2939491 6583:0.3496739 6584:0.3496739 #
-0.72465926515272583 15:0.13886417 57:0.2060695 65:0.17895505 101:0.23220176 102:0.22311676 431:0.2060695 463:0.19077684 554:0.035704724 638:0.19252382 872:0.09538842 977:0.20398116 1081:0.30944055 1155:0.22651152 1235:0.12936999 1289:0.14753999 1537:0.24672331 1688:0.20297584 1689:0.19741534 1698:0.27494392 4098:0.20297584 4247:0.2060695 4623:0.30944055 5931:0.23021533 #
-0.42864833735990293 46:0.10605109 65:0.080706827 187:0.15339984 292:0.37778068 327:0.1945512 427:0.26854429 463:0.17207666 472:0.29399866 490:0.13063623 554:0.0644098 863:0.12814559 983:0.17163044 1321:0.20944105 1583:0.21763553 1911:0.20274568 2008:0.25365442 3716:0.17034179 4384:0.23876457 5487:0.18995485 9116:0.31945303 9118:0.31945303 #
-0.64022295336454371 4:0.18706533 13:0.12773031 317:0.14482565 392:0.28757137 554:0.050585609 872:0.13514407 1147:0.56440341 1231:0.38953403 1709:0.37503767 7721:0.46179616 #
0.9999999999334479 4:0.094735883 70:0.11988348 123:0.2045151 145:0.27967638 177:0.12047967 192:0.14493142 194:0.16252224 271:0.14042835 299:0.11550715 532:0.12503298 540:0.34624696 975:0.18993109 1031:0.23386839 1520:0.16517973 1870:0.14635669 1950:0.25411668 1951:0.23386839 1952:0.25411668 1953:0.21362008 1955:0.22202389 1956:0.23386839 1959:0.18406908 1960:0.23386839 1961:0.25411668 #
0.9999999999334479 205:0.75666583 271:0.6538018 #
0.9999999999334479 23:0.20429116 82:0.19738723 673:0.34947881 1303:0.40912613 1325:0.309654 2289:0.53764713 2290:0.4948068 #
0.9999999999334479 4:0.07333111 14:0.03233714 15:0.077123448 31:0.20675769 33:0.11273028 46:0.065300278 65:0.049694713 99:0.23666865 143:0.069695354 224:0.089213498 251:0.22546056 252:0.091251992 312:0.14701776 319:0.128962 320:0.14051272 364:0.0731536 444:0.13546702 450:0.12056024 455:0.066268519 477:0.10692535 556:0.21928409 673:0.12785876 1201:0.10964204 1237:0.11062533 1367:0.19875623 1505:0.17185946 1544:0.30540091 1554:0.14248021 1766:0.128962 1901:0.18102778 2013:0.25361368 2094:0.13870281 2095:0.19670115 2097:0.17185946 2098:0.27093405 2099:0.18102778 2100:0.18102778 2101:0.19670115 2102:0.14463536 2103:0.11979366 #
0.9999999999334479 3:0.2203168 13:0.082320265 15:0.12679563 32:0.12972434 33:0.18533543 112:0.097707041 123:0.13013287 165:0.13968152 204:0.13565865 211:0.4560717 212:0.18625338 355:0.21020757 792:0.25104883 864:0.19229509 1453:0.23778933 1517:0.14272358 1625:0.25677943 1627:0.22271603 1628:0.29762071 1629:0.23778933 1630:0.29762071 #
-0.9999999999334479 33:0.40924975 225:0.40345284 1272:0.25986287 1603:0.60029358 3400:0.49179199 #
-0.12329982264182869 14:0.029342791 30:0.069981985 32:0.071598418 65:0.045093093 93:0.068007573 228:0.11918219 438:0.097024307 819:0.10439797 1211:0.12292308 1277:0.08883439 1399:0.075542122 1503:0.091316104 1504:0.097024307 1681:0.11506481 1724:0.12928686 1800:0.27164185 2234:0.12159887 2316:0.089360528 2368:0.1417236 2917:0.15594566 3440:0.13340424 4183:0.08883439 5822:0.35421851 6958:0.46783695 8154:0.49279505 8155:0.16426502 8702:0.17848706 8703:0.16426502 8704:0.17848706 #
-0.9999999999334479 49:0.11729471 99:0.16938822 123:0.11330305 201:0.14695276 204:0.47245675 223:0.13218549 289:0.17869976 297:0.20703651 385:0.24007516 400:0.15559693 744:0.19182366 864:0.16742595 1145:0.2185812 1569:0.23669456 1641:0.19182366 2863:0.24600612 2907:0.19854443 3059:0.099297144 5234:0.18302184 6702:0.23669456 6744:0.24600612 6947:0.24600612 #
-0.94923166999565889 14:0.077419207 106:0.1653071 206:0.29250497 212:0.2712273 1142:0.29053617 1322:0.37392929 1495:0.2966713 1721:0.41145331 5452:0.39587945 7340:0.41145331 #
0.9999999999334479 4:0.060714126 13:0.082912572 14:0.053546745 65:0.08228898 94:0.15110326 191:0.14553382 530:0.21963204 1248:0.1905126 1911:0.82688099 2291:0.32571548 2292:0.24785537 #
0.9999999999334479 4:0.071448185 8:0.20438738 197:0.23974083 400:0.42363468 463:0.1032345 581:0.26397729 614:0.25594375 617:0.51188749 1371:0.33489326 1372:0.221875 1373:0.38330093 #
0.9999999999334479 13:0.10692994 14:0.069057688 49:0.17499128 72:0.26462987 131:0.27304921 418:0.23213412 2159:0.30007243 2160:0.27304921 2358:0.38659453 2359:0.42006582 2360:0.42006582 2361:0.29620725 #
0.9999999999334479 4:0.066222213 13:0.1356518 82:0.13042898 97:0.066061907 106:0.18706007 153:0.067681953 385:0.075728647 412:0.12689108 477:0.096559748 496:0.12689108 654:0.1164601 826:0.11451388 827:0.86860806 828:0.10335355 831:0.12101666 832:0.15519898 833:0.15519898 836:0.11977871 #
0.9999999999334479 4:0.13653043 65:0.18504672 106:0.257108 558:0.3307623 713:0.46844405 785:0.12524278 1679:0.73245025 #
-0.9999999999334479 4:0.22170955 14:0.19553646 106:0.20875677 313:0.48467803 368:0.37464902 455:0.2003565 757:0.2614148 1897:0.42482671 2642:0.4525463 #
-0.9999999999334479 4:0.23473419 14:0.034503922 70:0.19802952 71:0.10241118 82:0.15410812 127:0.27285212 153:0.079969488 196:0.13760322 261:0.17643416 418:0.11598329 775:0.5794732 1148:0.10636531 1157:0.12480073 1892:0.15686883 1899:0.1543268 2120:0.19315773 2230:0.44978374 2752:0.17643416 2756:0.20988132 #
-0.9999999999334479 4:0.10822547 65:0.14668356 281:0.50727642 458:0.26872119 592:0.33439326 649:0.43395135 3639:0.58060151 #
-0.9999999999334479 4:0.093937695 8:0.13436086 13:0.064141713 15:0.098795712 57:0.14660934 123:0.10139599 231:0.28742063 244:0.16990879 396:0.19561042 414:0.17166485 685:0.32757604 737:0.15650845 794:0.20535667 801:0.092508227 1035:0.17999785 1429:0.16990879 1664:0.17553273 2691:0.20535667 2757:0.25197566 2758:0.41071334 2759:0.22015326 2760:0.15443857 2761:0.25197566 2762:0.25197566 #
-0.72135269326465523 742:0.70710677 2502:0.70710677 #
0.41135975226252164 4:0.12160518 70:0.30777043 87:0.30479997 153:0.24857147 162:0.31746066 225:0.73717189 262:0.30264688 #
0.79534487380318186 4:0.067608505 55:0.11602829 71:0.17697977 212:0.20889565 225:0.20492172 262:0.16826177 268:0.2252834 474:0.23196883 477:0.19716227 566:0.36270204 568:0.59119433 570:0.21446319 571:0.36270204 572:0.18616262 #
0.65481069960859462 17:0.30648562 392:0.28279033 455:0.16623837 600:0.65283608 1296:0.2388262 1322:0.39180174 1323:0.4021436 #
0.9999999999334479 15:0.14087687 28:0.17034945 203:0.25336027 334:0.94177669 #
0.9999999999334479 4:0.1305984 213:0.4322477 906:0.45934749 1962:0.48807439 1963:0.58897305 #
-0.91897296909291881 354:0.35528311 477:0.25379813 705:0.28804532 1962:0.32524765 3143:0.42968777 3284:0.4668901 3285:0.4668901 #
-0.9999999999334479 86:0.41583228 87:0.38095888 179:0.27558646 2163:0.36901304 2581:0.68544537 #
-0.51400850191157277 14:0.035094753 15:0.16740061 63:0.16244541 65:0.053932529 93:0.24401656 438:0.11604363 452:0.08603923 463:0.057495322 673:0.13876216 694:0.10656089 841:0.12175222 842:0.11513463 891:0.1546305 955:0.10921647 967:0.12420829 990:0.067002185 1409:0.13170239 1618:0.1344835 1641:0.14543547 1748:0.10818667 1947:0.15053096 1962:0.44613704 2030:0.17945535 2094:0.15053096 2521:0.17397937 2595:0.15696943 2993:0.1657223 3378:0.14394772 3418:0.11341181 4425:0.14871235 4815:0.18651512 6036:0.16244541 6758:0.17397937 8024:0.17945535 9046:0.21347524 9047:0.21347524 9048:0.21347524 #
-0.18784863041304742 13:0.10448273 22:0.22052094 55:0.13130353 82:0.15068994 115:0.1837804 162:0.19973384 262:0.19041359 455:0.13828112 554:0.041378763 801:0.15068994 975:0.30677885 1520:0.26680017 2094:0.2894282 3613:0.20488627 4071:0.34504157 7659:0.41045216 7660:0.41045216 #
-0.77057405833011727 71:0.30299404 225:0.35083145 262:0.28806859 3109:0.29011801 6849:0.48205203 8497:0.62095553 #
0.9999999999334479 2:0.14755411 4:0.076981761 106:0.14496861 115:0.18491544 143:0.29266 313:0.67315757 364:0.30718166 455:0.13913515 572:0.21197222 1147:0.2322652 1480:0.28442198 1839:0.29121572 #
0.58720627959887928 4:0.1072384 64:0.31658593 65:0.14534573 230:0.46886656 231:0.32811674 742:0.45680881 743:0.57530618 #
0.83459607414304604 4:0.20425662 15:0.14321321 37:0.24884354 70:0.17231764 206:0.22687298 261:0.30705237 665:0.5953657 742:0.29002738 899:0.29768285 1061:0.26857844 1372:0.21143265 1699:0.23742537 #
0.9999999999334479 36:0.25218144 65:0.18626738 1155:0.47153413 1765:0.46792701 1987:0.67853433 #
0.9999999999334479 4:0.11483297 57:0.3584415 65:0.15563904 204:0.25842702 1372:0.35660195 1395:0.36426547 1747:0.51787406 2513:0.4891597 #
-0.9999999999334479 4:0.26761183 23:0.18183814 65:0.1209027 106:0.16798489 168:0.25331515 206:0.29724318 467:0.3518846 554:0.048244487 1296:0.23162411 1298:0.37150624 1629:0.3518846 3096:0.17118652 3963:0.47855595 #
-0.9999999999334479 4:0.10829573 70:0.27408555 265:0.33803606 662:0.35608786 1410:0.29087001 1768:0.47348937 1839:0.40967393 2820:0.44209939 #
-0.9999999999334479 4:0.074462868 8:0.21301129 14:0.065672435 23:0.15178914 32:0.16024522 36:0.13663691 87:0.18663909 94:0.18532066 143:0.28308401 572:0.20503637 927:0.15199836 1020:0.2154502 1413:0.18939522 1935:0.31011432 3057:0.32556573 4630:0.36764339 4902:0.28935838 9905:0.39947391 #
-0.62277200460396409 4:0.32933792 65:0.22318433 432:0.45342231 554:0.089058504 2650:0.41988546 3025:0.67223382 #
0.9999999999334479 87:0.19723111 187:0.20271187 244:0.56930965 694:0.21072283 960:0.26403615 1177:0.33519435 1297:0.25550056 1579:0.35487071 1580:0.42214462 #
0.9999999999334479 4:0.08783225 71:0.22991976 249:0.17277163 455:0.15874609 614:0.31463519 734:0.37414345 754:0.41168895 756:0.28346962 757:0.20712368 758:0.27416104 759:0.43365169 760:0.29905239 #
0.9999999999334479 1089:0.71557194 1835:0.49394169 1836:0.49394169 #
0.9999999999334479 23:0.35197291 60:0.18575457 167:0.18360271 358:0.11335938 419:0.34272528 439:0.19596581 450:0.1892487 451:0.30877045 452:0.24889417 453:0.24517216 454:0.24517216 455:0.1040246 456:0.25164363 457:0.23496091 458:0.14290896 459:0.30877045 460:0.28416726 #
0.9999999999334479 14:0.057450656 29:0.24642153 32:0.14018354 61:0.25313255 106:0.12266985 137:0.2406728 338:0.17655668 455:0.11773367 514:0.1326039 685:0.22715582 705:0.21559888 914:0.22911586 1237:0.19653866 1395:0.20663461 1398:0.22528699 1399:0.14790498 1401:0.32161674 1403:0.21151 1405:0.23564467 1406:0.29377121 1407:0.3494623 #
-0.98164476866915129 14:0.14029026 34:0.14077486 72:0.26879695 81:0.2076309 97:0.15868343 447:0.20993952 664:0.27506709 1395:0.25229323 1860:0.23888838 2088:0.33879602 2109:0.35868379 2565:0.24106871 3477:0.37279439 3479:0.37279439 #
-0.68252940244085125 14:0.049185544 59:0.20382883 364:0.11126833 453:0.2375627 455:0.10079597 798:0.14220446 1019:0.48790792 1297:0.18108121 1762:0.22766839 1763:0.16604403 2036:0.15356253 2084:0.20842141 2513:0.2375627 2608:0.20174375 2609:0.22361745 2610:0.29918706 2611:0.29918706 2612:0.23226096 2613:0.24383332 #
-0.68666822158579899 2:0.13339403 14:0.061378498 36:0.12770303 178:0.18748309 179:0.25237453 447:0.18370159 476:0.13000797 616:0.18217768 1666:0.31385604 1765:0.47391033 2352:0.32620311 2744:0.39244279 6048:0.27905154 9282:0.34360534 #
-0.63555720330728305 15:0.18682243 199:0.35613313 435:0.35613313 438:0.25901401 735:0.29018596 748:0.22762801 812:0.26677287 927:0.18130089 1155:0.30473974 2290:0.4385184 5136:0.34514147 #
0.9999999999334479 22:0.37537807 168:0.36983672 169:0.42550874 290:0.46219453 638:0.37980035 639:0.42823163 #
0.9999999999334479 4:0.18699104 13:0.12767957 14:0.082458258 49:0.20894814 87:0.23434389 123:0.20183741 233:0.22553569 418:0.27717948 685:0.3260341 1005:0.35830113 1607:0.36881369 1608:0.43823391 1609:0.33492231 #
0.9999999999334479 4:0.078033626 13:0.10656447 34:0.13811879 99:0.25184554 157:0.27693236 265:0.24357544 289:0.53137982 400:0.69402218 #
-0.21827311295254848 55:0.31481695 290:0.65100968 476:0.34268302 785:0.1682747 1006:0.57561153 #
-0.52320006488344273 2:0.30989391 112:0.26205912 201:0.45268551 233:0.39000845 400:0.47931367 605:0.24932237 5179:0.4316906 #
-0.9999999999334479 4:0.088088095 14:0.077689178 71:0.23058946 98:0.43491483 153:0.18005964 156:0.25198811 213:0.29154932 392:0.27083173 685:0.30717751 2006:0.3126145 2060:0.43491483 2959:0.3292042 #
-0.8869409363793328 111:0.22620876 400:0.27379951 415:0.27739793 449:0.28680027 465:0.28395185 554:0.049948912 605:0.28484204 861:0.32205838 5194:0.37031725 6405:0.39341098 7038:0.39341098 #
-0.9999999999334479 13:0.12933736 19:0.28321239 32:0.20381621 36:0.17378874 255:0.27510324 457:0.38663569 554:0.051222056 1145:0.39443499 1171:0.31779286 1372:0.29411048 2117:0.38663569 5286:0.33311704 #
0.9999999999334479 8:0.14555509 46:0.27185827 93:0.10400727 156:0.14555509 179:0.18451731 320:0.1949943 603:0.13507421 664:0.17597419 735:0.16624175 1076:0.21190764 1099:0.19248262 1581:0.21190764 2311:0.17743395 2312:0.45893595 2313:0.27296892 2314:0.23849525 2315:0.27296892 2316:0.13666338 2317:0.20402156 2318:0.22946797 2319:0.19015716 #
0.9999999999334479 4:0.087239534 14:0.076940797 28:0.22189248 49:0.19496697 65:0.11824023 165:0.20215112 179:0.31636319 204:0.1963291 453:0.3716186 848:0.30421844 1459:0.40891075 1460:0.34980407 1461:0.43072525 #
0.9999999999334479 2:0.1152093 179:0.10898498 187:0.15484266 199:0.24101029 204:0.13526811 233:0.1449935 265:0.18761854 431:0.18761854 449:0.18665567 605:0.092690609 748:0.15404546 1355:0.27107009 1757:0.24537632 1762:0.24537632 1763:0.17895883 1765:0.20465262 1766:0.21141097 1767:0.5255971 1768:0.26279855 1769:0.24101029 #
0.9999999999334479 4:0.091411762 14:0.08062049 450:0.30057159 455:0.16521563 990:0.15391898 1019:0.26657814 1296:0.23735687 1321:0.32151821 1450:0.34580326 2066:0.36059386 2215:0.3996695 2217:0.4513247 #
0.9999999999334479 447:0.27709258 664:0.3630524 954:0.35477665 990:0.17675632 1759:0.56316221 1760:0.56316221 #
-0.9999999999334479 4:0.35481349 455:0.64128214 785:0.32547933 990:0.5974344 #
-0.35680044707552405 13:0.073072262 41:0.21843916 106:0.10076462 145:0.15796584 168:0.15194941 169:0.17482255 276:0.18989512 455:0.0967099 544:0.25080553 1460:0.21455243 2331:0.4221513 3450:0.26418546 4475:0.26418546 4577:0.17709926 5119:0.26418546 7362:0.48262462 7363:0.22793236 #
-0.10773415646501895 143:0.19603857 278:0.22194295 617:0.36944455 2006:0.36600575 2143:0.35114723 9808:0.50919366 9809:0.50919366 #
-0.53206343580999882 137:0.21184264 179:0.20792687 187:0.14770819 271:0.1699841 308:0.1197234 463:0.16569205 499:0.18853147 540:0.41912106 554:0.031009993 603:0.15221097 604:0.15892082 625:0.19994485 927:0.11704076 971:0.17716016 1248:0.1799169 1838:0.244243 1914:0.16926973 2018:0.19105829 2040:0.1829069 2272:0.21690273 5032:0.16463652 5109:0.18396249 5524:0.18977232 7955:0.26875293 9591:0.25858039 #
0.9999999999334479 681:0.37947416 878:0.37111175 2006:0.39250559 2184:0.59333855 2185:0.46061277 #
0.9999999999334479 46:0.17894003 65:0.13617665 93:0.20537609 178:0.27066985 224:0.24446857 271:0.59573209 374:0.34472993 458:0.24947275 605:0.15493959 801:0.19788876 1145:0.4184396 #
0.9999999999334479 2:0.47855768 4:0.24967256 70:0.31594801 455:0.22562636 605:0.19250965 1785:0.51990366 1786:0.50055563 #
0.99073546434547777 4:0.1062506 36:0.097483173 87:0.13315707 141:0.17954427 162:0.1386881 194:0.18227609 605:0.24577311 767:0.34089661 801:0.10463376 816:0.10122184 1235:0.10410532 1669:0.7868821 1675:0.2212501 #
-0.99820149370594202 55:0.097507425 84:0.17301689 93:0.116138 115:0.13647732 155:0.16019486 179:0.1030191 209:0.16703832 302:0.18229151 474:0.1949411 799:0.16076462 828:0.17734823 1151:0.19649866 1152:0.18229151 1296:0.14752814 1388:0.23194431 1785:0.23662314 1974:0.17643806 1995:0.20163552 2215:0.24841285 2382:0.26631173 3669:0.42986503 4003:0.22412555 4004:0.3048062 #
-0.62026141991903638 15:0.19660696 82:0.18409464 358:0.36818928 364:0.18648683 450:0.30733821 458:0.2320829 518:0.31145734 605:0.1441393 798:0.23833609 2673:0.34161913 2782:0.26261625 2786:0.31145734 2787:0.38927168 #
-0.67000110813314251 4:0.085915655 767:0.27565354 1305:0.32501191 3645:0.33891323 3646:0.42418888 3647:0.46091512 3648:0.302187 3649:0.46091512 #
-0.9999999999334479 2:0.19985086 4:0.20853192 23:0.21254137 49:0.23301843 143:0.19819291 260:0.41130006 338:0.28260189 455:0.18844801 552:0.17689213 554:0.056390531 872:0.15065245 3510:0.44414693 3512:0.48871732 #
-0.52604903519145019 514:0.25949353 558:0.30882215 816:0.24288166 827:0.55734074 7228:0.68386531 #
0.9999999999334479 14:0.10399267 97:0.23525389 115:0.28323358 385:0.26967824 603:0.31301656 1330:0.63256919 1331:0.53176159 #
0.9999999999334479 14:0.18273558 23:0.21117899 34:0.18336681 82:0.2040423 143:0.1969225 153:0.21176246 187:0.26688021 385:0.23693885 455:0.18724008 626:0.30844581 748:0.26550618 833:0.48558468 971:0.32009423 1424:0.31116492 #
0.9999999999334479 4:0.094640695 14:0.083468243 93:0.19345374 106:0.3564463 153:0.19345374 455:0.34210306 1313:0.30364716 1390:0.23952605 1392:0.50772274 1393:0.50772274 #
0.9999999999334479 2:0.10351882 4:0.1350193 12:0.086142585 13:0.036877077 14:0.1190801 42:0.10091925 49:0.060349483 55:0.046343453 65:0.073199444 71:0.070688389 72:0.36505306 73:0.39997616 74:0.10827729 75:0.097685881 77:0.07724826 78:0.095833585 79:0.14486869 81:0.070495866 82:0.21274348 83:0.28750077 84:0.082231693 85:0.11246255 86:0.22164096 87:0.067684412 89:0.12178209 91:0.13332538 92:0.10091925 93:0.055198215 94:0.067206293 95:0.084290288 96:0.11502969 97:0.053876985 98:0.13332538 99:0.087152191 100:0.081108563 101:0.094979376 102:0.091263264 104:0.12178209 106:0.10170493 107:0.12178209 108:0.089981601 111:0.066141322 112:0.0437699 115:0.064865112 116:0.14486869 117:0.085659839 118:0.14486869 119:0.14486869 120:0.12178209 121:0.093392134 122:0.19739097 123:0.058295727 124:0.13332538 125:0.0688565 126:0.12657298 127:0.094166853 #
0.9999999999334479 8:0.23134097 13:0.11043845 31:0.45602971 34:0.28627974 55:0.1387881 82:0.15927958 251:0.24864058 385:0.18495931 388:0.21986929 654:0.28444162 816:0.15408576 946:0.33679974 1928:0.3059262 2350:0.37905732 #
-0.9999999999334479 14:0.11665712 65:0.35855013 123:0.28554779 143:0.25142792 364:0.26390362 385:0.30252025 425:0.26635978 551:0.23340359 8368:0.65306276 #
-0.9999999999334479 4:0.11855897 14:0.10456293 65:0.16068907 87:0.29716471 153:0.24234474 321:0.34303743 364:0.23654394 3198:0.53467757 3370:0.58535779 #
-0.70458408677606521 13:0.063084401 31:0.13024612 65:0.062609941 106:0.17398328 191:0.11073005 204:0.10395914 225:0.14001611 465:0.1420279 687:0.15612106 1350:0.17067373 1358:0.32217628 1403:0.29998571 1614:0.1852264 1747:0.2083286 1962:0.17263924 1963:0.2083286 2076:0.40394315 2700:0.19238597 2758:0.20197158 5144:0.2083286 6396:0.18222484 8247:0.2083286 9079:0.24782208 9080:0.24782208 #
-0.5409107186914498 4:0.28309828 8:0.2699472 34:0.16702709 65:0.12789923 70:0.23883106 153:0.19289242 179:0.17110337 385:0.21582535 554:0.1020727 785:0.086564384 3767:0.5986836 6692:0.50624955 #
-0.9999999999334479 2:0.51053733 14:0.23491319 171:0.82714415 #
0.9999999999334479 4:0.072539389 15:0.15258157 257:0.22761865 532:0.19147581 602:0.44179139 605:0.11186277 1575:0.68001592 1941:0.29086095 2407:0.35814664 #
0.9999999999334479 4:0.075570919 14:0.13329935 15:0.15895818 71:0.19782309 191:0.18114606 231:0.23122391 263:0.23972103 268:0.25181556 530:0.27337617 668:0.28960904 1101:0.59621233 2107:0.27337617 2108:0.34080997 #
0.9999999999334479 34:0.13849679 65:0.10605245 442:0.29242662 463:0.11305828 836:0.28305751 872:0.22611657 1083:0.28305751 1137:0.24424206 1514:0.27286068 1778:0.29600275 2129:0.33331347 2454:0.25564915 2455:0.29242662 2456:0.41977581 #
-0.76249028185526757 4:0.13129011 14:0.11579114 455:0.23729087 1083:0.47493914 3201:0.43748167 3641:0.70433724 #
-0.36427060816669155 1083:1 #
-0.54182047261987398 4:0.26785368 14:0.23623322 1514:0.93404937 #
-0.9999999999334479 4:0.05227913 14:0.046107512 67:0.1872758 127:0.18230584 165:0.12114101 187:0.26935494 194:0.17937283 370:0.13918352 572:0.14395259 1148:0.14213572 2066:0.20622656 2223:0.51623249 3524:0.2134209 4952:0.21772607 7657:0.51623249 10288:0.28046393 #
-0.70599660664437114 14:0.18381278 99:0.33632168 471:0.27353927 639:0.342648 840:0.36339134 893:0.39421159 1517:0.24673 4019:0.5590505 #
0.9999999999334479 2:0.085420333 4:0.089130796 14:0.15721759 28:0.11335144 55:0.1529644 65:0.060401782 82:0.08777447 127:0.1554068 155:0.12565254 171:0.27678654 179:0.080805406 184:0.13984011 187:0.11480594 463:0.064391933 471:0.23396188 474:0.15290655 487:0.20098117 496:0.17078716 549:0.08926665 707:0.17869374 801:0.08777447 802:0.11934296 803:0.18983746 804:0.23908177 805:0.31928688 807:0.13769743 808:0.22003147 810:0.22003147 812:0.13385625 813:0.16465433 816:0.0849123 817:0.14059314 818:0.22003147 819:0.13984011 820:0.22003147 821:0.20888776 #
0.9999999999334479 4:0.13016905 23:0.26534364 97:0.2597079 392:0.40021196 985:0.38924819 2076:0.56912369 2137:0.45783734 #
0.9999999999334479 2:0.12732011 4:0.066425301 32:0.14294825 33:0.20422827 115:0.1595581 140:0.27117029 141:0.22449346 143:0.12626387 144:0.32795975 145:0.19609873 146:0.26202923 147:0.26634532 148:0.35635445 149:0.3113499 150:0.3113499 152:0.35635445 153:0.13577904 #
0.88516412566656433 2:0.24339432 23:0.25884983 36:0.23301037 143:0.24137512 171:0.3943339 385:0.29042464 476:0.23721601 477:0.37031338 478:0.5726701 #
-0.9999999999334479 14:0.075670265 23:0.17489719 46:0.1528054 82:0.16898663 132:0.28996935 143:0.3261801 178:0.23113787 477:0.25020984 549:0.17185943 626:0.25545302 841:0.26251853 842:0.24824987 1998:0.2839728 3716:0.24543969 3723:0.31358364 6927:0.37512916 #
-0.9999999999334479 13:0.34698594 82:0.50043958 392:0.78120238 554:0.1374184 #
-0.9999999999334479 4:0.05206836 14:0.091843255 23:0.10613897 65:0.070570931 82:0.4102082 100:0.15639208 124:0.25707564 153:0.21286443 177:0.13243511 278:0.11205191 392:0.16008706 558:0.12614222 603:0.13822348 604:0.14431673 668:0.19954062 749:0.20233463 860:0.16338338 985:0.1557015 3559:0.21684828 3560:0.2793332 3561:0.25707564 3562:0.2793332 3563:0.2793332 3564:0.2793332 #
-0.64841265733431563 49:0.22346365 82:0.19693804 143:0.19006613 317:0.15482509 385:0.45737842 477:0.29159606 3005:0.31718349 3009:0.2951892 3096:0.19188663 3773:0.38855767 4489:0.42593497 #
0.9999999999334479 14:0.08854343 60:0.32401526 249:0.19748378 447:0.26500437 455:0.18145211 471:0.26353016 611:0.27467296 798:0.25599536 807:0.31019947 867:0.43894684 869:0.49567842 #
0.9999999999334479 4:0.098717637 14:0.087063901 49:0.22061878 55:0.16941713 65:0.13379711 671:0.34424448 841:0.30204579 842:0.28562874 1096:0.31860107 1505:0.46271113 1506:0.52959448 #
0.9999999999334479 4:0.17971545 14:0.079249911 61:0.34918192 122:0.32841796 248:0.26417786 249:0.17675586 262:0.22363487 455:0.16240689 1507:0.39287496 1508:0.24134764 1510:0.42118278 1511:0.40524063 #
0.9999999999334479 2:0.18324335 4:0.095601507 249:0.18805425 385:0.21865089 437:0.23261467 893:0.36165273 947:0.27769437 1006:0.29998443 1020:0.27661255 1353:0.47201061 1354:0.47201061 #
-0.9999999999334479 249:0.3593165 455:0.66029465 785:0.16756451 947:0.53059244 2373:0.35397235 #
-0.9999999999334479 13:0.19094041 14:0.12331349 36:0.25656387 81:0.36501023 97:0.27896175 106:0.26330152 122:0.51102096 299:0.34095067 476:0.26119465 619:0.39562395 #
-0.99132763547915281 4:0.088336825 70:0.22357158 115:0.21219109 455:0.15965804 895:0.36062047 965:0.21309157 974:0.31955656 1195:0.31070286 1196:0.30308893 1257:0.41405398 2175:0.32285926 2597:0.36062047 #
-0.80069318252484756 13:0.085380957 31:0.17628032 36:0.11472516 65:0.084738806 106:0.11773797 182:0.2466304 204:0.14070247 249:0.12298405 514:0.12727264 583:0.28196031 611:0.17105404 631:0.20833309 860:0.19618435 955:0.17160095 1350:0.23099668 1386:0.30868632 1707:0.20557781 1708:0.20557781 2029:0.30868632 2137:0.21990438 2316:0.16792603 3364:0.16645232 5566:0.22396682 9083:0.33541235 #
0.9999999999334479 14:0.052609794 82:0.11748804 94:0.14845927 123:0.12877576 189:0.21578895 233:0.14389567 355:0.20801538 799:0.16878684 1768:0.26080874 1947:0.22565775 2547:0.64003229 2549:0.32001615 2550:0.26901767 2551:0.32001615 #
0.9999999999334479 4:0.0794231 13:0.10846197 23:0.16190034 36:0.14573878 178:0.21396171 392:0.24419072 455:0.14354758 458:0.1972056 592:0.24540019 593:0.42608428 594:0.39213341 595:0.25336048 596:0.35818255 597:0.42608428 #
0.9999999999334479 294:0.3890627 392:0.32728827 726:0.40794867 2394:0.57107979 2395:0.49895725 #
0.9999999999334479 4:0.079850979 14:0.070424467 19:0.23878065 36:0.14652392 93:0.16322228 143:0.15178393 682:0.26088902 1147:0.24092206 1758:0.37427899 1926:0.26986739 1959:0.31029627 2467:0.37427899 2468:0.39424595 2469:0.36011219 #
-0.98207670927408808 65:0.061816439 67:0.16338241 68:0.16499014 95:0.14236517 97:0.090997502 123:0.098460697 126:0.21378008 155:0.12859541 244:0.16499014 503:0.14633335 540:0.16669536 554:0.024666963 572:0.12558655 602:0.13888822 699:0.13955007 1019:0.133007 1020:0.26393023 1517:0.10798704 1590:0.17723453 1658:0.17723453 2107:0.16499014 2413:0.20568831 2435:0.22518478 2722:0.22518478 5427:0.22518478 7105:0.21378008 7253:0.22518478 7358:0.22518478 8911:0.24468125 8912:0.24468125 8913:0.24468125 #
-0.83003799182561733 34:0.14237447 82:0.15842788 156:0.23010394 386:0.32253194 471:0.21114388 605:0.12404318 748:0.20615129 907:0.31257734 1336:0.17705184 1758:0.3770304 2716:0.39714417 4024:0.28292066 4025:0.43152887 #
-0.73354237696809632 2:0.12835859 14:0.059061546 36:0.12288241 55:0.11492752 72:0.22632453 162:0.17482328 359:0.42253023 2219:0.27889681 2949:0.21744063 6501:0.66126943 8677:0.35926104 #
-0.9999999999334479 14:0.14651914 55:0.28511074 65:0.22516608 162:0.4336994 501:0.62846059 807:0.51330924 #
-0.9999999999334479 77:0.11740912 93:0.083895408 123:0.088603295 179:0.14883724 199:0.16456994 205:0.14082095 278:0.088325143 358:0.080836855 438:0.11969098 480:0.24880302 615:0.33510244 882:0.55087084 899:0.35889539 986:0.20264038 1591:0.17093109 1592:0.1850958 1947:0.15526229 2807:0.30001327 2808:0.22018497 #
0.9999999999334479 4:0.083422318 31:0.23520996 65:0.11306656 248:0.24525802 455:0.30155134 652:0.31557983 749:0.32417428 1218:0.3762182 1219:0.3910186 1220:0.32417428 1221:0.41187862 #
0.9999999999334479 13:0.11920464 40:0.24787895 123:0.18844013 147:0.35000485 299:0.21285647 300:0.35000485 301:0.33920234 302:0.28006175 303:0.43097249 304:0.46828604 #
0.9999999999334479 14:0.081977956 36:0.34112379 65:0.12598118 699:0.28440142 974:0.33624798 1677:0.39594772 2219:0.38711128 2220:0.38711128 2223:0.45892397 #
0.9999999999334479 36:0.30302665 65:0.22382288 370:0.43965495 1989:0.81534147 #
0.9999999999334479 14:0.038114078 36:0.07929948 49:0.096580572 55:0.074165963 65:0.058572534 81:0.11281838 82:0.085116252 87:0.10831907 97:0.086222284 106:0.081381977 143:0.082146227 145:0.12758023 153:0.088336721 165:0.10013938 186:0.13286923 263:0.13708612 282:0.17642115 300:0.17328207 308:0.090236679 321:0.12504007 344:0.18408829 385:0.098839052 418:0.12811865 425:0.087024748 619:0.24456112 647:0.20256166 684:0.12866819 761:0.19489452 796:0.1460536 813:0.15966783 1280:0.15070036 1281:0.17997997 1296:0.11221264 1411:0.14827584 1653:0.19489452 1685:0.18894742 1743:0.21336789 1926:0.1460536 1930:0.21336789 2252:0.18408829 2260:0.23184127 2262:0.20256166 2263:0.23184127 2265:0.19489452 #
-0.61649664915105917 4:0.05374828 17:0.1790987 251:0.16525206 301:0.20886269 496:0.20597853 513:0.14436176 583:0.24239415 636:0.24239415 796:0.18164971 997:0.11158234 1014:0.25192991 2100:0.26536983 3429:0.57669109 3430:0.28834555 3431:0.187429 3432:0.28834555 #
-0.88868523384852416 13:0.15517579 36:0.20850746 248:0.33406758 650:0.36672947 5341:0.56102258 7563:0.60959584 #
-0.80282923230092795 14:0.15038508 65:0.23110713 370:0.4539634 1367:0.46216163 1544:0.71013916 #
-0.9999999999334479 15:0.09824656 75:0.16896436 123:0.20166476 223:0.11763654 271:0.1384712 288:0.15260358 344:0.19896343 426:0.11624473 452:0.10099196 463:0.067487419 465:0.14360563 534:0.17455703 688:0.1842491 690:0.18728401 828:0.14579441 841:0.14291151 842:0.13514385 872:0.067487419 917:0.21064286 1002:0.14360563 1117:0.15785536 1399:0.10605235 2135:0.21892953 2160:0.1628776 2554:0.42128572 2889:0.1628776 4849:0.25057507 6974:0.25057507 6976:0.21064286 6977:0.25057507 #
-0.42692263470489633 1218:1 #
0.81125982460129875 2:0.13239771 4:0.034537189 16:0.2474402 34:0.061130498 36:0.063374601 65:0.046810031 87:0.086566493 93:0.070596986 178:0.09304139 179:0.18786715 190:0.1204368 337:0.30200621 338:0.18721882 400:0.10238994 438:0.10071854 439:0.23518534 463:0.049902309 518:0.11508397 570:0.21911313 605:0.053259697 626:0.10282911 634:0.12256851 767:0.11080983 875:0.13235623 882:0.23177563 889:0.1237201 967:0.21560989 1409:0.22861874 1685:0.15100311 1688:0.212373 1689:0.20655507 1691:0.13235623 1694:0.13065137 1695:0.15575592 1696:0.18528304 1697:0.30200621 1698:0.14383648 1699:0.1204368 1700:0.13065137 #
0.9999999999334479 59:0.30355257 65:0.11256786 84:0.25291571 748:0.2128567 907:0.32274443 985:0.49671963 1821:0.41006193 2060:0.41006193 2061:0.31418788 #
0.38248320976048805 4:0.075840816 14:0.066887707 65:0.10279096 93:0.15502515 191:0.181793 221:0.24332923 269:0.21943712 270:0.30960757 530:0.27435252 882:0.25448006 1157:0.24193296 1302:0.31585303 1590:0.29471299 1591:0.31585303 1592:0.34202713 1593:0.34202713 #
0.71900377009064831 14:0.059844799 18:0.24081026 71:0.17762551 81:0.17714173 179:0.12303416 187:0.17480332 191:0.1626512 192:0.20761614 205:0.23281522 474:0.23281522 530:0.2454647 624:0.26004019 805:0.24307279 1083:0.2454647 1206:0.63610423 #
-0.43073122664125202 179:0.1621495 191:0.21436171 276:0.31736931 490:0.19619067 530:0.32350349 748:0.22919117 1699:0.31184962 1807:0.32684699 3527:0.34751162 4468:0.27631283 8590:0.4797574 #
-0.61328816043505818 23:0.16967101 87:0.20862654 204:0.18731737 263:0.26403296 297:0.32833937 570:0.26403296 1171:0.27929136 5110:0.28786653 5286:0.29275897 8902:0.44653487 8904:0.44653487 #
-0.89927583821791046 46:0.34889495 554:0.10595014 985:0.58581001 6459:0.72379112 #
-0.71028455834357285 214:0.20390271 249:0.14175098 813:0.26624593 1428:0.35579076 1680:0.31506965 1851:0.253461 5496:0.30011639 5497:0.32498643 5498:0.32498643 5499:0.38659507 5500:0.35579076 #
0.9999999999334479 23:0.16510481 143:0.15395874 531:0.23911127 611:0.22159588 816:0.15432334 841:0.49564052 842:0.468701 843:0.2757732 844:0.36527196 846:0.37964174 #
0.9999999999334479 14:0.13911404 23:0.16076761 97:0.15735301 455:0.14254326 495:0.5764997 503:0.25303984 2000:0.42310318 2001:0.38938987 2002:0.30224216 2003:0.30224216 #
0.9999999999334479 46:0.1224627 49:0.15367199 123:0.14844237 225:0.20841727 233:0.1658714 248:0.20215663 370:0.18306549 439:0.23412097 727:0.13959335 1228:0.32230142 1386:0.67899102 1387:0.27571383 1388:0.28070852 #
-0.38084858304878699 364:0.20464849 495:0.3748889 684:0.30539382 1062:0.37105396 3687:0.48077992 4335:0.39859095 4786:0.22284645 5049:0.38333571 #
-0.86439957757740726 14:0.18434396 55:0.17935693 65:0.14164706 97:0.20851295 191:0.25051272 418:0.30983171 444:0.38612768 605:0.16116373 3307:0.47131705 3309:0.56066608 #
-0.9999999999334479 4:0.095344879 34:0.16875954 177:0.24250831 289:0.32463148 400:0.28266215 439:0.32463148 532:0.25167346 965:0.22999683 4098:0.29314312 5107:0.27274716 6569:0.42998663 7916:0.38922969 #
0.9999999999334479 44:0.47280404 55:0.17311254 204:0.227006 288:0.32956538 434:0.35175332 767:0.32363632 801:0.19867189 1142:0.33385727 2554:0.45490798 #
0.97774637647287399 72:0.24495795 220:0.24320482 223:0.1825469 249:0.14257382 447:0.19132046 455:0.13099973 715:0.30874896 1255:0.63379717 1513:0.35785607 1514:0.25275141 1515:0.29062498 #
0.9999999999334479 14:0.065144241 220:0.24784689 249:0.14529514 1148:0.20082028 1172:0.2428726 1255:0.32294726 1344:0.33311197 2399:0.34621659 2400:0.34621659 2401:0.33311197 2403:0.30153745 2404:0.39626101 #
0.9999999999334479 17:0.3037141 28:0.23182823 542:0.48897398 543:0.41104999 544:0.42722067 545:0.32346627 547:0.39850703 #
-0.62456686963615105 94:0.25866491 288:0.33956975 4359:0.44272855 5045:0.55757344 7981:0.55757344 #
-0.32577569938829953 4:0.075286523 32:0.3240355 93:0.15389213 434:0.26253635 3303:0.35288435 3609:0.35288435 4450:0.28851914 8617:0.40389261 8619:0.40389261 8620:0.37170997 #
-0.32102063211933163 23:0.18690979 46:0.16330065 55:0.15735976 817:0.28926605 819:0.28771672 1520:0.31974468 1975:0.28191191 2003:0.35138929 2234:0.33512172 2738:0.22819977 3684:0.26957032 5848:0.45270795 #
-0.32077247685362825 65:0.094912052 125:0.17856178 141:0.23666802 204:0.1575944 252:0.17428239 317:0.10843053 358:0.137924 385:0.16016069 554:0.037873294 798:0.17856178 826:0.24218871 1390:0.17723286 3059:0.13248767 4117:0.24026899 4779:0.34574541 7138:0.27623942 7848:0.3158108 8678:0.32823479 8993:0.32823479 9830:0.28587621 #
0.9999999999334479 4:0.046905313 14:0.020684039 46:0.041768495 72:0.079261482 97:0.04679177 153:0.047939248 214:0.066360153 215:0.10576686 257:0.073591217 289:0.71866715 359:0.59189999 392:0.072106488 403:0.084839478 409:0.1258174 410:0.099902451 411:0.10253944 412:0.089877181 413:0.10992772 414:0.085716315 415:0.070442192 416:0.1258174 #
0.9999999999334479 4:0.086325623 14:0.076134771 65:0.11700156 236:0.29174933 278:0.18577406 309:0.40462705 389:0.31228107 895:0.35241008 1372:0.26807535 2515:0.42621303 2516:0.4631145 #
0.9999999999334479 4:0.069246911 14:0.061072227 39:0.21503916 40:0.19664258 127:0.24147525 497:0.23235457 836:0.25049922 1336:0.15241919 1734:0.34189081 1735:0.58994907 1737:0.37149167 1738:0.32457539 #
-0.76404453347905454 14:0.092341825 23:0.21343029 65:0.14190806 588:0.34653726 636:0.47218552 2515:0.51694232 2775:0.56169915 #
-0.22438653335676323 51:0.58099008 71:0.39685658 7575:0.7106021 #
-0.18240931082882769 4:0.07921502 14:0.069863588 36:0.14535695 81:0.20679753 115:0.19027989 153:0.16192232 233:0.19108738 1296:0.2056872 1485:0.23385616 1654:0.23194014 3046:0.2621817 3443:0.34634301 3993:0.39110604 3994:0.39110604 3995:0.42496797 #
-0.94870628610441954 906:1 #
-0.64098998190566525 289:0.67564726 463:0.28672159 554:0.1073224 796:0.6706515 #
0.9999999999334479 14:0.066877186 57:0.23669352 64:0.2238597 65:0.10277478 132:0.25627416 141:0.25627416 431:0.23669352 457:0.30955887 1122:0.37438777 1312:0.12963443 1408:0.35542652 1409:0.25097442 1410:0.20366774 1411:0.26017341 1412:0.37438777 #
0.9999999999334479 4:0.099997409 55:0.17161344 180:0.83291525 906:0.35171607 1470:0.37828207 #
0.9999999999334479 4:0.051464889 14:0.045389395 87:0.1289953 179:0.093315467 187:0.13257988 197:0.17268787 463:0.074360907 520:0.21922755 748:0.1318973 828:0.16064335 872:0.074360907 907:0.19998957 1127:0.19998957 1137:0.16064335 1322:0.21922755 1503:0.14125386 1839:0.19468749 1998:0.17033577 2008:0.21922755 2065:0.21433501 2066:0.2030146 2068:0.24122718 2069:0.25409612 2070:0.27609575 2071:0.23209651 2072:0.25409612 2073:0.22501421 2074:0.27609575 #
-0.30910190242029673 455:0.27914235 554:0.083529584 1411:0.52991349 3149:0.22983469 9482:0.76254183 #
-0.29584587314017063 4:0.081376672 167:0.25959241 1372:0.25270689 3197:0.36699277 3584:0.76286048 3585:0.38143024 #
-0.56427584293838229 4:0.1385756 1412:0.68418539 2036:0.38157326 3750:0.60587871 #
-0.47931246149906404 1:0.53047192 65:0.22790194 317:0.26036239 442:0.62841165 1410:0.45163095 #
0.9999999999334479 14:0.17422117 186:0.30367559 450:0.32476816 455:0.17851578 496:0.37851664 812:0.29666644 819:0.30992854 1879:0.44543582 1972:0.46295926 #
0.9999999999334479 2:0.14907888 4:0.15555452 13:0.10621437 33:0.23913048 34:0.137665 364:0.15517797 455:0.14057292 745:0.30680951 790:0.3507601 816:0.14819223 1014:0.36455899 1015:0.41725475 1018:0.41725475 1019:0.22681673 1020:0.22504 #
0.9999999999334479 14:0.054059986 77:0.17534584 94:0.15255156 171:0.19034863 184:0.19233865 252:0.15255156 253:0.19902693 299:0.149471 455:0.11078516 551:0.10816137 570:0.19443928 595:0.19553506 603:0.16271985 604:0.16989295 610:0.14483643 788:0.23819295 858:0.27643317 1131:0.32883742 1132:0.2611059 1134:0.32883742 1135:0.32883742 1136:0.28730804 #
0.9999999999334479 28:0.27156076 65:0.14470705 358:0.21028495 455:0.19296867 1680:0.46680626 1787:0.57277817 1788:0.52713853 #
-0.89981094013816143 71:0.1972622 94:0.18754509 112:0.12214378 223:0.18979059 471:0.19780575 474:0.25855321 790:0.33984366 872:0.10888179 3080:0.59452188 3082:0.3532131 3084:0.40426886 #
-0.23648383977235554 455:0.47094449 554:0.070461899 1096:0.4204779 1348:0.43120673 3149:0.19387847 5952:0.61066902 #
-0.49974327879186486 455:0.28959358 638:0.46726403 3135:0.45500588 7754:0.70054948 #
-0.9999999999334479 4:0.076367766 14:0.067352451 34:0.13517022 42:0.2854028 392:0.23479693 455:0.27605087 720:0.31175876 955:0.20960392 1075:0.2641159 1125:0.21382433 1413:0.19424029 1583:0.27911395 2004:0.27625874 3642:0.40969321 3643:0.3770484 #
0.9999999999334479 23:0.36795703 143:0.34311658 385:0.41284084 477:0.52640331 2565:0.54712027 #
0.9999999999334479 14:0.062007144 36:0.12901098 153:0.1437135 327:0.22970685 329:0.21945733 370:0.1871793 415:0.21117342 562:0.16079956 813:0.25976086 992:0.32954413 1089:0.2732088 1648:0.37717861 1649:0.32954413 1650:0.37717861 1651:0.32954413 #
0.9999999999334479 4:0.12958248 23:0.26414794 32:0.27886346 143:0.24631555 374:0.44460523 477:0.37789288 1413:0.65918225 #
0.9999999999334479 4:0.13894801 36:0.25496504 65:0.37664679 927:0.28362954 1222:0.44844049 1223:0.53248793 1224:0.45687583 #
-0.68255607567153098 14:0.071780734 23:0.33181459 32:0.1751499 65:0.11031041 143:0.15470704 187:0.2096675 224:0.19803269 570:0.25817606 595:0.25963104 605:0.1255094 872:0.11759753 971:0.25147372 1001:0.30070448 1020:0.23548956 1499:0.32105598 2119:0.43851429 5296:0.25817606 #
-0.54877095035406576 60:0.31148449 65:0.13080849 143:0.18345499 374:0.33114046 728:0.23231971 1114:0.29820299 1289:0.21569084 2103:0.31532583 5027:0.33378625 5345:0.47650886 5346:0.33945909 #
-0.9999999999334479 4:0.085229807 14:0.15033665 23:0.17373705 65:0.11551635 82:0.16786569 106:0.16050097 165:0.19749419 187:0.21956247 268:0.28400069 497:0.28598437 603:0.22625566 604:0.2362296 605:0.13143264 816:0.1623919 971:0.26334167 997:0.17693853 1006:0.26743945 1316:0.32662463 2373:0.16515894 3877:0.24955133 5215:0.32241744 #
-0.84654139245603743 4:0.1201972 23:0.24501649 28:0.30571982 36:0.22055791 49:0.26862231 425:0.24204442 554:0.065006681 605:0.18535575 785:0.11025991 997:0.24953143 3877:0.35193521 6884:0.64482671 #
-0.47900919416112397 4:0.23543197 551:0.41543686 785:0.21596767 836:0.85167009 #
0.9999999999334479 64:0.25852492 65:0.11868972 455:0.31654844 927:0.17875585 1248:0.27478632 1566:0.43236262 1567:0.29816344 1568:0.38287768 1569:0.39492872 1571:0.36470625 #
0.9999999999334479 55:0.26589632 63:0.63249683 392:0.47635648 502:0.54984677 #
0.9999999999334479 2:0.16618831 4:0.086703576 15:0.18237495 23:0.17674126 93:0.17722958 319:0.30495831 455:0.15670615 471:0.22759061 586:0.31059203 705:0.28696692 842:0.25086734 965:0.20915174 1176:0.37908441 2143:0.29520947 2144:0.4280791 #
-0.67312889996731207 13:0.11936521 143:0.16614707 477:0.25489986 621:0.39418918 842:0.25290316 852:0.31619361 927:0.17842111 1248:0.27427176 1390:0.22121875 2830:0.32294047 5112:0.35682535 9265:0.43155298 #
-0.90345005527765698 2:0.58960336 13:0.21003763 14:0.13564688 233:0.37101457 1013:0.67245835 #
-0.015701737800181092 30:0.20951289 33:0.30624211 455:0.18002449 554:0.053869907 785:0.091370471 1002:0.30624211 1647:0.37224659 4239:0.53435665 4326:0.40662226 4795:0.36800855 #
-0.90886357760040049 115:0.20876436 143:0.16520248 319:0.30568525 671:0.30307019 1151:0.30057681 1733:0.37998804 2159:0.33306456 2160:0.30307019 3114:0.29819426 8707:0.4662509 #
0.9999999999334479 4:0.054087788 49:0.12087791 65:0.073307969 87:0.13556951 271:0.1603502 745:0.2133612 1202:0.67577565 1211:0.39967278 1213:0.1647072 1214:0.39967278 1215:0.29016691 #
-0.76369591044465435 4:0.2006501 32:0.14393403 55:0.11478382 203:0.25301433 212:0.20665513 257:0.20987085 278:0.14393403 332:0.24995758 360:0.31349695 513:0.17964113 554:0.03617277 602:0.20367208 747:0.28490642 785:0.061353792 965:0.16134021 967:0.20877084 1457:0.23736137 1709:0.26818204 1949:0.26383618 3187:0.21585922 3664:0.28490642 3666:0.19583328 #
-0.34227675370361804 4:0.065314166 14:0.1152075 46:0.11632263 55:0.22418161 106:0.12299673 178:0.17595297 545:0.23179246 1235:0.25598168 1237:0.19706237 1312:0.11165884 1508:0.17542644 1677:0.27822202 1851:0.22972639 3372:0.26189002 4270:0.24409313 5180:0.30614176 6123:0.21207362 6595:0.30614176 8286:0.29455402 9997:0.30614176 #
-0.77601136677712412 13:0.12422155 14:0.080224983 203:0.34410682 241:0.37134269 478:0.41022664 1532:0.38748097 2563:0.4491106 7509:0.4491106 #
-0.53092167530405088 4:0.14193071 14:0.062587805 46:0.12638722 55:0.12178925 97:0.14158715 364:0.14158715 498:0.27195922 549:0.14214705 1590:0.27576727 1946:0.28454956 2381:0.35037524 3118:0.31027395 3537:0.38071069 3538:0.38071069 3540:0.38071069 #
0.9999999999334479 2:0.17985162 4:0.093831979 13:0.064069532 14:0.082754999 36:0.1721786 55:0.080516234 77:0.13420966 82:0.18480822 106:0.088350102 224:0.11415455 364:0.09360484 419:0.55874026 433:0.1881189 450:0.15426476 552:0.23878559 605:0.072349012 619:0.13275053 626:0.13968506 796:0.15855905 955:0.12876867 1006:0.14721595 1257:0.2199055 1259:0.2199055 1260:0.23163697 1261:0.21158187 1262:0.14800869 1265:0.15855905 1267:0.23163697 #
0.9999999999334479 65:0.11070949 239:0.26522359 387:0.28249928 471:0.21441254 531:0.24114272 602:0.24874036 727:0.16582522 816:0.15563445 921:0.38286713 1009:0.180695 1010:0.43820927 1011:0.34795013 1012:0.35713449 #
0.9999999999334479 2:0.20251741 4:0.21131429 32:0.22737581 167:0.33704737 224:0.25708175 358:0.20809868 490:0.23179509 1068:0.47649291 1103:0.49523813 1157:0.33704737 #
0.9999999999334479 509:0.48936728 793:0.52810043 1474:0.69399542 #
-0.9999999999334479 65:0.12718438 385:0.21461907 419:0.55878007 454:0.39972922 458:0.23299909 463:0.13558619 554:0.050751098 592:0.28994116 785:0.086080559 990:0.15800539 1096:0.30285466 1517:0.22217818 5647:0.36465159 #
-0.96133118921547189 4:0.084144227 253:0.2732144 301:0.32697958 419:0.25052637 2916:0.75894779 3545:0.41544288 #
-0.26955607448740748 359:0.54102129 387:0.59310621 554:0.092749514 705:0.56760061 785:0.15731542 #
-0.9999999999334479 4:0.064866729 14:0.11441827 112:0.10514092 165:0.3006179 262:0.16143812 509:0.24538557 793:0.2648077 1020:0.18768482 1508:0.17422467 2582:0.26009595 3268:0.20143697 3425:0.24242097 3794:0.19753106 5393:0.29253617 6477:0.30404454 7211:0.2648077 7855:0.32026467 8387:0.32026467 #
0.9999999999334479 4:0.10416631 14:0.061246227 65:0.047060654 74:0.13922511 87:0.087029971 89:0.15658984 93:0.070974968 94:0.086415187 112:0.056280211 127:0.12108162 220:0.23301657 293:0.12690464 308:0.072501503 389:0.12560645 456:0.15181158 501:0.13135089 800:0.14790747 1019:0.10125779 1296:0.090158299 1456:0.15181158 1488:0.13922511 1598:0.14174724 1724:0.13492808 2474:0.55882514 2475:0.18627504 2476:0.18627504 2477:0.17143244 2479:0.18627504 2481:0.37255007 2483:0.17143244 2484:0.18627504 #
0.59056056516965882 4:0.075609766 17:0.25194499 28:0.19231233 123:0.16322578 236:0.25553361 278:0.16271336 353:0.28602558 505:0.17938119 906:0.26593858 965:0.18239056 988:0.74661183 #
0.9999999999334479 39:0.19030829 40:0.17402741 65:0.083060108 93:0.12526788 101:0.21554801 177:0.1558726 179:0.22223535 253:0.19898474 278:0.13188212 438:0.17871583 795:0.26105058 1087:0.24174459 1333:0.65753549 1334:0.24572656 1335:0.28724715 #
-0.069637968382652057 115:0.13213401 283:0.21375957 631:0.18329774 1211:0.20323785 1503:0.1509797 1664:0.20557837 2505:0.182064 2650:0.14026468 2942:0.17170422 4488:0.17082302 4582:0.21699287 4628:0.19899181 5678:0.22056714 5679:0.20323785 5680:0.67368841 5681:0.23432216 #
-0.65802822385578152 65:0.2488225 278:0.19753909 358:0.18079156 1222:0.29625124 1289:0.20514239 1504:0.26768878 1982:0.2999047 2577:0.33914316 4168:0.3174623 4890:0.3174623 5443:0.35670075 5948:0.36209616 #
-0.60506125785365905 4:0.14260423 252:0.17745429 389:0.51586771 554:0.038562577 1107:0.21416242 1172:0.23444892 3149:0.10610633 7022:0.26973009 9658:0.70407575 #
0.9999999999334479 36:0.19182175 55:0.17940401 214:0.29579097 374:0.35867235 419:0.31124234 498:0.4006148 974:0.37815997 1565:0.56081325 #
0.9999999999334479 4:0.064527258 13:0.088119864 36:0.11840539 95:0.20141643 108:0.21501614 115:0.15499888 165:0.14952232 393:0.26342183 455:0.11662515 556:0.19295768 561:0.20247768 864:0.20584258 1283:0.39486736 1362:0.43940648 1769:0.25873473 1868:0.31858858 2034:0.34617195 #
0.9999999999334479 65:0.095936581 69:0.31921983 94:0.35232738 206:0.23586319 457:0.2889621 556:0.21166603 839:0.31921983 1088:0.34947756 2098:0.26152164 2362:0.37973529 2363:0.37973529 #
-0.31034538289008312 556:0.50871176 2098:0.62853324 3115:0.5883522 #
-0.9619841044525137 2:0.30634364 36:0.29327407 165:0.37034649 619:0.45223144 2589:0.46424556 3345:0.51278663 #
-0.77663515952799989 2:0.17278385 13:0.12310348 17:0.30037761 36:0.16541237 78:0.31991279 249:0.17732015 471:0.23662302 505:0.21386451 554:0.048753224 1217:0.28286138 2595:0.3555952 3120:0.23344542 3636:0.27197939 5107:0.25787103 9481:0.44506833 #
-0.9999999999334479 64:0.32786933 213:0.18379104 263:0.17614931 307:0.23126589 312:0.22265941 350:0.1576909 490:0.24364913 502:0.19707042 549:0.2224595 798:0.14159523 954:0.18767208 1059:0.19531383 1312:0.18986514 1335:0.26028234 2089:0.14496639 2319:0.20752847 2782:0.31204009 3251:0.17518456 3605:0.21905126 3717:0.19892199 8581:0.27416784 #
0.81425988681457806 14:0.22790606 23:0.26338041 65:0.17511949 178:0.34807414 463:0.1866879 605:0.19924812 767:0.41454706 2379:0.69315636 #
0.79650836279717496 65:0.14535481 83:0.38060048 93:0.21921821 286:0.4109934 420:0.41674823 461:0.44664195 462:0.46889582 463:0.15495697 #
0.9999999999334479 4:0.1714433 13:0.23412681 225:0.51964551 2416:0.80359215 #
-0.24714382992108411 4:0.13004753 14:0.11469526 77:0.37201887 97:0.25946546 552:0.22063179 1649:0.6095612 2090:0.58648872 #
-0.56171245804708492 4:0.064808168 23:0.13210848 65:0.087837853 143:0.12318996 191:0.15534738 602:0.19735272 955:0.1778767 1006:0.20335914 1265:0.21902815 1439:0.25184077 1886:0.30377004 2760:0.21309614 3506:0.19295625 4564:0.26990557 4587:0.34767896 5388:0.30377004 6499:0.29227206 6854:0.29227206 7363:0.2760666 #
-0.8043115687987078 4:0.22144474 70:0.28022715 299:0.26999748 415:0.33256477 853:0.43026072 2781:0.26215309 3856:0.46112373 7416:0.47164962 #
-0.9999999999334479 4:0.085471496 13:0.11672179 14:0.075381473 100:0.25672144 681:0.2932578 1089:0.33213726 1147:0.51575994 1614:0.34271479 3401:0.34271479 3403:0.45853233 #
