SVM-light Version V6.02
0 # kernel type
3 # kernel parameter -d 
1 # kernel parameter -g 
1 # kernel parameter -s 
1 # kernel parameter -r 
empty# kernel parameter -u 
30725 # highest feature index 
15758 # number of training documents 
3332 # number of support vectors plus 1 
1.2380596 # threshold b, each following line is a SV (starting with alpha*y)
-0.41015051146432357 393:0.29164666 3673:0.30263013 4047:0.45352551 5550:0.16671802 6550:0.32208166 9981:0.40164268 11935:0.355887 22885:0.22829187 24842:0.27540597 26981:0.26495722 #
-0.40963644643941799 21299:1 #
-0.66521912843222553 22815:1 #
-0.084042310320288527 212:0.10526767 2935:0.20627065 3128:0.20627065 5501:0.14238441 5998:0.20627065 6936:0.16806003 8873:0.10681932 9418:0.17194818 13174:0.07064797 13307:0.10435226 13666:0.15941319 13840:0.16494359 13995:0.13762571 14499:0.13446054 14645:0.26472247 15582:0.27041778 17969:0.20627065 18009:0.086180836 18164:0.10246683 18953:0.1571663 20750:0.16806003 21195:0.20627065 21352:0.08557795 22163:0.19148877 22637:0.13373756 22920:0.13678929 25254:0.19148877 25693:0.19148877 25963:0.14463131 30117:0.14851946 30247:0.4125413 #
-0.07955616187594039 7681:0.19059424 8523:0.33497918 9525:0.27114233 14775:0.18742935 16790:0.33497918 20533:0.3496435 21134:0.22894849 22009:0.15475257 22880:0.44539875 25994:0.13583146 27280:0.19808871 27499:0.2576341 29921:0.33097243 #
1.0000000003827467 1043:0.27180752 4541:0.13973346 6435:0.22308871 7011:0.27180752 7446:0.1688509 7879:0.1342788 10299:0.17318265 10691:0.29278958 10942:0.14837761 10955:0.15077919 11138:0.20886137 11439:0.12505165 13226:0.19658765 13338:0.27180752 14331:0.20569625 15624:0.18604417 23530:0.14615263 26906:0.1342788 27177:0.20886137 27331:0.21290345 27368:0.19302228 27370:0.21514677 27503:0.1583074 28057:0.1826773 28988:0.23855177 #
1.0000000003827467 8593:0.44311327 10122:0.3886922 14283:0.33265588 15481:0.22938772 30282:0.41152412 30299:0.4822247 30361:0.29563087 #
1.0000000003827467 5002:0.18588407 5174:0.14814149 8338:0.28073505 8423:0.29113799 9051:0.25090867 12350:0.1204422 13773:0.37168723 13897:0.21365638 14474:0.41237044 15201:0.2671369 16046:0.18778759 17684:0.21599565 18087:0.25204283 23971:0.28073505 28590:0.23021343 #
1.0000000003827467 740:0.50657839 5002:0.23518902 6022:0.50657839 12365:0.24143137 15201:0.33799383 20025:0.37643453 25870:0.34236082 #
1.0000000003827467 3794:0.24986784 4481:0.076624684 5069:0.25696132 5386:0.17697711 5699:0.24777956 9531:0.23726915 10839:0.38387433 11695:0.12475587 11697:0.32805488 12365:0.16841768 18391:0.16510409 20163:0.10381384 22003:0.26577213 22751:0.26925427 22985:0.11888481 24012:0.17939353 28042:0.18404971 28857:0.30273083 29309:0.25444067 #
-0.70821975682343596 7139:0.44380176 8593:0.5201363 14283:0.39047897 26524:0.38298959 30282:0.48305625 #
-0.076672335024916174 1329:0.47371483 4586:0.31985658 6517:0.28424296 16010:0.4505344 21613:0.40633115 21811:0.47371483 #
-0.60826925322898406 15201:0.66395593 18294:0.51929235 27503:0.53805017 #
-0.2068921947734764 6275:0.364429 9391:0.55054545 15201:0.58351594 27503:0.47286397 #
-1.0000000003827467 11439:0.41796127 11697:0.90846485 #
1.0000000003827467 5893:0.26190045 6972:0.17696384 7685:0.16440813 10080:0.26096958 15352:0.37408435 15618:0.30876157 19651:0.24962372 19770:0.30374017 21609:0.31752697 22815:0.18459699 27354:0.43667015 28084:0.29922178 #
1.0000000003827467 3967:0.12203557 5550:0.085328557 5695:0.26186368 6080:0.26186368 6287:0.1688941 7205:0.15147103 8476:0.10892697 9181:0.22433202 12254:0.15193383 12280:0.42571974 13798:0.1353545 13877:0.21335472 14523:0.16267875 17665:0.12067784 18570:0.30294207 20784:0.26186368 22815:0.11069968 22833:0.1246314 25328:0.14607996 26117:0.1052761 26950:0.24309784 27655:0.13886142 28607:0.26186368 29460:0.22433202 #
1.0000000003827467 1344:0.17920493 7879:0.20619628 9318:0.27163532 9559:0.16370317 15136:0.26869857 16125:0.26869857 19137:0.24891217 20163:0.13208199 21459:0.39853576 22815:0.19006409 23532:0.3851634 23688:0.26593637 27269:0.11290123 28581:0.41738307 #
1.0000000003827467 2515:0.18215846 4393:0.15663418 4778:0.14214037 6756:0.22318043 6761:0.14161587 6972:0.12438271 10709:0.17077832 11210:0.18613011 11244:0.40467915 13961:0.17807718 14226:0.14835173 15009:0.18408218 15526:0.16448979 16673:0.12519902 18695:0.15500656 19175:0.3069227 19568:0.18684322 20875:0.17862906 21695:0.21186246 22299:0.19321088 22815:0.12974782 23497:0.25144014 25994:0.093600973 26017:0.25585219 26117:0.12339101 26449:0.07945013 27780:0.18908405 #
1.0000000003827467 3453:0.73835939 3590:0.12303549 6224:0.17844379 6916:0.2406552 8361:0.23135652 11019:0.24199457 12365:0.17594822 16919:0.21165332 19651:0.21104261 22009:0.12827048 22815:0.15606622 25711:0.20051934 26449:0.19113202 #
-0.87270231870484094 5301:0.56842601 12365:0.39814413 18625:0.53880608 19651:0.47755742 #
-0.038492952661912098 479:0.35084805 656:0.21166721 8456:0.18469013 9039:0.28781131 9599:0.15124547 10170:0.12855361 15921:0.25944692 17933:0.27531475 18391:0.18492599 18493:0.24189195 19598:0.27986622 23289:0.21752305 23530:0.1975749 27222:0.20945472 27520:0.21648702 27574:0.3058916 29246:0.30158013 #
-0.91411962686251103 1338:0.32273984 12365:0.38856763 15481:0.2766577 18508:0.3161622 19489:0.37436327 26153:0.506495 26449:0.21104993 30361:0.35655162 #
-0.079864085804157714 11244:1 #
1.0000000003827467 10555:0.38729498 12365:0.15955286 13755:0.19545372 14474:0.17240238 22033:0.19545372 23118:0.21272472 27193:0.19545372 27503:0.72404093 29724:0.24104792 30026:0.22940201 #
1.0000000003827467 4602:0.39854071 9383:0.30652863 10290:0.2912792 11439:0.24840868 11492:0.427378 14346:0.37913194 18509:0.41877317 27503:0.31446955 #
1.0000000003827467 4481:0.16982614 4611:0.36878452 7522:0.51633108 8632:0.42252234 22985:0.26348883 26131:0.37587422 27503:0.42346942 #
1.0000000003827467 9559:0.29867205 10170:0.26642194 11439:0.35034847 14778:0.4074856 18294:0.42805663 18747:0.38934788 30183:0.46497479 #
1.0000000003827467 4347:0.24954563 4368:0.12862098 4720:0.25618455 7522:0.25765404 10826:0.72563964 11358:0.21637262 11439:0.16692404 14584:0.24177253 15447:0.21974178 15453:0.19115268 27503:0.2113152 #
-0.90168034315238987 7522:0.79198939 12350:0.36138862 23497:0.49208844 #
-0.47969223051047094 9559:1 #
0.99096149343539452 1328:0.20941254 2044:0.16873753 2280:0.16023393 2503:0.18384655 4199:0.15532707 4481:0.15901424 4948:0.22693032 5149:0.20941254 5304:0.13856375 5535:0.13973944 6265:0.14226884 6534:0.21668309 7674:0.19526948 7681:0.1046038 8000:0.17003386 8778:0.14139727 9103:0.18384655 9738:0.12047802 10726:0.092838109 11520:0.40599912 11706:0.12242305 12108:0.15459447 12262:0.20941254 12853:0.12781103 13881:0.21668309 17865:0.15459447 21330:0.13856375 22004:0.14363526 23848:0.18891807 27269:0.061384168 28296:0.16750446 28339:0.14317153 #
-0.021111331872800954 3967:0.3449378 9559:0.26949936 10290:0.37068594 11439:0.31612831 15136:0.44234997 15672:0.48248857 26449:0.19159989 28969:0.32536691 #
-0.13608031561316472 4397:0.27921537 7999:0.26225337 8029:0.41848239 10290:0.20958185 11225:0.28098157 15186:0.22782245 18494:0.27751845 19628:0.41848239 20071:0.24510218 25994:0.12762289 27499:0.24206474 29792:0.34096059 #
1.0000000003827467 4480:0.23725975 4611:0.23376244 11244:0.32728818 13174:0.17003593 13798:0.25661141 15481:0.1684619 22009:0.17249137 23022:0.4964534 24600:0.4964534 26906:0.22768286 27142:0.26217937 27269:0.12466604 #
1.0000000003827467 1215:0.19287759 1369:0.19832203 9319:0.2752406 9556:0.22029249 11244:0.24126565 11439:0.15630665 11695:0.12920046 14213:0.2719484 19635:0.20920691 19702:0.14201845 23855:0.21646738 27106:0.24733245 27143:0.18268156 28392:0.18546264 28427:0.19969806 28489:0.33974224 30022:0.33974224 30547:0.33974224 #
1.0000000003827467 6761:0.26519701 8406:0.39674431 10200:0.36521292 12100:0.4591276 12840:0.29820788 15311:0.23743069 21695:0.39674431 28621:0.35408831 #
0.90572134571027307 3892:0.27207834 4813:0.2565124 5966:0.15325049 6508:0.27325448 8476:0.18217908 9331:0.40657833 11216:0.23321791 12231:0.31846777 18508:0.33967119 23422:0.26559874 23501:0.19563247 29902:0.3751927 30295:0.20676737 #
1.0000000003827467 1338:0.17844738 4368:0.14835557 6095:0.16606395 6848:0.31356376 7076:0.37578315 7280:0.26236159 9599:0.17225777 9709:0.31608364 11459:0.24428929 12350:0.13560762 15929:0.24319263 16673:0.18388617 17591:0.20005623 18106:0.2151404 22592:0.29549149 24055:0.2788682 26449:0.11669246 29196:0.21115941 #
-1.0000000003827467 8120:0.37185359 9954:0.70996982 14474:0.41246521 27503:0.4330591 #
-1.0000000003827467 4481:0.14097203 8565:0.35476029 10555:0.3760618 13130:0.27091134 18117:0.28883302 22009:0.2258883 22985:0.21872106 27503:0.35152036 29223:0.42609271 29868:0.38993087 #
-0.74562370420385904 1354:0.48619929 6848:0.60933846 14346:0.57104099 20163:0.25735018 #
-0.24267914176549762 30248:0.55040747 30372:0.83489621 #
-0.14977873442706019 3721:0.51874644 4481:0.11768136 18325:0.48432469 22737:0.43353811 22739:0.30354232 23632:0.30433822 27269:0.13628538 28979:0.30198359 #
1.0000000003827467 4481:0.074381955 6654:0.16238332 8593:0.22485746 9302:0.34303585 9559:0.12490149 12984:0.17569181 13129:0.39107776 14325:0.17384101 14698:0.17295061 18073:0.34303585 21135:0.22887672 22655:0.15001765 23181:0.23032449 24931:0.31845301 26713:0.1682882 27658:0.26928735 27839:0.30407298 #
1.0000000003827467 1373:0.287806 3661:0.31280559 5121:0.26769021 7471:0.17766267 9018:0.28383496 9559:0.34944209 18508:0.18608333 18747:0.45553157 20716:0.36089921 21449:0.30949694 28703:0.21272895 #
1.0000000003827467 8428:0.79734892 12350:0.35723558 23497:0.48643342 #
1.0000000003827467 1338:0.20524046 3683:0.32209617 3990:0.41416907 4541:0.24744278 9559:0.18878092 10316:0.26275 10427:0.43220532 11358:0.28704312 11695:0.18304183 16981:0.18993622 17947:0.1912365 19735:0.2856324 21801:0.24445479 #
-1.0000000003827467 4481:0.1834053 6095:0.31158891 8428:0.56791639 15108:0.49227399 23497:0.34646505 28866:0.42938802 #
-0.17806465765667717 1344:0.13068125 3575:0.11324503 3854:0.14843662 4481:0.14218388 4611:0.15437911 5947:0.23182595 5966:0.1147244 8428:0.44027388 9289:0.18151373 9599:0.12528352 11630:0.23182595 14075:0.11646971 14103:0.32786292 15053:0.15690675 15685:0.29062343 18106:0.15647218 19803:0.30436742 23497:0.26859501 26449:0.084870733 27269:0.082330734 27454:0.32786292 #
-0.026940427832996845 3882:0.23038507 4114:0.29011524 5625:0.16268498 7868:0.25716323 8147:0.19479202 8428:0.5843761 9042:0.19606857 13174:0.099364847 13307:0.14676921 18106:0.13845713 21011:0.29011524 21516:0.23637283 22009:0.10079974 22646:0.1987972 23497:0.11883549 23530:0.14481768 29223:0.19013838 30453:0.20179911 #
1.0000000003827467 7864:0.27918115 8218:0.23307703 8562:0.32624492 10170:0.25422436 10316:0.19833362 11425:0.23734017 11439:0.16715424 11695:0.13816689 12365:0.18652226 15242:0.31263047 17454:0.36332014 21510:0.29082143 21801:0.18452372 27269:0.098277315 28589:0.27672815 30059:0.29082143 #
-0.10300529550186821 3683:0.44232816 6095:0.26229331 6508:0.4442403 7305:0.36599723 9599:0.27207628 11559:0.243866 15365:0.25677958 18747:0.33795619 22815:0.30099556 #
-0.34116792839798304 2615:0.29932347 3565:0.25159019 3738:0.20744848 4615:0.21359284 12084:0.16287528 13420:0.34785557 14331:0.13162363 14434:0.28958756 15053:0.17932566 15752:0.20399167 16748:0.34785557 23497:0.15348598 24691:0.37348059 25996:0.28550589 27143:0.18704414 27269:0.18818837 #
0.74208902493121243 4481:0.093794867 7249:0.40156591 8565:0.23603757 11535:0.36058789 11559:0.14815395 12322:0.19279875 12840:0.2244318 15365:0.15599924 21736:0.25021037 22885:0.19300921 22985:0.14552471 26529:0.36058789 27878:0.43256462 29754:0.26872408 #
1.0000000003827467 4481:0.14245199 4804:0.27382341 5438:0.15676722 5596:0.26763165 6761:0.30312613 8919:0.24409184 9599:0.12551977 12422:0.22508687 13531:0.21412525 17037:0.36104804 17041:0.32848114 17865:0.20773885 22813:0.30494136 24842:0.17681554 25274:0.29117143 29223:0.10764149 29511:0.20678213 #
1.0000000003827467 3882:0.3156293 4036:0.35239768 4481:0.17236601 6345:0.35164711 8607:0.46862337 25370:0.63499635 #
1.0000000003827467 3575:0.18313071 4481:0.057482075 4679:0.16331656 8106:0.22098586 9371:0.20487604 9559:0.096523374 10310:0.18587853 10328:0.26509672 10368:0.22098586 10783:0.26509672 11439:0.22644781 11695:0.093588978 15311:0.10951044 15946:0.26509672 16630:0.13005245 17923:0.14431906 17947:0.1955578 18117:0.11777316 18190:0.19937614 19255:0.14086898 19951:0.1874451 20163:0.077878751 21812:0.18299085 22985:0.089184649 24355:0.2271017 26981:0.13728298 27155:0.17799385 27236:0.2460992 27269:0.066569306 29223:0.08687076 29825:0.20198835 30183:0.15026827 #
-1.0000000003827467 11695:0.62006629 23501:0.78454942 #
-0.56461711477560017 273:0.33783874 656:0.28829587 8607:0.31780884 10942:0.27319849 13763:0.22959794 15481:0.18293162 16630:0.26447201 16981:0.1974892 27102:0.20337503 27520:0.29486057 30452:0.23068869 30547:0.50046235 #
-0.3235182845029162 11459:0.62076837 15311:0.47320953 28427:0.62507546 #
-1.0000000003827467 12853:0.26897615 13798:0.53181374 18570:0.59513628 20019:0.35003608 24187:0.31080601 30007:0.26741937 #
1.0000000003827467 3575:0.10371054 4029:0.30025899 4615:0.17115502 4685:0.26615486 5035:0.17700945 8428:0.40320572 8632:0.16198295 9972:0.14046562 10104:0.18653126 10839:0.16308518 12034:0.17760076 12139:0.22312018 12510:0.27874169 13174:0.1028391 14331:0.10547191 14352:0.19681756 14778:0.14915641 16939:0.15112804 17299:0.22582127 17405:0.1321273 18145:0.23205069 18397:0.096149288 19152:0.18816549 23497:0.24598107 27269:0.075399026 #
1.0000000003827467 3609:0.26344553 4761:0.39314869 5434:0.26944906 12451:0.57374263 22985:0.19302025 23119:0.28410625 23497:0.47002694 29223:0.18801235 #
1.0000000003827467 4481:0.10952874 12350:0.15195219 14349:0.46892771 14352:0.3311066 14892:0.41155419 15481:0.3428098 18350:0.28325459 21471:0.30870289 22009:0.17550476 23497:0.20690723 25994:0.15404634 27920:0.27499154 #
1.0000000003827467 4368:0.17901589 5025:0.43452281 5535:0.31095475 6095:0.20038402 12350:0.16363335 13130:0.22666644 16981:0.19927035 18117:0.24166116 20192:0.37273878 21960:0.33243409 26117:0.21868521 29223:0.17825188 29763:0.37012258 #
1.0000000003827467 4521:0.33419627 7522:0.30885234 14331:0.16456591 14590:0.36776936 15899:0.24353413 16205:0.40134245 25994:0.14287309 27490:0.22266884 27503:0.25330555 28866:0.23782922 30527:0.46848866 #
-0.14059165881581726 5121:0.56566811 14331:0.71238881 23497:0.41535741 #
-1.0000000003827467 8456:0.26859826 9559:0.20958894 14331:0.20219994 14778:0.28594735 15481:0.39065504 20025:0.42774314 21352:0.23881668 21790:0.45982009 21801:0.27139935 27269:0.28909457 #
-0.57701701978375108 4365:0.13243075 4480:0.11705469 10198:0.12412406 10290:0.12266473 11695:0.34587851 12996:0.17810263 14775:0.10306989 15481:0.083112516 18129:0.16147119 18290:0.14853571 18592:0.29173538 23119:0.24256989 23264:0.26546085 23501:0.21881434 23547:0.5343079 24658:0.18200614 26110:0.17036954 26449:0.063402861 27143:0.12226278 27997:0.2449307 29840:0.17997925 #
-0.033195169950449389 4421:0.34181306 7522:0.30324781 15598:0.45998731 18129:0.30324781 19702:0.17850359 25104:0.45998731 27503:0.24870898 28717:0.42702344 #
-0.053642175891184446 4528:0.49410263 12386:0.36992133 14563:0.47644734 15481:0.23057556 18907:0.58211136 #
1.0000000003827467 5550:0.19402541 10196:0.38019317 12108:0.37657088 14657:0.28300875 18508:0.23090315 19702:0.23106842 20319:0.2409177 22739:0.33302677 23501:0.26597574 26449:0.15413636 27269:0.29904681 28969:0.26174793 30361:0.2604008 #
1.0000000003827467 223:0.14148925 273:0.12314633 641:0.12547071 656:0.10508734 661:0.16010487 875:0.13564461 1015:0.10722788 1121:0.15426025 1333:0.19650678 1741:0.10577609 1875:0.16380897 2212:0.15697311 4368:0.064670205 4481:0.04260942 4813:0.11509264 7471:0.29101583 8726:0.099074103 8742:0.083301276 8970:0.12609588 9559:0.21464804 12871:0.16834243 13593:0.10577609 14075:0.069806881 15136:0.11743943 15481:0.066680796 15930:0.13111116 17757:0.15426025 18007:0.34310094 18117:0.087301061 18391:0.091811009 19489:0.090230055 21578:0.10773581 23448:0.12809582 25121:0.11872299 25486:0.14972679 26610:0.08490815 27078:0.14439653 27102:0.074132666 27269:0.049345464 27520:0.429921 28736:0.12486421 30452:0.16817766 #
1.0000000003827467 13798:0.45866746 20019:0.60378343 22870:0.4853462 26713:0.43532607 #
0.91399497845603395 1016:0.21610631 2855:0.26675004 3247:0.22953364 3383:0.21114355 4481:0.062305547 4541:0.13713346 5304:0.16287769 9212:0.28734168 10133:0.20497511 18121:0.17850658 18699:0.17360248 19629:0.21114355 21884:0.26675004 22631:0.13970116 22705:0.18172133 23501:0.25670317 24489:0.18943074 25100:0.22206773 27343:0.25209925 27650:0.28734168 27668:0.17233814 28339:0.168294 28979:0.15988304 #
1.0000000003827467 5501:0.34580743 5966:0.17529632 6439:0.35126442 6799:0.31682292 8970:0.32146424 12996:0.36428091 14277:0.32838032 15481:0.16999358 19489:0.23002921 23501:0.22377516 24960:0.29834941 26311:0.2472904 #
-0.45931732418780524 9559:0.20986007 18298:0.38455975 24058:0.37369534 26632:0.34822422 27072:0.36119822 27215:0.46041495 29161:0.4524579 #
-0.32546081834171015 3698:0.43867546 9368:0.36807561 10368:0.56097829 12350:0.20243838 17286:0.36635762 26117:0.27054557 26713:0.33014148 #
-0.47833626105864613 26117:1 #
1.0000000003827467 2977:0.4974778 5304:0.28199193 27269:0.12492329 28009:0.30284613 30109:0.35175756 30411:0.44097304 30538:0.4974778 #
1.0000000003827467 4835:0.26760179 10198:0.3487103 12330:0.47498187 13174:0.23567541 14331:0.24170899 15481:0.23349375 21352:0.2854805 23501:0.30736515 27919:0.48654363 #
1.0000000003827467 635:0.17621055 3698:0.23695379 8778:0.21026191 10559:0.4688949 11695:0.12832953 14331:0.1276871 14559:0.36350155 17984:0.32221413 18505:0.16670865 19489:0.16690907 19735:0.20025519 20163:0.10678761 21801:0.17138581 23497:0.29779121 26524:0.17544615 27851:0.25930375 30457:0.23827258 #
1.0000000003827467 4481:0.11635865 6514:0.26743335 7139:0.30013058 9383:0.28281906 11687:0.32184988 11695:0.1894484 14075:0.19063002 14331:0.1885 14474:0.27634802 15311:0.22167757 18505:0.24610613 20273:0.26874915 22985:0.36106578 27269:0.13475357 28580:0.30946985 29223:0.17584898 #
1.0000000003827467 4586:0.29969811 7681:0.22171263 7986:0.34569398 14331:0.18199959 21352:0.21495824 21975:0.38967136 23422:0.31420806 23774:0.42214015 23784:0.32767019 23924:0.35503355 #
-0.55293203519532375 4481:0.13809977 7681:0.27253711 18508:0.24697629 22870:0.34835017 22985:0.21426471 23009:0.53091502 25016:0.54560822 26311:0.31438574 #
-0.085895226176018052 1338:0.24438858 4481:0.26773551 5966:0.21602868 15526:0.33087036 18135:0.33159161 20319:0.2497912 22970:0.40468371 26449:0.15981352 28042:0.32154548 29196:0.28918859 30457:0.40468371 #
-1.0000000003827467 4481:0.18146446 4813:0.24507752 6514:0.20853476 9520:0.41844028 10170:0.1359055 15311:0.17285608 18119:0.20921606 18508:0.32452926 21888:0.38845378 22025:0.25280797 22985:0.14077297 23855:0.24750403 23887:0.38845378 25922:0.21025856 #
-0.36136664734905244 2591:0.35041636 2665:0.27508116 13894:0.27991879 14037:0.20942125 14040:0.29210871 18135:0.18820882 20302:0.35041636 20319:0.14177956 24316:0.27991879 27506:0.24011764 27948:0.30019289 28710:0.43538147 #
-0.41949659511638626 7982:0.38080376 11210:0.48785073 11559:0.27552533 19735:0.4431766 20192:0.55123782 27269:0.2020082 #
1.0000000003827467 4824:0.37593079 11695:0.1549217 12084:0.19074535 13798:0.22682416 15186:0.47779456 21246:0.35054162 26117:0.35283884 26610:0.18961108 28718:0.40737817 29868:0.26319319 #
1.0000000003827467 4481:0.086481214 7982:0.18879724 10224:0.44613197 12365:0.38016379 13174:0.13660164 13755:0.2328521 14331:0.14009883 15186:0.21712661 15481:0.13533711 17665:0.18380021 18548:0.26610672 21801:0.18804522 22758:0.27742296 25237:0.21763255 25407:0.26143366 26117:0.16034235 26131:0.19140789 27780:0.24570817 #
1.0000000003827467 4481:0.1267181 9873:0.18377762 10726:0.22194746 19165:0.54252082 25237:0.31888986 26117:0.23494439 28278:0.2862618 30010:0.31527084 30633:0.51802284 #
1.0000000003827467 2561:0.23300092 4591:0.40522733 4716:0.40522733 12365:0.19312824 14346:0.52830672 16861:0.26714715 26039:0.34714806 26482:0.33016098 #
1.0000000003827467 1661:0.21863578 2697:0.15091981 3590:0.072864138 4626:0.11930301 4799:0.15459341 5132:0.14252093 5954:0.16065729 7198:0.16896939 8456:0.40807897 8742:0.092681997 9839:0.10677329 11559:0.074883044 12350:0.065770052 12840:0.34031093 13537:0.21863578 13814:0.14679858 14331:0.076800138 15053:0.10463346 15481:0.074189842 18566:0.085460193 19702:0.16968848 20223:0.18729979 20232:0.16065729 23527:0.21863578 23579:0.21863578 23776:0.11768774 24417:0.12571299 26035:0.21863578 26117:0.17579469 26595:0.16246659 27102:0.082480885 27257:0.15459341 27269:0.054902352 27995:0.099560343 28427:0.11930301 30425:0.1487654 #
-1.0000000003827467 14778:0.57589537 23501:0.51784563 25237:0.63259816 #
-0.034155159367952312 15186:0.5619235 15424:0.72374028 19702:0.40055206 #
-0.97127876053832196 10726:0.48975876 19137:0.71393681 19702:0.50043041 #
-0.077356516371557021 6972:0.533288 9865:0.51650822 12050:0.54848015 20512:0.30940503 22009:0.22860707 #
1.0000000003827467 8120:0.14280514 9289:0.17029057 9318:0.18583637 10229:0.23436645 11559:0.10535027 13654:0.4079605 14331:0.10804737 22025:0.37167275 27201:0.61518174 27269:0.077240154 27356:0.13063374 27373:0.21395487 29999:0.20522751 30026:0.21077211 #
1.0000000003827467 131:0.18748817 402:0.21103559 3568:0.32011342 4435:0.1633659 5966:0.11201272 6216:0.16031729 6225:0.15053256 7471:0.11851763 7982:0.1515325 8146:0.27423313 8476:0.13315701 9692:0.20439427 11695:0.11301191 13627:0.22266532 14779:0.21634224 15311:0.13223763 18505:0.14681002 20163:0.094041273 21471:0.1956341 22690:0.22445472 23497:0.13112319 25119:0.14509484 26524:0.15450463 27102:0.12076358 27496:0.1941295 28330:0.21634224 28427:0.17467631 30028:0.1980276 30086:0.25129297 30452:0.13698237 #
1.0000000003827467 2280:0.30919662 5901:0.14413771 7541:0.11973003 7602:0.14196882 8120:0.32849488 8476:0.098106347 9602:0.24663155 11954:0.15835711 13748:0.15640536 14775:0.099248864 19533:0.19660614 19534:0.23585057 20163:0.069286972 20389:0.21894892 22025:0.42747968 23181:0.15835711 25121:0.14249323 25123:0.16280283 25920:0.15736172 26490:0.16405356 27269:0.059225213 27341:0.23585057 27490:0.11209786 28993:0.23585057 29223:0.077286959 29255:0.15736172 #
1.0000000003827467 4835:0.30695537 6275:0.32889754 6971:0.60999334 26476:0.5064792 28042:0.41108608 #
-0.0078494523640560178 4481:0.1086805 5602:0.3434498 18009:0.20940971 18508:0.19436315 22707:0.8167339 22776:0.34863603 #
-0.50178586645392498 6971:0.72327483 9602:0.48932591 20319:0.3786568 29223:0.30668023 #
-0.044557757570932555 4481:0.11858416 6756:0.39767262 16065:0.41130823 22631:0.26588875 25407:0.3584812 26826:0.31445426 27592:0.24788298 28024:0.54688823 #
-0.29268596210031311 22655:0.56316936 26476:0.82634151 #
-1.0000000003827467 2007:0.17242399 2371:0.27390194 3590:0.091282539 5174:0.10134447 8230:0.2346449 9304:0.14743653 9556:0.1648736 10489:0.50854683 12365:0.13053957 12713:0.14293213 13798:0.14157695 13840:0.10951235 14474:0.14105253 16673:0.22345857 17405:0.12052902 17684:0.14776391 17686:0.20869742 17947:0.10102664 19485:0.1667414 20316:0.24279147 21514:0.2346449 22009:0.19033295 26131:0.13145019 27193:0.15991218 28621:0.16874115 30026:0.18768726 #
1.0000000003827467 4481:0.28303167 14283:0.64232558 25237:0.71225762 #
1.0000000003827467 2858:0.43851611 7681:0.23490843 11359:0.48660454 12386:0.29885268 15481:0.18627778 17640:0.3156434 18699:0.33166155 19137:0.30391702 25237:0.29954907 #
1.0000000003827467 1352:0.33526292 8683:0.46423289 10640:0.49307707 13904:0.28411293 21358:0.48455554 25237:0.3368195 #
1.0000000003827467 3746:0.2976324 3854:0.16538721 3882:0.1450464 4481:0.15842046 6224:0.17656994 9485:0.36530295 11029:0.25409839 14778:0.18146756 17037:0.20076026 18058:0.23324804 19101:0.22892703 23497:0.29926696 25119:0.33115497 25237:0.19933489 27269:0.09173242 29700:0.2976324 30041:0.30451825 #
1.0000000003827467 4481:0.14756376 5171:0.68053675 25237:0.37134856 26965:0.39130059 27373:0.47336957 #
-1.0000000003827467 4481:0.36928484 25237:0.92931628 #
-0.060667015243292211 2451:0.53752565 9914:0.6455245 24139:0.54255348 #
0.60041354977771166 3774:0.41503927 4481:0.10795857 9865:0.39084584 10726:0.37818009 12312:0.42652556 12313:0.49788499 12322:0.22191276 16673:0.20309581 #
-1.0000000003827467 4481:0.28096694 10290:0.64893866 25237:0.70706165 #
1.0000000003827467 2087:0.44214311 4481:0.12901735 4651:0.47529992 22807:0.46708563 22985:0.20017314 26476:0.38180658 26713:0.2919001 27592:0.26969206 #
1.0000000003827467 4511:0.40640518 6971:0.37677833 20319:0.19725513 21145:0.48752749 22693:0.3028689 24711:0.45259002 29223:0.15976012 29555:0.30690339 #
1.0000000003827467 4775:0.44856703 15365:0.30184841 19991:0.51777279 22009:0.29080793 22885:0.37346029 26449:0.21666214 26713:0.41061193 #
-0.12127175839281448 1502:0.5409354 8607:0.39920697 14037:0.40470082 20319:0.54797018 30452:0.28977337 #
-0.66728324682927864 4481:0.14440994 6305:0.66599202 6916:0.43413663 13174:0.22810313 14698:0.33577752 26713:0.32672563 27269:0.16723944 29223:0.21824197 #
-0.4681348596153288 2599:0.37057102 3590:0.15980017 3825:0.42503333 9143:0.25867707 13092:0.26888192 13513:0.2748982 14775:0.20177774 24842:0.25810394 26692:0.33620915 26713:0.47046664 #
-1.0000000003827467 4835:0.21552654 9396:0.29637161 10709:0.30836672 11439:0.23669961 11471:0.42830247 12108:0.35048628 22362:0.36126107 26713:0.27188042 28215:0.45153433 #
-0.63310627156869947 3721:0.22879814 4844:0.36999318 6116:0.26638556 7553:0.31381574 10726:0.18182205 12350:0.28803405 17947:0.17658252 22683:0.28511679 25994:0.14600182 26038:0.44443962 26616:0.33568487 28289:0.28511679 #
-0.22426056018840984 500:0.39022344 2617:0.36697391 4510:0.31403464 7471:0.16298743 12084:0.19135381 18346:0.18108265 18565:0.44022533 18851:0.28542435 24197:0.21833718 24284:0.29751748 25807:0.32712808 #
1.0000000003827467 2894:0.38847753 3311:0.38847753 4481:0.084235281 4835:0.15107858 11559:0.13305406 12280:0.21051992 14584:0.2403188 15506:0.24455047 17286:0.21148777 19581:0.38847753 23273:0.19116756 25237:0.21198058 26835:0.36063826 28488:0.28545991 #
1.0000000003827467 2647:0.24437705 5434:0.17201163 9811:0.17807364 9839:0.17887089 11695:0.12930599 12853:0.19150493 13174:0.12544706 14278:0.25681663 14454:0.24289186 15176:0.20593293 17688:0.16620637 20025:0.27217051 20163:0.10760016 21843:0.25097933 22332:0.26372066 22632:0.2925809 24657:0.24921775 25237:0.19986117 28248:0.20704675 29990:0.36626741 #
1.0000000003827467 4255:0.26073214 4481:0.14839889 5230:0.26445964 5640:0.34219414 5645:0.34219414 7982:0.16198489 8873:0.17720865 10955:0.17622128 12685:0.31767163 18378:0.34219414 20247:0.30332687 23497:0.14016779 25237:0.18672511 29119:0.34219414 29139:0.18851681 #
1.0000000003827467 4365:0.24607329 4481:0.09868405 4611:0.21429652 6652:0.45511261 8695:0.24338382 15186:0.24776399 21801:0.21457912 22990:0.29059204 25098:0.34228486 25237:0.24834134 25744:0.29203993 26117:0.18296726 26131:0.21841627 27222:0.24083981 29223:0.14913793 #
-1.0000000003827467 4481:0.11790174 9951:0.36058429 10198:0.55110568 11216:0.28954473 13593:0.2926861 14465:0.38446948 18566:0.21253709 23688:0.32161841 27503:0.2939935 #
-1.0000000003827467 10198:0.41663337 11216:0.43778902 12975:0.61831546 21471:0.50243741 #
-1.0000000003827467 4481:0.17934395 4611:0.38945284 11924:0.70855683 15481:0.28066087 20163:0.24298154 24012:0.41987962 #
-1.0000000003827467 656:0.20591016 1015:0.21010438 1600:0.32097048 4481:0.16697945 5550:0.12546544 11216:0.20503522 12280:0.20865664 12840:0.19977371 13439:0.21264078 14451:0.1727536 15029:0.32985342 15365:0.13885976 15921:0.25239035 16563:0.30757615 16735:0.24584976 19195:0.27466762 19371:0.22205098 19489:0.17679852 25237:0.21010438 26449:0.099671401 27269:0.096688457 #
-0.84835259532574159 393:0.5788753 4036:0.45019525 14657:0.48267168 21801:0.47880647 #
1.0000000003827467 5121:0.68705261 26713:0.60421121 29223:0.40359321 #
1.0000000003827467 4472:0.49414659 5121:0.4378936 7681:0.33590308 22198:0.55039954 26713:0.38509458 #
1.0000000003827467 1369:0.19782342 5694:0.27454859 8522:0.23796213 8851:0.27454859 10077:0.2174034 12350:0.10981391 12854:0.33888808 13092:0.20470448 14283:0.35927641 15165:0.23928651 16673:0.14890948 17043:0.32358527 18505:0.16741805 21352:0.15145195 26449:0.18899314 30225:0.24065909 30370:0.28212219 #
1.0000000003827467 10258:0.51356196 11439:0.31533915 14778:0.36676675 15108:0.42970183 22985:0.24838758 27194:0.50592232 #
1.0000000003827467 403:0.22253086 1354:0.2066609 4435:0.1900253 4541:0.1777046 4682:0.237749 6224:0.17997719 6764:0.31898472 8361:0.2333446 11210:0.22580913 11578:0.28004166 13322:0.22667426 14075:0.26454803 16673:0.1518888 16679:0.2427232 16787:0.24141811 19568:0.22667426 20733:0.33005947 26790:0.20880014 #
-1.0000000003827467 5121:1 #
-1.0000000003827467 11695:0.52989322 13904:0.69086295 29223:0.4918552 #
-0.20561704626046956 4472:0.46205455 9035:0.58632499 25119:0.66537851 #
-1.0000000003827467 4481:0.24037288 8120:0.51466876 10122:0.63740623 22985:0.37294358 29223:0.3632676 #
0.25919464669896131 2752:0.49047822 2756:0.23062773 4481:0.11998017 7681:0.11838922 8607:0.16309918 9318:0.33430177 10433:0.13353312 10726:0.10507298 11225:0.37151983 12323:0.23062773 13798:0.14300421 18508:0.10728568 19152:0.17337853 21438:0.23062773 24595:0.18957938 26117:0.22245179 26790:0.15514162 28339:0.16203968 28715:0.26157895 #
1.0000000003827467 10198:0.45075601 13174:0.30464286 18508:0.34492061 23221:0.6535939 23501:0.39731169 #
1.0000000003827467 4481:0.18633403 10726:0.32636511 12975:0.64629811 23969:0.66412663 #
1.0000000003827467 318:0.323571 393:0.34340578 5159:0.41585219 5550:0.19630581 12103:0.42975062 18566:0.2354814 20319:0.24374922 23962:0.51609546 #
-0.030487941505498588 2703:0.23333603 3983:0.32769012 6514:0.12526245 9873:0.07904201 10316:0.25475264 12727:0.36939001 14499:0.32769012 17286:0.41050318 17736:0.50269657 17738:0.1316774 26633:0.17483351 28063:0.14867048 28866:0.12759748 #
1.0000000003827467 4793:0.3527979 6095:0.12996434 7895:0.3527979 9599:0.13481173 9811:0.17152497 10356:0.23125643 12394:0.22208978 14451:0.15828808 15899:0.1833947 18106:0.16837236 19702:0.13690746 20192:0.24174957 20922:0.20798232 20926:0.31272626 21471:0.21560889 21516:0.28744385 23497:0.14451124 26563:0.21734612 30007:0.1833947 30028:0.21824679 #
-1.0000000003827467 1875:0.40844223 1888:0.32691333 5910:0.48997113 11397:0.3084417 12322:0.21838546 12386:0.26674104 19991:0.30310446 20741:0.28790215 27269:0.12303826 28339:0.28697264 #
-0.59401784629520205 4626:0.28197175 6095:0.19035912 6275:0.21532665 6761:0.23842862 10170:0.16783364 10955:0.26611003 22728:0.34477645 22833:0.24593918 24055:0.31966662 25370:0.41278428 28807:0.47971281 #
0.93150765932800084 7681:0.24083264 11283:0.37102777 11358:0.31158155 16630:0.2761015 19215:0.35428858 22009:0.19554353 22198:0.39462033 22885:0.25112018 23095:0.332892 30225:0.37102777 #
-1.0000000003827467 10726:0.47317141 13174:0.42671812 30028:0.77072722 #
-0.73813114875241614 84:0.21047512 403:0.12578739 416:0.21047512 688:0.10879231 2858:0.33626252 4193:0.19539192 4368:0.069267169 4480:0.10058804 4481:0.045638233 4960:0.19213942 5174:0.077876367 7829:0.11138076 8522:0.13720128 8821:0.19539192 9396:0.11255728 10290:0.10540889 11492:0.15466069 12840:0.1092029 13174:0.072088003 13971:0.11652468 14079:0.21047512 14283:0.20714718 15780:0.20651183 16288:0.18030874 17286:0.11458297 17591:0.093406193 17896:0.119976 18508:0.081618972 19098:0.17148565 19137:0.11652468 19426:0.093406193 19702:0.081677392 19770:0.14640284 19904:0.10072798 22550:0.13796489 22887:0.12174612 23940:0.25432441 24012:0.10684812 24054:0.19539192 24055:0.13020349 25237:0.11484998 26510:0.087021112 27326:0.1228817 28278:0.1030988 28736:0.13373996 #
1.0000000003827467 6508:0.34208065 7778:0.35939115 9035:0.43797293 10930:0.31165221 11883:0.279311 14346:0.357402 20875:0.31909695 23947:0.30909455 25119:0.24851218 #
1.0000000003827467 1352:0.11258488 3590:0.069080301 4481:0.089891724 5493:0.19242765 5966:0.072531238 6099:0.11284465 6653:0.16271894 6750:0.14104001 6757:0.16271894 6830:0.18373841 8075:0.41456404 8120:0.096234776 9559:0.075472675 9599:0.079206951 10795:0.16888405 11459:0.22465645 11477:0.17757329 12084:0.090099774 12932:0.19242765 13804:0.20728202 14325:0.10504475 14705:0.14534044 16204:0.25046608 17215:0.18373841 19255:0.22029398 19904:0.099199839 20163:0.060894247 22655:0.090649299 24401:0.14924765 24416:0.20728202 25426:0.19242765 25994:0.063213959 26130:0.20728202 26449:0.10731421 29223:0.20377557 29659:0.14104001 #
1.0000000003827467 5174:0.14071307 6948:0.24403542 8120:0.1765631 8742:0.16121434 14571:0.30985358 14640:0.29391134 15311:0.31420326 18048:0.18714482 18327:0.30985358 19999:0.1476869 25119:0.17237633 27102:0.14347017 27536:0.2220322 27576:0.28602126 27679:0.2605969 27757:0.38030279 28023:0.18861759 #
1.0000000003827467 3841:0.30265498 4739:0.29135001 12350:0.16061711 14474:0.27496073 17286:0.29067269 17686:0.40682426 20163:0.15685542 22614:0.38087931 23497:0.21870591 29223:0.17496619 30587:0.47328553 #
-0.42753548296665972 1019:0.13155636 1035:0.18539083 3671:0.15316828 4518:0.24331354 4925:0.21567738 6439:0.17060475 7778:0.15949023 8456:0.11353486 13465:0.21567738 13748:0.16135445 14331:0.085468687 14474:0.50120109 16787:0.15775467 19095:0.20844059 19315:0.22587706 22009:0.084538616 22057:0.21567738 23389:0.22587706 26391:0.1386947 27536:0.14205375 30705:0.39648181 #
-0.21417834013948858 126:0.10892199 1373:0.12420381 2566:0.099106357 3854:0.0937564 4481:0.089807011 4750:0.26853329 6517:0.10644884 6989:0.11493614 7681:0.088616163 8191:0.19224632 8476:0.086141475 8742:0.087786205 9221:0.13574378 9853:0.20708668 10241:0.20708668 11188:0.17740595 11258:0.1419031 11695:0.073109284 11883:0.10549712 12056:0.095434293 12350:0.18688755 13174:0.070927456 13208:0.20708668 14584:0.12810734 15165:0.13574378 15214:0.12977651 17405:0.091127336 18222:0.20708668 18508:0.080304988 20319:0.083787918 21960:0.12655894 22094:0.29040697 22705:0.26193252 23133:0.16872489 23497:0.084825769 23501:0.092502765 23776:0.11147106 23947:0.11674652 25711:0.22495757 26342:0.20708668 26434:0.18356526 28639:0.10531175 29877:0.15217081 30361:0.090563878 #
-0.1353528299331179 13840:0.1859432 15077:0.33485609 15546:0.29144475 24148:0.38767916 24976:0.43173593 26483:0.26010695 28716:0.30152845 29279:0.33817339 30008:0.39840826 #
-0.56884205029071899 7922:0.55368316 8557:0.42034051 13755:0.40466911 14474:0.35694343 30026:0.47495592 #
-0.14340427109172657 126:0.32312301 4835:0.23891392 14778:0.30517596 15481:0.20846237 22676:0.61433387 23501:0.27441448 25175:0.47477877 27269:0.1542674 #
1.0000000003827467 4481:0.16677007 9895:0.45804265 10726:0.29209873 11706:0.38518247 17731:0.55926436 23940:0.46467286 #
1.0000000003827467 4481:0.30126289 10726:0.52766365 19651:0.7942366 #
1.0000000003827467 4481:0.19471681 10726:0.34104759 11492:0.65986419 19195:0.64058661 #
1.0000000003827467 4481:0.13968384 9229:0.57102674 10726:0.48931408 13909:0.64419609 #
1.0000000003827467 4481:0.13810663 10726:0.48378909 17904:0.47902176 20075:0.48529792 29859:0.53094137 #
-1.0000000003827467 5002:0.77401489 10726:0.63316739 #
-1.0000000003827467 5386:0.35970196 10726:0.54555172 12084:0.31219676 15192:0.43723473 18874:0.37480128 21066:0.37930304 #
-1.0000000003827467 10726:0.56068987 11163:0.69885164 12350:0.44410947 #
-0.87050647196531561 4481:0.21634378 10726:0.37892735 11520:0.55237436 26449:0.25827476 27003:0.66165411 #
-0.43706316087187269 4481:0.17520638 5966:0.28273875 10726:0.30687496 11547:0.39055789 15624:0.51343119 25330:0.61566406 #
1.0000000003827467 273:0.17332254 8245:0.21374598 9639:0.23055327 11948:0.19913933 12156:0.22093211 12162:0.2171139 12673:0.24515992 13763:0.23558281 17896:0.15765391 17947:0.10201216 18138:0.25675389 20163:0.081250452 21125:0.20323119 22362:0.18028872 22870:0.1512733 23980:0.20800796 24106:0.2171139 24417:0.1590267 27269:0.20835413 27438:0.23693389 27481:0.14489269 27625:0.17491151 27995:0.12594366 28363:0.20551994 30097:0.27657387 30452:0.118351 #
1.0000000003827467 15440:0.60997427 18570:0.43305081 18944:0.66362518 #
1.0000000003827467 1338:0.16155903 4835:0.1587213 8046:0.40812972 10170:0.13255674 10550:0.24391282 11007:0.27065304 13971:0.22595158 16696:0.25143406 18570:0.2360764 22985:0.13730425 25370:0.32602125 25694:0.40812972 25696:0.3325257 29084:0.20406087 29223:0.1337419 #
1.0000000003827467 4586:0.31680831 9330:0.40699121 13174:0.18758774 15128:0.42328122 17896:0.3122021 18508:0.21238928 19702:0.21254128 27269:0.13753457 27356:0.23260772 27625:0.34637734 30407:0.37266868 #
1.0000000003827467 14785:0.63988042 17213:0.60571063 20082:0.4729352 #
-0.32483474729802414 2464:0.29790172 4368:0.2537131 6549:0.27497217 9692:0.24612235 12667:0.19148381 13174:0.13202265 15311:0.31846917 17213:0.28643695 17688:0.34983689 19702:0.14958476 20025:0.28643695 23900:0.33021915 27536:0.22504671 27625:0.24377742 30452:0.16494797 #
-0.075022661020517731 4481:0.13391685 18986:0.61759979 19387:0.39243487 21044:0.61759979 26510:0.25534716 #
-0.79894625642851713 2021:0.37522075 8476:0.27833647 17591:0.29695103 20075:0.50983763 22807:0.52527457 25059:0.39712778 #
-0.4541797225128511 265:0.20014507 1338:0.1693573 3854:0.19369556 5095:0.35664082 15311:0.17673481 15506:0.26932302 17665:0.19716199 19426:0.1898654 21711:0.22282577 23119:0.21185298 26369:0.36651093 26449:0.11074816 26524:0.20649451 26713:0.20988679 27995:0.38964224 29223:0.14019747 30297:0.29759088 #
-0.034364859855055899 11128:0.34053111 11607:0.33283091 13390:0.37922984 14645:0.26213199 21814:0.32068092 25263:0.29413217 28407:0.27090144 29383:0.40850431 29846:0.3621054 #
1.0000000003827467 3859:0.11292905 4651:0.13986665 5288:0.093635239 7389:0.096225686 8057:0.14999697 8632:0.094458207 10196:0.1117973 10198:0.088731781 11559:0.11993852 12350:0.15801367 13092:0.0981846 14871:0.17509207 17037:0.096225686 19341:0.14595756 20069:0.14265713 22697:0.17509207 22885:0.078125626 24096:0.16254452 24429:0.086702205 25330:0.8004601 25595:0.121791 26449:0.090648808 27280:0.077871256 28755:0.12866062 29338:0.10097508 #
1.0000000003827467 6265:0.43507239 9924:0.74754685 10726:0.28390828 11520:0.41386205 #
1.0000000003827467 3362:0.78242272 4481:0.19139527 10726:0.3352299 11520:0.48867518 #
1.0000000003827467 2751:0.52163988 4680:0.48361242 10726:0.23765682 11520:0.34643984 23119:0.30986628 23857:0.47062984 #
1.0000000003827467 2761:0.37434095 4481:0.094750039 10726:0.16595523 11520:0.24191818 12783:0.32470885 13840:0.17471062 20722:0.26601103 22408:0.36425999 24842:0.23521298 26243:0.4369697 28639:0.22221635 30070:0.2953172 30295:0.20629796 #
-0.36453579111373408 635:0.20983064 4902:0.34577292 9559:0.15760551 10726:0.16439284 11520:0.47928125 12350:0.13021176 24974:0.38369098 28042:0.45088705 28619:0.43285581 #
-0.27784201296447802 3156:0.30466005 4093:0.29443756 4481:0.074525557 5438:0.16402951 5763:0.29443756 6265:0.20003235 10080:0.2054062 11492:0.25255522 14499:0.22404465 18566:0.13434446 22004:0.20195358 23627:0.23551407 23745:0.28002974 24526:0.30466005 24691:0.17128611 25172:0.28002974 27270:0.18754579 27343:0.15077178 30070:0.23228149 #
-0.91762570259367227 4481:0.54175144 22985:0.84053874 #
-0.96875619567991866 2333:0.26924857 4481:0.17813273 5235:0.26227111 5966:0.14373057 6721:0.24135707 10726:0.31200048 11354:0.32812047 11520:0.22740646 13621:0.23688272 15216:0.38132167 15481:0.13938269 16804:0.27239573 23857:0.30892599 25084:0.31744787 #
1.0000000003827467 136:0.20541731 3700:0.19263615 3863:0.19263615 4046:0.1471784 4118:0.24539252 4960:0.11200748 5121:0.27378312 5550:0.079961412 5966:0.085866705 6079:0.24539252 6224:0.11861099 8932:0.24539252 9951:0.16273314 11169:0.22780706 12084:0.10666536 12238:0.20456034 13840:0.098113619 14474:0.25274181 15022:0.21752022 18325:0.1094935 18505:0.22508323 19426:0.21780418 20163:0.072090149 22009:0.08526095 23776:0.1320904 25994:0.074836358 26131:0.11776803 26416:0.1960239 27062:0.1591026 27102:0.092574932 27302:0.15180397 29838:0.18031859 30248:0.16177565 #
1.0000000003827467 2775:0.31710428 3133:0.31710428 3229:0.27165526 5301:0.21576589 5821:0.31710428 5966:0.11095978 8053:0.27165526 9811:0.15417127 11547:0.15327302 13439:0.17512321 14638:0.20452261 15481:0.10760323 17947:0.11696149 18874:0.16547671 20163:0.093157269 21562:0.31710428 21566:0.15327302 22817:0.17512321 26602:0.31710428 28118:0.23563778 #
1.0000000003827467 6771:0.50811106 8301:0.50811106 11459:0.27535054 12350:0.15285006 15481:0.17241772 17405:0.22359145 24889:0.50811106 27356:0.21579461 #
1.0000000003827467 3854:0.19403121 4611:0.20179902 8476:0.17827193 10557:0.37989286 11163:0.40574646 13720:0.35725883 21842:0.36714602 23431:0.42857102 30021:0.36714602 #
1.0000000003827467 2116:0.55560881 11695:0.19615053 13252:0.51579243 18135:0.29841781 20163:0.16322389 29868:0.33323598 29878:0.40005067 #
-0.083168642807442933 9619:0.64100134 16592:0.58589631 18505:0.35265547 25119:0.34853539 #
-1.0000000003827467 4813:0.31772619 14451:0.24339138 15101:0.37733904 15481:0.18407984 17947:0.20008928 18117:0.24100441 19759:0.37733904 24883:0.35763073 26117:0.21809091 29223:0.17776746 30021:0.46472821 #
-0.55490584002233145 12103:0.72817868 13814:0.68538737 #
-0.44403727400384174 4739:0.59442961 8778:0.63012195 18505:0.49959964 #
-0.24925976254890214 17419:0.78409386 23221:0.6206423 #
1.0000000003827467 2627:0.33416277 4368:0.12837154 4481:0.084580481 7214:0.31159449 7922:0.31159449 8082:0.24668874 10077:0.23230468 10311:0.22234924 13174:0.13359933 16533:0.23150606 16939:0.19633199 17349:0.28085873 17947:0.14387418 19635:0.22298434 19702:0.15137117 22985:0.13122839 24883:0.25715435 25994:0.11895794 26510:0.16127458 30026:0.26728943 30361:0.1705866 #
1.0000000003827467 4481:0.092808135 7579:0.19139817 9230:0.42801398 9873:0.13459843 11145:0.27750698 12426:0.21330592 12874:0.26157644 14325:0.21690556 17325:0.2212358 20163:0.12573975 22218:0.36666882 22542:0.26261771 22985:0.14399377 28500:0.30817956 28621:0.26368403 30412:0.2491042 #
1.0000000003827467 393:0.10871536 3449:0.13266183 4368:0.12553187 4481:0.041354746 5174:0.070567086 6780:0.11170363 6967:0.38144091 7167:0.092453405 8120:0.08854574 8523:0.14343862 8557:0.11566046 11459:0.10335335 11859:0.6762318 13755:0.11134833 13763:0.08122687 16429:0.12006042 17688:0.17309187 17697:0.11319248 18119:0.095358364 19501:0.19072045 21844:0.1128096 22985:0.064162761 23855:0.1128096 25757:0.15235089 26449:0.049369976 26610:0.082407944 27325:0.15637463 29223:0.18749417 29788:0.16905795 #
1.0000000003827467 4397:0.24653108 4481:0.16023877 9873:0.11619611 10170:0.1200088 12363:0.30801347 13755:0.21572277 16212:0.27789348 16545:0.36949584 16874:0.20830579 19735:0.20355748 22985:0.12430692 23547:0.53736162 29042:0.27456954 30297:0.25701487 #
1.0000000003827467 4368:0.12107129 5002:0.17079882 5174:0.1361192 6095:0.1355229 6989:0.20418268 12200:0.25208917 15795:0.24396591 16630:0.18047982 16892:0.36788702 17729:0.63031912 18913:0.32610151 23497:0.15069197 25920:0.24545766 #
-0.55061568451158682 4727:0.35049114 17729:0.54234535 19568:0.3853969 29055:0.47613344 29878:0.45583299 #
-0.60788860472918926 2214:0.49438402 2702:0.36975136 7681:0.28790286 10726:0.51103997 11547:0.32519871 17212:0.41117424 #
-1.0000000003827467 875:0.22162583 4481:0.069618307 6216:0.16079475 6780:0.18804654 7661:0.29805833 9559:0.23380485 10077:0.1912103 11439:0.2742579 11695:0.11334849 12350:0.096583359 14331:0.11278106 14779:0.21698655 15781:0.22000629 16697:0.19055296 16874:0.18100359 17627:0.18051898 18508:0.1245047 19198:0.31037661 19202:0.1932642 20337:0.16503808 23119:0.15898606 24842:0.17282452 27269:0.080624141 27520:0.1756089 27573:0.17282452 28248:0.18149537 29575:0.25647384 #
-1.0000000003827467 1354:0.28944331 7579:0.23320556 8599:0.32829303 9036:0.39221832 15447:0.29321527 19735:0.28730065 20082:0.30257869 23547:0.3792156 26131:0.25027946 29941:0.36566547 #
-0.044927590958803706 100:0.24501532 104:0.14570944 136:0.086977825 696:0.18903869 940:0.20780827 2740:0.20780827 4368:0.06838952 4481:0.045059972 6095:0.076552793 9618:0.21646483 10838:0.16313206 10939:0.21403195 11695:0.073364034 12056:0.095766835 12608:0.12171184 13579:0.11562895 14693:0.20780827 16665:0.14693747 17781:0.20780827 18868:0.22371897 18874:0.10844202 19308:0.22274235 21134:0.32045931 22929:0.16931282 23139:0.15833788 24388:0.12965575 24582:0.24342367 25119:0.094191335 26295:0.16898085 27196:0.20780827 27269:0.052183419 29223:0.068097644 29631:0.14570944 29639:0.18420489 30054:0.13952868 #
1.0000000003827467 635:0.41780132 8778:0.49853829 9559:0.31381398 10122:0.4955678 12365:0.41076291 20163:0.25319713 #
1.0000000003827467 1344:0.15913193 5993:0.24697796 6836:0.26320139 7999:0.25019595 8742:0.1692429 9559:0.14536655 10170:0.12967011 10982:0.28479925 12350:0.12010007 14331:0.14024168 14698:0.20128851 15101:0.27770588 16804:0.26475918 19032:0.34202069 19735:0.21994488 23497:0.16353548 24321:0.23945235 27356:0.16955799 28235:0.34202069 29223:0.13082948 #
1.0000000003827467 1354:0.16879411 3826:0.14616117 4477:0.22599335 4481:0.065944858 4739:0.16595219 8632:0.16406883 9599:0.11621294 11695:0.10736759 12056:0.28030777 14056:0.17054138 14451:0.13645047 15726:0.26958218 15734:0.30412552 17947:0.11217437 18117:0.13511229 18391:0.14209214 18505:0.13947767 19702:0.11801954 19825:0.30412552 20487:0.35290849 21134:0.15632975 22025:0.18374272 22985:0.10231483 23119:0.15059707 24380:0.21154441 25119:0.13784815 26131:0.145955 28057:0.18975 29223:0.099660277 #
1.0000000003827467 4481:0.11220389 11072:0.25047982 11559:0.17723195 11871:0.3138105 12148:0.44329807 13904:0.23817913 19140:0.4313601 20219:0.38024107 26112:0.30817381 26117:0.20803401 28042:0.26950964 #
1.0000000003827467 863:0.50472325 3634:0.35688069 4626:0.27541241 6275:0.21031763 7111:0.22570084 8787:0.50472325 12159:0.35688069 21710:0.25446963 #
-0.0049245869139510397 3450:0.28583735 3678:0.13871855 4044:0.11126363 4481:0.039476678 4778:0.084314249 5759:0.16138043 5907:0.11867792 6106:0.13108663 6200:0.12987185 6227:0.13528678 6963:0.15176536 9143:0.098216802 9366:0.14291868 9478:0.18205915 9618:0.09482155 9873:0.11450503 10025:0.18205915 10196:0.11624582 11695:0.12854728 13036:0.12387773 13840:0.072791472 13911:0.11624582 14056:0.10209147 14489:0.16901232 14594:0.18205915 15054:0.12567171 15399:0.11682503 15773:0.14291868 17097:0.16138043 17746:0.18205915 17947:0.067151129 17961:0.16901232 20163:0.053484403 21964:0.15176536 21991:0.11867792 22674:0.13871855 22784:0.13528678 22807:0.14291868 25774:0.16138043 26080:0.14833359 26510:0.075272515 26750:0.15176536 27238:0.12663719 27269:0.045717474 27801:0.094281152 28129:0.18205915 28278:0.089179568 28479:0.14543208 29240:0.18205915 29714:0.13692455 30368:0.14543208 30686:0.16901232 #
-0.69104138537986204 8174:0.67247212 22386:0.51238483 23497:0.27545452 30425:0.4575673 #
-1.0000000003827467 1338:0.20382424 3882:0.20444505 7389:0.28297454 8562:0.42922297 10170:0.16723469 10559:0.33209479 13720:0.42922297 13755:0.30061403 16255:0.38725016 26131:0.2471092 29223:0.1687299 #
-1.0000000003827467 4775:0.72510338 7685:0.50940096 11559:0.46339589 #
-0.22156009831960261 434:0.13854282 1344:0.093043201 1485:0.16974257 4397:0.1557492 4481:0.050616462 4679:0.14381017 5174:0.086371131 5647:0.13716336 7471:0.086425669 8456:0.21784954 9839:0.2280001 13811:0.1680775 13821:0.12430461 14210:0.10198183 14331:0.081998222 15365:0.084185086 15779:0.14501712 16294:0.13124755 17037:0.12828866 17351:0.14322859 17861:0.094909206 18294:0.12181436 18397:0.074750431 19255:0.1240437 22009:0.081105918 22315:0.12253483 22894:0.46686754 23095:0.13807417 25758:0.21360345 25994:0.071189351 26031:0.23343377 26449:0.06042676 26713:0.11451908 27222:0.12353019 27269:0.11723664 27368:0.15389182 27801:0.12088601 28364:0.14381017 28621:0.28762034 29223:0.15298995 #
1.0000000003827467 8476:0.24850188 8768:0.47721845 9036:0.44930199 11439:0.25515455 12103:0.42615935 23550:0.51178265 #
1.0000000003827467 7829:0.23385891 9036:0.33236352 12118:0.36838731 14609:0.31247428 15447:0.24846891 18325:0.19718395 19211:0.36005723 20319:0.17880256 22655:0.1932624 24803:0.28357497 26981:0.22885314 29941:0.30986276 30361:0.1932624 30452:0.18910599 #
1.0000000003827467 4481:0.087027036 9359:0.33456942 15481:0.13619128 15781:0.55004191 15857:0.30580747 16494:0.22110757 19198:0.19399463 19202:0.24159177 19649:0.32700405 23264:0.21749705 29833:0.27502096 30096:0.30185258 #
1.0000000003827467 652:0.15407823 3829:0.19315909 4036:0.1452527 4481:0.071046524 4835:0.12742414 6216:0.16409343 7562:0.20269199 8647:0.18373489 8873:0.1696786 9357:0.22143801 10926:0.20533295 12241:0.29043776 15176:0.18422233 15220:0.29043776 18823:0.19795752 20163:0.096256346 22004:0.19252589 22487:0.16463983 22833:0.15594339 23548:0.32765344 25119:0.14851244 27269:0.16455626 27448:0.19315909 29055:0.2464243 29294:0.23825489 30295:0.15468861 #
1.0000000003827467 4970:0.48813871 5235:0.33573931 8476:0.21872455 8599:0.33100912 9599:0.20092735 12438:0.38235298 17680:0.48813871 25753:0.2583549 #
-0.31027833404830513 8768:0.93854362 20163:0.34516072 #
-0.094014675663174119 5358:0.36199299 8593:0.25560072 8742:0.16529831 12208:0.30610523 12926:0.38993686 15201:0.26016954 19533:0.32505319 25204:0.26016954 26023:0.20989606 26311:0.19248295 29432:0.27816135 29446:0.36199299 #
-0.08909472539933401 3841:0.2081074 4481:0.15921451 8082:0.23218375 11194:0.2882047 14053:0.27973485 17947:0.27082914 19329:0.31451446 20585:0.43144852 21134:0.18871802 21844:0.21715677 22683:0.21864547 25753:0.18038644 27402:0.2300745 28089:0.18906465 29788:0.325434 #
-0.01624049897054575 488:0.38943714 1540:0.38943714 6578:0.29289111 9325:0.25386029 10198:0.1973559 10585:0.29289111 11216:0.20737715 12231:0.28318125 18492:0.31108931 25100:0.30097067 26524:0.18796413 27259:0.27536398 #
-1.0000000003827467 2223:0.26328862 4586:0.23233715 4835:0.15620728 9111:0.2454737 11871:0.48717156 15186:0.21866719 18213:0.28920791 18226:0.25646561 22817:0.22182266 26117:0.16148002 27102:0.15152922 27269:0.10086349 29754:0.49905667 #
1.0000000003827467 4775:0.65633523 21253:0.75446939 #
1.0000000003827467 3882:0.39769676 10726:0.38039771 12323:0.83494604 #
1.0000000003827467 4481:0.091415204 6950:0.39137781 11883:0.21477257 16948:0.50754714 19799:0.30979154 20163:0.12385255 21066:0.22264367 26563:0.25972646 27536:0.24613693 27864:0.32581955 29512:0.37370479 #
1.0000000003827467 393:0.18295276 1641:0.21414478 4368:0.1056263 4552:0.25638527 6520:0.21838665 8456:0.14976431 9369:0.1507318 10294:0.29795539 10559:0.2070068 14210:0.28043646 16533:0.19048716 17738:0.33628747 17947:0.11838213 23040:0.39877778 27222:0.16984579 30049:0.29795539 30368:0.25638527 30412:0.18679638 #
1.0000000003827467 7107:0.3248809 9948:0.25035328 10231:0.26974955 10597:0.26463053 11557:0.24700843 11717:0.25035328 14331:0.14766519 16523:0.31237781 17460:0.34250301 18508:0.16301507 20750:0.34250301 22985:0.141424 26131:0.20174533 26610:0.18163903 28981:0.26841217 29223:0.13775477 #
-1.0000000003827467 21253:1 #
-0.44496824101365662 3721:0.12843172 4775:0.14402461 9448:0.19541317 11032:0.23821278 11883:0.1369037 12127:0.23021984 14095:0.20476168 17325:0.13890702 19177:0.26873654 19261:0.23821278 19799:0.19747218 21253:0.4966768 21555:0.23821278 23320:0.23021984 26124:0.1635969 27022:0.26873654 27490:0.1277283 27719:0.15150206 27858:0.26873654 #
-0.18520621751518332 3671:0.1910013 4679:0.18692166 6517:0.15596333 6653:0.23818269 7982:0.14362685 8014:0.24237144 8742:0.1286198 8778:0.17550443 10562:0.2311829 11695:0.10711594 14305:0.25992602 14331:0.1065797 15365:0.10942215 15481:0.10295726 15780:0.14884968 16010:0.24720699 18508:0.11765872 19023:0.30341268 20337:0.15596333 21330:0.17198743 22267:0.1910013 23177:0.19373076 24857:0.25292623 25288:0.25292623 26484:0.20120947 27643:0.22062811 29196:0.14212386 #
-0.44440761792194444 49:0.25352585 393:0.1869946 652:0.15426308 3854:0.14851975 6110:0.23854074 7021:0.17737037 7714:0.19894044 8770:0.21887571 9415:0.18161538 13763:0.13971335 15889:0.30453786 16939:0.16511421 17947:0.12099746 18007:0.19092312 18407:0.20844711 19591:0.32804653 21033:0.24995247 21578:0.17985311 23040:0.20379382 27194:0.22478905 27226:0.19819501 27269:0.082376845 29824:0.26727754 #
-0.032209882697605191 20077:0.90294826 22833:0.42974925 #
1.0000000003827467 399:0.38455817 801:0.38455817 1218:0.23789421 4739:0.20984189 7471:0.28475484 10170:0.12490091 11207:0.35699973 12360:0.27689043 13307:0.19454785 18119:0.19227533 18508:0.14912567 20319:0.15559344 22510:0.23691247 22631:0.18696633 23176:0.249332 30361:0.16817634 #
1.0000000003827467 523:0.32816046 7213:0.25003928 7471:0.12149694 7579:0.14674594 7926:0.19220127 9811:0.15954663 12993:0.32816046 13081:0.24680564 13811:0.23628283 14932:0.22826272 15311:0.13556184 15481:0.11135493 22631:0.31909326 24888:0.32816046 26449:0.08494775 27102:0.12379935 27269:0.082405455 27898:0.18213387 27919:0.23203634 28042:0.17091523 30048:0.26214039 #
1.0000000003827467 656:0.17070529 6224:0.15428998 9289:0.17672227 10237:0.16066569 12365:0.15213221 13763:0.13594918 16673:0.1302105 16901:0.63841653 19198:0.15428998 20163:0.093775362 20337:0.16408274 21538:0.31920826 23499:0.24669532 27223:0.23211394 27224:0.2829518 27549:0.26007652 #
1.0000000003827467 1338:0.18363301 6843:0.32526895 6851:0.39740542 11283:0.61164516 14638:0.29919681 18058:0.29619831 20163:0.13628007 27986:0.36416164 #
1.0000000003827467 1338:0.30832544 2728:0.77889043 11252:0.54613656 #
-1.0000000003827467 11252:0.87508595 18508:0.48396754 #
-1.0000000003827467 4481:0.27027398 12084:0.54179907 18058:0.79586792 #
-0.20784659088890606 10701:0.80583447 23221:0.59214085 #
-0.25560132999658414 4481:0.21211761 14638:0.63093972 15365:0.35279316 20875:0.56934005 22985:0.32910493 #
-0.33421491102901424 1344:0.49418893 11252:0.86935455 #
1.0000000003827467 28:0.50247294 4481:0.1229143 8607:0.33417562 21242:0.29245764 21253:0.3492209 24356:0.42122793 26399:0.48561305 #
1.0000000003827467 2435:0.2416603 4611:0.17992614 11163:0.18088391 11283:0.25191259 18246:0.30524302 19152:0.23946494 19154:0.33871651 20163:0.1122568 21253:0.47081894 26105:0.24775019 27269:0.095955029 27666:0.31133291 29083:0.38211846 #
1.0000000003827467 443:0.29511717 2971:0.22195415 6972:0.11959844 8165:0.1745594 9559:0.107454 9768:0.37155837 10265:0.29511717 12742:0.29511717 13593:0.1588563 14657:0.14026679 15365:0.10643046 15709:0.29511717 16971:0.18181109 17402:0.1734079 17947:0.10885172 19702:0.11452375 23937:0.27396831 25219:0.19134206 25555:0.17229827 25920:0.19690494 27280:0.13125178 28392:0.14955716 30183:0.16728516 30452:0.12628601 #
1.0000000003827467 1194:0.4494653 2087:0.16699712 3575:0.077623464 3738:0.12441804 3854:0.10174543 4368:0.22187795 4739:0.12262989 7005:0.12018189 7139:0.12569147 8020:0.19252281 8456:0.10486466 10122:0.12921861 11559:0.076971225 11883:0.22897319 13495:0.22473265 13518:0.18733819 14242:0.22473265 14331:0.15788357 15899:0.11682262 16939:0.11311369 17947:0.08289092 18164:0.11163799 18505:0.10306662 19614:0.14420806 19735:0.12380657 20421:0.10815874 21066:0.11868237 21253:0.13844971 22037:0.20862773 23739:0.16513737 24282:0.16031298 26449:0.058174387 27223:0.16341551 27269:0.056433354 29223:0.22093101 29858:0.20862773 #
1.0000000003827467 4365:0.2342203 4834:0.36110961 6721:0.25453839 6931:0.29475394 8147:0.29085702 9132:0.35294411 9383:0.22830582 12426:0.2158857 19137:0.23982589 26648:0.25889 26754:0.20731382 29334:0.43319049 #
-1.0000000003827467 11706:0.36465606 11883:0.37093294 19107:0.52426738 22009:0.2529856 26563:0.4485727 26648:0.43515435 #
-0.14590199378620361 4365:0.14283733 4625:0.18845108 5434:0.12406681 7075:0.22631438 8476:0.10988951 8542:0.22021975 8599:0.16630247 9599:0.10094801 10170:0.085802443 11883:0.13458125 12056:0.12174424 15780:0.12960158 15899:0.1373273 16556:0.17737678 16874:0.14893197 18566:0.10326157 20219:0.19412224 21242:0.27259302 23501:0.11800453 24639:0.26417768 26192:0.20738272 26563:0.48825112 27537:0.18523411 28117:0.20738272 28715:0.12488708 29279:0.19209817 29707:0.17853919 #
-0.72282880896033008 4365:0.26779571 6734:0.27154419 9304:0.26660481 9357:0.33473063 16861:0.32652003 22198:0.34728247 26449:0.12821051 26790:0.27773777 27269:0.37312037 30621:0.45979458 #
-0.76937146977910931 10640:0.35586071 13798:0.23026597 16955:0.27015933 18471:0.34971058 19702:0.17287549 21066:0.23526232 22519:0.39488503 23955:0.33103594 25920:0.29723126 26311:0.21990256 26449:0.11531823 26713:0.21854784 27343:0.1954228 28969:0.19582859 #
-1.0000000003827467 3700:0.34040618 5033:0.38437867 7579:0.19391026 8563:0.30405056 9948:0.51649588 10231:0.27825585 12206:0.34040618 12350:0.13044514 18048:0.21338764 25920:0.28932309 #
1.0000000003827467 6465:0.2736237 6657:0.54086554 11252:0.37924001 12182:0.37334841 15780:0.26534045 16556:0.36315325 16697:0.32100338 19702:0.20988935 #
1.0000000003827467 635:0.3231698 2435:0.42161143 4098:0.39432463 11252:0.46744442 13593:0.35885176 19770:0.46371788 #
1.0000000003827467 4750:0.35933051 9312:0.55421478 10290:0.27755854 11439:0.23670743 11695:0.19565839 12084:0.24090189 15930:0.36977729 16124:0.37710199 27356:0.23537484 #
1.0000000003827467 2223:0.2597824 4481:0.085934989 7681:0.16959096 8565:0.21625796 11546:0.27788609 11871:0.24034195 11983:0.39631632 12084:0.17226778 13608:0.36791527 14151:0.30628714 16377:0.36791527 21794:0.28022811 23876:0.29121995 #
1.0000000003827467 4481:0.10525677 5966:0.16985779 7073:0.3751533 9357:0.32806462 12084:0.21100079 13174:0.16625863 13439:0.53615898 20132:0.43028906 23501:0.21683258 29853:0.34627765 #
-1.0000000003827467 3585:0.36580855 3617:0.52699971 7007:0.34401363 9559:0.15026009 9599:0.15769473 10170:0.13403527 10932:0.3144398 11439:0.17625819 11695:0.14569207 13174:0.14134412 13307:0.20877568 22985:0.13883574 27373:0.28705442 28500:0.29714021 #
-0.12757061571466033 126:0.10138983 635:0.28033537 2162:0.1539851 3590:0.12848534 3880:0.17895211 4481:0.041798342 5235:0.12308236 6275:0.080325477 6576:0.19276623 7305:0.0990877 7879:0.08840622 8607:0.22728008 8742:0.16343124 9558:0.13209023 9629:0.17087138 10200:0.1224874 10823:0.15705726 11559:0.066022687 12354:0.13516238 12365:0.091870911 13360:0.129429 13864:0.10200945 14114:0.19276623 14325:0.097688563 14331:0.067712948 14775:0.081118442 15481:0.065411516 15526:0.10330966 16494:0.10619608 16556:0.129429 16558:0.12498185 16981:0.070616923 17200:0.11734898 17947:0.21330106 18509:0.13879597 19137:0.10672057 19198:0.093173966 19702:0.074805252 20128:0.13750975 20319:0.077993825 20998:0.17087138 22700:0.11150268 22985:0.064851008 23065:0.12498185 23497:0.15791981 23762:0.19276623 23768:0.19276623 24043:0.13879597 25711:0.10470066 26117:0.07749711 26310:0.13306259 26544:0.12861544 26728:0.10286676 26880:0.13750975 27226:0.11646307 27325:0.079026006 27356:0.081867762 #
-0.2490480179351047 124:0.067217797 126:0.062023185 1374:0.13813084 2149:0.084905647 2590:0.059056427 3575:0.040730294 3590:0.03929916 3833:0.16536574 3882:0.046821408 4201:0.091133386 4228:0.076868445 4481:0.10227718 4541:0.056277592 5287:0.11792087 5288:0.063061386 5501:0.081398368 5845:0.10947036 5966:0.04126237 6474:0.10947036 6654:0.11164071 6799:0.074575804 6962:0.092569336 7005:0.063061386 7074:0.091133386 7165:0.11792087 7471:0.087317191 7685:0.044397701 7874:0.11792087 8476:0.098102674 8503:0.10101984 8522:0.076868445 8560:0.084118821 8742:0.04998789 9357:0.079694457 9559:0.042935725 9738:0.058118157 9839:0.057588007 9873:0.11124845 10075:0.076055378 10170:0.1148988 10198:0.059759013 10229:0.089848876 10356:0.077296264 10569:0.10947036 11163:0.11164071 11216:0.062793434 11305:0.10947036 11507:0.096076615 11559:0.12116416 11687:0.070725076 11695:0.041630443 11948:0.084905647 12084:0.051256951 12667:0.058578268 12702:0.057331335 12716:0.062793434 12874:0.14413232 12957:0.08023639 13410:0.10101984 13425:0.10101984 13474:0.10452712 13570:0.10101984 13643:0.11792087 13763:0.050221898 13792:0.096076615 13814:0.079175591 14283:0.05802818 14331:0.041422036 14614:0.094197288 15297:0.14145015 15771:0.074232355 15775:0.11792087 16028:0.0876261 16391:0.11792087 16494:0.064963318 16509:0.11792087 16697:0.069985971 16828:0.066125289 17176:0.11792087 17213:0.0876261 17386:0.11792087 17702:0.05986277 17882:0.083379716 18051:0.11792087 18294:0.061535463 18305:0.11792087 18325:0.10523197 19198:0.1709919 19202:0.070981748 19702:0.045760609 20319:0.047711153 21066:0.12454914 21227:0.079175591 21296:0.094197288 21408:0.11792087 21882:0.076868445 22160:0.10947036 22700:0.13641906 23036:0.096076615 23119:0.058392134 23291:0.092569336 23346:0.069985971 23414:0.079175591 23474:0.089848876 23497:0.048302133 23501:0.05267363 23540:0.0876261 23776:0.0634747 24803:0.075668313 25164:0.10452712 26906:0.054080728 26981:0.061066501 27106:0.079694457 27151:0.074575804 27166:0.084118821 27269:0.029611498 27404:0.0876261 27448:0.069517009 27481:0.061776884 27576:0.088686906 29139:0.064963318 29223:0.03864203 29255:0.078677908 29579:0.096076615 29840:0.08665026 29920:0.098299392 30299:0.084118821 30361:0.051569574 #
-0.23251749184069012 635:0.20575969 1019:0.22949873 3575:0.14660929 3695:0.30561915 5966:0.14852452 6654:0.2009262 6707:0.42445794 7045:0.31922984 8647:0.23801897 9599:0.16219456 16205:0.36362246 26157:0.42445794 27142:0.22415823 #
-0.64366868307668879 9559:0.25456101 17947:0.25787222 19991:0.4324995 20421:0.33647996 20716:0.52581453 23499:0.54031944 #
1.0000000003827467 1344:0.28004995 2382:0.49265105 4503:0.48872355 11706:0.35187712 15929:0.37904239 26449:0.181878 27269:0.1764348 29196:0.32911509 #
1.0000000003827467 4481:0.08748661 4739:0.22016266 5242:0.4034721 6217:0.22934228 6654:0.3819842 9599:0.15417543 9839:0.19704022 17681:0.21485083 17688:0.18308927 18319:0.27453277 18508:0.1564602 26563:0.49712932 27325:0.1654065 28427:0.22016266 29223:0.13221562 #
1.0000000003827467 4365:0.27330223 4739:0.27582124 5002:0.23467562 7075:0.4330256 9709:0.35442343 12350:0.15205632 13720:0.42136425 16981:0.18517202 18397:0.161863 20163:0.14849512 22601:0.34891734 28427:0.27582124 #
1.0000000003827467 12101:0.41230303 12350:0.17225727 15167:0.32925284 19716:0.53158963 24691:0.28537479 26070:0.57262546 #
-0.43268614083519097 4739:1 #
-1.0000000003827467 4739:0.45921764 6465:0.4257482 6972:0.3410511 14481:0.45921764 29555:0.52977443 #
-0.40165328736561873 3489:0.23864742 3490:0.23864742 3854:0.18735175 4481:0.089729875 5966:0.1448013 6995:0.31530508 7681:0.17708009 15490:0.3449603 16164:0.3841624 18325:0.18464436 21066:0.21853904 22743:0.31530508 23273:0.20363727 25920:0.27610299 26713:0.20301269 27490:0.19668415 29089:0.21389785 #
-0.54973001814920497 4408:0.43806517 4503:0.30471054 4611:0.20626949 4761:0.30017772 4824:0.37527943 8537:0.43806517 22862:0.24074835 27957:0.43806517 #
-0.22938748372817572 4481:0.048116703 4778:0.1027676 6564:0.20600304 9347:0.22190535 9967:0.27571052 11695:0.31336328 11832:0.20600304 12667:0.1102335 12969:0.18498133 12984:0.11365271 13408:0.13785526 13544:0.19010073 15089:0.19010073 17715:0.13038936 22641:0.17419842 24380:0.1543535 25758:0.30458155 25994:0.067673579 26704:0.52155745 29097:0.29611465 #
1.0000000003827467 103:0.36589271 4481:0.060517926 4569:0.43139267 4775:0.14957738 5234:0.16346544 5550:0.090944223 6224:0.13490236 7685:0.10508138 9396:0.14925496 10170:0.090648271 10555:0.16143969 12365:0.13301574 12523:0.22739607 14075:0.099146329 14465:0.19734479 15108:0.16243479 16205:0.23909582 18397:0.089372925 22009:0.096971661 22985:0.093894832 25119:0.12650394 25138:0.20508559 25529:0.23909582 26648:0.16679858 27356:0.11853262 27995:0.12709284 28866:0.28336883 28988:0.22739607 #
1.0000000003827467 3617:0.16386297 6225:0.12068202 7095:0.17231244 7685:0.096624173 8739:0.16729133 9559:0.093442433 9738:0.12648445 10838:0.20146169 11439:0.1096099 14383:0.23824394 14778:0.12748581 15481:0.087084167 15919:0.19301222 17138:0.17851089 18048:0.12628864 19489:0.11783917 19862:0.18307056 20163:0.075392932 21478:0.51327014 24380:0.17851089 27076:0.23824394 27373:0.17851089 27573:0.27628416 28852:0.23824394 29787:0.25663507 30361:0.11223255 #
1.0000000003827467 5065:0.28078958 6108:0.34408939 7579:0.1926209 8120:0.19998342 9559:0.3136763 11439:0.18397439 11695:0.15207013 15872:0.32008579 18471:0.33814272 18747:0.20445369 19702:0.16715704 21207:0.27927983 26073:0.28235233 26192:0.33814272 27269:0.10816663 #
1.0000000003827467 652:0.16189039 875:0.23763998 4240:0.286982 4481:0.07464876 7471:0.1274599 7697:0.28049266 9559:0.12534951 9839:0.16812639 10170:0.11181448 10316:0.34892914 10934:0.21875347 13763:0.14662126 14331:0.12093034 16871:0.31959528 17947:0.12697999 18110:0.30516368 21578:0.18874569 22294:0.25297272 22655:0.15055576 22970:0.22566402 27102:0.1298753 27574:0.26606107 #
-1.0000000003827467 4365:0.42534998 8120:0.73046803 11439:0.33599636 27142:0.41545197 #
1.0000000003827467 3575:0.16725759 4611:0.22801071 6972:0.19624113 9304:0.26065674 12084:0.21048498 15565:0.31231889 23764:0.26182109 25310:0.40366319 27503:0.26182109 29555:0.60966545 #
-0.050308553854721244 136:0.21660082 4465:0.32149184 9599:0.39549959 10316:0.26225701 11547:0.25013703 12350:0.15567587 13763:0.22040266 13821:0.27557379 14226:0.25013703 20163:0.1520299 20465:0.33042979 21352:0.21470334 23764:0.2798079 27269:0.12995233 27356:0.21978411 29223:0.16958351 #
-1.0000000003827467 136:0.1552632 3882:0.14729112 7989:0.37095633 9738:0.18282852 11559:0.12705302 12209:0.23803793 12422:0.25419238 13763:0.15798841 14075:0.13177818 14331:0.13030575 14474:0.19103308 18747:0.17607357 20163:0.21795529 20319:0.1500901 21449:0.23925556 24429:0.1836904 26449:0.096025914 26713:0.18198559 27269:0.093152069 27356:0.15754503 28427:0.20241979 28742:0.3288222 29223:0.36468115 #
-0.50054149934371028 635:0.11316609 760:0.20693263 1338:0.092410997 4059:0.17154175 4150:0.16808793 6881:0.23956215 7317:0.13022849 8476:0.09710706 8725:0.21671876 9196:0.19998926 9559:0.084999971 10316:0.11830508 12806:0.16653025 14696:0.1415723 15297:0.14001462 16178:0.136729 16981:0.085520156 17738:0.24459973 17865:0.14763792 19694:0.19998926 19770:0.16238256 21207:0.15135843 21352:0.096853442 21882:0.15217666 22614:0.16653025 22615:0.23344827 24880:0.14629671 25119:0.21162586 26790:0.13090841 27269:0.058621962 28063:0.13808274 28296:0.15996698 28379:0.18648261 28866:0.23702097 29323:0.19998926 29701:0.1421147 30054:0.15674412 #
-0.27480395610684849 3609:0.17206079 5386:0.18766561 6265:0.21808776 7681:0.16035001 8742:0.15884821 9788:0.3321594 10982:0.26730725 11547:0.18112224 12084:0.16288096 12350:0.11272368 13282:0.31236932 13798:0.19368932 14698:0.18892561 15176:0.21068603 18346:0.1541381 19702:0.14541504 19833:0.24562696 20019:0.25496989 26449:0.097000472 26496:0.30530593 27269:0.094097458 28042:0.19516535 28268:0.21877347 #
-0.054803089149351954 3983:0.27556905 4368:0.13912326 7685:0.15916327 8344:0.42273971 9558:0.28967616 15921:0.27710277 16124:0.28764296 19489:0.19410947 19568:0.25734836 21207:0.27408737 26970:0.3523978 27389:0.39244509 #
1.0000000003827467 8120:0.30435482 10699:0.65555596 11425:0.3975552 17947:0.24179682 19999:0.2545788 27541:0.44304436 #
1.0000000003827467 800:0.16153049 8120:0.12222467 8452:0.21029851 10574:0.79198557 11425:0.15965265 11426:0.26326218 14036:0.23336022 15779:0.16354756 19371:0.15182254 19486:0.14881909 26510:0.10884597 29470:0.23336022 #
1.0000000003827467 3977:0.21527842 5606:0.31187135 10037:0.23762792 14451:0.13992576 14632:0.31187135 16771:0.42741051 22772:0.12528145 23632:0.17488495 23683:0.2205186 26097:0.27644825 27107:0.20220479 30229:0.28952184 30230:0.31187135 30251:0.24912837 30425:0.21220529 #
1.0000000003827467 3770:0.37483388 4365:0.2183125 5288:0.21592645 7560:0.29072267 10170:0.13114041 12991:0.2646676 14778:0.20057593 15365:0.14561445 18505:0.18517606 20421:0.19432488 24388:0.2519196 24842:0.21734165 27102:0.15232286 30029:0.40376902 30083:0.40376902 #
1.0000000003827467 4249:0.32841516 4300:0.21527372 4365:0.17756969 6097:0.24699719 8120:0.15247324 9521:0.25381076 9599:0.12549455 12386:0.17878972 13436:0.29111296 15311:0.13566706 17218:0.2067406 17219:0.30488008 18505:0.15061736 20163:0.096480124 20487:0.38109431 23858:0.32841516 26524:0.1585115 28428:0.26234385 #
-1.0000000003827467 471:0.27823803 8120:0.1291775 8536:0.19673708 9559:0.1013082 9599:0.10632078 10170:0.090369113 10559:0.17945506 10574:0.62777865 15899:0.14463627 16638:0.25829875 17573:0.24663505 18911:0.27823803 19987:0.24663505 20759:0.19673708 24654:0.27823803 29223:0.091177091 #
-0.36124010046851801 1352:0.21235758 5174:0.14466192 7879:0.17930862 9304:0.21045502 9625:0.29790056 10555:0.22615369 10574:0.58809584 13821:0.20819624 16673:0.1594855 18106:0.18659247 19794:0.312318 23726:0.22480616 24404:0.34656736 #
-0.081759954369433244 1281:0.54167557 10170:0.28439435 14266:0.49231711 27919:0.61913753 #
-1.0000000003827467 3575:0.089808591 3590:0.086653002 4368:0.085569248 4510:0.18547848 6095:0.095783174 8120:0.12071505 8451:0.19811301 8452:0.20770107 8456:0.12132603 8461:0.21674603 9318:0.15708992 10258:0.18085885 10505:0.23047794 10555:0.15039915 14454:0.17242718 14792:0.23047794 15053:0.12443437 15077:0.18721339 15152:0.24137756 15311:0.21481876 15405:0.15431614 15481:0.17645916 16124:0.17691788 17947:0.09590292 18528:0.18721339 20163:0.076384574 23348:0.26001057 24043:0.18721339 27222:0.2751886 27269:0.065292113 28392:0.13176613 29188:0.26001057 #
-0.07344873368670353 6875:0.24848217 7005:0.1499097 7443:0.21082674 8945:0.28032181 11139:0.28032181 11393:0.26023322 11439:0.11972661 13579:0.15597703 13840:0.11207917 18046:0.22005607 20163:0.082351506 24045:0.1584627 24125:0.28032181 27116:0.16694476 27269:0.070392534 27356:0.11905258 27517:0.23367758 28063:0.16580808 28094:0.17646536 29559:0.49696434 29701:0.17064959 #
1.0000000003827467 4481:0.10390602 5386:0.23998778 7661:0.444855 9318:0.28951421 16610:0.4247672 18805:0.32605687 19646:0.47919539 21986:0.34503132 27269:0.12033233 #
1.0000000003827467 166:0.51424944 208:0.2929697 212:0.16105507 354:0.27974039 4108:0.25209519 9415:0.17471653 11049:0.20686388 11773:0.27974039 13763:0.26881239 13864:0.16700377 14037:0.18860501 18404:0.24389543 20319:0.12768683 21443:0.24773839 22009:0.10964926 27748:0.21328203 #
1.0000000003827467 121:0.25147843 640:0.25370762 1349:0.33016944 5966:0.12444989 5977:0.27919489 7389:0.19545896 7536:0.27098984 7924:0.27486399 9559:0.12949683 12559:0.33016944 14221:0.18182896 15752:0.19362006 19101:0.22288196 20163:0.10448301 20992:0.35565671 23264:0.19273399 29674:0.2493767 #
1.0000000003827467 4844:0.60129797 26616:0.54554147 27269:0.19537663 28358:0.55013931 #
1.0000000003827467 6725:0.46550643 10239:0.38804835 11559:0.15943655 12084:0.20234281 12757:0.28797019 17691:0.28918865 18350:0.26103732 23501:0.20793532 26311:0.22978604 27302:0.28797019 29223:0.15254393 30261:0.35975969 #
-1.0000000003827467 4515:0.53599018 4844:0.49691659 18397:0.20589542 20709:0.41259128 22009:0.22340123 26616:0.45083907 #
-0.078423084702350238 3841:0.16831429 4921:0.21591616 5503:0.21379814 5893:0.35618103 9381:0.2419274 11390:0.2969327 13520:0.24752448 13866:0.16240865 15506:0.18692209 18296:0.18959326 18991:0.2969327 22135:0.2969327 25112:0.17281488 28322:0.25437477 29501:0.2969327 29779:0.2969327 #
-0.29825243667927609 3841:0.18210956 10528:0.15228426 11478:0.29824671 11492:0.23607445 12276:0.19133115 12873:0.2072092 14640:0.2482885 16903:0.29824671 18350:0.36031032 20719:0.29824671 23314:0.2847791 24027:0.25663593 24697:0.24162318 27986:0.25220066 29590:0.2847791 #
-0.90073650113922477 4481:0.16845623 7685:0.29250196 12084:0.33769223 22631:0.37771162 23118:0.49365035 26073:0.50924504 29718:0.35544595 #
-0.27221786120928759 121:0.29553199 641:0.2668699 6654:0.19785029 9017:0.35805586 17651:0.30094051 22631:0.20320581 23969:0.32301417 27433:0.3338739 27668:0.25067875 29853:0.29815167 30639:0.41796005 #
1.0000000003827467 136:0.1211064 3590:0.096430399 4739:0.15788887 6216:0.14490984 6217:0.16447201 8120:0.2686716 9599:0.11056636 10559:0.18662104 11439:0.12358198 12365:0.13790132 14266:0.32537103 14474:0.14900717 14652:0.26861313 15311:0.1195288 17487:0.2893486 17947:0.10672402 18048:0.14238678 18117:0.12854742 18391:0.13518815 18508:0.11220488 19784:0.20288327 21801:0.13642374 22114:0.2893486 23422:0.17547248 27353:0.18567128 27356:0.12288626 28023:0.14350732 28445:0.18385769 28715:0.13678636 29223:0.18963593 30026:0.19827186 #
1.0000000003827467 207:0.22847298 1338:0.097423106 2233:0.19319925 4449:0.16524549 5438:0.11745562 6689:0.17556238 7389:0.13525507 7685:0.092661381 7879:0.1128706 8456:0.57419837 8770:0.16420679 9662:0.21083611 10170:0.07993418 10865:0.19659691 10942:0.12472161 12350:0.074034795 14481:0.13429478 14830:0.21815607 16673:0.10039241 17405:0.10829926 20273:0.12325526 21352:0.20421299 22185:0.17401981 22655:0.10762962 25024:0.24610983 25994:0.075055122 27222:0.13023821 27505:0.19319925 28392:0.12472161 #
1.0000000003827467 4708:0.35343382 6948:0.25585455 9873:0.12538679 9948:0.23745736 15186:0.21706465 16088:0.32486039 18391:0.18628891 19202:0.24000804 20892:0.31850588 26713:0.3912136 27102:0.1504187 28710:0.24769962 29223:0.13065891 30002:0.37014818 #
1.0000000003827467 3689:0.24814658 4368:0.10858408 10170:0.10716255 10942:0.16720614 12350:0.099253632 12675:0.23536505 14451:0.14803407 14479:0.24814658 16988:0.22014134 16993:0.24814658 17591:0.14642471 17688:0.14972311 18502:0.26882303 19255:0.35065538 19909:0.22014134 20163:0.096929081 21249:0.26882303 24310:0.17920822 26274:0.23329704 26295:0.26829594 28328:0.21280347 30299:0.23536505 #
1.0000000003827467 3609:0.14278902 4368:0.10234057 6095:0.11455639 8120:0.14437485 9371:0.24032997 9599:0.11882909 14451:0.13952219 15077:0.22390667 15185:0.31097189 17688:0.14111413 18505:0.14261755 19489:0.14278902 22290:0.2592276 22701:0.22390667 26373:0.27565092 26449:0.080498308 26629:0.28868684 27269:0.07808917 27525:0.48823351 28393:0.27565092 30412:0.18098567 #
-0.0010650639114155684 7475:0.53304178 8456:0.5611977 12591:0.38210559 13439:0.3320967 27625:0.38030338 #
-0.08475182635674014 4611:0.17374249 5065:0.24052888 7303:0.6541512 9873:0.11603576 10930:0.2097396 16089:0.3270756 17684:0.19905956 17928:0.27113715 18163:0.26831004 21352:0.15308556 22009:0.12820314 24148:0.3075884 #
-0.79423858993699359 8456:0.48837069 8726:0.52767831 20163:0.30746895 26112:0.6233077 #
-1.0000000003827467 15311:0.4295823 18505:0.47692165 28023:0.51576024 28427:0.56744707 #
-1.0000000003827467 7982:0.23471393 7999:0.31072834 8120:0.23020108 13240:0.357012 15872:0.36845103 15930:0.33082557 18391:0.23166166 18493:0.30302441 21207:0.32147923 22025:0.29956716 23530:0.24750727 25994:0.15121271 #
1.0000000003827467 265:0.14565079 641:0.19879419 1510:0.20408292 2324:0.31134281 2515:0.18478179 3590:0.10376035 4481:0.13501963 7471:0.11527043 7685:0.11722187 8271:0.18953402 9369:0.14621717 9599:0.11897083 10170:0.10112124 10856:0.19879419 13322:0.18953402 14229:0.26671955 14463:0.25953683 16981:0.11405561 17651:0.22417374 17861:0.12658536 18397:0.099698551 19935:0.2536681 21578:0.17069523 22009:0.1081752 22815:0.13161638 22985:0.1047429 25119:0.14111948 25203:0.28903118 27102:0.11745484 29139:0.17152062 30260:0.21334307 #
1.0000000003827467 393:0.21262561 4553:0.2660875 6626:0.23172748 8611:0.2660875 8617:0.27409503 8742:0.15812337 8770:0.24887662 9559:0.13581572 9692:0.23816985 16948:0.22453186 20759:0.26374954 21818:0.2805374 22689:0.2882762 22739:0.20862272 28181:0.33064371 28716:0.24184546 29718:0.17066188 #
1.0000000003827467 3086:0.52737075 3967:0.24576905 4761:0.36137304 14333:0.4296779 15771:0.33198512 16592:0.40182596 26981:0.27310419 #
1.0000000003827467 4628:0.35434768 5973:0.35434768 6631:0.35434768 9140:0.35434768 10709:0.19716659 12146:0.28305921 17651:0.51027638 18119:0.17717038 18566:0.13850716 28488:0.26038072 #
1.0000000003827467 3590:0.24266143 5002:0.16902408 9616:0.36406437 12276:0.21681736 12352:0.29662326 14075:0.12932988 15519:0.64542609 19594:0.36406437 30079:0.2813617 #
-0.35920159724761203 3590:0.24658357 15519:0.6558581 27864:0.57181871 28580:0.42669672 #
-0.5199843480735632 3590:0.15560032 4481:0.10123856 9839:0.22801282 10299:0.27616376 11439:0.19941218 14451:0.20947881 21242:0.2408832 22435:0.43343478 23193:0.41386265 27503:0.2524431 28981:0.29811424 29139:0.25721449 29175:0.34308133 #
-1.0000000003827467 5434:0.26415765 8165:0.33269975 13840:0.22489078 14778:0.27941486 17299:0.42303127 17697:0.33382896 21578:0.30838001 24231:0.34241441 26517:0.30838001 26610:0.24303873 29223:0.1843202 #
-1.0000000003827467 4611:0.3400093 7252:0.53658354 15771:0.45456618 18145:0.55806059 18508:0.28001735 #
-1.0000000003827467 750:0.26359752 3601:0.16910243 5121:0.34329751 6435:0.23444839 7471:0.11392115 9562:0.20529927 9599:0.11757823 10299:0.18200111 11439:0.26283854 13840:0.12302497 16494:0.16951291 16981:0.11272055 18048:0.15141661 19198:0.44618002 19735:0.16951291 20868:0.19197921 25657:0.28564796 26524:0.14851245 27102:0.11607999 27302:0.19034748 30530:0.24579497 #
1.0000000003827467 4602:0.5363397 8456:0.36522725 8647:0.43891168 9281:0.51022017 12350:0.23545459 15481:0.26559716 #
1.0000000003827467 2972:0.5430249 4602:0.41977939 8456:0.28585407 8726:0.30886167 12365:0.29196343 20585:0.3599613 25121:0.37011671 #
1.0000000003827467 2465:0.14074899 3575:0.080164939 4481:0.050325226 4636:0.17054415 4739:0.12664492 8452:0.18539813 8453:0.23209064 8456:0.32489413 9056:0.13593385 9599:0.088686861 9618:0.12087936 9873:0.072986022 10597:0.14610337 11459:0.12577227 11559:0.079491347 14210:0.2027901 15108:0.13507679 15141:0.28961203 15311:0.095875755 15351:0.189097 15365:0.083700709 15481:0.15751098 15680:0.14610337 18119:0.11604305 18415:0.1281738 19080:0.19882622 19122:0.20572922 22985:0.078080647 23853:0.16876592 23855:0.13727973 26610:0.1002835 27151:0.14677933 27222:0.36845827 27898:0.12881371 29223:0.22816454 #
1.0000000003827467 2723:0.3078905 3575:0.11997335 3826:0.16693106 7005:0.18575086 7541:0.17632915 7879:0.15929781 8456:0.32415366 12350:0.10448764 14431:0.19326878 15338:0.32245108 15509:0.20758423 18903:0.24160543 19471:0.20985302 20491:0.32245108 23530:0.173384 27155:0.23321614 27331:0.25257191 29147:0.32245108 29223:0.11382227 #
1.0000000003827467 5132:0.42176732 6968:0.55428302 8456:0.3019107 17753:0.60064989 18508:0.25090304 #
-0.84389432814139942 4602:0.70872754 16337:0.49777722 21566:0.49992308 #
-0.59128446075562024 4602:0.65854174 21566:0.46452299 21730:0.59206516 #
-1.0000000003827467 4602:0.64136988 10188:0.48112467 11294:0.59763175 #
-0.15921730835840961 1509:0.19303454 2681:0.21714473 4368:0.10776093 4481:0.14200142 4846:0.32744217 8456:0.15279093 10227:0.21714473 15150:0.30397683 15453:0.16015108 21066:0.17292376 22216:0.1850993 22223:0.26678514 23055:0.32744217 23448:0.21344797 26449:0.084761821 27028:0.32744217 27222:0.17327824 28015:0.23576564 29908:0.18940392 30261:0.25305879 #
-0.0089726675802204933 131:0.066781022 2090:0.088119067 2590:0.057103086 3590:0.037999306 3748:0.060092621 4098:0.067442223 4439:0.076556787 4481:0.024723569 4587:0.086877048 4602:0.078130893 4613:0.078130893 5132:0.074325956 5151:0.16419463 5288:0.060975578 5550:0.11146114 5569:0.088119067 5593:0.05361788 5966:0.03989758 6626:0.21250048 6714:0.11402053 6870:0.065368772 6881:0.058503337 6883:0.17901504 7275:0.088119067 7685:0.04292921 7708:0.08950752 7879:0.15687588 7926:0.066781022 8460:0.088119067 8695:0.060975578 8756:0.069682509 9383:0.060092621 9419:0.08950752 10188:0.058610018 10224:0.063770927 10227:0.075613223 10749:0.062814601 11053:0.052936289 11294:0.072802775 11585:0.07210914 12288:0.19786032 12350:0.10289903 12363:0.095048055 12426:0.11364701 12492:0.1010698 12702:0.05543505 13245:0.1010698 13441:0.11402053 13840:0.091176108 14226:0.055112064 15481:0.07738135 15703:0.091081627 15779:0.070833497 16337:0.054875501 16497:0.097678527 16556:0.076556787 16574:0.092898794 16579:0.063124835 16630:0.11187351 16633:0.085753508 16673:0.093021855 16685:0.10584953 17681:0.060716484 17688:0.051740721 17728:0.092898794 18009:0.047638308 18566:0.044568263 18822:0.11402053 18827:0.10584953 19011:0.14166699 19075:0.080621861 20501:0.097678527 21116:0.14421828 21352:0.047305048 21566:0.055112064 21748:0.10584953 22009:0.039616123 22033:0.066568613 22271:0.082910627 22546:0.11402053 22592:0.07473962 22598:0.11402053 22655:0.049863864 22744:0.1010698 22746:0.11402053 23182:0.097678527 23764:0.061649378 23899:0.08950752 23930:0.10584953 24045:0.064454496 24551:0.10584953 24744:0.091081627 24928:0.0793107 25687:0.070243955 25742:0.08378423 25753:0.056022488 25869:0.05361788 25893:0.091081627 25899:0.080621861 26265:0.068887487 26544:0.076075569 26713:0.11187351 26754:0.10913459 26764:0.11402053 26780:0.15989612 27592:0.051681034 27658:0.08950752 27783:0.095048055 27845:0.092898794 28228:0.16280082 28467:0.097678527 28715:0.053901948 28948:0.072450854 29154:0.091081627 29161:0.08950752 29626:0.071139701 29651:0.11402053 30026:0.078130893 30508:0.07994806 #
1.0000000003827467 4570:0.47773188 10555:0.2763367 11439:0.20404127 11473:0.30655444 13439:0.26383102 18493:0.58392209 20512:0.22465226 22985:0.16072002 28545:0.27005634 #
0.98717797585839084 1509:0.17025231 4481:0.062621102 9559:0.10515278 10290:0.14463358 10574:0.4344016 11439:0.49338549 11695:0.10195604 14474:0.14872308 17171:0.24074249 17947:0.10652056 18908:0.21460283 19198:0.13959061 20337:0.1484504 20707:0.19390689 24960:0.17199211 25301:0.24074249 27226:0.1744817 27827:0.28879696 28151:0.19789386 28790:0.18825652 #
1.0000000003827467 136:0.13592084 1369:0.17598175 2595:0.23613885 5530:0.2296202 8027:0.28785825 8599:0.20442919 9892:0.25492758 11564:0.27070764 12084:0.141157 13049:0.32474342 13130:0.13532022 13439:0.17934199 13565:0.2645863 14278:0.22770114 15780:0.15931422 20163:0.095401451 22259:0.21168874 22870:0.17761984 24012:0.16485666 25242:0.18307631 26563:0.20006275 27269:0.081547387 28268:0.18959497 28639:0.16514485 #
1.0000000003827467 4813:0.21675234 5966:0.12949628 7166:0.27833164 7252:0.55000496 8338:0.25948882 11775:0.26646468 12221:0.34355766 13485:0.20920108 15463:0.32804403 15899:0.19237763 17923:0.20147127 19999:0.14371637 25119:0.16774203 26117:0.14878128 #
1.0000000003827467 1344:0.091388918 1977:0.16508912 3594:0.1911317 3946:0.17999026 4245:0.1430545 4480:0.10957668 4481:0.09943302 7560:0.16508912 7999:0.28737333 8406:0.15826963 9599:0.087614141 10597:0.14433615 11210:0.13904655 12350:0.068973057 13719:0.14500394 14418:0.2032408 14465:0.16212213 15311:0.094716087 16294:0.128914 16311:0.17037873 17665:0.10566346 18117:0.10186255 18157:0.17037873 18190:0.17244133 18493:0.28024846 18505:0.10515366 20229:0.1964213 23142:0.15298001 24842:0.12341914 25119:0.10392515 26009:0.2032408 26353:0.2721591 26449:0.17805716 27269:0.057576101 28580:0.13222705 28981:0.14639875 28986:0.22928338 29223:0.15026984 #
-0.094705856078713263 3276:0.3438586 4521:0.15053082 7095:0.14168489 7792:0.19589743 9289:0.11682615 10310:0.14796117 13904:0.097128518 14775:0.0887997 15353:0.19589743 15588:0.17590696 16093:0.18077523 17218:0.13283896 18892:0.16565302 19603:0.21101965 20345:0.36155045 20465:0.13473727 21494:0.19589743 22410:0.16308337 22411:0.1870515 23601:0.1870515 24265:0.1587054 25059:0.12524004 25060:0.18077523 25237:0.11514711 25655:0.1870515 25667:0.21101965 26117:0.084835462 27108:0.21101965 29196:0.098845333 30142:0.21101965 #
-0.64261516912383443 1354:0.55747199 8456:0.46868557 15929:0.54186594 26449:0.26000652 29223:0.32914546 #
-0.027672998636374825 6870:0.19283019 11016:0.18145169 11210:0.20397428 12634:0.28038058 13531:0.21925282 13712:0.53736019 16072:0.17226608 19079:0.2169337 19792:0.28814018 22655:0.14709254 23789:0.21271349 23872:0.2686801 24489:0.22173773 24513:0.29814401 27719:0.18961801 #
-1.0000000003827467 4481:0.17082168 9369:0.36997676 13174:0.26982185 20163:0.23143527 25121:0.47596189 28250:0.58540678 30295:0.37192771 #
-0.81388916578591008 11400:0.42579305 11425:0.35862482 11439:0.25257275 15136:0.35341832 15509:0.35341832 20273:0.29616189 22326:0.45058286 23119:0.29283053 #
1.0000000003827467 4602:0.70178825 26110:0.71238559 #
1.0000000003827467 2749:0.45189187 4602:0.40067056 15481:0.19841337 19050:0.39785829 22631:0.28428182 24421:0.39785829 26107:0.44552258 #
1.0000000003827467 4602:0.5137279 10709:0.41715476 17086:0.74971026 #
1.0000000003827467 9559:0.2081636 10501:0.37913281 10839:0.31052399 12350:0.17198224 14775:0.2405832 18048:0.28133577 19198:0.5526756 19702:0.22185938 26057:0.44183844 #
1.0000000003827467 9707:0.37292817 10188:0.44753596 12878:0.32739949 12986:0.43532056 16146:0.38587576 17503:0.25925377 23501:0.1944517 26107:0.33168906 #
-0.19314485354249017 404:0.31988418 670:0.28205812 5358:0.39484787 5550:0.13859357 11579:0.24313992 12330:0.29359519 14075:0.15109311 16728:0.42532796 18397:0.13619901 25758:0.19459806 26274:0.30074173 27402:0.26654336 28044:0.27576548 #
-0.33968691026790648 9599:0.15144581 10501:0.52565438 11439:0.16927366 17688:0.17984775 17955:0.2945089 18391:0.18517093 18786:0.39632878 19904:0.18967275 26149:0.25696358 26648:0.23686014 27525:0.31112298 27536:0.23138866 30412:0.2306634 #
-0.41991825114805886 4402:0.17485842 4481:0.050413381 5647:0.13661304 8120:0.10794143 9984:0.27234393 12984:0.11907751 12991:0.15240021 14451:0.10431336 15357:0.23249722 15942:0.21583587 18300:0.23249722 18325:0.10373965 21801:0.10961913 21843:0.15931529 22407:0.23249722 22644:0.1857229 22958:0.23249722 23902:0.18942825 26107:0.17714942 26704:0.27322608 27651:0.19917452 28410:0.13178946 28445:0.14773323 29073:0.13661304 29097:0.15512431 29125:0.21583587 29130:0.15327439 29571:0.21583587 29606:0.17276691 30295:0.10976437 30558:0.21583587 #
-1.0000000003827467 136:0.26515341 4036:0.28084129 4602:0.43410143 5432:0.47075433 9599:0.2420768 22870:0.34649953 23530:0.31622961 27269:0.15908206 28268:0.3698605 #
-1.0000000003827467 5132:1 #
1.0000000003827467 1354:0.22257477 4672:0.33429635 4960:0.18304473 5661:0.27102473 10909:0.40102503 12159:0.28355756 12350:0.12063642 13971:0.22201824 15929:0.21634394 16673:0.32716995 18117:0.17816134 20071:0.23487753 24231:0.24412926 25994:0.12229899 26117:0.16122264 26449:0.10380951 28873:0.19826692 29196:0.18784721 #
1.0000000003827467 2766:0.47663429 4679:0.31630448 8456:0.23957549 21901:0.37334174 21902:0.47663429 27222:0.27169952 27875:0.41831791 #
1.0000000003827467 338:0.25232649 522:0.20558426 4611:0.11881167 5065:0.16448271 6850:0.18168068 7553:0.16539815 8456:0.11774048 9039:0.18348052 13594:0.25232649 15136:0.30159852 15893:0.25232649 16288:0.21616176 16533:0.14975563 16881:0.25232649 18294:0.13167328 20319:0.10209209 20875:0.14685406 22542:0.15482065 24624:0.20558426 25121:0.15244743 25305:0.3410596 26510:0.1043246 26610:0.10902715 27520:0.13801108 28151:0.172903 30361:0.11034831 30681:0.23424412 #
1.0000000003827467 3882:0.07895413 4347:0.12696555 4750:0.12892497 5438:0.094899923 7471:0.073620729 7894:0.35252455 7982:0.094128899 8456:0.278359 8467:0.16576056 9599:0.075984098 10170:0.06458395 10306:0.16576056 10316:0.10077059 10945:0.17034802 11439:0.42464384 14778:0.098779514 16499:0.15609807 17138:0.13831516 18391:0.092904828 19198:0.096113555 20163:0.17524956 20421:0.191402 21510:0.14776237 22985:0.066897027 25178:0.14060177 25758:0.18195568 26524:0.095975116 26610:0.085919723 27222:0.31568336 27269:0.049933355 27485:0.19884792 27490:0.094510794 28580:0.11467502 29262:0.19884792 30557:0.11842324 #
1.0000000003827467 1354:0.28991151 4481:0.056631636 5646:0.156644 6106:0.18805154 7317:0.14569558 9092:0.26117465 9099:0.21771641 9602:0.1365566 10150:0.26117465 10726:0.09919063 11575:0.23150977 12322:0.11640838 12439:0.26117465 13840:0.10442368 14656:0.21279334 15582:0.17119806 16828:0.14645626 17036:0.18991449 17673:0.24245819 18695:0.1319022 22686:0.17319912 22985:0.087865174 23387:0.18805154 26131:0.12534215 26271:0.16156708 26664:0.19642638 28698:0.19642638 28833:0.18467188 29936:0.19642638 #
-0.35597380044193266 1352:0.25962865 5966:0.16726215 6487:0.47800693 7982:0.22627476 9437:0.38945851 14474:0.2461614 15311:0.19746283 15920:0.47800693 17688:0.216912 17947:0.1763092 26131:0.22940363 27269:0.12003389 #
-0.073880257185042153 8503:0.6798104 19811:0.46627936 30299:0.56607538 #
-1.0000000003827467 4960:0.33165947 5901:0.29604387 7541:0.12295651 10299:0.14326304 10505:0.42939177 11163:0.1146535 11439:0.31034189 12354:0.16982837 12386:0.13185747 12423:0.22484915 14325:0.1227434 14451:0.10866948 14474:0.24946015 15202:0.1457946 16047:0.22484915 18905:0.17797729 19255:0.12870529 21352:0.10048699 22870:0.13247579 23099:0.20749204 25690:0.24220628 26510:0.10014039 30026:0.16596828 #
-0.18699973290753089 4481:0.19251944 11687:0.53251183 23122:0.82423747 #
1.0000000003827467 5132:0.6379267 12350:0.29438815 30231:0.71160746 #
1.0000000003827467 2223:0.4240849 4481:0.1402856 5132:0.42173767 7369:0.43439582 11883:0.32958958 12426:0.32242593 30542:0.47044852 #
1.0000000003827467 6518:0.39691636 7162:0.28895524 8726:0.21556376 11559:0.14643852 11819:0.33563682 13798:0.22099914 17407:0.33043036 22277:0.33043036 24957:0.26561263 26929:0.37899324 28410:0.24235728 29718:0.1956175 #
1.0000000003827467 6444:0.50960833 8742:0.21602829 9599:0.19473237 16579:0.28213286 16582:0.50960833 23530:0.25438267 28165:0.47308847 29223:0.16699588 #
1.0000000003827467 12350:0.12952037 16874:0.24272971 17434:0.43055749 17697:0.25553563 17836:0.29503319 18508:0.16696349 18730:0.31001094 20337:0.22131963 21048:0.39970264 21578:0.23605525 26510:0.17801435 26517:0.23605525 27611:0.33274993 #
-1.0000000003827467 7162:0.81723219 12365:0.57630855 #
-1.0000000003827467 3691:0.27060926 6514:0.20336346 8726:0.20573613 8742:0.17298247 9873:0.25664926 11439:0.17428569 11695:0.14406163 13408:0.25350326 14331:0.28668088 16828:0.22882575 18048:0.2008058 18508:0.3164815 19702:0.15835401 22824:0.23463179 23095:0.24136637 23776:0.21965341 26117:0.16405237 27269:0.10247022 28488:0.29985213 28866:0.20715438 #
-0.47195952086373361 42:0.082196467 123:0.056945242 166:0.078174323 402:0.06325414 494:0.089072362 570:0.2672171 635:0.093023516 752:0.082196467 842:0.078174323 936:0.095948264 971:0.06528566 1000:0.13568656 1032:0.095948264 1068:0.07129842 1368:0.095948264 1624:0.079982921 1631:0.075320564 1723:0.076645173 2468:0.30200192 2590:0.19220895 2594:0.075320564 2595:0.069769278 2971:0.072161563 3075:0.095948264 3257:0.075320564 3590:0.031976409 4481:0.020804878 5443:0.059355225 7459:0.075320564 8726:0.14512458 9290:0.095948264 9369:0.045060568 9559:0.034935363 9738:0.047288798 10122:0.16550735 11559:0.032862402 11695:0.067746595 12084:0.041706063 12772:0.064017579 15506:0.060400382 17473:0.058186837 17510:0.082196467 19215:0.060400382 19999:0.037260573 22696:0.072161563 22985:0.032279208 23346:0.34167144 23555:0.2763395 23945:0.085050218 24055:0.2374209 26483:0.053663224 26713:0.047070768 27592:0.043489579 27920:0.052234378 27991:0.074152179 28755:0.070504412 28756:0.095948264 30088:0.089072362 30225:0.06325414 30231:0.48838493 #
-0.25397785484370095 9839:0.28944412 9984:0.34713095 15629:0.41557387 15680:0.37310058 19735:0.32651329 20163:0.17411572 22833:0.28208217 23789:0.37482679 25994:0.18074851 26449:0.30684495 #
-1.0000000003827467 4472:0.25847888 5535:0.23472255 7714:0.24900618 9559:0.14950325 10068:0.27749804 14306:0.35175359 15365:0.14807917 15481:0.13933034 15506:0.25847888 16984:0.23339584 17947:0.15144791 18009:0.17155199 18048:0.20205554 18119:0.20529766 19999:0.15945382 20337:0.2110626 22985:0.13813643 27223:0.29857236 27356:0.17438312 27573:0.22102046 30295:0.19385014 #
1.0000000003827467 318:0.15386716 4481:0.1863544 5283:0.28647736 6186:0.22488827 10944:0.21545626 11871:0.34746251 11954:0.19234945 15453:0.14011531 15589:0.28647736 23457:0.41662702 25994:0.26209754 27325:0.23488721 27430:0.28647736 27840:0.35154939 #
1.0000000003827467 3590:0.24989662 3882:0.29772931 9583:0.58863252 11459:0.40634513 12350:0.22556657 17688:0.34026492 19735:0.41309059 #
1.0000000003827467 3575:0.10563726 4481:0.066316009 4643:0.27109945 6465:0.15472293 6654:0.14477454 7944:0.15990865 9022:0.2549473 12702:0.14869338 14698:0.15419593 16125:0.18277916 18048:0.15050071 19735:0.16848755 20163:0.089847282 22033:0.3571139 22772:0.12285747 23540:0.22726528 23549:0.28392011 23910:0.26200303 24691:0.15241764 26311:0.15096916 29139:0.16848755 29144:0.2363617 29223:0.10022119 29895:0.30583718 30162:0.24430817 #
1.0000000003827467 2566:0.23154983 3575:0.16711751 13570:0.41448721 17037:0.26590082 22004:0.2842952 22064:0.33925009 23013:0.40332511 23501:0.21612136 26032:0.37981454 29896:0.35552841 #
1.0000000003827467 652:0.22325756 3590:0.15822394 4036:0.21046947 4481:0.10294558 7674:0.37925151 8147:0.31877205 9357:0.32086107 10198:0.24059819 12084:0.20636769 18635:0.44074306 20163:0.13947432 22728:0.31676832 23119:0.23509493 23497:0.19447118 27269:0.11922006 #
-1.0000000003827467 8742:0.53153229 10198:0.63543075 23501:0.5600903 #
-0.089927549882256791 3678:0.30477878 4481:0.086734295 6014:0.31952915 8612:0.32590407 8726:0.2016719 11706:0.20032689 14381:0.37133735 15161:0.40000254 20998:0.35456926 23457:0.29086393 28248:0.22611684 28545:0.22611684 #
-1.0000000003827467 1641:0.68242353 3954:0.34093422 6520:0.2319804 7384:0.2127157 9583:0.26763755 15108:0.19842377 15842:0.23714791 16124:0.2319804 17688:0.15471058 20071:0.19968277 27038:0.18475571 #
-0.6780084687938368 652:0.10048588 1338:0.084588535 2280:0.28014076 3590:0.071214937 3698:0.13929512 3826:0.10269698 3882:0.084846176 4315:0.13274986 5625:0.1198272 6870:0.12250836 7539:0.18306044 8298:0.18941607 8739:0.13929512 9602:0.11172752 10237:0.10755423 10258:0.1486371 10316:0.10829072 10709:0.11890011 11270:0.16281727 11701:0.16774707 12350:0.064281411 14266:0.12014508 14647:0.12910283 15779:0.13274986 16389:0.21368718 16410:0.16281727 18325:0.095346667 18346:0.17579652 19255:0.11355062 19951:0.15109435 21001:0.17813064 21609:0.15538375 21634:0.21368718 21904:0.21368718 23980:0.32142326 24032:0.13514057 26981:0.11066004 27116:0.12726071 27155:0.2869519 27269:0.053659692 27668:0.12816258 #
-0.14275794166441874 4481:0.15510505 10016:0.55282116 19651:0.4089123 24691:0.35648629 24842:0.38504174 25784:0.47726542 #
1.0000000003827467 148:0.12688701 1729:0.20505084 3609:0.11556019 4368:0.082824968 4479:0.23363635 4481:0.054571092 7685:0.094755486 7800:0.2230863 8726:0.12688701 9318:0.1520519 14015:0.2230863 14989:0.13577124 15311:0.10396466 15919:0.18927941 17473:0.15262377 18009:0.21029928 20163:0.073934846 20585:0.14787984 20982:0.20979479 22985:0.084668197 22990:0.1606939 23346:0.29873416 23375:0.25167179 23499:0.19450079 24429:0.12462301 26334:0.2230863 26375:0.19756547 27193:0.29386711 27580:0.1870154 30654:0.25167179 #
1.0000000003827467 2319:0.23300964 2355:0.23300964 3590:0.077654473 5535:0.53280246 5550:0.075926438 6471:0.18007801 6873:0.21631157 8520:0.17753986 9056:0.13647211 9368:0.12744565 9713:0.15028413 13174:0.079806104 14451:0.10454327 14474:0.11999404 15262:0.18007801 18009:0.097352505 18145:0.36015603 18325:0.1039683 19565:0.23300964 22009:0.08095856 22910:0.18291543 26117:0.093676016 26781:0.12434204 26965:0.13397779 27106:0.15747489 28580:0.13437597 29073:0.13691413 30640:0.12381832 #
1.0000000003827467 148:0.17451149 1866:0.2447435 3617:0.22100711 3985:0.29652235 4472:0.21789336 5187:0.20613764 6095:0.12750864 7111:0.15478228 8652:0.15931816 8742:0.14672886 9559:0.12602873 9972:0.16192555 10382:0.18027517 10597:0.21789336 11400:0.24922253 14331:0.12158561 16779:0.27171767 17402:0.20338355 18894:0.26750273 20273:0.17334764 20319:0.14004599 21243:0.34613174 30412:0.20144872 #
1.0000000003827467 2164:0.40799272 8742:0.25239852 13174:0.40785417 14075:0.21151121 14331:0.20914787 15481:0.20203932 16800:0.34872469 18508:0.2308889 19370:0.48510942 27356:0.25286844 #
1.0000000003827467 18508:0.46638247 22833:0.57240593 26790:0.67441744 #
-1.0000000003827467 22833:1 #
-0.40284449836434205 4481:0.17799062 5550:0.26747808 7944:0.42919108 13130:0.34205139 17681:0.43711185 18397:0.26285669 22833:0.3906801 28042:0.42752698 #
-0.26976576592495444 5304:0.20058066 9248:0.31366381 9873:0.11127769 16072:0.18123333 16270:0.35385561 17396:0.26613066 18119:0.17692435 20999:0.31366381 23657:0.31366381 26504:0.26294741 27269:0.088857844 28413:0.28830561 29659:0.48154488 #
-1.0000000003827467 273:0.35421443 6159:0.33900422 15481:0.19179866 16125:0.67559856 17688:0.25649077 18508:0.21918596 23119:0.27988914 26295:0.22980899 26449:0.14631471 #
-1.0000000003827467 4481:0.096017174 10290:0.22176722 10316:0.22440554 11439:0.18912748 14066:0.33303481 14869:0.39251763 14989:0.23888786 17923:0.24106833 18508:0.17171618 19635:0.25313556 22506:0.39251763 24060:0.33739826 29543:0.33739826 #
1.0000000003827467 5337:0.32567737 6956:0.45654655 9109:0.42382923 10198:0.23136507 12968:0.31284177 23501:0.20393305 28248:0.51616102 30295:0.21554039 #
1.0000000003827467 1:0.40782881 3325:0.29968461 4481:0.1032262 4571:0.34277391 7021:0.25739938 10198:0.24125405 11695:0.1680669 13174:0.16305123 15461:0.47606018 17681:0.25350434 20319:0.19261543 23501:0.21264952 27142:0.25140962 #
1.0000000003827467 3826:0.25266865 4368:0.17302102 4727:0.29106456 6698:0.33249065 6972:0.21306063 10198:0.26643109 10237:0.26461908 14778:0.26116684 15481:0.17840022 22885:0.23458444 23501:0.23484144 25100:0.40631136 27265:0.38632372 #
1.0000000003827467 1354:0.13459465 1676:0.19758335 2750:0.24250647 2857:0.24250647 3131:0.19037056 3841:0.13746315 4306:0.17461005 4658:0.24250647 5149:0.2077492 10198:0.12289552 11474:0.20215453 12084:0.10541087 12853:0.12679584 13408:0.15065339 14624:0.20215453 15254:0.24250647 15453:0.11860926 17635:0.19758335 17644:0.19037056 17669:0.22512783 23273:0.11933604 23501:0.21664861 23835:0.13528159 24058:0.15723141 25731:0.18741751 26165:0.24250647 28739:0.24250647 30206:0.18741751 #
-0.59324233826046113 3120:0.12822913 3203:0.41290379 3325:0.44843897 4273:0.092225946 4481:0.077232286 5132:0.11609091 6790:0.1323377 8024:0.1653281 9412:0.17809051 10198:0.090251312 10643:0.11262844 11695:0.062872559 11871:0.10800117 12108:0.22525688 12330:0.12293224 13563:0.11957528 14331:0.062557817 15453:0.08710359 15475:0.17809051 15481:0.12086318 16494:0.098111138 18009:0.074407041 18203:0.11210974 18350:0.09986601 18351:0.093115605 18528:0.12822913 19198:0.086080424 20606:0.1653281 22094:0.12487217 22631:0.086584903 22739:0.099604845 23501:0.23865175 24691:0.088753559 25100:0.13763459 25994:0.054311544 26117:0.14319417 27269:0.089441791 28248:0.10067252 28979:0.19818671 29073:0.10464421 29084:0.08904352 30283:0.13763459 #
-0.77338188675093944 6824:0.43855381 7681:0.24629846 8726:0.29019073 14221:0.29426116 14451:0.25823975 14778:0.28592145 19702:0.22335826 23457:0.41853139 23764:0.31120497 28248:0.32536519 #
-0.20806485262080707 4481:0.16830795 18048:0.38196608 19423:0.77620512 20722:0.47252506 #
-0.1087595173272478 136:0.083820745 265:0.093687095 3575:0.069172367 3617:0.12787057 4330:0.13534531 4437:0.15477207 4481:0.043424405 6320:0.17156228 6761:0.18480714 6987:0.14715838 7167:0.097080372 7975:0.16694213 8616:0.20026535 9531:0.13446413 9873:0.06297785 9990:0.1111502 10006:0.12984397 10639:0.12337629 11130:0.20026535 12108:0.1266523 12840:0.10390566 13763:0.085291989 13840:0.080070734 14129:0.15477207 14474:0.10313156 15311:0.082728848 15814:0.10294247 18009:0.083671786 18421:0.10953601 19255:0.10641842 19306:0.17156228 20715:0.20026535 20933:0.20026535 20946:0.13626568 21060:0.18591382 21352:0.083086453 21370:0.14160401 21471:0.12239015 21669:0.20026535 21960:0.12239015 22306:0.1132077 22815:0.084659733 22855:0.17751871 23497:0.082031645 26449:0.051840771 28703:0.17756006 29718:0.091626346 29943:0.20026535 30135:0.35503742 #
-0.062532584206751007 6972:0.18649089 7926:0.26952347 11459:0.24937555 14221:0.23526572 14778:0.22859801 15481:0.15615281 18351:0.24060701 25903:0.29240653 26423:0.2910274 26483:0.25737494 27752:0.3942236 29223:0.1507981 30026:0.31533074 30370:0.35564229 #
1.0000000003827467 3181:0.64095908 15311:0.26477775 16125:0.38305992 22387:0.5120095 26981:0.33192706 #
1.0000000003827467 1093:0.59071165 4481:0.25617316 10726:0.22434437 11547:0.28552172 17443:0.54837972 17947:0.21787949 22862:0.32463858 #
