SVM-light Version V6.02
0 # kernel type
3 # kernel parameter -d 
1 # kernel parameter -g 
1 # kernel parameter -s 
1 # kernel parameter -r 
empty# kernel parameter -u 
41644 # highest feature index 
21590 # number of training documents 
4694 # number of support vectors plus 1 
1.1274951 # threshold b, each following line is a SV (starting with alpha*y)
-0.53536134041916894 141:0.031771325 187:0.021911478 510:0.035061788 548:0.045045543 764:0.045045543 972:0.055211715 984:0.024384202 1129:0.047792926 1132:0.047792926 1149:0.045045543 1273:0.046245679 1458:0.035408895 1577:0.044064961 1886:0.028276224 2172:0.04188424 5123:0.061252326 5758:0.076312557 6934:0.054171231 6942:0.047792926 6971:0.036389478 8149:0.045045543 8338:0.029621078 8761:0.025683347 10792:0.14735173 11223:0.033228174 11929:0.055044942 12725:0.031863265 13150:0.033728845 14190:0.024596067 14944:0.28187373 15798:0.052033514 17284:0.15262511 17856:0.077579506 18754:0.16674522 18988:0.037716273 20626:0.16321988 21860:0.38567966 22615:0.16736344 22660:0.037077006 22695:0.12241491 23142:0.047792926 23629:0.031168323 23692:0.038463693 24767:0.034137521 25165:0.14930882 27088:0.040576503 27109:0.085035428 27538:0.23142742 28974:0.49550098 29782:0.062500872 29894:0.1706876 31527:0.14691001 31540:0.026611287 31632:0.14643613 32480:0.29318967 32606:0.034280952 32983:0.032348126 33092:0.02583234 35935:0.021641439 36426:0.17889981 36649:0.032247592 36956:0.026087819 37009:0.047792926 37075:0.047792926 37101:0.047792926 37137:0.047792926 37191:0.047792926 37198:0.037327204 38444:0.10916843 39439:0.027820161 40185:0.069792576 #
-0.56729168849844291 5988:0.15120533 9390:0.49410146 12517:0.37061009 16988:0.43827772 17484:0.34953341 30896:0.37952083 32201:0.37061009 #
-0.13728245049632187 156:0.19202903 929:0.29974085 1240:0.19202903 3229:0.21576975 3463:0.21576975 3466:0.20079102 3467:0.21576975 5008:0.18099022 7429:0.13802642 7812:0.21576975 7926:0.16828829 8416:0.087404184 9231:0.22878186 14190:0.19765095 15782:0.073926531 16628:0.19202903 20741:0.075149164 20794:0.12276001 23005:0.15454474 23012:0.21576975 23886:0.21576975 24052:0.13605402 24461:0.17705029 24478:0.21576975 24924:0.11805507 27331:0.061742131 28167:0.25531045 33193:0.15724948 37581:0.21576975 #
-1.0000000001676255 11879:0.31140694 12943:0.42809507 14223:0.30704036 20890:0.19061503 24445:0.34736487 25059:0.21515717 26371:0.25117403 30539:0.39160895 33905:0.45359844 #
-0.20396642084324471 5988:0.16453238 6103:0.26702359 8287:0.38675171 11847:0.23845349 14470:0.20799008 16014:0.22109975 20890:0.26170075 23393:0.38675171 25059:0.29539531 31584:0.33305514 35856:0.35990342 39993:0.23930483 #
1.0000000001676255 4800:0.085585907 5107:0.15633559 5988:0.058026742 6458:0.10295219 9396:0.21598405 10310:0.11705431 10315:0.09848474 10655:0.24278137 11574:0.21276608 13022:0.19880977 13866:0.22384383 15782:0.093464956 16880:0.27279666 19735:0.18378191 20720:0.22882506 20723:0.27279666 20854:0.18713152 21437:0.22882506 26793:0.21963227 30042:0.37193751 30828:0.1064373 30892:0.11228713 35667:0.26275718 36956:0.066261232 38502:0.17341383 38652:0.21276608 #
1.0000000001676255 5408:0.27655706 6751:0.54721105 7429:0.11776336 11853:0.23036191 12197:0.21369514 14734:0.20436598 16660:0.27087283 18532:0.15390345 22537:0.14501858 23789:0.16040634 34924:0.16133992 35807:0.2427692 37377:0.32459551 41557:0.36818707 #
1.0000000001676255 5133:0.200407 6554:0.16076507 8951:0.11757221 10618:0.23911305 10734:0.15429772 10896:0.11240814 11136:0.22127554 11780:0.16402692 12536:0.19300377 13596:0.14618941 14630:0.158424 15136:0.14761944 16642:0.075499855 16685:0.13793115 20660:0.10151017 20688:0.23911305 21693:0.12870204 22592:0.21553315 22855:0.22867878 23923:0.13090917 25187:0.22127554 25325:0.25695053 30982:0.21931875 33138:0.20343804 36174:0.16697116 36209:0.17516626 36956:0.062412273 37237:0.16545695 37418:0.20343804 39554:0.19524293 39620:0.080860421 40221:0.200407 #
1.0000000001676255 3707:0.37855592 8351:0.17304675 9816:0.29525238 12610:0.24376173 14331:0.24486074 14867:0.40069249 16295:0.16155718 17570:0.32599723 24766:0.30478048 26686:0.14278965 33764:0.35227659 38502:0.24064383 38827:0.1788352 #
1.0000000001676255 6163:0.276871 13879:0.29177606 17096:0.51801753 33281:0.4274047 35876:0.48430362 36956:0.14611039 39888:0.36234513 #
-0.14161036478451131 4946:0.27354559 5988:0.079839937 6859:0.27613914 15596:0.12401358 15974:0.31484413 16120:0.23309186 17739:0.12564409 19861:0.18162522 20977:0.25914833 24924:0.20536439 29810:0.21672758 30328:0.34928891 31323:0.18340503 34087:0.31484413 34218:0.24063538 34924:0.16447671 35853:0.18845896 36956:0.091169909 39620:0.11811839 40010:0.26669186 #
-0.18023352965431561 23697:0.6722033 35147:0.74036664 #
-0.050417700924136305 23923:0.41788492 27005:0.72998255 40337:0.54083055 #
-0.011068502296997185 13879:1 #
-0.3172963375701201 9816:1 #
1.0000000001676255 3282:0.59991527 10315:0.21658073 13705:0.18469919 30536:0.53390777 30892:0.24693398 33330:0.46156991 #
1.0000000001676255 4646:0.72264832 4800:0.12181661 8349:0.18090604 9291:0.24892683 11223:0.2402495 14871:0.24386948 16658:0.18527547 22857:0.21691521 26615:0.21644384 29790:0.1316835 30892:0.15982114 34864:0.20479108 35853:0.19495259 #
1.0000000001676255 11357:0.76061767 41220:0.64920008 #
0.94616852034775789 5988:0.094831869 8029:0.26689723 12321:0.39677244 13616:0.41487658 16609:0.18968622 18696:0.44582579 20538:0.38392735 29790:0.1512005 30892:0.18350847 36956:0.10828933 38791:0.31932202 39282:0.19455092 #
1.0000000001676255 9320:0.39596716 11151:0.31879848 16517:0.21579441 21622:0.34099108 21710:0.39596716 21712:0.39596716 26615:0.22072987 29540:0.34099108 30892:0.16298592 30917:0.18706051 39433:0.19647585 #
-0.068692927456773425 1852:0.07820709 1858:0.077076152 5841:0.12792206 7910:0.11669569 8163:0.071345024 8562:0.16685261 8947:0.11575433 11354:0.090406887 11357:0.44823521 11497:0.23090035 11571:0.14133416 14009:0.14133416 14155:0.15114516 14223:0.10840504 15037:0.14025705 15380:0.10840504 19355:0.067956217 19548:0.097075686 19558:0.10421559 20651:0.13400844 21951:0.12398574 24257:0.10601155 25082:0.14025705 26367:0.1106458 26536:0.14025705 26577:0.11515059 28830:0.14941174 31232:0.16322044 31376:0.19891542 31400:0.39783084 31415:0.12593086 32201:0.10370692 35853:0.0998744 37088:0.12019973 39036:0.12925887 40663:0.17129801 41220:0.2550509 #
1.0000000001676255 7563:0.1693936 10896:0.14281967 11195:0.20585462 12286:0.32646739 12557:0.23196287 12811:0.32646739 17085:0.14923586 17484:0.1605279 20824:0.30380404 24095:0.17970552 24141:0.23196287 24288:0.11556077 24812:0.27717543 34747:0.2905468 34924:0.42917499 37243:0.14019342 39350:0.1915253 #
-1.0000000001676255 5889:0.45604125 6387:0.28055149 9107:0.39572808 11316:0.42320472 11357:0.48210505 13293:0.19314986 36895:0.32845414 #
-0.32412198204839071 13616:0.78102303 18230:0.52921349 20660:0.33156613 #
-1.0000000001676255 7429:0.24276486 14872:0.2696453 17725:0.29198578 18470:0.29198578 18742:0.17041114 21505:0.20084697 26615:0.63465446 26686:0.14314653 27088:0.14337435 31651:0.2238849 32536:0.18855524 35411:0.1490307 37073:0.15851954 37143:0.227192 #
1.0000000001676255 12643:0.29993775 13879:0.57195902 13899:0.54865527 31122:0.19312617 37281:0.4945502 #
1.0000000001676255 8416:0.52735889 25059:0.49717119 36307:0.68899447 #
1.0000000001676255 8349:0.34725538 11354:0.33874449 11368:0.59009486 13879:0.36151659 14223:0.40618157 35853:0.18710911 37028:0.29285902 #
1.0000000001676255 5104:0.32487732 13252:0.69800693 13879:0.33857024 37956:0.37400836 41410:0.39080554 #
1.0000000001676255 13879:0.28744018 15440:0.25629571 15594:0.32686767 25201:0.36800563 27160:0.51031965 28281:0.34861708 33826:0.34484759 36735:0.22052754 41257:0.24476057 #
-0.15969656193015416 203:0.13308124 10766:0.27133533 12933:0.10001359 15624:0.19961965 16685:0.14565292 19203:0.12918134 20252:0.15707392 23189:0.42325267 27739:0.17248489 27741:0.25249925 27764:0.27133533 27770:0.15191734 29790:0.092022583 30062:0.27133533 30917:0.12818268 32407:0.27133533 33789:0.21845575 34899:0.35965991 35411:0.10655356 35964:0.12846428 36269:0.12804295 38853:0.18279742 #
-0.15775835986156092 13899:0.84526181 28281:0.53435242 #
-1.0000000001676255 5988:0.2812748 13879:0.6414026 34209:0.71378374 #
-1.0000000001676255 9084:0.56304324 25059:0.48358676 36307:0.67016876 #
1.0000000001676255 5889:0.45360675 6387:0.27905384 7493:0.6384117 15782:0.21873112 35600:0.46967533 39620:0.2009034 #
1.0000000001676255 8800:0.30938503 11618:0.22070116 16295:0.17578398 18230:0.25971907 19355:0.14071609 19757:0.4118917 26615:0.45921385 27973:0.34549963 28872:0.33797854 28879:0.23270226 38576:0.26293513 #
1.0000000001676255 7429:0.12460284 9069:0.3267765 10634:0.30843872 12320:0.20617568 12540:0.19621301 16111:0.38957071 18594:0.30843872 25457:0.26097956 27331:0.11147496 30769:0.24104908 32387:0.29601386 39150:0.38957071 39879:0.27679929 #
0.11100228197472527 3815:0.30095962 4181:0.32642129 5182:0.42611557 13632:0.55099595 15189:0.23833843 16403:0.2903921 16609:0.15605323 18587:0.18321244 22698:0.21232438 32437:0.20867409 38827:0.17327069 #
-0.18881421153054173 1044:0.18075556 1714:0.18900315 4022:0.2804547 5841:0.065307394 5868:0.10159166 5979:0.12707424 9345:0.15840858 12933:0.074863136 13073:0.20310253 13410:0.12393864 16028:0.40636665 18083:0.14942122 19518:0.086745121 19958:0.10159166 22943:0.1235277 24582:0.096805118 25059:0.077563375 25558:0.1703648 26867:0.12707424 28430:0.17490378 28909:0.082166158 29154:0.18900315 29179:0.32704118 30982:0.086678535 31816:0.12707424 34052:0.089375727 34451:0.12806667 36021:0.12158898 36637:0.10555089 37250:0.11757448 37450:0.20310253 37726:0.18075556 38609:0.12522377 39890:0.14320941 41134:0.086218461 41190:0.26156572 #
-0.21509451571418431 14442:0.28825063 29563:0.77615571 29790:0.26323092 36956:0.18852517 37957:0.45788825 #
-1.0000000001676255 6168:0.51349956 8349:0.42445031 15798:0.4413498 18650:0.35606736 36220:0.43083957 36956:0.22127765 #
-0.019519478917057621 9338:0.2276879 12933:0.13202249 14778:0.30844599 17147:0.1804001 18205:0.19636193 19890:0.29390121 19900:0.35817498 20486:0.18859465 21494:0.30044141 23923:0.36496043 30677:0.2835815 30687:0.35817498 35242:0.10496399 36735:0.2665813 #
-0.29777659250936223 8349:0.12204705 13081:0.1615061 13879:0.12705933 14145:0.23312767 14242:0.46625534 15618:0.21089904 19367:0.19271451 19518:0.11187866 20308:0.12374865 20369:0.21972631 21530:0.26194948 22601:0.23312767 23014:0.13701513 24606:0.21089904 26588:0.14666229 29583:0.19675863 29790:0.088839389 31101:0.24376494 31495:0.17271999 31944:0.23312767 33532:0.19675863 33716:0.19271451 40718:0.19904134 #
-0.6029200034139619 8416:1 #
1.0000000001676255 5988:0.28209943 19293:0.63870251 34209:0.7158764 #
1.0000000001676255 5988:0.23061378 15143:0.56253988 17303:0.5365451 34209:0.58522266 #
1.0000000001676255 1867:0.33538157 11666:0.47180822 14336:0.48108652 18742:0.29070377 28916:0.47628155 34209:0.34945548 #
1.0000000001676255 5988:0.12659846 13293:0.17910524 14442:0.22103482 25930:0.55385107 34209:0.32126564 35411:0.2337227 38340:0.27964884 40670:0.31233576 41514:0.51253456 #
-1.0000000001676255 5988:0.36662295 34209:0.93036962 #
-0.13715653593349433 5988:0.080230579 15384:0.27244604 17671:0.30367419 17678:0.20515704 18952:0.27488402 22685:0.28331336 26150:0.25558734 26935:0.3509979 33488:0.37718186 33663:0.19696704 37253:0.21510775 38031:0.46189088 #
-0.022823478101021949 31499:1 #
-0.42687874230481843 17494:0.738249 19293:0.44906148 34209:0.50332123 #
1.0000000001676255 8416:0.35838878 9084:0.39338827 16553:0.4576197 34176:0.71231127 #
1.0000000001676255 4454:0.43034557 5676:0.30814075 6623:0.14762357 8416:0.26826689 8927:0.26659533 9084:0.44169796 15189:0.21517278 15235:0.21322146 17739:0.11084253 20360:0.22062157 22537:0.13042191 36209:0.22573368 37791:0.22573368 39993:0.20488711 40185:0.21517278 #
1.0000000001676255 6458:0.30564547 8416:0.32806742 9370:0.60183549 35888:0.51272577 38009:0.41696393 #
1.0000000001676255 5841:0.18579578 8349:0.2692146 12556:0.35752633 15154:0.36731064 19287:0.38498285 19955:0.23360671 20387:0.32644227 20418:0.33195782 20660:0.22827002 20890:0.19549315 21769:0.34697554 #
1.0000000001676255 8351:0.2812025 13808:0.28997687 13879:0.2983835 23431:0.32902002 26325:0.47329655 26371:0.27424964 31122:0.20150279 40898:0.54747224 #
-0.19783003676794969 4814:0.49464896 6645:0.62470222 23898:0.40926632 39140:0.44448915 #
-0.38652541177825966 9392:0.40904301 11666:0.54484576 14871:0.46955782 25009:0.56155354 #
-0.58251048775510994 9370:0.56973338 20418:0.44046292 34924:0.33596084 35432:0.36460379 38405:0.48537683 #
-0.4852366166294666 10125:0.25628307 13650:0.28126082 14336:0.75940597 23949:0.2509267 28093:0.29282385 38976:0.36028311 #
-0.13265524710611226 4800:0.076941498 9978:0.20571311 11349:0.19744882 11457:0.15229775 11778:0.19416907 13808:0.11560458 16815:0.34093031 17054:0.28178734 17085:0.22421302 19597:0.16521944 20431:0.18868832 20946:0.19744882 22475:0.18868832 25478:0.35428855 25975:0.34093031 33271:0.20571311 37155:0.20123501 40504:0.24524346 40696:0.24524346 41257:0.10129324 #
0.39902668354808318 4350:0.40415722 7994:0.34993961 15076:0.23551579 16609:0.22047411 19518:0.22131798 20596:0.37764665 25556:0.26026693 27331:0.14827845 34209:0.55942512 36956:0.12586571 #
1.0000000001676255 5988:0.15748745 6894:0.63758886 34209:0.39965186 36541:0.41009024 37093:0.49069598 #
-0.92963828497623924 366:0.14326034 444:0.159044 737:0.21281277 1408:0.16819425 5988:0.066402726 8349:0.14544758 9231:0.16549993 10034:0.11109968 16258:0.43702605 16599:0.21553317 16642:0.18345237 17626:0.17046316 19355:0.10664917 20020:0.2778261 20470:0.16757512 20890:0.10561837 22470:0.3017543 23789:0.1360034 24897:0.17979549 27538:0.12230144 29790:0.1058729 30784:0.16979793 30982:0.13322723 32983:0.18804359 34209:0.16850847 36735:0.23234385 40367:0.23448388 #
-1.0000000001676255 5988:0.49700537 14442:0.86774749 #
-1.0000000001676255 14442:1 #
1.0000000001676255 2280:0.26869845 6623:0.14878815 9231:0.17693311 13650:0.18370868 13795:0.20880949 14223:0.18188174 14229:0.20650342 15188:0.27994493 18578:0.23532297 18837:0.20961495 19548:0.16287336 22282:0.17818278 22403:0.17818278 23205:0.33373985 23928:0.14698793 25589:0.2235776 26959:0.15485577 31561:0.208023 34216:0.22751446 36808:0.33373985 36895:0.170788 39620:0.10502544 #
1.0000000001676255 15596:0.55034477 31291:0.47967678 40683:0.68339652 #
1.0000000001676255 2621:0.10987914 2754:0.085092798 4800:0.048890244 5124:0.11464521 5841:0.050107878 6127:0.087248899 6367:0.1233791 7429:0.14952779 8163:0.055892587 8512:0.20138851 9174:0.096422456 10710:0.072605371 10957:0.088243306 11208:0.13868685 11388:0.061825205 11571:0.22144592 11926:0.15583284 13293:0.14068547 14004:0.078597799 14052:0.11840902 14061:0.14501493 14280:0.095743783 14291:0.12546313 15240:0.094778098 19203:0.1483824 19550:0.1233791 19798:0.07186906 20277:0.11705104 20741:0.10854819 20794:0.088659517 20890:0.10544638 21501:0.10327963 21505:0.082472689 22899:0.10689735 23831:0.15583284 24582:0.074274883 25056:0.07049311 25061:0.1233791 25130:0.059061814 25304:0.078487501 27095:0.13071443 27803:0.07089331 29034:0.13868685 30780:0.14501493 30892:0.064143099 30913:0.091171153 31122:0.10209025 31244:0.096079431 31880:0.076920271 32421:0.094165981 33304:0.15583284 35606:0.089526795 36073:0.11072296 36307:0.082472689 36335:0.09865582 38827:0.073617652 40028:0.13868685 41624:0.52285773 41637:0.12786895 #
1.0000000001676255 4857:0.35359463 4859:0.30987939 7813:0.2276922 7900:0.23373276 8398:0.2708509 8416:0.1609426 9392:0.21738192 14867:0.21027154 21324:0.25940365 23412:0.20124793 23949:0.19511406 24098:0.39730987 30982:0.16956085 31323:0.19413754 36220:0.18790047 38048:0.21870109 41134:0.16866085 #
1.0000000001676255 8044:0.67583126 15596:0.2399511 19355:0.24811058 32457:0.52927727 36956:0.17640263 37979:0.33595297 #
-1.0000000001676255 15143:0.23501417 16553:0.23427655 16642:0.13308632 16685:0.24313623 17303:0.22415423 18095:0.37165752 19355:0.15473822 23261:0.3300924 24445:0.27925971 26657:0.45293602 31323:0.22131816 32785:0.2205008 35927:0.33322209 #
-0.045398837042994036 5841:0.19745426 6458:0.23174801 10310:0.26349226 10315:0.22169168 11867:0.378609 15189:0.39903539 15782:0.21039201 22063:0.28377548 25728:0.37472346 33920:0.32443392 36541:0.3401278 #
-0.75268286239889859 35667:0.8371281 39620:0.54700691 #
-0.042576060233350289 7870:0.4072319 15316:0.91332477 #
-0.51345499057008137 14190:0.47341993 14871:0.64920574 34038:0.59531963 #
1.0000000001676255 5988:0.22782728 11388:0.42493564 14442:0.39777547 41013:0.78057611 #
-0.20920248937985228 1867:0.26500285 6163:0.23544802 12445:0.4118464 19293:0.49271268 21693:0.25622061 22537:0.20148063 23661:0.37280083 24765:0.25948027 27331:0.14637579 30639:0.23833507 35853:0.12842037 38934:0.23383611 #
1.0000000001676255 5988:0.27986935 14442:0.4886384 36745:0.82638109 #
1.0000000001676255 5988:0.1437723 12432:0.52003634 14442:0.50203907 18750:0.6759057 #
1.0000000001676255 5988:0.27247104 14442:0.47572133 40985:0.83633053 #
-1.0000000001676255 5988:0.49700537 14442:0.86774749 #
-1.0000000001676255 14442:1 #
-0.18920217107516554 10310:0.34016448 16295:0.33832714 18587:0.39599839 29902:0.54381168 41450:0.56327349 #
1.0000000001676255 16642:1 #
1.0000000001676255 12540:0.40849489 18742:0.36419079 32089:0.53477389 38983:0.59107661 39620:0.25522992 #
1.0000000001676255 2599:0.29032591 4782:0.098701835 7776:0.29032591 8351:0.13271475 8894:0.142939 9248:0.13597912 9438:0.18865909 10034:0.20664832 10178:0.12743489 11264:0.16850466 12933:0.10701347 16424:0.19791865 20236:0.2018013 21348:0.14168628 22063:0.13416559 23845:0.15760982 24837:0.11604141 25082:0.20471141 25532:0.20794548 27331:0.083076246 27538:0.11374194 28603:0.17837641 29209:0.15671508 30974:0.18234757 30982:0.12390306 31560:0.15822199 32221:0.21359089 34705:0.19559129 34924:0.12722109 34969:0.2382275 35559:0.19241613 35563:0.13526815 35853:0.072885565 35935:0.11699967 39620:0.0913634 #
1.0000000001676255 8349:0.17341819 10310:0.15971042 12495:0.25698173 14991:0.37220731 15546:0.20284575 18944:0.33125407 22223:0.37220731 25363:0.25221646 27088:0.14061841 32356:0.26885283 35667:0.17925467 36956:0.090407692 40456:0.50443292 #
1.0000000001676255 205:0.10655659 936:0.097948574 2451:0.1881731 4237:0.31568363 5299:0.1881731 6761:0.11913003 7512:0.13079637 8508:0.3240943 8512:0.16212201 9299:0.16746877 9933:0.14676446 10572:0.12751053 11601:0.099248804 11634:0.10631023 12866:0.11165045 12870:0.20027317 13705:0.057933878 13840:0.15784182 14339:0.11685669 14604:0.20276918 16642:0.055290956 19418:0.1881731 22537:0.074116118 22736:0.10101139 24525:0.12407452 24759:0.10757554 25193:0.10810644 25370:0.086018316 30956:0.10064544 32251:0.13843772 32780:0.1881731 33730:0.17511013 35176:0.1881731 35432:0.17897542 35434:0.14298263 35853:0.094480731 36956:0.045706503 36971:0.078713506 37784:0.1881731 37932:0.1881731 38915:0.078657001 39282:0.082115591 39584:0.085769795 39620:0.17765002 #
-0.51914334930641926 11729:0.69670457 16642:0.26607108 28916:0.66618985 #
-0.27936701140393205 40985:0.54669434 41147:0.83733225 #
-0.52074842142879718 3661:0.58701396 12870:0.38652536 40985:0.71134573 #
-0.2614737669844206 181:0.10802186 2700:0.16937487 3518:0.094810203 4156:0.30135977 4157:0.19031484 4651:0.11500262 4653:0.14843489 5886:0.13055111 5982:0.19031484 5988:0.040481985 5998:0.19031484 8385:0.11652827 9365:0.16389154 9375:0.14142592 11744:0.08007291 13387:0.19031484 13705:0.058593269 14693:0.16937487 14916:0.085381106 15978:0.16389154 16028:0.095195279 18754:0.11818673 18988:0.066831954 19293:0.18331087 21249:0.17710319 22774:0.15963835 22946:0.12048595 24604:0.19031484 25457:0.12749493 26683:0.19031484 27331:0.10891651 30339:0.14642669 31312:0.19031484 32483:0.15963835 33663:0.099383757 35312:0.15322505 35853:0.047778048 36956:0.046226729 37377:0.08389125 37388:0.16937487 37393:0.15322505 37731:0.15322505 38295:0.14295156 38449:0.14295156 38626:0.19031484 39451:0.11907342 #
-0.19116445638121593 619:0.15542807 1048:0.26172504 5107:0.11986486 6898:0.075509742 6983:0.20915733 9002:0.18614416 9998:0.11466612 10034:0.074437052 13293:0.062942222 13394:0.17544363 13454:0.15892743 15089:0.16559824 19085:0.16839539 21884:0.13935599 23908:0.19463763 24183:0.085340947 24230:0.20915733 24374:0.2409268 24853:0.14258505 24901:0.067665294 26278:0.090029441 29549:0.20915733 31686:0.17162445 34432:0.20915733 34619:0.15542807 35667:0.10072996 36646:0.18614416 36745:0.52546918 37562:0.11398669 #
1.0000000001676255 5182:0.41952693 14442:0.40232527 16610:0.81371462 #
1.0000000001676255 5988:0.14150025 14442:0.49410528 24235:0.47265774 27202:0.48480463 40464:0.5266847 #
-0.27889240546835953 5988:0.23232508 17678:0.59407675 38241:0.77012849 #
-0.53238066981481824 902:0.11456834 1068:0.20746394 1852:0.094718844 5406:0.16745453 5543:0.1740157 9248:0.22567068 9821:0.13078448 11388:0.095579617 11721:0.22418804 12387:0.20746394 12870:0.085467838 13913:0.11728218 17257:0.16139087 19859:0.13739282 20642:0.14422403 21844:0.13642108 22934:0.08722046 24004:0.24370831 24188:0.14604586 26676:0.19396164 26786:0.15729158 28721:0.15314521 28909:0.097462237 29613:0.15582883 30612:0.16986933 30613:0.24091217 33710:0.15190761 34052:0.21202788 36307:0.12749991 36956:0.058516614 38037:0.13429525 38366:0.16863173 38468:0.17117386 39140:0.23371026 39745:0.20746394 40240:0.14212464 40727:0.15654913 #
1.0000000001676255 5988:0.24804464 14442:0.433074 22148:0.86655682 #
-1.0000000001676255 5988:0.49700537 14442:0.86774749 #
-0.089412631419775263 5750:0.24652097 9758:0.29481933 14916:0.1760876 15235:0.25274068 18813:0.32923365 22452:0.39250004 27471:0.32206666 27770:0.21975596 29194:0.18665755 34978:0.39250004 40708:0.39250004 #
-1.0000000001676255 5988:0.62519723 6835:0.78046679 #
-0.40817765164108821 5988:0.20446996 24183:0.39221549 33460:0.47448471 40464:0.76106721 #
1.0000000001676255 5837:0.25596935 6382:0.25596935 10844:0.30022973 17819:0.4084574 19198:0.48134533 28061:0.48694763 35126:0.30022973 36220:0.23029301 #
1.0000000001676255 7759:0.29930106 8465:0.36475575 9892:0.21971714 15782:0.12497176 16522:0.27715832 24803:0.23702495 31540:0.180751 32018:0.19652443 33642:0.36475575 35853:0.091570981 36956:0.088597737 38135:0.36475575 40985:0.47629812 #
1.0000000001676255 902:0.13611692 3518:0.14258987 4800:0.08979857 6027:0.23486176 6103:0.19761668 6458:0.10801965 8816:0.16885614 10310:0.1228159 10315:0.10333231 11744:0.12042569 12059:0.177747 14604:0.15421288 15546:0.15598659 15596:0.094568044 17321:0.14758785 17494:0.2266151 18072:0.16097006 19716:0.21499209 20273:0.28622413 21725:0.23486176 26867:0.17908055 34187:0.18872581 34215:0.15364522 34647:0.16885614 37234:0.28954619 37696:0.24648477 38933:0.2266151 39418:0.16362973 39941:0.25473145 #
1.0000000001676255 5375:0.29558775 6168:0.38337317 6606:0.57050997 9072:0.44196779 12870:0.24129187 14867:0.35995635 18988:0.23884173 #
1.0000000001676255 4800:0.26647887 6163:0.19547284 6382:0.22324167 6493:0.31899643 6934:0.21420074 8934:0.3952058 27088:0.32089049 35667:0.20452911 36421:0.36572397 37143:0.50848538 #
-0.31443263451104037 4800:1 #
-1.0000000001676255 7429:0.33680835 7994:0.35556361 16610:0.79096538 20741:0.36675394 #
-0.9010851482068073 6382:0.45253509 16295:0.36740309 16522:0.6541425 38747:0.48200056 #
-0.40601036331331103 4969:0.37578207 5988:0.17670041 22900:0.52591085 24915:0.52591085 33826:0.48341173 36956:0.20177571 #
1.0000000001676255 5988:0.11217663 6387:0.23051566 13879:0.25580105 16324:0.37185147 20964:0.2795853 23845:0.286293 25370:0.24107194 26959:0.24469924 32369:0.43273234 33524:0.37470713 35452:0.3274985 35853:0.13239421 #
1.0000000001676255 5988:0.2527867 7994:0.20063709 13950:0.38795543 14190:0.2721532 15343:0.55295378 17085:0.27162421 21003:0.35465237 27118:0.3809461 36956:0.14432965 #
1.0000000001676255 3741:0.88299394 5988:0.23328657 14442:0.40730715 #
-0.34696888037220558 26452:0.67677516 27538:0.37879014 34056:0.63126338 #
-0.06012836347357723 4800:0.15899642 11574:0.39526421 17129:0.23941265 17739:0.16964269 18797:0.31830123 21294:0.38066277 25911:0.29491234 36430:0.33950359 38035:0.45102483 41410:0.28374296 #
1.0000000001676255 12870:0.12992431 14190:0.16773543 16553:0.18942548 19548:0.17872629 21819:0.34080046 22785:0.31537721 29256:0.34080046 30172:0.22060139 34185:0.34080046 36113:0.21146066 36155:0.36622369 37772:0.23910749 39512:0.39317805 #
-1.0000000001676255 6163:0.76074123 35411:0.6490553 #
-1.0000000001676255 169:0.28341109 612:0.28196889 2618:0.35679424 3539:0.45558861 8894:0.24103722 9623:0.22905865 10034:0.17423493 10718:0.28341109 16609:0.20830023 22934:0.17724696 23862:0.2792058 24378:0.19883625 39993:0.30292726 #
1.0000000001676255 38747:1 #
1.0000000001676255 20225:0.68756199 38747:0.72612566 #
1.0000000001676255 1175:0.24021979 7406:0.2148362 7994:0.26026252 10583:0.26272807 11195:0.24301122 15013:0.33188635 16642:0.11324058 19448:0.32327345 21693:0.19303738 24839:0.38539448 25681:0.22672309 33460:0.19023365 39350:0.22609547 41052:0.34867689 41134:0.16360268 #
1.0000000001676255 902:0.30148223 3518:0.31581903 6835:0.33667621 10606:0.51040268 19547:0.41592261 24901:0.205092 25216:0.38431415 37051:0.26972827 #
1.0000000001676255 171:0.26967266 3349:0.29724184 6835:0.26123506 7468:0.33961922 10315:0.17758438 11744:0.20696066 13246:0.23392722 16256:0.22356713 19355:0.16804887 19596:0.3243396 22698:0.2847558 26686:0.1855417 30135:0.29917404 35853:0.12348966 36116:0.31400782 39620:0.15479657 #
-0.94173455997951439 38747:1 #
1.0000000001676255 6163:0.37404403 10828:0.60389608 24225:0.44375134 31323:0.39708737 35411:0.31912988 36956:0.19739054 #
1.0000000001676255 4506:0.287606 4800:0.090232119 5988:0.061176844 6127:0.16102707 6163:0.13237768 6493:0.21603006 7429:0.18397957 11424:0.26764038 11722:0.14465486 14344:0.23599567 15546:0.15673968 15846:0.23155546 15980:0.22431654 16733:0.14252023 17739:0.096273981 20850:0.16211416 31996:0.20960258 34094:0.287606 34564:0.24767479 35033:0.26764038 35853:0.21660821 35927:0.21158986 36307:0.15221207 36956:0.069858365 38741:0.21603006 40670:0.15093167 #
1.0000000001676255 1867:0.11290858 4800:0.068378225 5988:0.092720069 7341:0.20281886 7994:0.073592022 8167:0.11809215 8950:0.16998789 9072:0.14162715 9080:0.17255884 9181:0.19396837 10834:0.37537771 10896:0.095346078 12870:0.077321202 12933:0.080335461 14540:0.16370836 15467:0.23109239 15493:0.18281808 16295:0.093014538 17413:0.19396837 18599:0.17883837 19345:0.10558943 19870:0.14857836 21880:0.24859357 23264:0.20281886 26061:0.2143361 26959:0.10112859 27331:0.062365681 30669:0.093446791 33057:0.15255807 33077:0.21794887 34477:0.20281886 35242:0.063870408 35431:0.21794887 35853:0.10943099 39620:0.20576066 40185:0.14162715 #
1.0000000001676255 2701:0.67513704 6163:0.43020862 10636:0.55140775 35853:0.23464862 #
1.0000000001676255 6163:0.31986323 6177:0.69494021 13778:0.55021203 35667:0.33468249 #
-0.19958131423657283 6458:0.12086127 6623:0.14277458 7115:0.22260186 7994:0.10813511 10310:0.13741653 13952:0.26278266 14199:0.42022052 14442:0.11893564 15546:0.17453063 16642:0.094099469 22314:0.23339379 27331:0.09163928 27717:0.29801926 30235:0.22260186 34123:0.32025108 35622:0.32025108 35853:0.080398202 36649:0.19230944 36666:0.29801926 36691:0.20274696 36956:0.077787727 #
-0.10859697602252857 14801:0.44283351 15782:0.16304088 19140:0.35743988 19448:0.3991639 19798:0.21946724 22625:0.26036394 24200:0.37676397 26488:0.28235123 27331:0.13616885 33681:0.36612916 #
-0.29765742191352851 6254:0.26834211 9623:0.20290707 10315:0.15656675 10527:0.38596323 10549:0.38596323 24141:0.30814019 25812:0.31605911 25831:0.3491618 26805:0.29749355 31606:0.3014448 39888:0.26123506 #
-1.0000000001676255 169:0.071607865 173:0.064387798 293:0.06274645 444:0.063020743 498:0.0680902 552:0.13304648 727:0.068806507 2627:0.10375942 2669:0.087890454 2745:0.10652386 3488:0.057753485 3518:0.12324674 5133:0.096477568 5375:0.16127683 5527:0.12369809 5613:0.079652332 6123:0.078633517 6168:0.069724597 6934:0.062389918 7994:0.04176756 8812:0.077393621 9055:0.066042066 9259:0.20751885 9287:0.084853731 9392:0.067679487 9814:0.30450213 10150:0.08934962 10178:0.054295719 10244:0.10375942 10688:0.10150071 11567:0.12369809 11744:0.05204463 11793:0.072175376 12870:0.04388408 13267:0.12369809 13293:0.037224766 13348:0.084853731 13632:0.09291359 13852:0.087890454 14229:0.076538898 14867:0.065465748 15445:0.10652386 15546:0.13482612 15782:0.084762305 16295:0.052790921 16609:0.05263003 16624:0.10150071 17262:0.11511097 17263:0.11008783 17615:0.09399154 18076:0.11511097 19198:0.061137479 20148:0.096477568 20157:0.080762498 20457:0.068514995 20470:0.066401184 20890:0.041850988 22537:0.097442433 23171:0.12369809 23260:0.072175376 23826:0.099591002 23857:0.097936735 23900:0.11511097 24188:0.074988306 25165:0.085980743 27560:0.097936735 27948:0.11511097 28879:0.069884449 30677:0.097936735 30769:0.076538898 31697:0.12369809 31845:0.10804885 31952:0.095172301 32420:0.12369809 32479:0.088598564 33215:0.10150071 34864:0.065242529 35853:0.031054085 35922:0.083334856 36591:0.075233631 36630:0.087890454 36706:0.076000176 37051:0.26315016 37143:0.07405287 37436:0.082416765 37713:0.095172301 38296:0.067545556 38339:0.12369809 38366:0.086585186 38516:0.088598564 39293:0.067152239 40185:0.16076256 40206:0.087220632 40465:0.10150071 41052:0.055956516 41087:0.091003887 41183:0.17317036 41257:0.051091194 #
-1.0000000001676255 14065:0.25606039 15143:0.20349459 15798:0.19000347 19180:0.16561835 19547:0.25730744 19961:0.25254056 20626:0.29800355 25059:0.14977421 25310:0.23338433 29782:0.22822565 30554:0.31575686 33404:0.24632578 33439:0.39218923 38492:0.27653614 39329:0.3017472 #
1.0000000001676255 874:0.29487437 3114:0.23937918 5988:0.086065188 8349:0.18851596 8512:0.17429817 10310:0.1736148 10792:0.55510646 15583:0.19135371 16014:0.23130997 16733:0.20050119 19355:0.13822897 20890:0.13689294 25130:0.15335083 30908:0.2236414 30913:0.23672101 37274:0.30391675 38357:0.23245153 #
1.0000000001676255 4937:0.17467836 5096:0.1838349 7647:0.19178453 8163:0.098962486 13890:0.1623176 14223:0.15036835 14228:0.27591506 15136:0.15851465 15888:0.21845299 16642:0.081072196 17428:0.1367269 17918:0.1726305 19404:0.22214292 20288:0.18102229 22282:0.44193083 22285:0.25676101 22290:0.20503676 23845:0.14978656 24837:0.11028148 25979:0.13136171 27331:0.078952603 27806:0.27591506 30669:0.11830012 31561:0.17198028 36895:0.14119674 36896:0.19929898 37073:0.11525083 #
1.0000000001676255 1852:0.11519427 5194:0.17334098 5841:0.094210699 5988:0.12464428 7257:0.13539685 9390:0.20365328 10152:0.17819776 11091:0.2726509 12933:0.10799555 13881:0.2457637 14495:0.29299027 14498:0.2457637 15418:0.17284779 15440:0.12671737 16658:0.13980666 19518:0.1251362 20660:0.11574794 24432:0.13902412 24445:0.18064445 27331:0.083838649 27561:0.15038627 31810:0.2081766 31908:0.29299027 35853:0.073554449 36895:0.29986966 36896:0.21163276 36900:0.17487228 38560:0.17761667 38915:0.12247094 40901:0.15967402 #
1.0000000001676255 5231:0.28376618 5970:0.21847779 9415:0.18646504 11357:0.27328357 14059:0.26059192 14065:0.23754399 22907:0.27645412 23898:0.32498342 29152:0.36382899 31406:0.23533493 32030:0.26766661 33574:0.19986425 35853:0.091338322 37088:0.21985297 39282:0.15876889 39680:0.27328357 #
1.0000000001676255 12627:0.39628172 13913:0.2794216 19548:0.28011003 23523:0.24705754 23928:0.25279021 24257:0.30589432 29865:0.39372644 29894:0.36486429 35411:0.22539708 40049:0.3591111 #
-0.23609310812125486 874:0.69580698 10034:0.33978656 37093:0.63276988 #
-0.88481354076818242 3202:0.10415161 5140:0.086749703 8163:0.071418412 8582:0.17147422 9385:0.15530245 10204:0.1178048 11195:0.12555552 11780:0.12711024 12627:0.41243318 12829:0.11328733 14442:0.073949695 19548:0.19435108 20117:0.17721124 20890:0.20210586 23923:0.50723064 23928:0.17539555 24759:0.11383373 25059:0.076042488 25363:0.13492844 25430:0.14382841 26371:0.088771842 26686:0.075107209 27126:0.15320133 27331:0.056977846 28138:0.14147955 30135:0.12110553 30950:0.18529713 32118:0.19912004 35814:0.11957075 35853:0.049988568 35899:0.10851655 36857:0.11052361 37028:0.078240998 37282:0.14382841 37979:0.092110448 41052:0.090074658 #
-0.72389337316489144 1407:0.25645122 4954:0.25343484 11722:0.22562325 12870:0.15914491 15440:0.19401339 15627:0.24846853 16658:0.21405403 19355:0.15325318 20660:0.17721841 22148:0.33335358 22934:0.16240837 27561:0.23025218 29597:0.44858915 31883:0.38630706 36895:0.22956099 #
-0.66099840795667564 2427:0.14315858 4800:0.048264395 4833:0.10693056 4902:0.090755783 5140:0.067021891 5988:0.03272298 6163:0.07080771 6329:0.08242999 7498:0.098626159 7537:0.083354697 8542:0.15383802 11354:0.069919243 11741:0.1940057 11750:0.13691153 12484:0.14315858 12990:0.11317763 13023:0.15383802 13293:0.046294846 13808:0.072517246 15795:0.10930559 16658:0.073407143 17473:0.087524585 17935:0.12385707 18114:0.12385707 18208:0.15383802 18988:0.054022562 19798:0.14189813 20741:0.10715865 21693:0.077054776 22148:0.34295827 22163:0.12904115 22282:0.24640107 22403:0.16426738 22407:0.22422929 22934:0.055695914 23330:0.11431942 23928:0.067754366 24924:0.084170081 25488:0.099506803 25979:0.073241472 25983:0.18363753 26061:0.075643986 27084:0.30767605 27196:0.088827372 28281:0.090501115 29300:0.17151244 29725:0.087946728 29790:0.052173711 30828:0.12004621 30982:0.065653808 31560:0.083838731 31880:0.07593561 33595:0.13247916 35606:0.17676152 35773:0.084170081 35853:0.077241272 36284:0.11211465 36896:0.11112029 36956:0.037366647 37344:0.11998502 39915:0.12179972 #
-0.25449754444491851 4785:0.22228238 5841:0.10211075 16780:0.24129607 17073:0.26057369 17303:0.1571573 17739:0.10630054 19548:0.15497673 19746:0.25567105 21388:0.28261864 23005:0.22745116 24524:0.13767515 29258:0.22937927 29455:0.31755903 30986:0.23852874 34048:0.31755903 34749:0.29551411 39839:0.24432732 39847:0.28261864 #
1.0000000001676255 181:0.1107149 902:0.092762612 2734:0.12348972 3518:0.19434774 3625:0.13067344 4969:0.088237815 5140:0.084980659 5988:0.12447367 6315:0.15213546 7429:0.062389106 8416:0.079014853 8812:0.12204199 9372:0.076062277 9992:0.18151847 11634:0.22040156 11744:0.082069166 12870:0.069200791 15146:0.16361821 15524:0.1123438 15596:0.064447381 15782:0.066830829 15906:0.16797744 16658:0.093076862 17371:0.17359747 17739:0.06529472 18113:0.10509486 18230:0.24599025 18650:0.076239876 19702:0.11786969 23259:0.19505949 23461:0.12069417 25059:0.074491799 26686:0.073575586 26771:0.13141072 27331:0.055815928 28525:0.17359747 31106:0.19505949 31540:0.09665975 31845:0.085191101 33306:0.11749757 34726:0.11824904 35242:0.17148787 35246:0.14651543 35773:0.10672377 35814:0.11713241 35853:0.097938359 36932:0.16005644 37813:0.19505949 38264:0.17956179 38417:0.22824198 38827:0.092148878 39149:0.092453331 39282:0.0851207 41134:0.082804136 41223:0.16361821 41273:0.18151847 #
1.0000000001676255 181:0.17182811 727:0.16839211 3518:0.15081261 4943:0.21866785 5375:0.13156579 5847:0.26069885 8416:0.12263005 9084:0.13460585 12870:0.10739875 13751:0.1894076 14875:0.18235473 15381:0.18799716 17678:0.16466105 24399:0.23968334 25556:0.15205029 26686:0.22837676 28093:0.17348984 28116:0.17348984 29122:0.24373189 32965:0.20394777 36307:0.16021618 36354:0.1680333 36561:0.28171435 37051:0.12880296 38407:0.20637457 39813:0.28171435 40061:0.21042311 #
1.0000000001676255 181:0.12807517 710:0.19431657 5033:0.20081784 6135:0.1396192 6143:0.20998085 6458:0.17031483 6973:0.16298801 7253:0.10245831 8349:0.10513219 8351:0.10314766 9372:0.087988965 10101:0.16948928 11454:0.28235671 13748:0.11067166 13800:0.14012706 14339:0.14012706 15782:0.077310011 16485:0.16161796 17538:0.18927379 19180:0.095288113 19355:0.077087983 20784:0.18515356 25059:0.086172231 25975:0.15684263 28331:0.16600566 28549:0.14172293 31356:0.13679066 31495:0.14878222 31527:0.12345823 31845:0.098549202 32808:0.15034138 33039:0.14117835 33617:0.20998085 33915:0.15290247 34023:0.20081784 35242:0.06612581 35411:0.088610984 36560:0.11512921 36571:0.15910441 36755:0.11983468 38449:0.16948928 39475:0.19431657 40261:0.15478678 40501:0.13349776 #
1.0000000001676255 181:0.18502843 566:0.21283658 4771:0.32598642 5930:0.15908951 7994:0.11007169 8337:0.16008799 8351:0.14901601 10034:0.11601538 10710:0.15188304 10932:0.29011878 11388:0.12933202 13053:0.20319021 15782:0.11168871 18352:0.2208961 19961:0.2099109 20660:0.1287833 25056:0.14746439 27331:0.093280435 29067:0.19286239 30719:0.22658841 31836:0.12997064 34052:0.14345106 35964:0.15433894 36735:0.12131205 37250:0.188711 38407:0.22222885 38538:0.17107318 40692:0.1989257 40764:0.24769959 41257:0.13464262 #
1.0000000001676255 31845:0.873936 36956:0.48604107 #
-0.057169885098020373 4828:0.18057358 5987:0.18707825 9005:0.23534459 9436:0.20066637 11742:0.27149752 17142:0.20690688 18864:0.29589653 23919:0.28100762 26394:0.25729087 28650:0.36457467 31435:0.33613697 35853:0.10284091 39350:0.48064733 #
-0.30641539394258061 935:0.16133887 5267:0.26815861 6024:0.21895951 6060:0.13159856 13439:0.23200382 13454:0.21895951 16330:0.18170165 17690:0.19199529 18988:0.10119278 20104:0.20318623 20741:0.10036253 23483:0.23200382 24188:0.1746902 24607:0.28816289 28190:0.18474235 28205:0.21644835 30172:0.17358007 30173:0.25645688 32948:0.22171016 33854:0.24171443 35016:0.17704743 36971:0.12053961 38558:0.21000843 38928:0.17304061 39993:0.17830242 #
-0.38967254925403244 5234:0.28528494 6982:0.37686992 8637:0.30330449 11354:0.19246343 15136:0.24328156 24524:0.18358882 25592:0.29236981 30963:0.42346269 32715:0.53838116 #
-1.0000000001676255 15782:0.61722159 31845:0.78678936 #
1.0000000001676255 16321:0.38813812 16642:0.17117104 20457:0.32266831 26702:0.54211003 33460:0.28755143 35350:0.5825507 #
1.0000000001676255 612:0.50080055 7649:0.59647286 12870:0.30847979 21491:0.54613113 #
1.0000000001676255 612:0.48304296 7649:0.57532287 12870:0.29754159 21491:0.52676618 39620:0.26393086 #
1.0000000001676255 16295:0.49663395 18587:0.58129013 20457:0.64455914 #
-0.67846006623222688 5370:0.59192443 7649:0.43633541 10034:0.22637507 10896:0.2782664 21491:0.39950913 24257:0.33899814 36735:0.23671021 #
-0.4600834330602217 5104:0.17772682 5182:0.14787588 6308:0.25177836 7018:0.33983621 8163:0.13695836 13705:0.11756239 18957:0.20573479 21491:0.47966442 24257:0.40701282 24288:0.13516492 29209:0.4122383 32568:0.22929962 34052:0.16803417 34924:0.16732726 #
-1.0000000001676255 3340:0.55519766 3343:0.29500914 5182:0.1811835 5988:0.099518493 8416:0.18952055 10125:0.23466426 14190:0.21428561 14442:0.1737545 16609:0.19906057 20457:0.25914168 24837:0.18700011 36647:0.38390231 38048:0.25753501 41134:0.19860931 #
-1.0000000001676255 4782:0.10796577 4937:0.20105293 5195:0.13319294 6060:0.072515324 6135:0.098250747 7253:0.072100438 7555:0.14131653 8247:0.093154326 8349:0.073982067 8993:0.14776459 9449:0.26058701 9662:0.23599513 10315:0.057325333 10373:0.14131653 10445:0.10093955 10896:0.069464818 11470:0.11114687 12619:0.14776459 12831:0.13674156 12866:0.094214909 12869:0.10052647 12870:0.11266542 13879:0.077020392 13881:0.13319294 13890:0.093412913 13913:0.15460373 14223:0.17307235 14248:0.44785035 15424:0.11927047 15440:0.27470058 20385:0.15878764 20387:0.089708634 20569:0.12784207 20775:0.093154326 21491:0.29919347 23017:0.13319294 23028:0.099731155 25059:0.06063984 25911:0.092402868 26371:0.07079082 29790:0.053852357 29810:0.091685325 30917:0.075013533 31103:0.10417736 37073:0.066326231 38068:0.07921049 #
-0.085280438920145279 6060:0.16736382 15098:0.3664785 15122:0.32615557 15994:0.3664785 21657:0.16736382 32154:0.3664785 36745:0.46035478 38012:0.47196954 #
1.0000000001676255 293:0.27461085 4316:0.40663788 13650:0.29799786 13748:0.26552293 23814:0.45410481 24529:0.32508847 29617:0.48180121 31845:0.23643878 #
1.0000000001676255 1:0.43013301 4468:0.30125186 5988:0.10280532 6103:0.33369049 9436:0.23675047 13748:0.23704834 15782:0.16559081 17739:0.16178469 20865:0.48331076 23920:0.25077465 27538:0.18934825 31845:0.21108317 36791:0.24411318 #
1.0000000001676255 11454:0.35888043 13748:0.28133133 18155:0.48114076 22808:0.57359797 31845:0.25051558 32479:0.41083863 #
1.0000000001676255 187:0.21743721 5282:0.24243525 6037:0.37864149 7024:0.40028173 13748:0.26137257 16295:0.22742896 29617:0.47427019 31845:0.23274301 37708:0.43727598 #
1.0000000001676255 64:0.11160941 765:0.11160941 1048:0.069830149 1120:0.11160941 1308:0.11160941 2509:0.093619294 4688:0.18356256 4689:0.18356256 4782:0.037943751 5140:0.097248711 5659:0.22321883 5979:0.069830149 5987:0.10193983 5988:0.023740506 6060:0.10193983 6342:0.06702099 6458:0.042120874 7486:0.051320035 8349:0.10400174 8666:0.088365644 8689:0.055162676 9107:0.20643984 9267:0.089858241 9549:0.048078984 9553:0.11160941 10034:0.11916211 10119:0.081339128 10640:0.079301156 10747:0.10386149 10871:0.076085478 10963:0.14131705 11627:0.049713697 11689:0.076085478 11744:0.04695845 12133:0.063499048 12152:0.089858241 12870:0.039595407 13407:0.061065357 14854:0.20501266 14916:0.050071422 15316:0.075629175 15546:0.060824964 15780:0.070948876 15782:0.076478712 16028:0.11165381 16295:0.047631808 16642:0.098382682 16675:0.11160941 16739:0.10386149 17129:0.052725874 17142:0.056372277 17200:0.11160941 17409:0.081339128 17739:0.037360426 17934:0.054202024 18202:0.080617718 18203:0.075629175 18565:0.069310158 18687:0.058095355 18930:0.064120203 19355:0.038129538 19376:0.1357625 19958:0.055826906 20024:0.093619294 20890:0.037761003 21094:0.069310158 22615:0.13913426 22736:0.059911974 22739:0.14953782 22934:0.04040736 22947:0.17409816 23523:0.048041027 23898:0.049846508 24188:0.0676599 24288:0.039506763 24485:0.1366751 24548:0.079940066 24812:0.14213696 26686:0.084197171 26903:0.07812345 27331:0.031936835 27485:0.10386149 27538:0.17490235 28037:0.085871369 28046:0.09611357 28352:0.064120203 28535:0.11509997 28603:0.068572886 28909:0.045152154 28978:0.099329248 30141:0.089858241 30191:0.067442842 30474:0.067442842 31406:0.07219214 31407:0.069058955 31733:0.10386149 31845:0.19497906 32201:0.058188897 32213:0.088365644 32221:0.082110323 32440:0.075190768 33307:0.067881249 33360:0.052841708 33788:0.084806003 34451:0.070375524 34924:0.048907354 34956:0.11160941 35242:0.032707389 36351:0.079301156 36755:0.059273064 37351:0.058668707 40268:0.048989546 #
-1.0000000001676255 4347:0.41533083 5145:0.31743738 13748:0.48570225 15546:0.26984268 16295:0.21131283 18155:0.41533083 22431:0.36085132 39512:0.26579234 #
-0.76146660901222851 16295:0.63523614 23920:0.77231801 #
-0.10977413976320699 15596:0.53797901 16295:0.6949017 35242:0.47716898 #
-0.36071965010156032 308:0.34497258 378:0.30206403 10034:0.18118079 12870:0.18060927 16728:0.33919436 18532:0.2128021 34924:0.22308451 37411:0.43840948 38483:0.25064614 41127:0.50909173 #
-0.34227921777720638 1941:0.52918488 1949:0.52918488 5375:0.22998267 9288:0.43422368 12870:0.18773766 18587:0.26433837 36113:0.30555582 #
1.0000000001676255 1867:0.082213782 4295:0.15869829 4969:0.071789332 5194:0.093890205 5988:0.033756811 7201:0.12777014 7302:0.088275209 8243:0.15869829 9426:0.15869829 10896:0.069425732 11546:0.10130662 12870:0.056301016 13326:0.14768146 13884:0.133118 13921:0.11920337 14248:0.78329712 15424:0.11920337 15440:0.068636514 17739:0.053123079 19355:0.054216687 19382:0.099675044 20660:0.062694915 21439:0.12777014 21491:0.099675044 23647:0.13666463 24378:0.064453825 24432:0.075302467 24812:0.067368552 26371:0.070750996 27331:0.045411237 28075:0.10218985 31122:0.051983744 33938:0.14123704 39140:0.076977059 39374:0.14123704 40011:0.14123704 41035:0.095297664 #
1.0000000001676255 552:0.41128203 7649:0.52461088 12870:0.27131471 13913:0.37230825 21491:0.48033422 40268:0.33568501 #
1.0000000001676255 552:0.39986488 7649:0.51004767 12870:0.26378304 13913:0.36197299 21491:0.46700019 39620:0.23398571 40268:0.32636639 #
1.0000000001676255 205:0.14115989 5022:0.22185275 5140:0.10860293 6014:0.16891843 6060:0.11384176 6676:0.11384176 8163:0.089409515 8387:0.1443066 9416:0.17711984 9588:0.13666287 10315:0.17999001 10669:0.1800604 10686:0.24928062 12829:0.14182568 14229:0.1542438 14777:0.12369112 16642:0.073246196 19355:0.085162662 19380:0.18724264 19487:0.13666287 19488:0.2045477 20660:0.098480113 21424:0.18724264 21491:0.15656789 22830:0.22185275 26505:0.20069918 27331:0.071331203 28450:0.19179447 28721:0.15846494 28767:0.12590797 29209:0.26911846 31880:0.1230468 32302:0.13081904 36849:0.31313577 37282:0.1800604 39140:0.12091427 #
-0.55358094288687953 12870:1 #
-0.53376554465435166 7563:0.46777487 7649:0.61842585 12936:0.22136499 17590:0.3178381 21685:0.31552246 27612:0.36291659 35242:0.13209756 #
-0.2922791065227609 12:0.19167894 15:0.22136134 910:0.16517879 3286:0.17699148 3293:0.16462171 3380:0.40996942 5841:0.086744651 7649:0.37011239 9248:0.126352 12936:0.13248141 14223:0.1470201 19198:0.13333379 19859:0.15385124 20660:0.1065751 22282:0.14403014 24545:0.13744098 25304:0.13587427 25915:0.26977128 25979:0.12843668 25983:0.16101395 26008:0.26977128 27331:0.15438914 29209:0.14561988 31880:0.13316114 35964:0.12772377 37132:0.16878656 38949:0.21719649 39620:0.084895007 #
-0.6721649454601577 1811:0.63068318 7649:0.43263254 7966:0.46867049 9084:0.28042707 34338:0.34172571 #
1.0000000001676255 5988:0.27460468 14442:0.47944656 15798:0.62543857 16295:0.55095363 #
1.0000000001676255 4347:0.71914297 17229:0.59192693 41134:0.36394492 #
1.0000000001676255 5988:0.089271933 6163:0.19317134 15043:0.37350991 16295:0.35822183 21657:0.19166328 25831:0.3378959 27077:0.25124919 27429:0.30586126 32954:0.23765591 35230:0.31889784 35284:0.21776246 36956:0.10194039 38296:0.22917096 41134:0.17816022 41213:0.28115514 #
1.0000000001676255 1251:0.17008801 2394:0.18716191 4800:0.089936078 8698:0.2551215 9528:0.18998811 10034:0.10202035 18450:0.26676232 21294:0.2153213 21332:0.24045581 22682:0.17674297 22934:0.10378399 23161:0.20368049 24183:0.11696477 24901:0.092739254 29008:0.2866624 30828:0.11184731 34216:0.1954212 36735:0.10667808 36956:0.06962917 37080:0.18627846 37941:0.12668712 38934:0.13104007 39766:0.16552129 41467:0.46867633 41474:0.26676232 #
1.0000000001676255 5104:0.24129336 5265:0.37446862 5344:0.42539445 7994:0.1750499 14550:0.51842475 20890:0.17539953 21997:0.28036773 24892:0.23652661 26959:0.24054985 35432:0.24654239 36735:0.19292574 #
0.36578518159392526 1410:0.2221444 3882:0.26320577 4370:0.23415408 4536:0.21013471 5988:0.062908344 6060:0.1350617 7067:0.1562521 12411:0.27521545 13662:0.2028743 24529:0.17759433 25310:0.17599289 26580:0.20040457 29616:0.27521545 30639:0.13779354 30737:0.1857519 31845:0.25833082 33184:0.18960401 34018:0.21977356 37051:0.25166318 37457:0.29574615 37489:0.17165056 38417:0.17302845 39293:0.16055232 #
-0.43897272033800117 14442:0.56580675 15076:0.69243616 16642:0.44765484 #
-0.0052710609274988721 552:0.25079152 936:0.24274094 5988:0.099195413 10315:0.16835745 11681:0.24120951 12142:0.38265601 13081:0.28752387 13111:0.22930482 13913:0.22702608 17739:0.15610379 19518:0.19917378 20308:0.22030553 26160:0.27917808 26371:0.20790395 27538:0.18269947 36735:0.17354292 37351:0.24513659 37729:0.26407376 39620:0.14675365 #
-0.027957822256682193 1683:0.15567371 1858:0.11769737 12547:0.27032828 14787:0.20131256 15782:0.2081397 16158:0.15363735 17380:0.23690735 18306:0.16020754 18329:0.21261591 19180:0.12827085 19267:0.16652414 19355:0.10377097 19870:0.20706949 21020:0.18932956 24004:0.15363735 24099:0.28266296 27286:0.2141763 31836:0.12110468 34317:0.24924202 35242:0.089014389 35354:0.18598323 35821:0.22346634 37947:0.30374923 39282:0.13255109 40376:0.30374923 #
-0.046139680437235937 4793:0.28192222 5772:0.25412074 5988:0.064441361 8830:0.26961988 11695:0.26961988 13596:0.17236218 14414:0.25412074 15021:0.20781817 16459:0.24858886 16905:0.28192222 18129:0.2608912 20128:0.28192222 23785:0.26961988 30339:0.23308973 34647:0.17872538 35685:0.20409825 36051:0.28192222 #
1.0000000001676255 942:0.25604799 1886:0.16745509 1890:0.18709169 2911:0.3180272 8349:0.14817469 8811:0.20865121 10034:0.11318278 12870:0.2256515 14744:0.3180272 15730:0.28303528 18988:0.11168009 20418:0.18270831 22625:0.17400365 25038:0.18410347 25607:0.24804336 26371:0.14178312 29209:0.17166796 34695:0.26676497 34914:0.25179487 37351:0.16717447 37791:0.21680295 39512:0.17071712 #
1.0000000001676255 9248:0.60455269 15782:0.44223946 27561:0.66252571 #
1.0000000001676255 4800:0.18842678 12870:0.21307054 20418:0.34504318 31560:0.32731089 31815:0.4418515 36888:0.3260445 40275:0.41466442 40656:0.46842793 #
1.0000000001676255 5182:0.2271256 7253:0.26630747 7813:0.33610958 13735:0.2962285 17341:0.50506347 17739:0.19632386 23629:0.34039897 30828:0.22883208 35411:0.23031579 40261:0.40231851 #
1.0000000001676255 6799:0.28416353 8349:0.19871266 11354:0.19384243 14226:0.367282 16658:0.20351219 20660:0.16849066 20890:0.28859478 21631:0.4264968 22403:0.22770546 24288:0.15096852 27331:0.12204131 33569:0.34337834 36766:0.27981594 36895:0.21825545 37979:0.1972921 #
-0.41996582118288489 9248:0.51634449 18306:0.58146143 19859:0.62872165 #
-0.36752196858032238 4828:0.15153238 11571:0.24425311 20850:0.19376905 25366:0.31990066 27561:0.70579147 30146:0.20977455 30669:0.14739108 33069:0.27217239 35411:0.13499667 36888:0.18662031 36956:0.083499119 37424:0.20977455 38699:0.18846186 #
-1.0000000001676255 13705:0.24833561 14604:0.43458861 19958:0.40346575 20418:0.46340206 28957:0.50466835 41134:0.34241191 #
-1.0000000001676255 11354:0.48114941 27561:0.54337776 38935:0.6879214 #
-0.70361020071911129 5579:0.32857132 5988:0.09304703 7647:0.30405459 7772:0.3463347 14280:0.2687602 20418:0.25130865 20660:0.17281182 22282:0.23354524 24288:0.15484031 25038:0.25322762 28883:0.40706813 31815:0.32181796 37351:0.22994241 37979:0.20235191 #
1.0000000001676255 4800:0.095856309 4828:0.13467951 8626:0.22477832 8631:0.568645 8654:0.24190238 8764:0.153458 11481:0.25628433 11509:0.25070536 11744:0.12854952 13705:0.094065979 23526:0.227046 26381:0.2321578 30096:0.30553257 30723:0.18837747 33078:0.17597038 35242:0.089537002 35853:0.076703154 40268:0.13410966 41006:0.25628433 #
1.0000000001676255 5841:0.11579955 5984:0.25794289 5988:0.076603569 8951:0.164784 10658:0.18013687 13788:0.37735847 15076:0.16367899 15524:0.20741583 22335:0.20956978 24095:0.19823553 24665:0.22283278 25130:0.13649215 29223:0.5006429 30134:0.2899459 35935:0.1451305 39584:0.16414842 39852:0.22204004 40268:0.15807474 40665:0.18401887 #
1.0000000001676255 175:0.15718965 916:0.12698369 1615:0.18739562 3876:0.086951837 3912:0.17438662 4357:0.27851319 4782:0.12741745 4954:0.10587099 5972:0.27071923 6163:0.17250682 7257:0.17319876 8340:0.10515366 9605:0.18739562 10077:0.14615807 10178:0.082254939 10482:0.17438662 10734:0.11253028 10896:0.081979945 11497:0.1087641 12933:0.069073603 13081:0.1155396 13879:0.18179356 18522:0.10357936 19370:0.16137762 20660:0.148064 26371:0.083544858 26771:0.1262476 26959:0.086951837 27196:0.21640763 27910:0.1392566 28986:0.12854861 29790:0.063554674 30275:0.14836861 30373:0.18739562 31880:0.092499897 32941:0.099348307 32988:0.15718965 33713:0.11474084 34985:0.15718965 37206:0.15087473 37361:0.12419815 37979:0.086686872 38729:0.15718965 38875:0.18739562 39166:0.14615807 40268:0.082254939 40471:0.11474084 #
1.0000000001676255 8163:0.15127224 9351:0.39248016 11756:0.31341541 14630:0.26003718 15076:0.19168894 15189:0.27406648 15596:0.13934846 21657:0.19260924 22537:0.16611893 25681:0.2481157 26061:0.4147675 33374:0.36320171 37361:0.27952436 39620:0.1327243 #
1.0000000001676255 4351:0.57409322 4582:0.53423965 14442:0.21320815 18650:0.2243869 23862:0.32740679 34538:0.42661759 #
-0.85321263664344349 2697:0.093006603 4291:0.12333907 5841:0.048332758 6428:0.088675819 7910:0.17636439 8319:0.092675731 9136:0.091420501 10978:0.12608375 11388:0.11926998 11481:0.50433499 11497:0.17448203 11509:0.12333907 11565:0.087941326 13583:0.10126474 13705:0.046277475 15798:0.072821639 16229:0.08701463 16441:0.10857361 17484:0.14782071 17678:0.081757993 20660:0.059381973 21489:0.22339885 22896:0.17271045 23923:0.076579958 24288:0.053206563 24463:0.15031232 24812:0.063808642 25310:0.08944799 25556:0.075496465 26172:0.12101848 29489:0.11900829 29490:0.13987765 29525:0.21532193 30737:0.094407991 31771:0.1105838 33826:0.087470852 35242:0.088098727 36148:0.11421426 36826:0.13987765 36914:0.12333907 37243:0.064547941 37295:0.17540851 37611:0.11421426 38961:0.12608375 40180:0.12333907 41006:0.12608375 41013:0.32863551 #
-0.068653338045272405 10963:0.43524265 14630:0.42387632 24545:0.35025814 33713:0.42094594 37361:0.45564163 40665:0.35129356 #
-1.0000000001676255 10178:0.49226767 12933:0.41338184 25216:0.67987525 39620:0.35292724 #
-0.26759303075028973 4766:0.2903699 17321:0.22707582 25894:0.24191585 26711:0.4098078 27435:0.39192486 30042:0.30021158 34705:0.29668131 36323:0.4403789 39195:0.3346203 #
-0.1561868579816085 12495:0.50313783 14067:0.35347497 14630:0.44930479 27088:0.27531311 37361:0.48297572 38934:0.33312178 #
1.0000000001676255 5140:0.39871857 6163:0.21062034 12829:0.26034534 19958:0.22888966 26686:0.1726037 27561:0.23487589 36342:0.35690022 36895:0.23417081 37351:0.24054101 37412:0.383838 37424:0.27923819 38935:0.29735509 41134:0.19425328 #
1.0000000001676255 1870:0.1058199 5666:0.1362042 5988:0.084469847 6623:0.088520296 7486:0.091299564 7994:0.13408762 9623:0.18579762 11722:0.099865995 13705:0.061130457 14516:0.49965283 14944:0.094745196 15440:0.343499 16642:0.058341708 17739:0.06646508 19180:0.083848514 19487:0.10885406 19548:0.09690018 19615:0.12076236 19861:0.096078821 19955:0.16054954 20964:0.10526491 21898:0.17098832 21946:0.11494241 22148:0.1475499 22335:0.11554505 22470:0.095964208 24432:0.094214879 25056:0.089819416 25080:0.14000347 27197:0.1985558 27561:0.10191487 30913:0.11616653 32043:0.10335302 32324:0.11585336 35242:0.058187224 35379:0.15276721 35452:0.12330442 35549:0.10526491 35853:0.049846917 35935:0.080016844 36079:0.083479106 36888:0.10779039 36956:0.04822842 37093:0.13159466 37941:0.087749436 37979:0.091849431 38699:0.21770811 39140:0.096310049 39620:0.06248403 41052:0.089819416 41467:0.10820905 #
1.0000000001676255 19548:0.43145987 28957:0.55314702 29209:0.47722527 38964:0.52927005 #
1.0000000001676255 10555:0.55819631 14841:0.65514308 28957:0.50912124 #
1.0000000001676255 1867:0.26876426 4842:0.34037358 6308:0.34207729 9248:0.24298842 11712:0.27092054 16642:0.15243888 17679:0.20827569 18317:0.39420757 18321:0.34207729 19859:0.29587242 30229:0.36861914 #
-0.2186499711959845 366:0.15644084 618:0.22593139 972:0.17524064 1871:0.31723025 5157:0.23695128 7429:0.10903415 10496:0.26587912 14331:0.22050071 15603:0.31723025 17085:0.15583116 18988:0.11971053 20470:0.18299267 21713:0.31723025 22883:0.16848661 22990:0.25332454 24884:0.19683577 24915:0.21581648 34726:0.2066576 36791:0.17218116 36956:0.082802102 37734:0.27445933 #
-0.51950212293491671 5140:0.43898425 18113:0.5428881 33524:0.71593666 #
-0.18968695792731194 2131:0.32560852 3828:0.31048682 3930:0.38579431 5217:0.32938612 16517:0.23624386 17306:0.32560852 20499:0.29929322 33460:0.21397416 36426:0.28882319 37051:0.18443787 39433:0.21509461 40185:0.28169 #
-0.13782670107530162 12829:0.35937235 13705:0.19447033 21495:0.63165259 27331:0.18074627 29209:0.34095988 36900:0.37700409 38964:0.37814397 #
-0.16902286900916003 3656:0.53959656 16014:0.44070157 16592:0.71736854 #
1.0000000001676255 5815:0.40196851 5841:0.21109621 5983:0.38004163 11435:0.41908202 12933:0.2419837 13705:0.20211965 19518:0.28039041 26838:0.37440249 27331:0.18785575 33920:0.34684879 #
1.0000000001676255 173:0.24580625 3166:0.30545092 13293:0.1421089 14604:0.50885814 15782:0.16179387 21681:0.36831182 28916:0.34741554 35893:0.47222865 37462:0.24823214 #
1.0000000001676255 10034:0.16759044 11354:0.21402584 11357:0.35371169 13922:0.38640189 14626:0.47090486 23391:0.41909212 24288:0.16668779 24892:0.21484607 29881:0.34993672 40665:0.24062216 #
1.0000000001676255 5988:0.15804756 10896:0.32504752 20418:0.4268671 24288:0.26300818 29504:0.34654549 31761:0.54663265 32568:0.4461785 #
1.0000000001676255 13293:0.26188713 15594:0.4800193 21423:0.6008451 21461:0.42629433 38934:0.39781263 #
-1.0000000001676255 4782:0.18903007 12517:0.28988832 13705:0.17118531 15594:0.30669379 19399:0.33707145 21423:0.38389179 21461:0.27236786 33307:0.33817419 38934:0.25417033 39554:0.42249078 39584:0.253436 #
-0.063857438854601684 13293:0.23775792 13407:0.432275 13808:0.37242913 15594:0.43579233 21423:0.54548573 38934:0.36115983 #
-1.0000000001676255 5988:0.22160597 15136:0.59853059 15594:0.57465327 17484:0.51227486 #
-0.3062068759166478 5988:0.082309879 7253:0.17570499 9545:0.30180484 13800:0.24030283 15594:0.21344028 18522:0.21388319 19362:0.38695711 19441:0.2654427 20387:0.21861522 21423:0.53433079 29790:0.13123536 31122:0.12675297 37258:0.2100682 38934:0.17688712 39295:0.24497771 #
-0.0020498204078029277 5988:0.19048102 18877:0.69843489 22946:0.56692594 40268:0.39306572 #
1.0000000001676255 1081:0.19124097 9725:0.26630765 16642:0.18657166 17040:0.47185165 19157:0.41456807 21302:0.18949026 22795:0.34604305 25983:0.18949026 27088:0.23988684 33918:0.26630765 34924:0.27824184 36857:0.17622162 39350:0.18625394 #
1.0000000001676255 11497:0.59699416 23189:0.80224556 #
1.0000000001676255 203:0.46437749 221:0.18936107 378:0.22471064 2251:0.15538059 2523:0.11847667 4800:0.11881845 4836:0.11517008 5182:0.073332191 5988:0.080558211 8163:0.067918159 11852:0.14569286 15694:0.12908971 16344:0.15245715 17934:0.18392271 18113:0.20404929 18532:0.079153575 18930:0.10878894 19355:0.12938425 20804:0.16852602 24378:0.076907218 24837:0.07568641 24846:0.14071715 25911:0.11019439 27476:0.092299014 27538:0.29674643 30201:0.10299741 30784:0.10299741 31102:0.1393117 32236:0.15245715 34917:0.088318624 36339:0.12423597 36735:0.14093703 38483:0.18645999 38932:0.18936107 39418:0.10825468 40268:0.24935295 41257:0.15642412 #
1.0000000001676255 1867:0.17091672 5287:0.44712684 6366:0.26121303 7613:0.30701947 9372:0.12865138 11569:0.32992271 14718:0.22491227 14743:0.32992271 17231:0.20972823 17739:0.11043918 22934:0.11944607 23880:0.24044231 23923:0.16808645 35853:0.082826242 37424:0.20132773 38950:0.32992271 39620:0.10382422 #
1.0000000001676255 203:0.14913362 4980:0.21439829 8385:0.186176 9115:0.17024174 11852:0.2339444 17256:0.47430581 17257:0.40739465 19355:0.10387854 22372:0.19097622 22639:0.30406407 24545:0.1549122 25589:0.20369732 25834:0.16949897 26536:0.21439829 27561:0.15607023 36735:0.1131539 38483:0.29940569 41257:0.125588 #
-0.33581309216713767 17257:0.76952571 36735:0.42747167 41257:0.47444507 #
-0.63485619392624326 10896:0.3273668 11746:0.37415922 12277:0.30124062 12870:0.13273957 13913:0.18215024 14841:0.30124062 15384:0.27026272 17678:0.20351297 18262:0.28430352 18587:0.18689997 20660:0.14781432 22795:0.2039095 27538:0.14658558 27933:0.37415922 30669:0.16042285 37243:0.1606735 39620:0.11774512 #
-0.21146528719309038 567:0.31301498 5104:0.24032241 8351:0.23603044 9115:0.28909168 10034:0.18375988 16658:0.24638216 21997:0.27923954 30784:0.28084731 31209:0.3324835 35242:0.1513142 37351:0.27141905 38483:0.25421408 41257:0.4265281 #
-1.0000000001676255 24288:0.53916728 27538:0.59674358 30828:0.59430271 #
-1.0000000001676255 203:0.3777523 4782:0.13092004 6163:0.1772489 8351:0.17603542 12866:0.22849128 13800:0.23914577 14223:0.2098687 14788:0.2962881 15440:0.33310381 17534:0.28065017 18522:0.21285334 21769:0.23124729 29821:0.21111967 33391:0.34272277 35853:0.096676826 36735:0.14330822 39584:0.17552683 41257:0.15905586 #
1.0000000001676255 15136:0.4478828 17484:0.38333729 19376:0.47415394 24575:0.65393543 #
1.0000000001676255 5468:0.28139415 10178:0.21225058 12829:0.275114 13293:0.14551751 13800:0.30029103 18522:0.26727611 19534:0.40561202 19696:0.38931704 39303:0.48355547 39512:0.25957274 #
1.0000000001676255 366:0.13043208 965:0.17067313 7429:0.090906896 10178:0.12475494 12933:0.20952596 12987:0.23840739 13705:0.087504469 17484:0.13975453 18879:0.17402585 18988:0.1996166 19203:0.13531582 23267:0.17230016 23789:0.12382495 24904:0.15256959 25056:0.12857094 29558:0.1855675 32936:0.24475922 33887:0.19623323 35029:0.20713517 35964:0.13456471 36956:0.069036007 36971:0.11889043 37073:0.23743996 37356:0.19894624 37361:0.18836962 37979:0.13147679 39221:0.43192759 39228:0.28422034 #
1.0000000001676255 5988:0.060640845 11505:0.19955227 11763:0.17066914 12610:0.18357417 12933:0.1050821 13293:0.085791662 13407:0.15598045 15340:0.28508615 17686:0.57017231 20890:0.096453682 21966:0.18797547 23451:0.28508615 29821:0.1562925 30982:0.12166687 36858:0.1955618 38669:0.22571412 38934:0.26063907 39538:0.20256051 41497:0.28508615 #
1.0000000001676255 5988:0.096021794 11020:0.37865633 11388:0.17909656 11980:0.2764008 17303:0.2234039 17484:0.22196853 19958:0.22579972 22784:0.28243783 32773:0.26863134 33965:0.25999364 35667:0.4348067 36541:0.25003642 37622:0.34300974 #
-0.14738750126541178 24575:1 #
-1.0000000001676255 929:0.11061124 1081:0.14388879 2917:0.16603641 5287:0.16186526 5375:0.20762654 5988:0.1016212 10589:0.17942436 10606:0.38463804 10634:0.18912449 12610:0.15381569 13293:0.071884312 14572:0.21258932 16640:0.20036861 17085:0.21838789 20277:0.17942436 21509:0.23887195 22736:0.2564531 24521:0.23887195 24844:0.11948349 25120:0.15915406 26786:0.15595952 33306:0.14388879 34726:0.14480904 36637:0.12413999 38417:0.13975379 38827:0.225693 39242:0.16002409 40501:0.1413231 41570:0.18150598 #
-1.0000000001676255 5988:0.21726193 19548:0.49846706 26371:0.45535988 35549:0.54149634 37941:0.45139447 #
-0.0024814437445314285 7371:0.39862344 12020:0.39862344 12517:0.22333068 13868:0.59150231 25905:0.35149178 33089:0.39862344 #
-0.18369296327800863 1349:0.30191073 14837:0.44814116 15467:0.23758328 19157:0.29259142 24095:0.24668142 27673:0.44814116 33963:0.4170312 37243:0.19244324 39454:0.30550322 #
1.0000000001676255 6945:0.23581716 7563:0.17948645 10896:0.15132917 11601:0.36489862 12502:0.20465507 12504:0.34591904 17085:0.15812767 21423:0.23883162 24288:0.24489227 27088:0.26137364 34924:0.15158206 37258:0.18778978 37941:0.15287492 38033:0.29789165 39310:0.32190534 39350:0.2029368 39554:0.26284531 #
1.0000000001676255 1852:0.17786525 8163:0.16225895 13936:0.45239046 14223:0.49308804 14777:0.22447266 19558:0.23701601 19565:0.38958061 20514:0.26764643 24257:0.24110055 24421:0.24465592 29194:0.21513908 #
1.0000000001676255 2523:0.25042367 5841:0.12870049 6835:0.21256404 8811:0.26259708 18987:0.3121739 19382:0.25138965 20850:0.2256089 20890:0.13541785 25059:0.15285322 26686:0.15097322 29560:0.22612615 33083:0.26813498 37073:0.16718677 37701:0.30412981 38953:0.3121739 40577:0.26813498 40777:0.30064189 41257:0.16531652 #
1.0000000001676255 1703:0.63456333 6022:0.63456333 10034:0.24268186 27538:0.26715055 36735:0.25376147 #
-0.32399474889725827 6898:0.22402115 9436:0.30396497 20660:0.24514283 22567:0.36206388 31560:0.33817396 32582:0.43434989 34924:0.27191457 36895:0.31754732 37979:0.28704703 38538:0.32564285 #
-0.79779301171806893 2754:0.37931061 11388:0.27559274 23789:0.30263156 27202:0.506244 30880:0.52176803 33965:0.40007669 #
-0.6409191793164255 11601:0.32078737 12933:0.22418272 14339:0.37769875 19355:0.20778309 20664:0.49906322 27595:0.44745195 37979:0.28134772 38964:0.36410645 #
1.0000000001676255 5282:0.17332292 5988:0.081039898 8351:0.17415787 16154:0.35453853 16538:0.38098663 18230:0.24023183 18262:0.2894913 20741:0.13269156 22566:0.23022091 26563:0.28617123 31499:0.24425201 37570:0.32809046 37713:0.29312798 40194:0.3390674 #
1.0000000001676255 2834:0.28363571 3585:0.26870736 4782:0.13231274 5988:0.16556989 11093:0.28363571 12517:0.2029091 12625:0.17705512 13705:0.1198222 14004:0.19629699 16093:0.26697472 16685:0.2089176 17008:0.31935102 26337:0.30813771 31122:0.25496909 35935:0.15684153 35974:0.31334251 36079:0.16362794 36956:0.09453284 38150:0.24740411 #
1.0000000001676255 5988:0.11955369 6382:0.29544696 8689:0.27779111 21359:0.45251286 26488:0.33348536 30917:0.26551974 30965:0.29745755 31122:0.1841065 35242:0.1647096 38902:0.43836632 39293:0.30512044 #
1.0000000001676255 4782:0.17501174 5096:0.34298906 5988:0.10950069 22282:0.54968691 25038:0.2980063 28953:0.47905067 35242:0.15085953 37018:0.44331414 #
1.0000000001676255 722:0.26654094 5375:0.12447952 8689:0.14156461 12601:0.2004891 14209:0.19408801 16305:0.20689018 17324:0.25490978 19198:0.42469385 21899:0.26654094 25579:0.21763863 29428:0.22677377 29814:0.17307934 31391:0.25490978 31562:0.22339505 33821:0.17199673 35242:0.083937347 35354:0.17537545 36040:0.18362789 36691:0.18133178 39886:0.19908951 40989:0.19775504 #
-1.0000000001676255 4782:0.083762132 5988:0.05240798 6060:0.11251784 6382:0.12951317 6458:0.092983268 7468:0.17010835 7583:0.21217398 10555:0.33802295 12657:0.25946116 13705:0.075854845 16751:0.1795589 18987:0.19216383 19355:0.084172264 19955:0.099610418 20496:0.14749835 20890:0.16671741 21424:0.37013021 21491:0.15474707 21518:0.2066678 21769:0.14795113 22537:0.097042821 22541:0.19507019 22555:0.22927779 25038:0.28525677 28167:0.14576602 29790:0.083559595 30639:0.1147937 30982:0.10514884 31122:0.080705583 36220:0.11652169 37791:0.1679613 37941:0.21777099 #
-0.34223777158242608 5421:0.46627599 5970:0.32513908 5988:0.11517237 18306:0.28557944 18827:0.30053791 23189:0.42230141 27739:0.34419444 31122:0.17735951 37073:0.22616626 39282:0.23628017 40268:0.23766309 #
-0.69137811380754777 2763:0.22112979 5554:0.2421679 5640:0.35737821 5988:0.076018132 12625:0.1625827 17739:0.11962971 21105:0.31805658 22923:0.21143462 23431:0.19114575 23496:0.28295064 24892:0.16305056 26325:0.54992771 31343:0.28773001 39350:0.20965943 #
-0.33203487588567238 8811:1 #
-0.032277798116988832 34312:1 #
1.0000000001676255 5140:0.36417046 21769:0.5019514 29810:0.48265278 31734:0.48265278 37979:0.38667455 #
1.0000000001676255 4782:0.14037539 12955:0.22084527 15596:0.13642368 16028:0.20653529 16685:0.22164828 24812:0.17528166 27088:0.15599434 27952:0.56648636 28288:0.24028149 29790:0.14003597 30521:0.25031221 30880:0.31014714 35131:0.28700516 35411:0.16214858 36676:0.24950922 38827:0.19506282 #
1.0000000001676255 2834:0.4423092 5988:0.12909709 6214:0.48863479 30880:0.45587265 31122:0.19880284 35888:0.38422978 36220:0.28702903 37377:0.26752928 #
1.0000000001676255 3888:0.28744009 6043:0.27157426 7257:0.18055344 7429:0.12496606 7486:0.17965385 10125:0.1959669 10576:0.34043437 12933:0.14401345 23770:0.3907063 29251:0.3907063 29790:0.13250689 30800:0.29347199 30828:0.1524422 31055:0.28474039 32860:0.2734834 #
-1.0000000001676255 5140:0.2779057 9725:0.53506804 14229:0.39469683 15115:0.45688629 15782:0.21855171 29504:0.2975131 31734:0.36832196 #
-0.5478949008362386 2394:0.68942875 27952:0.72435349 #
-0.80896823734483903 3841:0.25982293 6751:0.38615692 8163:0.09319073 9880:0.17131783 10614:0.16449064 11388:0.10308228 14693:0.23123512 18999:0.18186873 23523:0.22367576 24432:0.24657238 24765:0.26359284 25184:0.22374913 29596:0.23123512 30965:0.13750821 36809:0.22374913 37377:0.34359175 37400:0.25982293 37854:0.19307846 40982:0.21319821 #
-0.29586943699628948 206:0.41918471 207:0.57518393 6060:0.26267567 13383:0.35851723 13398:0.40261257 29790:0.19507194 39282:0.25100067 39620:0.1810061 #
-0.049562204352730413 11980:0.6556626 16324:0.75505406 #
-0.11997556561266109 19007:1 #
1.0000000001676255 145:0.05728342 231:0.45972389 614:0.080431655 663:0.086431742 724:0.086431742 1025:0.086431742 1135:0.086431742 1137:0.086431742 1250:0.086431742 1251:0.10256666 1263:0.086431742 1264:0.086431742 1266:0.086431742 1268:0.086431742 1277:0.086431742 1349:0.058228683 1653:0.086431742 1743:0.086431742 1792:0.086431742 1803:0.086431742 2078:0.049174465 2223:0.076921828 2385:0.074431561 2390:0.076921828 2496:0.086431742 3149:0.23886752 3154:0.086431742 3155:0.086431742 4022:0.11934951 4782:0.029384121 5111:0.058228683 5265:0.062431384 5677:0.060943797 5805:0.086431742 5930:0.042180844 5988:0.018384948 6135:0.05348013 6428:0.05098987 6460:0.076921828 6778:0.086431742 7260:0.058228683 8769:0.058568187 9436:0.042338714 9549:0.074465945 9880:0.05698996 10658:0.043233063 10710:0.040270131 11341:0.086431742 11681:0.13411783 11684:0.059674755 11962:0.086431742 11977:0.059674755 12316:0.086431742 12356:0.076921828 12625:0.039320543 13208:0.040876318 13293:0.026010113 13443:0.15819342 15087:0.056164924 15131:0.16086331 15316:0.058568187 15596:0.028556926 16321:0.05758718 16642:0.025396265 17484:0.042499516 18011:0.086431742 18113:0.04656801 18532:0.036128763 18687:0.13496934 18848:0.086431742 19180:0.072998852 19962:0.05348013 20486:0.091020115 20523:0.086431742 20741:0.030102797 22187:0.25196019 23809:0.080431655 23923:0.044034574 24288:0.030594537 24545:0.1761383 24901:0.11184746 25130:0.032758277 26686:0.032601677 27029:0.086431742 27538:0.10158495 27542:0.063587271 29504:0.040312048 32216:0.044776034 32582:0.24199915 32601:0.10169357 32983:0.052063707 33273:0.086431742 33523:0.066499874 33524:0.06141182 34052:0.038034484 34924:0.11362342 35242:0.025329016 35525:0.060943797 36463:0.038846608 36475:0.070921734 36735:0.064329132 36802:0.051587094 37088:0.052228592 37574:0.069587365 38264:0.039782323 38506:0.045135267 38928:0.10380381 38959:0.086431742 41134:0.036690887 41257:0.035699021 #
1.0000000001676255 67:0.23909888 167:0.17739493 502:0.25693533 1870:0.13693315 4862:0.22866523 11744:0.10810275 16251:0.25693533 17235:0.25693533 17739:0.0860072 18306:0.13551632 18478:0.15898019 19988:0.23909888 21305:0.19093263 22698:0.14873786 22820:0.25693533 24288:0.090948269 24512:0.12021299 25209:0.16137564 26371:0.1145471 26615:0.14322728 27538:0.2013208 28909:0.20788898 29215:0.19299234 30359:0.25693533 34056:0.1677531 35853:0.12900589 36735:0.095615491 36956:0.062408578 37957:0.1515774 41134:0.21814172 #
1.0000000001676255 11388:0.29029375 12163:0.52407664 13705:0.22527148 37194:0.41530782 38762:0.41150019 39620:0.23025952 40144:0.44214651 #
1.0000000001676255 5107:0.15266055 10310:0.11430267 11388:0.1056853 11618:0.14273471 12870:0.094504394 13379:0.20008948 15546:0.14517407 15947:0.20241085 16142:0.22939919 16658:0.12711085 18513:0.17654836 19993:0.17946167 20496:0.1594729 21946:0.15420759 22904:0.15671057 23231:0.26638392 23421:0.17077978 23789:0.11605424 24815:0.21090683 26089:0.2144693 27331:0.076225288 29894:0.16933733 30146:0.16255465 30889:0.24789156 31769:0.16864434 33069:0.21090683 35063:0.21858186 35147:0.17564391 36220:0.12598144 36956:0.064703606 37941:0.11772529 39750:0.17392209 39798:0.22939919 40697:0.14273471 #
1.0000000001676255 1376:0.19562636 1449:0.45986301 1686:0.15642583 2754:0.13492069 5183:0.14266844 5988:0.052557401 8163:0.17724337 8995:0.16552553 10178:0.10845444 10896:0.10809185 11681:0.12780173 12625:0.11240639 12933:0.091074631 14604:0.13312486 15596:0.081636235 16509:0.24708408 18532:0.20656398 19355:0.084412247 20568:0.18559276 20660:0.097612359 20890:0.083596379 22281:0.2299315 24093:0.20725703 26208:0.14057599 26371:0.22031042 31122:0.080935687 31637:0.21277894 37250:0.14303505 37351:0.12988244 37352:0.18774593 37424:0.15077737 38485:0.2198979 38747:0.13833934 #
-0.66606906873786542 366:0.095770687 568:0.15857296 972:0.10727964 1852:0.082050458 1858:0.080863945 1886:0.10988476 2078:0.11873253 4782:0.14189686 4814:0.11264926 5988:0.044390753 8337:0.10248554 8444:0.17505233 10034:0.074271023 10710:0.097232871 10824:0.16522889 10896:0.27388787 11347:0.15508139 11359:0.1680198 11388:0.082796104 12625:0.094940081 12699:0.19420351 12700:0.15857296 18738:0.1797162 18988:0.073284961 19518:0.089131877 19696:0.1680198 20225:0.11063802 20890:0.070606723 24288:0.073871002 24892:0.095213294 25038:0.1208095 25059:0.079697505 25388:0.16276713 26208:0.11873253 27285:0.1797162 27331:0.11943302 27900:0.12019472 29515:0.13760316 29785:0.20869082 29810:0.36149955 34924:0.091448523 35785:0.13831173 36575:0.20869082 36956:0.15207054 38483:0.1027468 38548:0.11989398 40275:0.14408565 40378:0.17124167 #
-0.27542837452802382 158:0.6208716 3839:0.57777071 15798:0.30079296 23789:0.27049226 25056:0.28085974 39620:0.19538367 #
-0.56457879927862009 2087:0.35168734 5136:0.35168734 5677:0.2479779 7257:0.16252197 11143:0.3028591 12625:0.15999374 15596:0.116197 15947:0.26722834 23898:0.15706906 24529:0.21118678 24803:0.22853287 25370:0.16076449 27476:0.17142065 27538:0.13778171 29560:0.19868921 30709:0.19690543 34924:0.15410973 36637:0.18276933 36755:0.18677266 39017:0.24445274 40901:0.19166277 #
-0.14605799428581653 5015:0.3537015 5988:0.084537566 7563:0.20621383 7649:0.27262679 7815:0.36984038 7870:0.24015722 11211:0.33336893 11584:0.34225079 13879:0.19277453 19594:0.30997306 28515:0.34225079 36857:0.22059757 37243:0.17066656 #
-0.21144983749055393 203:0.045587026 450:0.092946015 499:0.092946015 1081:0.055987693 1858:0.036014911 2579:0.060120124 3004:0.067136772 3479:0.10679596 4782:0.031598773 4961:0.057106085 5007:0.047852851 5112:0.059084758 5140:0.040493358 5264:0.04353286 5307:0.1654387 5771:0.054087829 5988:0.079082415 6060:0.042446695 6163:0.08556135 6165:0.062617317 6424:0.080041394 6977:0.053945709 7302:0.051700801 7398:0.13427354 7452:0.069069631 8005:0.076267034 8163:0.03333696 8405:0.052632447 8416:0.037650649 8886:0.076267034 9072:0.06039802 9182:0.071511902 9291:0.059588056 9415:0.047635518 9568:0.080041394 10034:0.066157162 10710:0.086610496 11201:0.062266007 11314:0.057720069 11354:0.042243883 11388:0.036875453 11435:0.059333004 11546:0.059333004 11601:0.04902285 11847:0.057306278 12197:0.053945709 12613:0.062982418 12870:0.032974236 12943:0.070624687 13142:0.092946015 13443:0.085058145 13461:0.049190577 13604:0.086493708 13667:0.076267034 13705:0.028615797 13879:0.045083728 14142:0.05985029 14400:0.072492674 14442:0.069037043 14470:0.049985167 14604:0.050077792 14752:0.047779843 14758:0.14005031 14944:0.044351205 15487:0.057720069 15596:0.061418466 15627:0.051481761 15782:0.031844947 15797:0.073589087 16151:0.059333004 16295:0.039666787 16658:0.044351205 16684:0.062617317 16923:0.070624687 17428:0.046058454 18220:0.058842961 18337:0.058607284 18687:0.048380613 19203:0.04425111 19238:0.092946015 19355:0.031753492 19518:0.039697256 19548:0.045359973 19798:0.085732155 19962:0.057510875 20003:0.092946015 20236:0.064605422 20772:0.092946015 21277:0.13675956 21303:0.044815447 21461:0.045529742 22063:0.12885681 22537:0.073217668 22538:0.061285235 22566:0.05616501 22900:0.058842961 23412:0.047079608 23614:0.080041394 23737:0.067136772 24288:0.032900415 24374:0.053531919 24498:0.092946015 24527:0.044975486 24812:0.039456241 26065:0.051058564 26371:0.041437265 26721:0.065537065 27077:0.055642888 27213:0.052632447 27331:0.079789013 27499:0.080041394 27538:0.036413766 27770:0.10407867 28281:0.054679058 28406:0.071511902 28535:0.047926441 28629:0.060980003 29036:0.05616501 29338:0.21811077 29381:0.089950971 29717:0.080041394 29998:0.065537065 30141:0.074832089 30639:0.043305248 30709:0.052039336 30727:0.068379782 30843:0.065059595 30845:0.066572435 30892:0.076515906 30897:0.086493708 31836:0.14823014 32216:0.048150755 32411:0.062982418 32793:0.092946015 33360:0.044005483 33722:0.092946015 33841:0.082719348 33894:0.092946015 34133:0.062982418 34914:0.073589087 35083:0.04232448 35563:0.043305248 35644:0.14732192 35853:0.09333542 36412:0.092946015 36735:0.10376633 36749:0.086493708 36766:0.060980003 36769:0.074832089 36849:0.058377426 36895:0.047564186 36956:0.045152441 37028:0.036521632 37029:0.052039336 37371:0.18281065 37377:0.040970832 37559:0.057934072 37701:0.070624687 37929:0.054832924 37979:0.042995669 38009:0.095705703 38323:0.052880693 38425:0.080041394 38538:0.04877679 38719:0.092946015 38915:0.15540701 39066:0.092946015 39221:0.21187407 39320:0.092946015 39512:0.049893457 39690:0.064605422 39750:0.060684465 40268:0.040797479 40471:0.056910105 40670:0.04877679 41086:0.082719348 41087:0.068379782 41257:0.11516886 #
1.0000000001676255 18287:0.45836791 25044:0.5507279 37729:0.47533876 40090:0.51053959 #
1.0000000001676255 1500:0.55284464 2893:0.55284464 13111:0.2718403 13705:0.17020731 28629:0.36271021 32706:0.39280933 #
1.0000000001676255 3488:0.22944134 4782:0.16706902 18276:0.4373537 23014:0.25704405 29782:0.28597316 29862:0.33710441 31156:0.3956522 31845:0.21462664 35298:0.36518493 40516:0.36153755 #
1.0000000001676255 4366:0.49332106 15440:0.23973766 16324:0.3908495 17739:0.18555143 21461:0.27152994 24520:0.36190957 24688:0.5543108 #
1.0000000001676255 23923:0.42687315 27561:0.4300642 31291:0.48257005 31560:0.45662466 33663:0.43754333 #
-0.14096720631572324 25044:1 #
1.0000000001676255 4800:0.082104713 5304:0.33555469 6223:0.14290212 6712:0.26170069 7429:0.083704062 8544:0.26170069 8562:0.21951763 11601:0.13802972 12153:0.45073235 12657:0.13779674 14229:0.16192879 14417:0.28694382 15888:0.20719892 16316:0.23290627 16642:0.076895595 17976:0.26170069 20890:0.088541642 21949:0.14435054 28167:0.1548292 30982:0.11168661 35964:0.12390273 39750:0.1708644 39751:0.1925315 #
1.0000000001676255 972:0.19861796 4937:0.24460667 13890:0.22729759 13913:0.18809527 14177:0.38637105 15418:0.22793719 16599:0.26676077 17975:0.29727072 18988:0.13568008 24432:0.18333337 24901:0.12499639 25038:0.44733438 26965:0.24991578 28957:0.24173902 31103:0.25349024 #
1.0000000001676255 2870:0.24443468 4147:0.22635105 4836:0.18117811 5264:0.13952214 5841:0.095786378 6898:0.10754411 7940:0.16397527 10104:0.27721101 10896:0.26063633 12176:0.26511425 12826:0.20567149 13748:0.14610572 18827:0.1653472 19376:0.18117811 20387:0.16829619 28767:0.30092031 29210:0.21915615 29790:0.1010287 31880:0.14704104 34052:0.13108741 34924:0.13053593 35452:0.18499193 36956:0.07235644 37253:0.16988774 37941:0.13164929 39690:0.20705938 40518:0.29789054 #
1.0000000001676255 203:0.17515935 5182:0.13830148 5750:0.22430401 6835:0.18966159 11756:0.26538673 13705:0.10995068 15206:0.23924512 17428:0.17697072 19203:0.17002635 20890:0.12082743 21452:0.35712713 21769:0.21445335 23026:0.27136174 23027:0.31783313 24052:0.22518718 33713:0.43733218 37377:0.15742251 39620:0.11238524 41257:0.1475047 #
1.0000000001676255 7429:0.30215308 20470:0.50710529 27331:0.2703189 38171:0.76057571 #
-0.18360748408586303 4014:0.35436213 4584:0.3228066 9500:0.3693389 11454:0.32522842 15694:0.35436213 15782:0.17809679 17739:0.17400324 28909:0.21029261 31734:0.30014387 31845:0.4540498 #
-1.0000000001676255 10636:0.71554458 31291:0.69856709 #
-0.48401301410399244 9338:0.52918392 19198:0.41143996 26686:0.31399924 31291:0.47945073 37729:0.47139475 #
-0.28188769416744353 36944:1 #
-0.90288753834615321 5934:0.54105926 13913:0.42258579 21461:0.42521244 24288:0.30726436 27088:0.32794338 34052:0.38198459 #
1.0000000001676255 2754:0.19137557 4814:0.18918107 4937:0.22187911 5658:0.26325035 8163:0.12570366 11120:0.26630446 14394:0.29397961 18010:0.28216931 18230:0.22099045 19166:0.3504715 23686:0.26044083 29821:0.38427728 33881:0.29397961 35081:0.28758007 #
1.0000000001676255 3233:0.21139954 5079:0.15278123 5841:0.081037588 7243:0.21703179 8832:0.2345272 9528:0.16703026 10583:0.17180683 12517:0.13139498 12611:0.19390413 12823:0.17400305 16599:0.17400305 18169:0.13708033 18263:0.1522911 18269:0.15955235 18345:0.14141792 24323:0.15538566 24539:0.16228373 25487:0.15181032 32437:0.14338571 32748:0.2029068 32779:0.25202259 33404:0.15829007 33997:0.22429304 34032:0.21139954 35853:0.063269623 36262:0.25202259 38762:0.14173542 39415:0.22429304 40097:0.25202259 40879:0.20679764 #
1.0000000001676255 4800:0.13015449 5988:0.088243984 8519:0.26833978 11508:0.21594173 11741:0.26158738 22900:0.26263928 31105:0.35725626 32302:0.21771 32582:0.29038659 33605:0.26596496 36560:0.4233363 36956:0.10076656 37251:0.28111529 37968:0.28111529 38483:0.20424947 #
1.0000000001676255 6070:0.44990242 8163:0.16136657 12933:0.16583301 13735:0.22723912 14240:0.25476581 15186:0.44990242 27770:0.25189486 30596:0.30139676 31282:0.32497355 31323:0.21983585 39195:0.34185672 #
1.0000000001676255 750:0.32928932 4800:0.11101639 6898:0.12774791 8607:0.35385385 10034:0.12593313 10636:0.20875387 15440:0.15304066 18638:0.30472478 20926:0.217408 22939:0.19641019 24485:0.21666189 24892:0.16144261 25038:0.20484324 29790:0.12000848 31229:0.35385385 31636:0.20591722 36560:0.18054417 36734:0.35385385 41257:0.14615273 #
-1.0000000001676255 36560:1 #
-0.73705931806208591 205:0.14913985 5096:0.17547832 5140:0.1147424 5988:0.11204437 9901:0.16018429 10315:0.095082551 10555:0.180667 11388:0.10449066 11455:0.19571643 11681:0.13622691 13913:0.12821659 18405:0.26337281 20418:0.15130907 20890:0.17821473 20942:0.26337281 22282:0.28122801 22939:0.14618777 25589:0.1764376 25979:0.37617123 26588:0.14745921 27385:0.24508947 27561:0.13518418 31351:0.19376166 31560:0.28706613 31912:0.19023946 36560:0.13437872 37073:0.11001188 38483:0.12966892 #
-0.071382259636741274 30982:1 #
-1.0000000001676255 6183:0.20653331 11744:0.33171782 12829:0.22428088 12870:0.13985237 15381:0.24480592 22904:0.2319082 22939:0.2188094 24432:0.18705219 24812:0.16734424 28116:0.22591479 28514:0.3942084 33078:0.45408577 33826:0.22940065 37504:0.2687366 39620:0.12405445 #
0.58457313320360837 3730:0.28436512 5264:0.17310721 6934:0.1864147 7068:0.36959729 7429:0.11821441 15238:0.36959729 16609:0.15725315 17198:0.30327377 17594:0.36959729 20147:0.36959729 24225:0.20181924 36068:0.36959729 #
1.0000000001676255 6428:0.47772875 10636:0.47772875 31291:0.46639383 34217:0.570988 #
1.0000000001676255 10636:0.75730461 11388:0.25464579 13705:0.19760823 25059:0.24511582 31291:0.36966813 37808:0.35476747 #
1.0000000001676255 10636:0.44746801 20890:0.25662211 25059:0.28966281 31291:0.43685108 31734:0.43796006 40688:0.51707351 #
1.0000000001676255 16642:0.31403285 20642:0.63981938 31291:0.61554605 39620:0.33632952 #
1.0000000001676255 4800:0.086663157 8118:0.22666131 8656:0.20527102 9231:0.29288852 9433:0.25705439 17739:0.092466041 19955:0.11167804 20029:0.19784951 20660:0.10912678 22282:0.14747858 22289:0.42505866 22459:0.27623028 23246:0.16296034 24288:0.097778171 25216:0.16745642 25527:0.17867361 25979:0.26302359 26686:0.10419286 31291:0.15909383 31704:0.19071667 31845:0.12064198 36956:0.06709525 38915:0.11546521 39620:0.17385523 40070:0.24583721 41580:0.18830951 #
-0.6036516506248375 15583:0.36417481 20642:0.4609887 25059:0.29407138 31291:0.4434998 33511:0.60966885 #
-0.37695180997553723 3118:0.4959237 4800:0.40444595 13705:0.19844601 20642:0.3858746 26783:0.48977101 31291:0.37123537 36956:0.15656251 #
-0.53921662080582577 4497:0.31179005 6163:0.143509 6308:0.20558307 8837:0.21672073 10430:0.23691253 10636:0.36787722 14205:0.26850113 14339:0.19362362 14530:0.26850113 15181:0.26153317 18169:0.16958909 30917:0.14729406 31257:0.31179005 31291:0.35914871 36735:0.11602904 38548:0.17912504 38699:0.17093237 #
-1.0000000001676255 13293:0.15471546 23523:0.22129735 24539:0.33105507 26686:0.38784787 31291:0.59221143 38699:0.28185567 39538:0.36529478 40049:0.32166731 #
1.0000000001676255 7323:0.4600147 15381:0.32098997 20458:0.51688677 28116:0.29621989 36560:0.26372722 37243:0.22196436 38184:0.4600147 #
1.0000000001676255 1867:0.45858631 16256:0.40232944 28628:0.46003973 30662:0.64513028 #
1.0000000001676255 5988:0.1877684 13918:0.59136224 27476:0.4302687 29209:0.47649503 36560:0.45039433 #
1.0000000001676255 936:0.22479136 1406:0.20822649 5988:0.045930184 11744:0.090849377 15440:0.093388192 16685:0.11591025 18141:0.20093831 18170:0.21592803 20660:0.08530394 20890:0.073055297 21304:0.13783979 22403:0.23056675 22412:0.43185607 22475:0.16613327 22537:0.085048012 22567:0.12598972 24288:0.15286556 24445:0.13313138 25059:0.082461342 26686:0.08144711 28850:0.16841175 32748:0.17384657 35853:0.054208171 36008:0.17384657 36560:0.33051398 36956:0.052448068 37275:0.23355077 37961:0.1859486 38178:0.17384657 38187:0.21592803 40575:0.20093831 #
1.0000000001676255 10302:0.77046132 17739:0.32033524 33078:0.55115759 #
-0.87425247058014843 10636:0.31339291 11497:0.3083221 15424:0.39902011 19546:0.44559783 20890:0.17973027 21769:0.3189984 23928:0.23396567 36463:0.23875822 36791:0.26831397 40688:0.36214247 #
-1.0000000001676255 10636:0.54957855 12933:0.3433775 20660:0.36802658 27331:0.26656935 28629:0.61118942 #
-1.0000000001676255 8340:0.43850991 10734:0.46927181 16642:0.22962071 21491:0.49082723 23789:0.34046111 29209:0.42183197 #
-1.0000000001676255 3488:0.51198447 18587:0.54776514 21268:0.56457108 39620:0.34508657 #
-0.80864998838978208 439:0.31205571 3825:0.19313475 5988:0.071329229 6060:0.15314101 11356:0.26549786 16733:0.16617167 17341:0.57755357 19957:0.2984384 20890:0.11345433 23789:0.14609368 29194:0.15947194 30828:0.1308378 30982:0.14311153 31781:0.23472479 35242:0.098270565 38121:0.33533463 40090:0.20395173 #
1.0000000001676255 6163:0.47429797 11314:0.63992703 23523:0.44355333 31836:0.41084701 #
1.0000000001676255 9372:0.18121618 9479:0.38981566 10125:0.23309182 19198:0.45937699 20741:0.16185582 29515:0.30642191 35126:0.2865274 35634:0.31680766 36956:0.11287954 40456:0.3149077 40573:0.36794031 #
1.0000000001676255 5987:0.15609063 6329:0.18314087 6623:0.1523786 9365:0.29433885 10139:0.21384834 11722:0.17190908 15978:0.29433885 17566:0.31806615 20424:0.20461743 20642:0.40923485 27285:0.29433885 27331:0.097803585 32341:0.26657969 32748:0.27518252 36718:0.34179345 #
1.0000000001676255 4255:0.58682996 5841:0.11718504 11618:0.19527504 13293:0.10967159 14442:0.13534637 15189:0.2368193 17360:0.24999602 20361:0.23364344 25488:0.23572968 26208:0.20734403 27595:0.26811561 30156:0.29904136 31244:0.22469665 31606:0.25331643 34052:0.16037232 #
1.0000000001676255 2394:0.14863257 5988:0.048423521 6060:0.10396337 6332:0.21184634 8764:0.11434028 8873:0.21184634 9008:0.18023945 9248:0.10662367 10315:0.082185864 13788:0.11927007 13796:0.1691701 15198:0.14725035 17909:0.21184634 18169:0.12382344 19518:0.09722925 19523:0.22764978 19526:0.1960429 24288:0.080581963 24582:0.10850511 25476:0.22764978 25911:0.13247563 26003:0.22764978 26686:0.171737 27683:0.10696482 28279:0.19095533 28885:0.21184634 30403:0.14935642 31036:0.14354499 33401:0.14471446 34021:0.12455504 34864:0.12007014 35354:0.13938814 35559:0.15087695 35853:0.057150885 36269:0.10742777 36956:0.055295236 37131:0.1691701 37230:0.22764978 37462:0.11966659 41410:0.12745832 41467:0.12406471 41519:0.21184634 #
-1.0000000001676255 5988:0.18853085 8163:0.31789851 11314:0.55041385 20387:0.50073832 31836:0.35337761 39140:0.42991474 #
-1.0000000001676255 5988:0.27626538 6163:0.59779763 33663:0.67823482 35853:0.32605666 #
-1.0000000001676255 11618:0.80029392 17679:0.59960788 #
-0.29146892157502036 5104:0.21901898 5875:0.30039153 7257:0.21745904 11763:0.28170919 12849:0.26288682 13639:0.28170919 15596:0.1554749 17484:0.23138374 18757:0.21970366 22537:0.18534344 28562:0.32279742 30596:0.31524074 31323:0.22993353 31836:0.18761513 36342:0.3670164 #
-1.0000000001676255 1440:0.17447545 4959:0.29144421 11314:0.3619774 14604:0.15702537 17678:0.15852255 18587:0.14558218 18687:0.15170364 19355:0.09956716 19382:0.18304993 19518:0.24895172 19861:0.14102642 19958:0.14578007 20856:0.14035922 22187:0.2123998 23523:0.1254489 24288:0.30949047 24374:0.16785623 24812:0.12372012 24843:0.15644735 25852:0.16959935 27018:0.20549992 27685:0.23074804 29504:0.13593054 31734:0.16828234 31836:0.11619867 34924:0.12771113 41134:0.12372012 41213:0.19524308 41257:0.1203756 #
1.0000000001676255 444:0.15136421 5988:0.18958896 7042:0.29710001 8291:0.22077963 14761:0.22077963 16014:0.33969459 16120:0.18450099 20856:0.14308305 21049:0.29710001 31781:0.41592327 35242:0.26119748 37028:0.23348127 37170:0.29710001 37729:0.33647704 #
1.0000000001676255 6183:0.22701524 7267:0.26267654 12836:0.27214789 14604:0.23345608 15242:0.26622105 15384:0.3129828 21268:0.2230837 27088:0.16369978 27331:0.12398863 32173:0.30118197 35644:0.17169885 36971:0.18125188 37051:0.18435775 37462:0.22776997 37979:0.20044014 38934:0.19807251 39584:0.19750024 39620:0.13635693 40904:0.3379513 #
1.0000000001676255 3746:0.36309823 7429:0.14153366 8816:0.261053 10145:0.39381692 18587:0.22103998 23789:0.19278404 26787:0.44250485 33878:0.44250485 35411:0.17377195 36956:0.10748269 38078:0.26032045 40268:0.19423193 #
-1.0000000001676255 16014:0.74894267 37234:0.66263479 #
-0.090134325896569251 4800:0.23586307 7563:0.39008024 10791:0.5190559 23208:0.69960111 36956:0.18260692 #
-1.0000000001676255 12870:0.55941492 37462:0.82888776 #
-0.46997705264821799 3019:0.25477141 6127:0.23453228 6458:0.15808775 12274:0.2492744 16014:0.47894722 20486:0.22056459 24646:0.29321235 24665:0.25919157 30896:0.22364508 35411:0.164499 36735:0.15588564 36956:0.10174713 40316:0.50003392 #
-1.0000000001676255 36956:1 #
1.0000000001676255 5988:0.10554639 10310:0.21291322 11060:0.37703356 14339:0.30814156 15333:0.41621599 15596:0.16394283 16295:0.21176319 17484:0.24398603 28535:0.25585777 30640:0.3870059 31291:0.28578293 35853:0.249138 37073:0.20726353 #
1.0000000001676255 6676:0.22209246 15830:0.43280974 20387:0.27475035 22537:0.38309443 24692:0.36528933 28806:0.48631841 30442:0.23852351 39690:0.33803284 #
1.0000000001676255 203:0.13060084 4800:0.083540812 5140:0.11600815 8697:0.20487221 8811:0.17469969 10088:0.20001002 10315:0.096131422 11722:0.13392775 12870:0.094466858 12933:0.098149508 13111:0.13093212 14604:0.14346629 20890:0.090090327 21769:0.31979781 22943:0.16195132 24374:0.15336192 24432:0.25269836 25327:0.26627812 27561:0.13667543 28190:0.17071195 31734:0.15375124 33487:0.23698005 35853:0.066848427 36735:0.099092297 36895:0.13626514 36900:0.15892904 37351:0.139972 37562:0.1451164 37583:0.18919696 37707:0.26627812 37956:0.14267801 38699:0.1459814 39620:0.083795741 39900:0.21438411 41213:0.17838392 41257:0.10998122 #
1.0000000001676255 5841:0.12766084 5988:0.084450036 7994:0.13405618 8047:0.35333529 12267:0.34189644 14417:0.43531412 15424:0.29821327 15440:0.17170922 16443:0.26596895 26686:0.14975363 27915:0.33302379 28573:0.24227138 28583:0.31433544 38699:0.21765706 #
1.0000000001676255 378:0.13759737 451:0.17060985 4836:0.1410445 5140:0.10103229 5182:0.089807197 5807:0.23190342 7083:0.23190342 7302:0.12899522 7772:0.18360724 7981:0.20638753 8163:0.083176836 11354:0.10539991 13461:0.12273214 13743:0.19970596 14065:0.30281955 14777:0.11506869 19355:0.079226024 19798:0.1069523 21997:0.125415 23431:0.12403485 24432:0.11003835 24691:0.18670857 26735:0.12688236 28075:0.14932849 31560:0.12638286 31816:0.14509396 31836:0.09245979 31902:0.16232587 32424:0.18360724 33391:0.20638753 34154:0.19970596 35964:0.10979515 36633:0.13969117 36735:0.086300157 36895:0.11867424 37000:0.13531104 37941:0.10248704 38483:0.11417529 39620:0.07297828 39882:0.19028881 41257:0.19156678 41352:0.19970596 #
-1.0000000001676255 1867:0.10040743 5813:0.1242573 5988:0.041227087 6757:0.16690809 8745:0.11603056 10315:0.069971859 10576:0.084439673 10710:0.090303227 12156:0.15903752 12588:0.49490184 12643:0.19720086 14604:0.20885165 15440:0.25147668 15782:0.13281076 16642:0.056949522 17739:0.064879052 17934:0.094125688 18532:0.081016473 19355:0.066214673 19487:0.10625651 19958:0.096947417 20511:0.12779638 21277:0.14259045 21912:0.16690809 22537:0.45803627 24757:0.19381773 25983:0.1156808 26562:0.11788065 28909:0.078409947 29790:0.06573271 30892:0.079778239 31122:0.063487582 31836:0.077275045 32251:0.14259045 32785:0.094355412 36676:0.11711933 37603:0.13057415 39620:0.060992997 #
-0.91068050578630011 11354:0.30653796 16599:0.46565959 21769:0.40500575 35964:0.3193208 36735:0.25098953 36895:0.34514412 36971:0.28212589 37243:0.28962699 41257:0.27856991 #
-0.55099291433459285 6623:0.3772839 13293:0.25466952 14604:0.45595542 16684:0.57012707 39888:0.50976473 #
-0.46704984910117414 15596:0.34481117 16295:0.44538888 40573:0.8262772 #
-0.83457082115977721 19198:0.62546945 35126:0.78024864 #
1.0000000001676255 9:0.35264331 2264:0.18243104 2392:0.14843832 2701:0.20729257 3114:0.16978608 5123:0.16366632 11722:0.1443408 11744:0.24148878 12870:0.10181178 13808:0.1352794 14604:0.15462099 15143:0.14890566 15583:0.13572273 15782:0.19664992 16014:0.16406277 16330:0.18095678 16642:0.084323891 16733:0.14221081 20308:0.13557419 20890:0.19418995 23260:0.16744806 24225:0.1567068 26686:0.1082482 28909:0.11609986 31845:0.25067508 32016:0.26705936 34209:0.15490985 35755:0.15294625 36956:0.069706701 37274:0.21556106 37838:0.19947672 38934:0.13118599 #
1.0000000001676255 5988:0.11122526 14944:0.24951057 15596:0.17276371 16014:0.29893056 16381:0.46536168 18742:0.23480003 25897:0.42906234 27398:0.37769741 35403:0.30509871 35411:0.20534112 38009:0.2692101 #
1.0000000001676255 3736:0.46101192 6168:0.33317453 11434:0.44398168 20486:0.31123105 23789:0.25751457 33404:0.37124702 35411:0.23211884 40316:0.35279027 #
1.0000000001676255 6127:0.31034881 15541:0.42118692 16014:0.3168875 17303:0.27432108 21677:0.49331626 36327:0.55430543 #
1.0000000001676255 1886:0.53742033 5282:0.15477648 9808:0.17208394 13950:0.22212911 14004:0.17159717 15782:0.11656509 16014:0.19449781 21505:0.18005694 26511:0.28537983 26686:0.12832917 32049:0.24368142 35512:0.34021914 35853:0.085411124 37058:0.29298311 37234:0.17208394 37302:0.22432816 38935:0.2210806 #
-0.30519905699671995 8349:0.26234293 18731:0.28901112 25975:0.39137921 29790:0.1909623 35853:0.14135635 37385:0.56306636 39023:0.35793507 39138:0.43916014 #
-0.57320154102995002 18742:0.35460716 22625:0.43207359 35432:0.37555152 38983:0.57552254 39433:0.39184442 39620:0.24851358 #
-1.0000000001676255 15189:0.86213899 25059:0.50667185 #
-1.0000000001676255 5988:0.24341057 6493:0.85954094 35411:0.4493781 #
-0.87572702977452233 2872:0.22516467 6254:0.20560369 10485:0.24446046 11722:0.16712707 17303:0.32889086 26155:0.54531544 27561:0.17055587 30521:0.20143838 33096:0.2213932 35549:0.17616221 37424:0.20276973 39335:0.47219393 #
1.0000000001676255 1390:0.29800677 2628:0.2359439 6382:0.15665051 6458:0.11246637 6475:0.21344687 8351:0.13622585 9038:0.29800677 10286:0.29800677 14604:0.16056117 14758:0.14967805 16200:0.18866436 17739:0.099755563 18968:0.21924165 19198:0.14728911 20890:0.10082514 22934:0.10789113 22939:0.1654117 24558:0.20714016 25059:0.11380661 27538:0.1167511 31781:0.20859635 35242:0.087331556 35411:0.11702745 36463:0.13393866 36956:0.21715401 37234:0.1507328 37377:0.13136211 37957:0.17580724 38961:0.2499716 41134:0.12650599 41257:0.12308614 #
1.0000000001676255 187:0.10993326 5985:0.22600044 6163:0.1240114 6717:0.23202172 8349:0.12553203 10446:0.19821736 10896:0.1178672 11982:0.20472483 12162:0.20237693 12166:0.23978449 12933:0.19862203 14502:0.23978449 15076:0.12245537 15596:0.089019053 18988:0.094614185 19198:0.13316475 19813:0.25072551 19961:0.17349231 20660:0.10643999 22777:0.1776519 23180:0.20472483 25539:0.23978449 27088:0.10178929 27331:0.077096708 27683:0.12659557 29998:0.18997699 31122:0.088255152 34828:0.26942927 34917:0.1256627 35126:0.16611782 36802:0.16080981 36857:0.14954947 40169:0.18997699 #
1.0000000001676255 972:0.14193887 1544:0.14304075 5079:0.16738553 7047:0.14768077 10818:0.44460517 11264:0.16025572 12657:0.14538564 12933:0.10177475 13410:0.16849181 15115:0.19776575 15383:0.21861 19198:0.13646834 22682:0.51071674 24065:0.23777778 25338:0.16738553 26278:0.11884991 31351:0.2031348 34109:0.16382885 36755:0.14663713 38465:0.20980372 39888:0.16632181 #
1.0000000001676255 9390:0.40579599 11666:0.42546934 11744:0.24563062 14335:0.3484475 16295:0.24915282 18587:0.29162341 23949:0.28670076 28909:0.47236449 36956:0.14180452 #
1.0000000001676255 11354:0.21132055 11778:0.36812159 14604:0.25050887 15782:0.31860197 18587:0.23225307 21769:0.2792021 22567:0.2712906 24288:0.3291617 31912:0.33584461 36956:0.11293516 41582:0.46495262 #
-0.99541713219843686 22682:0.69566357 24432:0.53538322 41134:0.47897491 #
-0.056539690574904128 3684:0.43374327 3876:0.20125751 4061:0.23116258 4087:0.1945906 4098:0.30360809 4416:0.31910211 4536:0.6163699 4616:0.32579845 #
-1.0000000001676255 1772:0.053696856 1886:0.047228493 4782:0.030493651 4800:0.056281179 4994:0.047070891 5079:0.10875031 5182:0.069471061 5375:0.038981423 5391:0.052620664 5468:0.052196182 5841:0.057682887 5988:0.076316617 6273:0.068154693 6751:0.066654019 6835:0.047635041 7537:0.048600014 8811:0.058847312 9372:0.034976166 9421:0.079826355 10034:0.031921703 10178:0.039370649 10315:0.032381717 10340:0.07101541 10555:0.061528724 10576:0.039077159 10595:0.33387485 10654:0.066654019 10883:0.079826355 10896:0.11771707 10992:0.10983951 11195:0.056557577 11681:0.092788026 11691:0.075237527 11995:0.069957346 12197:0.052059032 12643:0.045630507 12657:0.047228493 12869:0.05678501 12870:0.063642018 13208:0.042419787 13359:0.075237527 13705:0.082845002 13879:0.087013975 13881:0.15047505 13913:0.043665987 14067:0.043506987 14223:0.14664669 14248:0.18973501 15021:0.061528724 15127:0.13630939 15136:0.10306092 15235:0.057757109 15440:0.19396479 15474:0.089695357 15782:0.092193648 16028:0.044865519 16295:0.11483849 16318:0.089695357 16408:0.089695357 16642:0.052710429 18176:0.089695357 18344:0.073599704 18564:0.075237527 18879:0.054919753 19203:0.042703491 19355:0.091928877 19955:0.036263227 20329:0.079826355 20377:0.061146405 20890:0.060693566 21531:0.079826355 21880:0.051153488 22537:0.035328493 22567:0.05233546 22723:0.055499513 22752:0.089695357 23155:0.061528724 23436:0.067373052 23609:0.054734528 24288:0.09524931 24348:0.067373052 24524:0.077773392 24582:0.042751659 24816:0.089695357 24863:0.066654019 24892:0.040922694 25059:0.10276201 25130:0.033995211 26371:0.079976104 26735:0.049075425 26819:0.065368518 27213:0.050791703 27331:0.025666168 27336:0.068154693 27477:0.089695357 28075:0.11551422 28278:0.055108879 28281:0.052766733 28288:0.10439236 28352:0.051530462 28353:0.077242061 29118:0.18026502 29790:0.030419918 30021:0.069957346 31415:0.05678501 31836:0.035761498 31842:0.069957346 32063:0.064244159 32089:0.059141871 32137:0.07101541 32568:0.053861689 32686:0.051277395 32834:0.052059032 32954:0.050791703 33259:0.17939071 33260:0.089695357 33262:0.089695357 33406:0.16693743 33476:0.089695357 33663:0.04683955 34735:0.072214946 35081:0.073599704 35644:0.035542388 35853:0.045035575 35992:0.057757109 36735:0.066758171 36857:0.049786326 36956:0.06535995 37028:0.14097737 37141:0.069957346 37250:0.051923946 37377:0.15815175 37418:0.07101541 37705:0.17939071 39512:0.096297003 41134:0.11422894 41434:0.075237527 #
-0.47353013354737866 18205:0.46112114 19870:0.57339507 35144:0.67718935 #
-0.70825153148076636 9186:0.55194443 11388:0.33040473 18587:0.41599917 25370:0.38069141 26208:0.47381198 35853:0.20907177 #
1.0000000001676255 5613:0.37302095 6493:0.43512493 12837:0.32652822 16342:0.45181546 22090:0.32578915 36735:0.21557687 37051:0.24647242 37093:0.38393119 #
1.0000000001676255 15189:0.50232023 30967:0.68796295 36942:0.5238142 #
1.0000000001676255 15381:0.45193738 16389:0.67722958 22939:0.40394506 28116:0.41706237 #
1.0000000001676255 909:0.31801733 929:0.21037994 3301:0.32035127 5014:0.34955683 5375:0.19745037 10508:0.23686971 10658:0.22725475 12870:0.16118114 13906:0.2572723 22370:0.29956794 22493:0.42278928 22625:0.24857894 34338:0.24617086 #
1.0000000001676255 6493:0.48520499 6494:0.64596504 10310:0.27717713 27881:0.52007514 #
-0.9737813633452973 10310:1 #
-1.0000000001676255 936:0.14045735 4857:0.24014866 4859:0.21045886 6183:0.14137353 6623:0.12029959 6847:0.17534596 8416:0.10930638 10310:0.34735495 10342:0.26983845 16553:0.1395712 18968:0.19851841 19702:0.16305681 19955:0.10909387 20486:0.14208165 21304:0.17225404 22939:0.14977659 23920:0.14001064 25196:0.21045886 25607:0.21045886 34052:0.11874302 34054:0.32021141 36560:0.13767764 36895:0.13808712 37280:0.26983845 38827:0.12747553 39433:0.13389176 39512:0.14484939 39900:0.21725059 #
-0.29457785209221848 3301:0.57377756 4800:0.12764992 6973:0.29389149 13018:0.28281048 23880:0.29652137 24225:0.22217292 27331:0.11642557 30913:0.23804319 36600:0.40687156 36956:0.19765499 40456:0.27570575 #
-0.87865745284006003 10310:0.18550834 16733:0.42847317 19962:0.26750645 24524:0.18743303 27881:0.69614893 28223:0.40231737 35411:0.16977614 #
-0.19704217205888291 902:0.39780048 3637:0.26699001 7429:0.13377382 8416:0.16942251 10310:0.35892838 13293:0.12586309 15541:0.31780097 15546:0.22793472 22403:0.22329916 28116:0.23968908 30146:0.2552236 30655:0.3431907 32437:0.23795554 38480:0.28176895 #
1.0000000001676255 910:0.39665008 12133:0.36856604 13913:0.31537133 23898:0.28932291 26371:0.28880799 27077:0.38781786 29381:0.31346858 37351:0.34052941 41134:0.27500072 #
1.0000000001676255 12870:0.29759151 13705:0.25825673 15440:0.36279351 19958:0.41958436 24765:0.42550308 25370:0.38345107 40901:0.45714879 #
