SVM-light Version V6.02
0 # kernel type
3 # kernel parameter -d 
3.2 # kernel parameter -g 
1 # kernel parameter -s 
1 # kernel parameter -r 
empty# kernel parameter -u 
50 # highest feature index 
20271 # number of training documents 
541 # number of support vectors plus 1 
1.8404757 # threshold b, each following line is a SV (starting with alpha*y)
-0.5 1:-0.16563442 2:0.20322374 3:0.071080625 4:-0.21129759 5:-0.2876178 6:0.16869281 7:0.089416176 8:-0.085716151 9:-0.24833585 10:-0.15012321 11:0.18998282 12:0.15694043 13:0.045964275 14:0.037491962 15:-0.16098855 16:0.10679936 17:0.16425623 18:0.16607657 19:0.18686017 20:0.15834704 21:0.0091676814 22:0.12627679 23:0.0080840159 24:0.12089172 25:0.11503067 26:-0.090207025 27:-0.31172398 28:-0.073328495 29:0.12420377 30:0.092867993 31:0.089312583 32:-0.047712222 33:0.0084474487 34:0.086295992 35:0.014404641 36:-0.16569743 37:0.12244916 38:0.099248394 39:0.068586603 40:0.021893563 41:-0.030527728 42:0.31150788 43:0.048627943 44:-0.095108561 45:0.18700844 46:-0.025330821 47:0.020164501 48:-0.035329849 49:0.033245787 50:-0.22983119 #
-0.5 1:-0.16563442 2:0.20322374 3:0.071080625 4:-0.21129759 5:-0.2876178 6:0.16869281 7:0.089416176 8:-0.085716151 9:-0.24833585 10:-0.15012321 11:0.18998282 12:0.15694043 13:0.045964275 14:0.037491962 15:-0.16098855 16:0.10679936 17:0.16425623 18:0.16607657 19:0.18686017 20:0.15834704 21:0.0091676814 22:0.12627679 23:0.0080840159 24:0.12089172 25:0.11503067 26:-0.090207025 27:-0.31172398 28:-0.073328495 29:0.12420377 30:0.092867993 31:0.089312583 32:-0.047712222 33:0.0084474487 34:0.086295992 35:0.014404641 36:-0.16569743 37:0.12244916 38:0.099248394 39:0.068586603 40:0.021893563 41:-0.030527728 42:0.31150788 43:0.048627943 44:-0.095108561 45:0.18700844 46:-0.025330821 47:0.020164501 48:-0.035329849 49:0.033245787 50:-0.22983119 #
0.5 1:0.055939805 2:0.39889026 3:0.12436152 4:0.091287762 5:-0.161548 6:0.18259254 7:0.1104506 8:-0.25235391 9:-0.24180827 10:0.06342271 11:0.3549993 12:0.20502511 13:0.0086648595 14:0.07397572 15:-0.090458065 16:0.054548427 17:0.13009889 18:0.096130751 19:0.0049567013 20:-0.097277693 21:-0.058593683 22:-0.1282313 23:-0.19236992 24:0.046088103 25:-0.012124077 26:0.10039581 27:-0.017056409 28:0.083615132 29:0.067778096 30:0.056324165 31:-0.061512221 32:-0.024684284 33:-0.060225405 34:-0.050294306 35:-0.13011992 36:-0.042046148 37:0.25956687 38:0.050364394 39:0.13019276 40:-0.022335984 41:0.17739987 42:0.28835461 43:-0.060161654 44:-0.061333224 45:-0.025073729 46:-0.056071725 47:-0.061579376 48:-0.031620942 49:-0.12625748 50:-0.21983607 #
0.5 1:-0.16563296 2:0.2032288 3:0.071072593 4:-0.21129702 5:-0.28762031 6:0.16871256 7:0.089401975 8:-0.085720524 9:-0.24833383 10:-0.15013859 11:0.19000846 12:0.15693738 13:0.045977928 14:0.037496034 15:-0.16095147 16:0.10680338 17:0.16424522 18:0.16604857 19:0.18686937 20:0.1583498 21:0.0091718743 22:0.12631646 23:0.0080923447 24:0.12090021 25:0.115008 26:-0.090218976 27:-0.31168178 28:-0.073337533 29:0.12422331 30:0.092848115 31:0.089337446 32:-0.047731798 33:0.0084232725 34:0.086320564 35:0.014415827 36:-0.16571154 37:0.12244379 38:0.099221952 39:0.068553381 40:0.021909242 41:-0.030513935 42:0.31151551 43:0.04862497 44:-0.095110424 45:0.18702187 46:-0.02532728 47:0.020188812 48:-0.035321523 49:0.033262026 50:-0.22982858 #
0.5 1:-0.1656343 2:0.20322418 3:0.071080305 4:-0.21129856 5:-0.28761807 6:0.16869611 7:0.089415565 8:-0.085717238 9:-0.24833471 10:-0.1501234 11:0.18998559 12:0.15694055 13:0.045964863 14:0.037491497 15:-0.16098641 16:0.10679857 17:0.16425683 18:0.16607627 19:0.18685855 20:0.15834561 21:0.0091688512 22:0.12627932 23:0.0080842851 24:0.12089024 25:0.11502979 26:-0.090206295 27:-0.31172159 28:-0.073329449 29:0.1242049 30:0.092867255 31:0.089313932 32:-0.047714036 33:0.0084467568 34:0.086294986 35:0.01440485 36:-0.16569798 37:0.12244955 38:0.099248923 39:0.068584777 40:0.021894028 41:-0.030526944 42:0.31150848 43:0.048627045 44:-0.095109098 45:0.18700898 46:-0.025327206 47:0.020167148 48:-0.035328362 49:0.033244535 50:-0.22983105 #
-0.5 1:0.39979246 2:0.056933865 3:0.11084624 4:-0.018429516 5:0.019966938 6:0.060047764 7:0.075949289 8:-0.37605974 9:-0.053892367 10:-0.044528987 11:0.17859706 12:0.018389264 13:-0.23268187 14:-0.012263162 15:0.014519157 16:0.013066527 17:0.11469158 18:0.057315182 19:0.00089982571 20:-0.24986359 21:0.092229277 22:-0.24738491 23:-0.25404617 24:0.030449502 25:-0.026680619 26:0.023943748 27:0.071554005 28:-0.032849118 29:0.059183903 30:-0.30480871 31:-0.041477486 32:0.12433529 33:-0.033065379 34:-0.16475242 35:-0.17730211 36:-0.098435409 37:0.057831783 38:-0.094680101 39:-0.021801839 40:-0.2829285 41:-0.010401108 42:0.1635775 43:0.014889043 44:-0.060967837 45:0.019668028 46:0.01147123 47:-0.066123851 48:-0.05739902 49:-0.098914377 50:-0.18767367 #
-0.5 1:-0.16563442 2:0.20322374 3:0.071080625 4:-0.21129759 5:-0.2876178 6:0.16869281 7:0.089416176 8:-0.085716151 9:-0.24833585 10:-0.15012321 11:0.18998282 12:0.15694043 13:0.045964275 14:0.037491962 15:-0.16098855 16:0.10679936 17:0.16425623 18:0.16607657 19:0.18686017 20:0.15834704 21:0.0091676814 22:0.12627679 23:0.0080840159 24:0.12089172 25:0.11503067 26:-0.090207025 27:-0.31172398 28:-0.073328495 29:0.12420377 30:0.092867993 31:0.089312583 32:-0.047712222 33:0.0084474487 34:0.086295992 35:0.014404641 36:-0.16569743 37:0.12244916 38:0.099248394 39:0.068586603 40:0.021893563 41:-0.030527728 42:0.31150788 43:0.048627943 44:-0.095108561 45:0.18700844 46:-0.025330821 47:0.020164501 48:-0.035329849 49:0.033245787 50:-0.22983119 #
-0.5 1:-0.13292071 2:0.021233615 3:0.051488768 4:0.16485523 5:-0.079788037 6:0.15562119 7:-0.12762907 8:-0.054388463 9:0.043013249 10:-0.031894024 11:0.22443059 12:-0.2776261 13:-0.11761418 14:0.17083588 15:-0.20609385 16:-0.14147942 17:0.27410728 18:0.14498596 19:-0.008495057 20:-0.0522644 21:0.016186086 22:-0.17961472 23:0.1978709 24:-0.33738616 25:-0.072938696 26:-0.010713383 27:-0.010780452 28:-0.046869237 29:0.013508949 30:-0.051087964 31:0.20163001 32:-0.040919192 33:0.085659936 34:0.14344476 35:0.20378509 36:-0.028730685 37:-0.11689898 38:-0.044792302 39:-0.15227054 40:0.22246644 41:-0.093721755 42:-0.012728486 43:-0.087943718 44:-0.11329193 45:-0.11782224 46:0.27192217 47:0.10361581 48:-0.11056706 49:-0.10537472 50:-0.13800067 #
-0.5 1:-0.16563442 2:0.20322374 3:0.071080625 4:-0.21129759 5:-0.2876178 6:0.16869281 7:0.089416176 8:-0.085716151 9:-0.24833585 10:-0.15012321 11:0.18998282 12:0.15694043 13:0.045964275 14:0.037491962 15:-0.16098855 16:0.10679936 17:0.16425623 18:0.16607657 19:0.18686017 20:0.15834704 21:0.0091676814 22:0.12627679 23:0.0080840159 24:0.12089172 25:0.11503067 26:-0.090207025 27:-0.31172398 28:-0.073328495 29:0.12420377 30:0.092867993 31:0.089312583 32:-0.047712222 33:0.0084474487 34:0.086295992 35:0.014404641 36:-0.16569743 37:0.12244916 38:0.099248394 39:0.068586603 40:0.021893563 41:-0.030527728 42:0.31150788 43:0.048627943 44:-0.095108561 45:0.18700844 46:-0.025330821 47:0.020164501 48:-0.035329849 49:0.033245787 50:-0.22983119 #
-0.5 1:-0.0089208232 2:-0.031687099 3:0.0041961554 4:-0.22754583 5:-0.32003066 6:-0.10771697 7:-0.11738432 8:-0.063368089 9:0.28451511 10:-0.083477914 11:0.022472719 12:0.077809259 13:-0.093936503 14:0.14473279 15:0.11528333 16:-0.19640724 17:0.19616589 18:-0.13415617 19:0.058189336 20:-0.1179481 21:0.20822558 22:-0.12632181 23:0.088112876 24:-0.07943812 25:0.18921359 26:0.0099459076 27:-0.042541724 28:0.018179081 29:-0.1516251 30:-0.040751506 31:0.089385137 32:-0.039362043 33:0.13381401 34:-0.11544357 35:-0.19034144 36:-0.094176181 37:0.071243271 38:0.11460456 39:0.23331781 40:0.12352455 41:-0.3147361 42:0.070118763 43:-0.088076495 44:0.1988765 45:0.16067812 46:0.12399086 47:-0.1805741 48:-0.070383988 49:0.11930618 50:0.10622836 #
0.5 1:-0.12928374 2:0.17052659 3:0.020081369 4:-0.26668319 5:-0.30962351 6:0.20616336 7:0.032165449 8:-0.069737107 9:-0.23056634 10:-0.15686606 11:0.069683291 12:0.19071002 13:0.13763461 14:0.035234753 15:-0.1001041 16:0.077950373 17:0.12701926 18:0.10233063 19:0.24031104 20:0.14338303 21:0.010145983 22:0.12371597 23:0.079633519 24:0.10511752 25:0.024532091 26:-0.12968169 27:-0.188851 28:-0.11468654 29:0.18794659 30:0.16409183 31:0.10333562 32:-0.023152502 33:0.0016161459 34:0.037819538 35:0.048707314 36:-0.21906224 37:0.029793145 38:0.099213168 39:-0.0032024439 40:0.053592335 41:-0.05868816 42:0.3226293 43:0.074022569 44:-0.017053546 45:0.29549915 46:-0.035192594 47:0.076483101 48:0.12184355 49:0.043368328 50:-0.12601364 #
0.1895483769818323 1:-0.16563442 2:0.20322374 3:0.071080625 4:-0.21129759 5:-0.2876178 6:0.16869281 7:0.089416176 8:-0.085716151 9:-0.24833585 10:-0.15012321 11:0.18998282 12:0.15694043 13:0.045964275 14:0.037491962 15:-0.16098855 16:0.10679936 17:0.16425623 18:0.16607657 19:0.18686017 20:0.15834704 21:0.0091676814 22:0.12627679 23:0.0080840169 24:0.12089172 25:0.11503067 26:-0.090207025 27:-0.31172398 28:-0.073328495 29:0.12420377 30:0.092867993 31:0.089312583 32:-0.047712222 33:0.0084474478 34:0.086295992 35:0.014404641 36:-0.16569743 37:0.12244916 38:0.099248394 39:0.068586603 40:0.021893563 41:-0.030527728 42:0.31150788 43:0.048627943 44:-0.095108561 45:0.18700844 46:-0.025330821 47:0.020164501 48:-0.035329849 49:0.033245787 50:-0.22983119 #
0.5 1:-0.1864838 2:0.075445339 3:-0.036814645 4:-0.17295593 5:-0.28746429 6:0.16521637 7:0.11680461 8:-0.10473483 9:-0.24335095 10:-0.079515673 11:0.12540349 12:0.040084615 13:0.094507053 14:-0.053721428 15:-0.11521515 16:0.14089657 17:0.094564922 18:0.14848611 19:0.25408843 20:0.14049299 21:-0.014968575 22:0.1573844 23:0.020509424 24:0.045882721 25:0.092300497 26:-0.1341743 27:-0.20732251 28:-0.15259412 29:0.076035447 30:0.21570167 31:0.168153 32:0.010382717 33:-0.070098333 34:0.19223784 35:0.085430175 36:-0.16737655 37:0.06963519 38:0.097950228 39:0.048943583 40:0.074069627 41:-0.012852126 42:0.32724851 43:0.087529987 44:-0.081191875 45:0.27532369 46:-0.0035723906 47:-0.0035617277 48:0.034905452 49:0.022909557 50:-0.22587121 #
0.5 1:-0.11688291 2:0.21358839 3:0.079278536 4:-0.1697479 5:-0.29233015 6:0.26383975 7:0.0095674368 8:-0.058358099 9:-0.22484028 10:-0.15836278 11:0.21204025 12:0.21455783 13:0.051113479 14:0.053606056 15:-0.13359697 16:0.072758026 17:0.15739872 18:0.16089381 19:0.17618649 20:0.15077636 21:0.0090454761 22:0.17368211 23:-0.0033518949 24:0.17003055 25:0.093508005 26:-0.072906509 27:-0.28030685 28:-0.094782524 29:0.1591327 30:0.0064642346 31:0.087438218 32:-0.079366691 33:0.087549694 34:0.054397892 35:-0.007412795 36:-0.17397097 37:0.077408552 38:0.078559719 39:0.0026802681 40:0.016115012 41:-0.016574789 42:0.28155571 43:0.0057443562 44:-0.093657978 45:0.18858424 46:-0.046968877 47:0.072456688 48:-0.012549624 49:0.048462894 50:-0.24497521 #
-0.5 1:-0.16605726 2:0.19941227 3:0.06733942 4:-0.21040758 5:-0.29132923 6:0.15102531 7:0.089844272 8:-0.087421484 9:-0.25221086 10:-0.14926219 11:0.17748821 12:0.15096565 13:0.039643586 14:0.038957596 15:-0.17747311 16:0.11673409 17:0.16078693 18:0.16055182 19:0.19894747 20:0.17523167 21:0.010649288 22:0.11373794 23:0.0052524377 24:0.13245259 25:0.12400895 26:-0.091316938 27:-0.31862128 28:-0.061394986 29:0.11862983 30:0.098231278 31:0.080148019 32:-0.043021727 33:0.0057229227 34:0.08718165 35:0.013530802 36:-0.16521259 37:0.11249025 38:0.098415114 39:0.07701385 40:0.017591426 41:-0.03329793 42:0.3004826 43:0.053608231 44:-0.087679513 45:0.18489149 46:-0.047733016 47:0.01222262 48:-0.037245728 49:0.048491146 50:-0.22917275 #
-0.5 1:-0.16276534 2:0.19775867 3:0.07514061 4:-0.20521745 5:-0.29262415 6:0.17432283 7:0.093877383 8:-0.090973891 9:-0.24769704 10:-0.14887911 11:0.18654093 12:0.15832177 13:0.042602941 14:0.032080263 15:-0.1598096 16:0.11045214 17:0.16092446 18:0.16460499 19:0.1902592 20:0.16304144 21:0.01684181 22:0.13243753 23:0.011806588 24:0.12858076 25:0.10656524 26:-0.091693297 27:-0.30910528 28:-0.075575843 29:0.12221091 30:0.089505449 31:0.086604409 32:-0.051967107 33:0.0052685579 34:0.086517602 35:0.015092302 36:-0.17075565 37:0.11672842 38:0.10467782 39:0.071068205 40:0.021926807 41:-0.027230047 42:0.30921859 43:0.043694284 44:-0.087156951 45:0.18572217 46:-0.025122542 47:0.027415641 48:-0.025932169 49:0.037854835 50:-0.2329649 #
-0.5 1:-0.16373202 2:0.2038389 3:0.068516135 4:-0.21025369 5:-0.28922737 6:0.16905123 7:0.087505698 8:-0.084725276 9:-0.24846169 10:-0.15043934 11:0.19173576 12:0.15661809 13:0.047802962 14:0.037023362 15:-0.15870228 16:0.10642567 17:0.16443388 18:0.16353774 19:0.19025543 20:0.15942943 21:0.010204596 22:0.12984131 23:0.0076679699 24:0.12340561 25:0.11385127 26:-0.091855876 27:-0.30818939 28:-0.072813638 29:0.12591125 30:0.091167182 31:0.09077812 32:-0.049998716 33:0.0063829678 34:0.089006819 35:0.01555483 36:-0.16809803 37:0.11925084 38:0.096682712 39:0.065937229 40:0.022726821 41:-0.028351434 42:0.30986926 43:0.049093261 44:-0.094397664 45:0.18902478 46:-0.026612388 47:0.021665338 48:-0.035311028 49:0.036626685 50:-0.23038524 #
-0.5 1:-0.16377005 2:0.20250575 3:0.069299549 4:-0.20401506 5:-0.29043719 6:0.16197111 7:0.087054335 8:-0.083406396 9:-0.25131598 10:-0.14954303 11:0.18680835 12:0.15209426 13:0.043780759 14:0.040353976 15:-0.16438162 16:0.10820255 17:0.16118002 18:0.16483176 19:0.19623858 20:0.16538848 21:0.0060489168 22:0.12357212 23:0.0048479838 24:0.130945 25:0.11359327 26:-0.090807654 27:-0.31225008 28:-0.06858284 29:0.12468269 30:0.08891736 31:0.088952698 32:-0.044599835 33:0.0036022468 34:0.093628913 35:0.01246868 36:-0.16801879 37:0.11896631 38:0.091331199 39:0.074260473 40:0.022318078 41:-0.032241728 42:0.31065714 43:0.050862502 44:-0.093283303 45:0.18747614 46:-0.039822329 47:0.01392691 48:-0.039750922 49:0.044387061 50:-0.22718842 #
-0.5 1:-0.16564594 2:0.2032596 3:0.071088567 4:-0.21134716 5:-0.28764388 6:0.16910331 7:0.089217633 8:-0.085829064 9:-0.24820329 10:-0.15033051 11:0.19034903 12:0.1570178 13:0.046124954 14:0.037518483 15:-0.16047665 16:0.10681659 17:0.16411227 18:0.16579919 19:0.18681677 20:0.15830927 21:0.0092397919 22:0.12682931 23:0.0082591837 24:0.12088753 25:0.11470744 26:-0.090291187 27:-0.31117257 28:-0.073563233 29:0.12444673 30:0.092592888 31:0.08962322 32:-0.047970738 33:0.0082361382 34:0.086487174 35:0.014529616 36:-0.16587049 37:0.12248617 38:0.09902674 39:0.068144299 40:0.02212555 41:-0.030367794 42:0.31168887 43:0.048469611 44:-0.095133714 45:0.18713574 46:-0.025083851 47:0.020606011 48:-0.035126876 49:0.033302888 50:-0.22976223 #
0.5 1:-0.054014146 2:0.01347413 3:0.325241 4:-0.032683805 5:0.022087866 6:-0.048505791 7:0.17757405 8:0.13802783 9:0.073661737 10:-0.082897224 11:0.10043423 12:-0.33830848 13:0.072857156 14:-0.09012866 15:0.19655116 16:0.2200052 17:0.059238181 18:0.078280151 19:-0.099041842 20:-0.030365525 21:-0.046166338 22:0.13968974 23:-0.2069263 24:-0.30057001 25:0.10466313 26:0.036687531 27:-0.029182857 28:-0.025483286 29:-0.012541507 30:0.075568318 31:-0.051250558 32:0.12463873 33:0.068532147 34:-0.045500226 35:-0.082062066 36:-0.046621725 37:-0.081619442 38:0.11410194 39:0.06635569 40:-0.04140408 41:-0.076668985 42:0.39528617 43:-0.093774125 44:-0.12927294 45:0.20241039 46:0.012050494 47:-0.23948072 48:-0.14197341 49:0.15005177 50:-0.1267772 #
0.5 1:-0.12581135 2:0.11324673 3:0.1373544 4:-0.0073751039 5:-0.0095647145 6:-0.18902601 7:0.1704182 8:-0.016372481 9:-0.082563423 10:-0.056146152 11:0.090459868 12:0.26862797 13:-0.17001216 14:0.12421467 15:-0.29526347 16:-0.17659801 17:-0.14935318 18:0.10339674 19:-0.071843244 20:0.082560994 21:0.15238282 22:-0.17290008 23:-0.22485715 24:-0.052444045 25:0.12748198 26:-0.26657006 27:-0.012220221 28:0.12310419 29:0.027115436 30:0.11640296 31:0.29042402 32:0.15022635 33:-0.10753179 34:0.025707908 35:-0.16698748 36:0.257723 37:0.27708256 38:0.0044252411 39:-0.062866807 40:-0.065339848 41:0.022471331 42:-0.037407529 43:0.1340661 44:0.0027805732 45:-0.02399376 46:-0.026475988 47:-0.10093517 48:0.028466595 49:0.13267392 50:-0.13324897 #
0.5 1:-0.046875894 2:0.13312103 3:-0.13015573 4:0.11478144 5:-0.078892611 6:-0.10743535 7:0.25003827 8:-0.27255806 9:-0.12206332 10:-0.0015358309 11:0.058520321 12:0.16409573 13:0.072664768 14:0.094143786 15:-0.10400032 16:0.2459625 17:-0.049508471 18:0.04011381 19:0.028205186 20:0.017996576 21:0.094611295 22:-0.30762693 23:0.026858484 24:-0.20890951 25:0.046588302 26:-0.30664468 27:-0.25680357 28:0.068476684 29:-0.2690371 30:0.069738433 31:0.045350388 32:-0.060457796 33:-0.087723307 34:-0.11246349 35:-0.1536202 36:0.29020277 37:0.13912198 38:0.049413364 39:0.15288129 40:-0.0034924869 41:0.14884354 42:0.070668422 43:-0.023419784 44:0.054826338 45:-0.11548302 46:0.025540546 47:0.12993549 48:-0.040178619 49:0.032237783 50:-0.15552309 #
0.5 1:-0.03399865 2:0.22510728 3:0.13007422 4:0.13578843 5:-0.1926759 6:-0.086286299 7:-0.015381504 8:-0.057049707 9:0.083457768 10:-0.14865296 11:-0.23104395 12:0.09867397 13:0.081289507 14:0.15512146 15:0.046023458 16:-0.044350177 17:0.20020136 18:-0.30824858 19:0.12677866 20:0.2477583 21:0.094473258 22:0.0052561103 23:-0.019565009 24:0.12736151 25:0.057534851 26:0.056117818 27:0.029177295 28:-0.21289812 29:0.21791273 30:-0.039013263 31:-0.040615566 32:0.16169475 33:0.20310794 34:-0.15965369 35:-0.12883139 36:0.09389133 37:0.088757813 38:0.11023606 39:0.10411596 40:0.071930699 41:-0.07680244 42:-0.11655709 43:0.22743684 44:0.096161902 45:0.041727193 46:-0.28910664 47:-0.17361663 48:0.20366129 49:0.034681048 50:-0.058821611 #
0.5 1:-0.014879274 2:0.10255631 3:0.040079471 4:-0.10388431 5:-0.18172722 6:0.073848158 7:0.19279855 8:-0.11254571 9:0.041746374 10:0.072807625 11:0.0098677129 12:0.027641049 13:-0.02159572 14:-0.090638876 15:-0.41344643 16:-0.072666422 17:-0.18254954 18:-0.020214263 19:-0.073427394 20:0.074296549 21:0.054687377 22:-0.38176256 23:-0.0052999877 24:-0.04925349 25:0.025344299 26:-0.13083473 27:-0.20081368 28:0.032734953 29:0.031943575 30:0.024010781 31:0.10252535 32:-0.10295802 33:-0.2015001 34:-0.15920854 35:-0.0353982 36:-0.030031871 37:0.069411337 38:0.014621923 39:-0.12456717 40:-0.20274353 41:-0.014364693 42:0.23156117 43:0.012357687 44:0.16730024 45:0.02496318 46:-0.20224644 47:-0.1174366 48:-0.33692455 49:-0.15733072 50:-0.11281059 #
-0.5 1:0.063149653 2:-0.18697061 3:0.053942207 4:0.08524058 5:-0.059972245 6:0.032024264 7:-0.10279015 8:0.093850665 9:0.12891522 10:-0.12252873 11:0.026303288 12:0.21355738 13:-0.037879437 14:0.061798092 15:0.12708245 16:-0.081614248 17:-0.13296194 18:-0.12901774 19:-0.040114149 20:-0.027597612 21:-0.059936389 22:0.14231806 23:0.15916774 24:0.16605408 25:0.11033656 26:-0.36639461 27:-0.086337179 28:-0.096062317 29:0.038168997 30:-0.031923413 31:0.15972924 32:-0.10155013 33:-0.14653273 34:-0.11156232 35:-0.11435623 36:0.07753817 37:-0.17323188 38:0.024510778 39:0.11370897 40:0.16449285 41:0.067442328 42:-0.026958102 43:0.31039068 44:-0.17816511 45:0.04791154 46:-0.2095616 47:-0.1423298 48:0.023746304 49:0.17016895 50:-0.39125052 #
-0.5 1:0.15570354 2:0.10411128 3:0.058694415 4:-0.06745968 5:0.073561229 6:-0.041417565 7:0.037153777 8:-0.037827741 9:-0.0059938626 10:0.055155028 11:0.13869902 12:0.46466479 13:-0.025084225 14:0.18949391 15:-0.096064515 16:-0.17228362 17:0.062484451 18:-0.10500324 19:0.18006463 20:0.034732774 21:-0.10448787 22:0.12486199 23:-0.043318488 24:-0.069160461 25:-0.043901686 26:-0.11239695 27:0.038898196 28:-0.057950541 29:-0.090918772 30:-0.0029157123 31:-0.20737858 32:0.15724812 33:0.022587135 34:0.075288475 35:-0.12743889 36:-0.041697748 37:-0.094700292 38:-0.096650019 39:0.062868506 40:-0.069555901 41:-0.13936073 42:0.32273504 43:0.34390584 44:-0.024080345 45:0.27744856 46:-0.28263196 47:-6.173674e-005 48:-0.033839677 49:-0.06664484 50:-0.0026840372 #
-0.5 1:-0.11458651 2:-0.053367406 3:0.31006125 4:0.060171835 5:0.033604447 6:-0.14713958 7:0.011012957 8:0.04112817 9:0.012929344 10:-0.058947932 11:-0.00064729957 12:0.10431425 13:-0.2309932 14:-0.083867021 15:-0.35086706 16:0.11967389 17:0.17220892 18:-0.15661147 19:0.032088026 20:0.031601578 21:0.027636275 22:-0.18771601 23:-0.15664196 24:-0.047786232 25:-0.22081931 26:0.12240491 27:-0.14561668 28:-0.20358954 29:0.24559765 30:-0.059919961 31:-0.086914562 32:0.077173501 33:-0.14813949 34:0.08439368 35:-0.0013685392 36:-0.10053098 37:0.050273597 38:-0.15559469 39:-0.083023414 40:0.11244895 41:0.28083915 42:0.092843384 43:0.11175582 44:-0.047045965 45:0.089692496 46:-0.15813264 47:0.21481459 48:-0.20375299 49:0.12089282 50:0.038828246 #
-0.5 1:-0.2527152 2:0.15876158 3:0.025778241 4:-0.065221295 5:-0.33654603 6:-0.14812019 7:0.14439166 8:0.064459078 9:-0.2674399 10:0.087807946 11:-0.14275184 12:0.037058536 13:0.067797489 14:0.10911375 15:0.05553966 16:0.057574578 17:-0.065686017 18:0.12157291 19:-0.087261334 20:0.089544758 21:0.019638443 22:-0.044967204 23:-0.021624476 24:0.067326397 25:-0.042100575 26:-0.09403459 27:-0.045744963 28:-0.12107971 29:0.015205476 30:-0.051820505 31:0.047046699 32:0.040298957 33:-0.0071514016 34:0.149782 35:0.083035648 36:-0.12500361 37:0.28512096 38:-0.21126403 39:-0.30359456 40:0.20877154 41:0.054843269 42:0.12079629 43:0.055126097 44:-0.2493358 45:0.22233197 46:-0.20390004 47:-0.051983796 48:-0.15537305 49:0.00089910446 50:0.19573973 #
-0.5 1:0.12235282 2:-0.25248349 3:0.13796878 4:0.091272503 5:-0.12073722 6:-0.031810146 7:0.044997491 8:0.049676403 9:0.0095150359 10:-0.019030072 11:0.076235779 12:0.22870988 13:-0.022077102 14:0.1273426 15:0.24904698 16:0.17282672 17:-0.098277524 18:0.11643963 19:-0.17811565 20:-0.14089803 21:-0.0084735816 22:0.061856639 23:-0.34322077 24:-0.066163637 25:0.058222484 26:0.28713205 27:-0.2368436 28:0.04180368 29:-0.10026046 30:-0.10575162 31:0.012073137 32:-0.027293276 33:-0.30118507 34:0.14782444 35:-0.0047811759 36:0.16542664 37:-0.040342744 38:-0.10889837 39:0.11201739 40:-0.17562903 41:0.019905921 42:0.26510125 43:0.15297778 44:-0.028993081 45:-0.1882865 46:0.023517432 47:-0.070645146 48:-0.025082922 49:0.032676075 50:-0.074478991 #
0.5 1:-0.0080711385 2:0.2020397 3:0.059011552 4:-0.13217175 5:-0.12507468 6:0.24498676 7:0.024715407 8:-0.074286625 9:-0.27877218 10:-0.15565233 11:0.38923839 12:0.070935436 13:-0.092839837 14:0.044381175 15:-0.046521891 16:0.089702487 17:0.21681398 18:0.20059492 19:0.11022436 20:0.15496287 21:-0.059891362 22:0.29684046 23:-0.024287717 24:0.084938794 25:0.092836022 26:-0.017952992 27:-0.084897764 28:0.047614396 29:0.10290933 30:-0.0076808971 31:0.19141153 32:-0.080676891 33:-0.092426121 34:0.24424104 35:0.043454003 36:-0.062998898 37:0.032131985 38:0.17394976 39:0.070985667 40:0.0244227 41:0.04107466 42:0.25642058 43:-0.013366095 44:-0.20557742 45:0.11740462 46:-0.02638582 47:-0.0770199 48:-0.04030573 49:0.071800098 50:-0.184156 #
0.5 1:-0.083317481 2:-0.002257844 3:0.065147899 4:-0.13957042 5:-0.042999931 6:0.26004213 7:-0.051043447 8:-0.11565509 9:-0.25969505 10:-0.13625209 11:0.32778117 12:0.1687106 13:-0.034473818 14:0.13261482 15:-0.13477351 16:-0.074614115 17:0.24467534 18:0.065681897 19:0.11242424 20:0.11144803 21:-0.08054655 22:0.16733129 23:0.0082857143 24:0.1851888 25:0.16908203 26:0.00024417395 27:-0.2247227 28:-0.0070248828 29:0.3371847 30:0.081568167 31:0.084284052 32:0.0043920656 33:-0.061450515 34:-0.031635001 35:0.04211488 36:-0.141721 37:0.096229322 38:0.073503658 39:-0.062977895 40:-0.12804149 41:-0.019489415 42:0.20380816 43:-0.087728716 44:-0.090355702 45:0.19060983 46:0.061006807 47:0.13661182 48:0.010571638 49:0.03812167 50:-0.2739377 #
0.5 1:-0.088684052 2:0.20863253 3:0.1356995 4:-0.17469276 5:-0.23706418 6:0.23604964 7:0.11429138 8:-0.056643125 9:-0.27646437 10:-0.092094712 11:0.12292003 12:0.16560476 13:-0.058805093 14:0.079102121 15:-0.022482656 16:0.090774409 17:0.17231147 18:0.13773391 19:0.13771106 20:0.051513646 21:0.10760862 22:0.22544107 23:0.17479923 24:0.15258363 25:-0.041840464 26:-0.10518878 27:-0.23367907 28:-0.03176051 29:0.14711322 30:0.07346119 31:0.12463519 32:-0.073084123 33:-0.0039911116 34:0.17565539 35:0.10214797 36:-0.22568426 37:0.12027714 38:0.13415827 39:-0.0066852751 40:-0.025753884 41:-0.0013006189 42:0.34773773 43:-0.017042052 44:0.0044295313 45:0.13380003 46:0.065206327 47:0.029862989 48:-0.0049270215 49:0.079231709 50:-0.21614957 #
0.5 1:-0.10620052 2:0.18895222 3:0.082633272 4:-0.16937758 5:-0.28142887 6:0.27125457 7:0.0053053335 8:-0.065550618 9:-0.21077204 10:-0.15682766 11:0.21030796 12:0.20257643 13:0.034353469 14:0.068922542 15:-0.14732097 16:0.072453558 17:0.16874652 18:0.17060015 19:0.17908774 20:0.14934173 21:0.005028924 22:0.18111591 23:-0.0043856162 24:0.16441578 25:0.10406961 26:-0.081268549 27:-0.28253767 28:-0.082046084 29:0.15596604 30:-0.0028093315 31:0.095056407 32:-0.085892022 33:0.096634112 34:0.051181156 35:-0.013706751 36:-0.16296838 37:0.069012016 38:0.09914948 39:0.0025372838 40:0.015561094 41:-0.011830154 42:0.2819398 43:0.00030486958 44:-0.090692975 45:0.20249233 46:-0.037528258 47:0.084196419 48:-0.019659974 49:0.044888627 50:-0.25168639 #
0.5 1:-0.17776954 2:0.18538228 3:0.085902005 4:-0.2200633 5:-0.22303021 6:0.17606781 7:0.095587827 8:-0.14623882 9:-0.21767284 10:-0.14821203 11:0.28520975 12:0.13081333 13:0.01100656 14:0.026864342 15:-0.10431522 16:0.12709439 17:0.22790979 18:0.17968103 19:0.10084455 20:0.16442682 21:0.027595667 22:0.13411444 23:-0.059509911 24:0.061646536 25:0.14186014 26:-0.013536878 27:-0.26996756 28:-0.053174593 29:0.088896759 30:0.0083910637 31:0.10986555 32:-0.1140231 33:-0.031815968 34:0.088619463 35:-0.012096683 36:-0.13004562 37:0.14418669 38:0.077374831 39:0.10181751 40:0.043349478 41:-0.022176851 42:0.2897104 43:0.10442351 44:-0.16822267 45:0.18547913 46:0.021571713 47:0.056361891 48:-0.11204247 49:-0.0045341696 50:-0.23558095 #
-0.5 1:-0.1656508 2:0.20318952 3:0.071164466 4:-0.21131465 5:-0.28760919 6:0.16866416 7:0.089466706 8:-0.08572036 9:-0.24829543 10:-0.15005846 11:0.18988381 12:0.15700777 13:0.045900114 14:0.037469298 15:-0.1611364 16:0.1067657 17:0.16429812 18:0.16623357 19:0.18677802 20:0.15831983 21:0.0091547566 22:0.12612829 23:0.0080740927 24:0.12081802 25:0.11511291 26:-0.090123557 27:-0.31189936 28:-0.073331028 29:0.12410983 30:0.092934281 31:0.089202926 32:-0.047632579 33:0.0085867476 34:0.086152405 35:0.014345005 36:-0.1656445 37:0.12250889 38:0.099394754 39:0.068733871 40:0.021846795 41:-0.030589648 42:0.31150296 43:0.048581466 44:-0.095095605 45:0.18693197 46:-0.025278263 47:0.020118207 48:-0.035333235 49:0.033133619 50:-0.2298253 #
0.5 1:-0.13711187 2:0.011093262 3:0.087523818 4:-0.0051945378 5:0.028248345 6:-0.29993796 7:0.10011966 8:-0.024964148 9:-0.10413343 10:-0.079507127 11:-0.09223175 12:-0.16858725 13:0.17246044 14:0.18495761 15:-0.15317194 16:0.081673488 17:0.26462945 18:0.26425636 19:0.059965611 20:0.16801599 21:-0.19057558 22:-0.0072701187 23:-0.023104241 24:-0.046493627 25:-0.048355192 26:0.1215867 27:-0.15395688 28:-0.19669287 29:0.10664926 30:0.018724615 31:0.091302656 32:0.065937392 33:-0.11309161 34:-0.057243366 35:-0.14571778 36:0.044630401 37:-0.080667272 38:0.16325547 39:0.281073 40:0.1088109 41:0.0011472871 42:-0.065388426 43:0.040481098 44:0.0050650956 45:0.057345312 46:-0.21030039 47:-0.053786658 48:-0.42304313 49:0.074215889 50:-0.070813671 #
-0.5 1:-0.16564862 2:0.20318705 3:0.071161702 4:-0.21131632 5:-0.28761068 6:0.16866906 7:0.089460224 8:-0.085717864 9:-0.24829519 10:-0.15006101 11:0.18988585 12:0.1570074 13:0.045900729 14:0.037471421 15:-0.1611347 16:0.10676523 17:0.16429743 18:0.16623498 19:0.18677785 20:0.15831999 21:0.0091560828 22:0.12613249 23:0.0080773206 24:0.1208212 25:0.11511189 26:-0.090122558 27:-0.31189558 28:-0.073334798 29:0.12411268 30:0.092934854 31:0.089203559 32:-0.047630996 33:0.0085893804 34:0.086150348 35:0.014347817 36:-0.16564566 37:0.1225049 38:0.099395126 39:0.068728097 40:0.021847639 41:-0.03058799 42:0.31150219 43:0.048582803 44:-0.095095649 45:0.18693738 46:-0.025276009 47:0.020120388 48:-0.03532993 49:0.0331387 50:-0.22982264 #
0.5 1:0.01869431 2:0.23685829 3:0.054671727 4:-0.30265224 5:-0.032570798 6:0.24609771 7:0.012249567 8:-0.11563707 9:-0.1299984 10:-0.2946814 11:0.24658737 12:0.16028793 13:-0.039021101 14:0.17145877 15:0.019081403 16:-0.2061263 17:0.11553422 18:0.19545008 19:0.25828755 20:-0.024436183 21:-0.016647369 22:0.030059949 23:0.07658834 24:-0.09277615 25:-0.040652186 26:0.1138446 27:-0.013890387 28:-0.18272904 29:0.1268598 30:-0.035830829 31:-0.016536754 32:-0.067958407 33:0.079219058 34:0.075116105 35:0.0093288068 36:-0.03123465 37:0.090002276 38:-0.17171131 39:-0.072758749 40:0.035201587 41:0.14510253 42:-0.038476866 43:0.28247792 44:-0.25156844 45:0.037975751 46:0.14065096 47:-0.14591996 48:0.17950734 49:-0.075406946 50:-0.041092142 #
-0.5 1:-0.12770496 2:0.15611658 3:0.17769039 4:-0.22117166 5:-0.12169391 6:0.2741555 7:-0.10475224 8:-0.018163281 9:-0.10333385 10:-0.07461971 11:0.32246619 12:0.055685848 13:0.18289115 14:0.1136286 15:-0.14518639 16:0.079953477 17:0.15920815 18:0.01102964 19:-0.058289677 20:0.018085854 21:-0.1224822 22:0.17467427 23:-0.019495221 24:-0.10296071 25:0.1300524 26:0.019062132 27:-0.13429205 28:0.18669745 29:-0.015500374 30:0.064409137 31:0.16579287 32:0.0035208343 33:0.014191215 34:-0.21615453 35:0.15277179 36:0.027038172 37:-0.18212497 38:0.042128325 39:-0.322813 40:-0.022616433 41:0.12823269 42:0.23718382 43:0.035487309 44:0.11259792 45:0.21750157 46:-0.050959431 47:-0.074235506 48:-0.029985644 49:0.1111075 50:-0.16338004 #
0.5 1:0.025829896 2:0.089796267 3:0.02463882 4:0.011603097 5:-0.33947459 6:0.19294678 7:-0.073704921 8:-0.16440293 9:-0.21937135 10:-0.22560188 11:0.17567597 12:0.11471718 13:-0.108397 14:0.11832785 15:0.063245229 16:0.19261983 17:0.13106824 18:-0.011504424 19:0.094539218 20:-0.043863609 21:0.060687024 22:-0.022336924 23:0.031512953 24:0.176937 25:-0.10969336 26:-0.023455668 27:-0.052705821 28:-0.015439508 29:0.0089182146 30:0.29843092 31:0.017251646 32:0.035135623 33:-0.053751215 34:0.20452344 35:0.24830933 36:-0.38553452 37:0.12846448 38:-0.13558453 39:-0.069115303 40:-0.045609195 41:0.020310413 42:0.21218427 43:-0.10432164 44:0.00079441041 45:0.1232918 46:-0.060791187 47:-0.038021386 48:0.081150174 49:-0.086279497 50:-0.19320124 #
-0.5 1:-0.05813184 2:0.013666258 3:-0.01024956 4:-0.077173129 5:0.046500012 6:0.18421885 7:0.05490109 8:-0.1527389 9:-0.16977322 10:-0.27880612 11:-0.022892037 12:-0.04612473 13:0.15524621 14:0.13485055 15:-0.051564671 16:-0.20041746 17:0.01681296 18:-0.054625537 19:0.19082169 20:0.15257877 21:-0.0096631218 22:-0.034259979 23:0.071143582 24:0.044320572 25:0.10334329 26:-0.14505057 27:-0.10369305 28:-0.044192713 29:0.12267753 30:-0.15887327 31:0.068211161 32:-0.086834878 33:0.31150696 34:0.12234046 35:-0.16055168 36:0.044827178 37:0.36380062 38:-0.18090522 39:-0.048209511 40:0.11157381 41:-0.013554298 42:-0.089600183 43:-0.28191194 44:-0.11825955 45:-0.001230616 46:0.061934568 47:-0.059182402 48:0.10479663 49:0.15184101 50:-0.32056275 #
0.5 1:-0.065584429 2:0.19858582 3:0.22741717 4:-0.18530414 5:-0.21652085 6:0.012508997 7:-0.14052702 8:-0.017277904 9:-0.29041013 10:0.24811701 11:-0.1703378 12:0.11983464 13:0.067083366 14:0.043038312 15:-0.15031089 16:0.053172816 17:0.21124247 18:-0.13371679 19:0.10062796 20:-0.021937722 21:-0.052170064 22:-0.0108919 23:-0.071434624 24:0.13403566 25:0.20768684 26:-0.043705735 27:-0.21150073 28:0.0064366828 29:0.12406862 30:-0.21825805 31:-0.13328645 32:-0.080645129 33:0.22429505 34:0.02205931 35:-0.075847216 36:-0.018605256 37:-0.0051209955 38:0.05431715 39:-0.1349673 40:0.06187024 41:0.097757012 42:0.067842111 43:-0.088776365 44:-0.16877335 45:0.20982789 46:-0.15231103 47:0.17548218 48:-0.092320345 49:-0.23975325 50:-0.097329713 #
-0.5 1:-0.16564777 2:0.2031875 3:0.071162462 4:-0.21131717 5:-0.28761053 6:0.16866846 7:0.089461714 8:-0.085718989 9:-0.24829455 10:-0.15006168 11:0.18988551 12:0.15700631 13:0.045900717 14:0.037471395 15:-0.1611335 16:0.10676584 17:0.16429693 18:0.16623569 19:0.18677731 20:0.15831995 21:0.0091564935 22:0.12613459 23:0.0080770608 24:0.12082211 25:0.11511007 26:-0.090122692 27:-0.31189519 28:-0.073334999 29:0.1241127 30:0.092934102 31:0.089203395 32:-0.047631107 33:0.0085887192 34:0.086151674 35:0.014347662 36:-0.16564579 37:0.12250573 38:0.099394463 39:0.068727627 40:0.021847712 41:-0.030587861 42:0.31150234 43:0.048582718 44:-0.0950955 45:0.18693826 46:-0.025276329 47:0.020120548 48:-0.03532923 49:0.033138163 50:-0.22982241 #
0.5 1:-0.31895876 2:0.12711798 3:0.29461733 4:-0.016501261 5:-0.042304263 6:0.042329207 7:-0.090169221 8:-0.022033587 9:-0.030443357 10:-0.070734158 11:-0.043202352 12:0.21704082 13:0.15420711 14:-0.052539252 15:-0.0039286474 16:-0.052322682 17:0.24115054 18:-0.19682498 19:0.12661943 20:0.17416434 21:-0.045567282 22:-0.092812471 23:-0.12979175 24:0.13200596 25:0.10517836 26:0.01251532 27:-0.2133209 28:0.0253857 29:0.058600709 30:-0.30744994 31:0.021602543 32:0.041160818 33:-0.061420169 34:-0.060320552 35:-0.070393607 36:0.026721623 37:0.16631523 38:0.097303838 39:0.18874112 40:0.022841232 41:0.20423381 42:0.1970035 43:0.18802574 44:-0.22342822 45:0.054607987 46:-0.029003503 47:0.11444045 48:-0.16399319 49:-0.062555306 50:-0.23033261 #
-0.5 1:-0.16867022 2:0.23842104 3:0.040896252 4:0.066830784 5:-0.20658265 6:0.082194492 7:-0.003860075 8:-0.19446367 9:-0.04703144 10:0.12269623 11:0.25452363 12:0.13866229 13:-0.027370507 14:-0.059782829 15:-0.12114055 16:0.18015932 17:0.26275483 18:0.063316785 19:0.17313673 20:0.13463402 21:-0.0006146587 22:-0.065628998 23:-0.083944857 24:0.05123888 25:-0.17535283 26:0.028709857 27:-0.070289508 28:-0.094095275 29:0.16519725 30:-0.18744759 31:-0.060117051 32:-0.18047287 33:-0.1070115 34:-0.017218726 35:-0.017658742 36:-0.057142824 37:0.13602041 38:0.14448829 39:0.093318366 40:0.19444358 41:0.2188592 42:0.19202076 43:0.12976016 44:-0.18941778 45:0.082761027 46:0.067901365 47:0.068996891 48:-0.20566338 49:-0.25218323 50:-0.169232 #
-0.5 1:-0.16353367 2:0.36278415 3:0.31545353 4:0.12390196 5:-0.13841619 6:0.20892641 7:-0.22044812 8:-0.3123993 9:-0.095344745 10:-0.22378488 11:0.17835744 12:-0.042778518 13:0.032577857 14:-0.10527635 15:-0.1185376 16:0.0079245353 17:0.032812182 18:-0.10869559 19:0.011780048 20:-0.25066787 21:-0.0030028608 22:0.067514367 23:-0.16669574 24:0.18790327 25:-0.072855882 26:0.094823159 27:-0.15280019 28:0.11170726 29:-0.0055929245 30:0.062497985 31:0.02980921 32:0.057147361 33:-0.048532899 34:-0.059030857 35:0.29238197 36:0.021558434 37:0.062902756 38:0.033398099 39:-0.010156547 40:-0.045739144 41:0.12993899 42:-0.014776432 43:-0.077431098 44:0.10686257 45:-0.03984065 46:0.19661313 47:0.08304064 48:0.025319584 49:0.043165155 50:-0.11724417 #
-0.5 1:-0.26601711 2:0.22272824 3:0.060844909 4:0.16942167 5:-0.077580281 6:0.017019827 7:0.13032885 8:-0.035806835 9:-0.056158219 10:0.13529274 11:0.39557081 12:0.13194659 13:-0.060204577 14:-0.083803311 15:-0.25272954 16:0.048352838 17:0.18925752 18:-0.099101365 19:0.10369898 20:0.093282856 21:0.060446516 22:-0.019543257 23:-0.31830987 24:0.12716596 25:-0.058899175 26:0.092861883 27:0.16443051 28:-0.18964192 29:-0.071634725 30:-0.052415125 31:-0.11226172 32:-0.019395832 33:-0.18507355 34:-0.00443243 35:0.037134904 36:-0.064531289 37:0.13337983 38:0.06337522 39:0.029269053 40:0.044669684 41:0.28185037 42:-0.027856406 43:0.041636635 44:-0.12970324 45:0.08967565 46:0.27786845 47:-0.088704363 48:0.061512291 49:0.015371616 50:-0.086497366 #
-0.5 1:-0.17291966 2:0.17969328 3:0.088700585 4:0.034074545 5:-0.15480095 6:0.20760009 7:-0.037380505 8:0.053774338 9:-0.14808232 10:0.10066858 11:0.098296277 12:0.050096389 13:0.44682774 14:-0.091810353 15:0.021325814 16:0.13838224 17:0.11729131 18:0.028097065 19:-0.0075952364 20:0.11965136 21:0.02488178 22:-0.14432277 23:-0.065388635 24:0.11011291 25:0.05289717 26:0.066064946 27:-0.19392814 28:-0.060220212 29:0.12796679 30:-0.15867205 31:0.12740843 32:0.079729557 33:-0.10759491 34:0.012961827 35:-0.13681293 36:-0.35576957 37:0.045070373 38:0.18083932 39:0.089139447 40:0.22128561 41:-0.030743888 42:0.15758269 43:0.026866153 44:-0.18266059 45:0.067065939 46:-0.089805178 47:0.01933394 48:0.017105399 49:-0.17580917 50:-0.2313316 #
0.5 1:-0.084040403 2:0.06916213 3:-0.20752588 4:-0.18078662 5:-0.053897753 6:0.060445223 7:-0.04083661 8:-0.1963103 9:-0.054609749 10:0.10922787 11:0.074088544 12:-0.10140228 13:0.011241009 14:0.1065348 15:-0.28368315 16:-0.013512832 17:-0.20688081 18:0.12139333 19:-0.15252434 20:-0.064303979 21:0.18569663 22:0.24241193 23:0.26621118 24:0.087844618 25:0.20493621 26:0.033675514 27:-0.090845831 28:-0.17088461 29:-0.027196972 30:-0.099984653 31:-0.010003049 32:-0.13930359 33:-0.03009614 34:0.064277209 35:-0.17371017 36:-0.3681331 37:0.24789475 38:-0.026197569 39:0.12501888 40:-0.034163006 41:-0.19634442 42:-0.12066427 43:-0.10799593 44:0.036897223 45:0.096273787 46:-0.0036546579 47:-0.092026576 48:0.094729014 49:0.10142203 50:-0.14969242 #
0.5 1:-0.12560211 2:0.12054296 3:0.21324044 4:-0.19967501 5:-0.25755888 6:0.14346892 7:-0.10132906 8:-0.13212092 9:0.0034218109 10:-0.26342148 11:0.33347145 12:0.11057068 13:-0.091393694 14:0.092375465 15:-0.04430642 16:0.20987502 17:0.069003463 18:0.15076928 19:-0.14496543 20:0.015793262 21:0.09295433 22:0.051862832 23:0.18197425 24:0.10126695 25:0.093405709 26:0.024997661 27:-0.10277133 28:0.06669981 29:-0.10904779 30:0.28173441 31:0.046755608 32:0.075805336 33:0.072916128 34:0.21964106 35:0.17827141 36:-0.19695003 37:0.050351374 38:0.0051719947 39:0.094558097 40:-0.091068819 41:0.025119038 42:0.30687591 43:-0.15240876 44:-0.05071393 45:-0.056610849 46:-0.027624343 47:-0.06369286 48:-0.1183674 49:0.0037657986 50:-0.019620046 #
0.5 1:0.0083869258 2:-0.0032179672 3:0.0069890874 4:-0.17768835 5:-0.25445461 6:0.26825252 7:-0.016161978 8:-0.16086507 9:-0.056373406 10:-0.13126004 11:-0.035439849 12:0.037576795 13:-0.16896425 14:-0.19325262 15:0.00030816393 16:0.0058531668 17:0.11969536 18:0.44003871 19:0.10169359 20:0.15221021 21:0.13733925 22:0.16852741 23:0.017045328 24:0.020286199 25:0.20406152 26:-0.02608786 27:-0.054176487 28:-0.1209437 29:0.0077248933 30:-0.12604462 31:0.30575851 32:-0.067047246 33:-0.063939184 34:0.14371957 35:0.0087740514 36:0.12471112 37:0.047210563 38:-0.041636668 39:0.15273927 40:0.15207067 41:-0.096474551 42:0.2953051 43:-0.052924804 44:-0.0015875715 45:-0.018878931 46:-0.20021905 47:0.093082763 48:0.041285004 49:0.090560123 50:-0.063838951 #
0.5 1:-0.14148101 2:0.07876911 3:-0.045672782 4:-0.040363617 5:-0.27643597 6:0.28494957 7:-0.13170932 8:-0.034799632 9:0.048681773 10:-0.11640304 11:0.10923861 12:0.1514446 13:-0.070636146 14:0.023263728 15:-0.20721696 16:-0.11527976 17:-0.070371129 18:0.058723085 19:0.12007534 20:-0.057051197 21:-0.13102938 22:-0.32064253 23:0.14291348 24:-0.038881551 25:-0.032009728 26:0.20197168 27:-0.055830054 28:-0.034037992 29:0.17413907 30:-0.013295221 31:0.12587239 32:-0.090963677 33:0.25215405 34:-0.059049383 35:0.12940483 36:-0.30600032 37:-0.1787751 38:0.20693345 39:-0.068370566 40:0.083991118 41:-0.051009834 42:0.13914669 43:0.0005897368 44:0.048709191 45:0.21199514 46:0.017769825 47:0.104774 48:0.062291317 49:-0.10051206 50:-0.23265114 #
0.5 1:-0.23954114 2:0.16044885 3:0.25971359 4:-0.15538606 5:-0.29585159 6:0.14157625 7:0.11671043 8:-0.024396041 9:-0.088171929 10:-0.095019504 11:-0.052821111 12:0.069440298 13:-0.060562648 14:0.0061517837 15:-0.08809334 16:0.027121099 17:-0.024477068 18:0.21569501 19:0.03911851 20:0.2316919 21:0.30011001 22:0.23360349 23:0.17605817 24:-0.065592065 25:-0.090736046 26:0.0077352449 27:-0.065335535 28:-0.15196663 29:0.055288456 30:0.043100793 31:-0.11491831 32:0.031561155 33:0.050578687 34:0.19884108 35:0.18528366 36:-0.090776272 37:0.026006389 38:-0.14573774 39:0.027085096 40:0.23834258 41:-0.054196794 42:0.14792934 43:-0.063912943 44:0.059617478 45:0.1294971 46:-0.22668394 47:0.12651193 48:-0.17720564 49:-0.11757693 50:0.062157422 #
-0.5 1:-0.0055177407 2:0.044801813 3:-0.066649035 4:0.022917692 5:-0.2953333 6:0.12718482 7:-0.12331996 8:-0.026099367 9:-0.22759739 10:-0.23404498 11:0.090407878 12:0.10427042 13:0.16496286 14:-0.085243739 15:-0.18205161 16:0.20513518 17:-0.08892408 18:-0.060085334 19:0.26374394 20:0.1792452 21:0.08899837 22:-0.084386922 23:0.06225457 24:-0.22301617 25:0.14690299 26:0.034492306 27:0.0028712628 28:-0.097289279 29:0.024178356 30:0.088963948 31:0.096176863 32:0.065801516 33:-0.048469856 34:0.086241409 35:0.13836125 36:-0.044607949 37:-0.037488397 38:0.31487149 39:-0.16716971 40:-0.15352556 41:-0.15827329 42:0.33295193 43:-0.10526828 44:0.019441534 45:0.18853278 46:-0.056125231 47:0.1655585 48:-0.030253774 49:0.035285208 50:-0.059843417 #
0.5 1:-0.17985101 2:0.21486489 3:-0.01312586 4:0.15777628 5:-0.19042689 6:0.12512283 7:0.13960037 8:0.020197751 9:-0.17496233 10:-0.028173236 11:0.27102318 12:-0.003549915 13:0.23022422 14:-0.048958112 15:0.24851643 16:0.15022041 17:0.12165951 18:0.088518716 19:0.12568954 20:0.056794148 21:0.10743836 22:-0.16498311 23:-0.082137927 24:0.058769118 25:-0.061837442 26:-0.038264494 27:-0.049963184 28:0.039621867 29:-0.015758369 30:-0.0091168182 31:0.14140682 32:-0.023696907 33:-0.28418016 34:0.18808736 35:-0.10484821 36:-0.26242957 37:-0.024602672 38:-0.18023041 39:-0.041152842 40:0.14167361 41:0.10468497 42:0.22069034 43:0.085546091 44:-0.31596908 45:0.053487197 46:0.026838433 47:-0.001649372 48:-0.048734952 49:-0.12854627 50:-0.13780594 #
-0.5 1:-0.2073184 2:0.16833565 3:0.040029787 4:-0.17916147 5:-0.11707857 6:0.13267609 7:-0.023032043 8:0.03010582 9:-0.19862279 10:-0.073329888 11:0.13548653 12:0.19214067 13:0.057950377 14:-0.097595997 15:-0.029902665 16:-0.018683134 17:0.069160476 18:0.50984186 19:-0.1534197 20:0.088330224 21:0.054550886 22:-0.072035618 23:0.10626052 24:-0.092163332 25:-0.17415701 26:0.13268484 27:-0.095099293 28:-0.24275623 29:0.057696294 30:0.066526502 31:-0.12402451 32:0.056691412 33:0.08689484 34:0.19818857 35:0.022240506 36:-0.17519577 37:0.037286893 38:-0.053710006 39:0.14453858 40:0.17938384 41:0.046761245 42:0.15367037 43:0.026024835 44:-0.082896478 45:0.17969999 46:-0.15242231 47:0.017055189 48:-0.19332182 49:-0.14080316 50:-0.0019977896 #
0.5 1:-0.16867022 2:0.23842104 3:0.040896252 4:0.066830784 5:-0.20658265 6:0.082194492 7:-0.003860075 8:-0.19446367 9:-0.04703144 10:0.12269623 11:0.25452363 12:0.13866229 13:-0.027370507 14:-0.059782829 15:-0.12114055 16:0.18015932 17:0.26275483 18:0.063316785 19:0.17313673 20:0.13463402 21:-0.0006146587 22:-0.065628998 23:-0.083944857 24:0.05123888 25:-0.17535283 26:0.028709857 27:-0.070289508 28:-0.094095275 29:0.16519725 30:-0.18744759 31:-0.060117051 32:-0.18047287 33:-0.1070115 34:-0.017218726 35:-0.017658742 36:-0.057142824 37:0.13602041 38:0.14448829 39:0.093318366 40:0.19444358 41:0.2188592 42:0.19202076 43:0.12976016 44:-0.18941778 45:0.082761027 46:0.067901365 47:0.068996891 48:-0.20566338 49:-0.25218323 50:-0.169232 #
-0.5 1:0.0090551684 2:-0.0009606338 3:-0.034359273 4:-0.24021009 5:-0.14567252 6:0.11981202 7:0.24985212 8:-0.078541562 9:-0.083337866 10:0.057206318 11:0.23000424 12:-0.036813587 13:-0.026268033 14:0.13180539 15:0.041630484 16:0.16543251 17:0.085280828 18:0.068447217 19:0.036005367 20:-0.01718046 21:-0.11558281 22:0.25649416 23:-0.0043895855 24:0.31967357 25:-0.030830359 26:-0.12832974 27:0.05876426 28:-0.031900566 29:0.37123993 30:-0.33401027 31:-0.051583949 32:-0.069200233 33:0.070279233 34:-0.0013198416 35:-0.03301087 36:0.051658921 37:0.043115377 38:0.31738731 39:-0.053058404 40:-0.13264546 41:-0.054197267 42:-0.075023361 43:-0.15018512 44:-0.036765527 45:-0.11749529 46:-0.1781064 47:0.056701288 48:-0.15624498 49:0.011389195 50:-0.11889697 #
0.5 1:-0.20217675 2:0.11770216 3:0.010944688 4:0.10722751 5:-0.17708984 6:0.091937833 7:0.020693596 8:0.03778515 9:-0.083139688 10:0.069055974 11:0.22553535 12:-0.0046787416 13:0.39707571 14:-0.079595655 15:0.13074756 16:0.070415109 17:0.089211017 18:0.075605594 19:0.05847843 20:0.12196711 21:-0.031317614 22:-0.098044068 23:-0.12851256 24:0.12899342 25:-0.085470907 26:0.012043278 27:-0.15069196 28:-0.1311775 29:0.12195849 30:-0.084036686 31:0.22325593 32:0.029929614 33:-0.18537138 34:0.077333763 35:-0.19249794 36:-0.33703527 37:-0.095550194 38:0.058444906 39:0.010383537 40:0.229883 41:0.05150371 42:0.24076685 43:0.055156156 44:-0.23170401 45:-0.017413199 46:-0.017890444 47:0.027983658 48:0.051978972 49:-0.16430195 50:-0.20652574 #
-0.5 1:-0.23861791 2:0.2576122 3:-0.035771485 4:0.022484807 5:-0.12060725 6:0.05694237 7:0.20374684 8:0.21618782 9:-0.16945712 10:0.05582552 11:0.075034529 12:-0.023805184 13:0.14066707 14:-0.01290103 15:0.22194842 16:0.057684448 17:-0.036582537 18:0.070512421 19:0.010912649 20:0.27477437 21:0.090400651 22:-0.089686774 23:-0.033937022 24:-0.11243695 25:-0.12378486 26:-0.064667225 27:-0.11034765 28:0.076256707 29:-0.044174194 30:0.21012549 31:0.12868683 32:-0.08694239 33:0.023015201 34:0.3155739 35:0.049446188 36:-0.1162795 37:-0.15694378 38:-0.16607431 39:-0.23088185 40:0.055006657 41:-0.042521853 42:0.24053392 43:0.11109959 44:-0.1701941 45:0.21810144 46:0.023334932 47:0.11529754 48:-0.017514195 49:-0.19146931 50:-0.12111488 #
0.5 1:-0.21544529 2:-0.057209093 3:0.31641328 4:0.050384097 5:-0.0045925993 6:-0.00041240125 7:0.054430827 8:0.077822506 9:-0.049707316 10:-0.22956946 11:0.16278684 12:-0.13597628 13:-0.21153171 14:0.24173009 15:-0.011579911 16:0.14207496 17:0.016870786 18:0.01451805 19:0.043832492 20:0.21255921 21:-0.099906951 22:0.080461174 23:-0.047144253 24:-0.17020066 25:0.12953192 26:0.049629591 27:-0.3754465 28:-0.07071051 29:0.20408416 30:-0.14161855 31:-0.051167723 32:0.12549043 33:0.032575887 34:-0.10373102 35:0.09071929 36:-0.21611425 37:0.16169582 38:0.23585083 39:-0.03269767 40:-0.014173541 41:-0.1530488 42:0.13652381 43:-0.16685387 44:-0.087890856 45:-0.11276036 46:-0.042694978 47:0.079125665 48:-0.15058513 49:0.047245 50:-0.036101684 #
-0.5 1:-0.16472723 2:0.19978964 3:0.071191713 4:-0.20452437 5:-0.29092601 6:0.15951203 7:0.088464491 8:-0.082418889 9:-0.25061396 10:-0.14481044 11:0.18204497 12:0.15532885 13:0.042040236 14:0.037464071 15:-0.16943637 16:0.1069383 17:0.1634572 18:0.17106068 19:0.19504914 20:0.16320157 21:0.0058198604 22:0.11808237 23:0.0049266242 24:0.12786305 25:0.11713223 26:-0.088993408 27:-0.31998479 28:-0.068916351 29:0.12149715 30:0.091584198 31:0.084283717 32:-0.041857477 33:0.0096379351 34:0.089067116 35:0.011244956 36:-0.16531064 37:0.11924549 38:0.095799245 39:0.080870345 40:0.019672116 41:-0.033614598 42:0.30865389 43:0.050690327 44:-0.09309914 45:0.18470377 46:-0.038875308 47:0.011984034 48:-0.040186558 49:0.041621353 50:-0.22943352 #
0.5 1:-0.13689113 2:0.12760274 3:0.34024262 4:-0.21322668 5:-0.13710086 6:0.0049195942 7:-0.25230983 8:-0.11172933 9:-0.049995389 10:-0.027174354 11:0.28646186 12:-0.072933674 13:-0.053388231 14:0.001564989 15:-0.081324436 16:-0.11899129 17:-0.021658186 18:0.17787017 19:0.016461078 20:-0.20132394 21:-0.027023984 22:0.034117147 23:-0.20354396 24:0.3454777 25:0.041654937 26:0.084779091 27:-0.064809136 28:0.1885471 29:0.28252602 30:0.032805808 31:-0.06572859 32:-0.037145339 33:-0.081681512 34:-0.063584648 35:0.17988339 36:-0.025738934 37:0.0018963374 38:-0.1468702 39:0.05145479 40:-0.015618249 41:0.028367525 42:-0.040777296 43:-0.15009014 44:0.086390831 45:0.16791026 46:0.11645797 47:-0.17362925 48:0.070887074 49:-0.066883452 50:-0.20401105 #
-0.5 1:-0.038153775 2:0.12305166 3:-0.10210638 4:-0.21150789 5:-0.018556472 6:0.13816474 7:0.12791714 8:-0.16929676 9:0.10159042 10:-0.21235318 11:0.22563317 12:0.040232517 13:-0.040199079 14:0.23280285 15:-0.0072299894 16:-0.17501332 17:0.31751981 18:0.19856614 19:-0.026812837 20:-0.13352853 21:0.0069443267 22:0.12582114 23:0.20655644 24:-0.088679828 25:-0.077003799 26:0.14033628 27:-0.16152556 28:-0.060203809 29:0.015945224 30:-0.040595096 31:0.10520649 32:0.12262203 33:0.17476231 34:0.0021998829 35:-0.022561634 36:-0.22756904 37:-0.024368823 38:0.22634137 39:0.28540352 40:-0.034806799 41:0.22731404 42:-0.037421674 43:0.027041366 44:0.098665513 45:0.010177057 46:0.14266531 47:-0.12437103 48:0.18760255 49:0.072199859 50:-0.059907459 #
-0.5 1:-0.015080495 2:0.048101466 3:0.30443776 4:0.028165312 5:0.033881981 6:0.18469279 7:0.016125966 8:-0.20374939 9:-0.096121199 10:-0.19422472 11:0.22230594 12:0.0094775045 13:-0.18836844 14:-0.065638125 15:-0.19347961 16:0.070960864 17:0.047748197 18:0.20435944 19:-0.026165204 20:0.10521121 21:0.01571916 22:0.17434356 23:0.086214229 24:0.35153958 25:0.11785005 26:0.16371967 27:-0.15961578 28:-0.0021070945 29:-0.061661679 30:-0.04007528 31:0.10677544 32:0.16100647 33:0.090789892 34:-0.033272244 35:0.120791 36:-0.084886119 37:0.07457938 38:0.029791052 39:-0.11932912 40:-0.01684735 41:-0.014186971 42:0.28387049 43:-0.27174062 44:-0.044201039 45:0.021499194 46:-0.08745528 47:0.0030045351 48:-0.25381044 49:0.016262483 50:-0.20088449 #
-0.5 1:0.053346112 2:-0.06951578 3:0.19238767 4:-0.15436642 5:0.043495264 6:0.025150867 7:-0.28122395 8:0.048903823 9:-0.10280058 10:-0.0055065188 11:0.22004484 12:-0.12774959 13:-0.072578408 14:0.28234375 15:-0.14508143 16:0.053419653 17:0.087815411 18:-0.15551633 19:0.34192213 20:0.17781623 21:0.068615101 22:-0.24570881 23:-0.1365914 24:0.007394182 25:0.1815867 26:-0.14886971 27:-0.075944848 28:0.16960181 29:0.070157364 30:-0.17188589 31:0.10877436 32:0.051340681 33:0.03951031 34:-0.0067272955 35:0.057210527 36:-0.15189092 37:0.039730567 38:-0.030157436 39:0.18243676 40:0.1812894 41:0.16406462 42:-0.14384742 43:-0.14089037 44:-0.065719791 45:0.15230493 46:-0.090986401 47:-0.079283483 48:-0.06348975 49:-0.050005626 50:-0.21856521 #
-0.5 1:-0.10656942 2:0.14364034 3:0.3879225 4:-0.01225144 5:-0.14003995 6:0.23847565 7:-0.28076473 8:-0.25540611 9:-0.11518604 10:-0.25780463 11:0.27776775 12:-0.066929989 13:-0.069100432 14:-0.022408051 15:-0.046317063 16:-0.042183042 17:-0.021946052 18:0.11368815 19:-0.045963261 20:-0.22437069 21:0.053043257 22:0.11543563 23:-0.085854754 24:0.38884556 25:0.036521628 26:0.090259269 27:-0.10691922 28:0.093929447 29:0.078234062 30:0.12194204 31:-0.086086214 32:-0.0070142159 33:-0.013752093 34:-0.019175284 35:0.1790145 36:0.010302004 37:-0.081984468 38:-0.17484021 39:0.053382304 40:-0.079984926 41:0.017579341 42:0.13197017 43:-0.014108659 44:0.08141765 45:0.056691304 46:0.038586333 47:-0.11431614 48:0.0018083453 49:0.041386608 50:-0.064971633 #
0.5 1:-0.14323436 2:0.11485582 3:0.029968446 4:-0.10631754 5:-0.30530262 6:0.25209364 7:0.076898836 8:-0.18715967 9:-0.09849491 10:-0.13495068 11:0.28749853 12:0.29340991 13:0.038599554 14:-0.044538122 15:-0.034724049 16:0.18155628 17:0.065948427 18:0.1091182 19:0.064161628 20:0.11625428 21:0.045569725 22:0.060758829 23:-0.019047091 24:0.11366609 25:0.10435174 26:-0.098310508 27:-0.2084697 28:-0.10087974 29:-0.025877571 30:-0.1304881 31:0.14233957 32:-0.22493908 33:0.033869885 34:0.080510162 35:0.054476678 36:-0.10840736 37:0.13662866 38:0.047705792 39:0.1475414 40:0.0022364766 41:0.07390938 42:0.20676242 43:0.13349813 44:-0.15242954 45:0.20695922 46:-0.094189592 47:0.11596403 48:-0.082200184 49:-0.06721653 50:-0.27503023 #
0.5 1:-0.050114933 2:0.23808464 3:0.030366072 4:-0.21417679 5:-0.39213604 6:0.11299139 7:0.04934714 8:-0.055591483 9:-0.20233548 10:-0.18085292 11:-0.0056765773 12:0.33287016 13:0.19132912 14:-0.15358861 15:-0.11680235 16:0.079077326 17:-0.019585384 18:0.06956961 19:0.15912704 20:0.052165706 21:-0.028121116 22:0.13981262 23:0.06473624 24:0.10622425 25:-0.021595912 26:-0.0049489872 27:-0.16458383 28:-0.26915541 29:0.20170246 30:0.025226673 31:-0.039458465 32:0.033737417 33:0.002783665 34:0.13604218 35:0.04581004 36:-0.16715837 37:0.12915049 38:-0.16847408 39:0.052648168 40:0.048866536 41:-0.091853827 42:0.030239521 43:0.022951579 44:-0.0065286322 45:0.027849549 46:-0.28869399 47:-0.1445758 48:0.021401439 49:0.16102384 50:0.064392783 #
0.5 1:-0.19160832 2:0.1853904 3:0.1087612 4:-0.18479122 5:-0.27740598 6:-0.10388444 7:0.18136069 8:-0.044058844 9:-0.31211302 10:-0.092168041 11:-0.0049642972 12:0.053060271 13:0.1565917 14:-0.016752057 15:-0.23511502 16:0.062443037 17:0.023739001 18:-0.085107431 19:0.13592948 20:0.053418856 21:0.11395637 22:-0.23902418 23:-0.045136414 24:-0.0063043027 25:0.055513334 26:-0.14418466 27:-0.31857538 28:-0.088007219 29:0.054068185 30:-0.047488444 31:0.037893657 32:0.013724534 33:-0.043593664 34:0.061736714 35:-0.0014523724 36:-0.081853673 37:0.21621923 38:-0.08457201 39:-0.10296103 40:0.12991099 41:-0.033997621 42:0.095458888 43:0.088389352 44:-0.36522442 45:0.11157383 46:-0.11404763 47:-0.14946315 48:-0.065791674 49:-0.16968812 50:-0.01439673 #
0.5 1:-0.1650437 2:0.17588973 3:0.031090179 4:-0.093429774 5:-0.21529783 6:0.052117653 7:-0.012835925 8:-0.20767574 9:-0.19939686 10:-0.081352606 11:0.18700345 12:0.047611542 13:0.050508354 14:-0.045100704 15:0.074520342 16:0.14940012 17:-0.17251849 18:0.13079886 19:0.092663042 20:0.076165058 21:0.083246119 22:0.27052808 23:0.15087706 24:0.078859121 25:0.044696458 26:-0.1042636 27:-0.035474788 28:-0.16574374 29:0.15665402 30:0.039439801 31:0.15537997 32:1.4858073e-005 33:-0.0131171 34:0.18396337 35:0.24722439 36:-0.1050991 37:0.24032764 38:0.10035463 39:-0.10475124 40:0.1737794 41:-0.18416674 42:0.38491812 43:-0.043536391 44:-0.064136967 45:0.15421003 46:0.0030577565 47:-0.035239048 48:-0.1592778 49:0.067165561 50:-0.057582386 #
0.5 1:-0.23783292 2:0.017986624 3:0.020107631 4:0.12996805 5:-0.30776373 6:-0.0787104 7:-0.10372205 8:0.32903177 9:-0.30528378 10:-0.027291508 11:0.11026438 12:0.15887503 13:-0.0047986829 14:-0.12279065 15:0.086422317 16:0.091523707 17:0.089003518 18:0.27215797 19:0.14985445 20:0.12856768 21:0.069975823 22:-0.19949424 23:-0.07271827 24:-0.16602175 25:0.2013831 26:-0.21228027 27:-0.24312451 28:0.036699682 29:-0.089838356 30:0.096733496 31:-0.14667225 32:-0.069730043 33:0.038575247 34:-0.15087882 35:-0.18021701 36:-0.12718947 37:0.060836609 38:-0.028167931 39:-0.038235042 40:0.05714513 41:0.068400919 42:-0.019406423 43:-0.087034889 44:0.040257871 45:-0.11300886 46:0.035434306 47:-0.08124695 48:-0.11134431 49:0.1081178 50:0.11872999 #
-0.5 1:-0.22775163 2:-0.064717382 3:-0.12772852 4:0.050227806 5:-0.25349402 6:0.054136787 7:-0.32841203 8:0.017472375 9:-0.33965394 10:0.0799454 11:0.0072485618 12:0.22491999 13:-0.16623887 14:-0.0098740142 15:-0.006402561 16:0.11673498 17:-0.10054418 18:0.080824651 19:0.062448718 20:0.20020129 21:0.051678132 22:0.086497992 23:0.12400254 24:0.099001929 25:0.19835533 26:0.055252124 27:-0.066438444 28:-0.26817247 29:-0.035421673 30:-0.066747732 31:0.051574476 32:-0.0028221447 33:-0.021904659 34:-0.082545146 35:-0.15208401 36:-0.26648828 37:0.076635711 38:0.018294347 39:0.032951843 40:0.11183946 41:-0.26205379 42:-0.10508905 43:0.13646261 44:0.20120654 45:0.20369202 46:-0.076119676 47:0.059788898 48:-0.0074863248 49:-0.040772602 50:-0.01599858 #
0.5 1:-0.005398293 2:0.17999907 3:0.075753748 4:-0.029222427 5:-0.066272497 6:0.092458338 7:0.033017401 8:-0.011984371 9:-0.040806372 10:-0.13628772 11:0.29079705 12:0.039900761 13:0.04701237 14:0.066824287 15:-0.1310287 16:0.029843653 17:0.30200064 18:0.16459249 19:0.049495935 20:0.033437666 21:-0.16512822 22:0.15527572 23:-0.15256253 24:0.22033508 25:0.041751336 26:0.16410536 27:-0.14428586 28:0.098436259 29:0.03948218 30:-0.013833209 31:0.067564741 32:-0.0804125 33:-0.058271438 34:0.26493919 35:-0.10331211 36:-0.10118116 37:0.077608824 38:0.19251944 39:0.14851488 40:0.10545003 41:-0.084186129 42:-0.019002935 43:0.1464956 44:-0.19728877 45:0.10023748 46:-0.30785257 47:-0.17429911 48:-0.15643378 49:-0.046762314 50:-0.3133592 #
0.5 1:-0.095610082 2:0.21671636 3:0.081758797 4:-0.028189937 5:-0.084642522 6:0.023125576 7:-0.20894289 8:0.14104556 9:-0.064362235 10:-0.16892736 11:0.33829746 12:0.17727318 13:-0.24235016 14:-0.030726068 15:-0.096716262 16:0.051298782 17:0.016875353 18:0.14659464 19:-0.043276686 20:0.16651769 21:-0.084393717 22:0.28030124 23:-0.11809039 24:0.13624106 25:0.19052273 26:0.14284582 27:0.11962811 28:-0.045093417 29:-0.14476898 30:-0.015947975 31:0.27052829 32:0.02489676 33:0.084619977 34:-0.012530645 35:0.1564894 36:0.037926283 37:-0.016448226 38:0.26479891 39:0.096398987 40:-0.089276411 41:-0.081816271 42:0.16119431 43:-0.10268009 44:-0.10695563 45:0.035402883 46:-0.048981439 47:0.1050827 48:-0.021126533 49:0.016440356 50:-0.29383972 #
-0.5 1:-0.16563442 2:0.20322374 3:0.071080625 4:-0.21129759 5:-0.2876178 6:0.16869281 7:0.089416176 8:-0.085716151 9:-0.24833585 10:-0.15012321 11:0.18998282 12:0.15694043 13:0.045964275 14:0.037491962 15:-0.16098855 16:0.10679936 17:0.16425623 18:0.16607657 19:0.18686017 20:0.15834704 21:0.0091676814 22:0.12627679 23:0.0080840159 24:0.12089172 25:0.11503067 26:-0.090207025 27:-0.31172398 28:-0.073328495 29:0.12420377 30:0.092867993 31:0.089312583 32:-0.047712222 33:0.0084474487 34:0.086295992 35:0.014404641 36:-0.16569743 37:0.12244916 38:0.099248394 39:0.068586603 40:0.021893563 41:-0.030527728 42:0.31150788 43:0.048627943 44:-0.095108561 45:0.18700844 46:-0.025330821 47:0.020164501 48:-0.035329849 49:0.033245787 50:-0.22983119 #
-0.5 1:-0.16564786 2:0.20318742 3:0.071162805 4:-0.21131761 5:-0.28761035 6:0.16866861 7:0.089461513 8:-0.085719258 9:-0.24829377 10:-0.15006155 11:0.18988571 12:0.1570061 13:0.045900814 14:0.037471723 15:-0.16113381 16:0.1067655 17:0.16429713 18:0.16623624 19:0.18677694 20:0.15832022 21:0.0091560511 22:0.12613451 23:0.0080768643 24:0.12082224 25:0.1151102 26:-0.090122744 27:-0.31189546 28:-0.073335454 29:0.12411316 30:0.092933677 31:0.089203089 32:-0.047631375 33:0.008589128 34:0.086151294 35:0.014346911 36:-0.16564596 37:0.12250543 38:0.099394053 39:0.068727821 40:0.021848012 41:-0.030587506 42:0.31150225 43:0.048582882 44:-0.095095702 45:0.18693808 46:-0.025276402 47:0.020120507 48:-0.03532951 49:0.033137716 50:-0.22982222 #
0.5 1:0.025919436 2:0.11944924 3:0.032089114 4:0.12424679 5:-0.06829761 6:0.12538944 7:0.21227974 8:-0.30944535 9:0.055267088 10:0.20956077 11:0.09075056 12:0.30708528 13:0.18542722 14:0.079402104 15:-0.14781439 16:0.23666468 17:0.0065439963 18:-0.020184197 19:0.12823832 20:-0.077379338 21:0.098675258 22:-0.18998252 23:-0.063552745 24:0.11618642 25:-0.096942991 26:0.051832102 27:-0.2163949 28:-0.0086270729 29:-0.10967433 30:0.10367976 31:0.012250601 32:0.020966044 33:0.12531283 34:-0.079822846 35:-0.0095050847 36:-0.24590066 37:0.37129876 38:0.16010025 39:0.16096348 40:0.036815304 41:0.13741116 42:-0.042701196 43:0.042415854 44:0.049990572 45:0.12143014 46:0.14178152 47:-0.047702007 48:0.10760403 49:-0.086020775 50:-0.12740344 #
-0.5 1:-0.20595004 2:0.026797557 3:-0.011114807 4:0.15176097 5:-0.13836935 6:0.1131399 7:0.01969224 8:0.063939855 9:-0.016974488 10:0.13072297 11:0.15823978 12:0.0739296 13:0.41725963 14:-0.059021365 15:0.015319802 16:0.093974113 17:0.090012297 18:0.094590306 19:-0.017529221 20:0.16750044 21:-0.041327871 22:-0.082113974 23:-0.13278101 24:0.18540718 25:0.057193909 26:0.090598062 27:-0.15440765 28:-0.22608383 29:0.13463652 30:-0.026706846 31:0.18462841 32:0.087373197 33:-0.11702477 34:0.030804632 35:-0.070836142 36:-0.36420029 37:0.071709797 38:0.13309141 39:0.078372322 40:0.16507992 41:0.058484919 42:0.2155422 43:-0.02015488 44:-0.29878312 45:0.025499431 46:0.057023648 47:0.044437151 48:0.048472885 49:-0.13871583 50:-0.18522187 #
-0.5 1:0.0079565905 2:0.074825466 3:0.2423536 4:-0.030776003 5:-0.17420523 6:0.047459595 7:0.042484432 8:-0.16573061 9:-0.18119486 10:-0.23475507 11:0.23644623 12:0.0041462006 13:-0.033790138 14:-0.035427906 15:0.089298703 16:0.13996038 17:-0.049891256 18:0.2290199 19:0.16063167 20:0.12350393 21:0.14902024 22:0.092036851 23:0.24503042 24:0.024980897 25:0.14072101 26:-0.066448808 27:0.16042614 28:0.010332265 29:0.18041657 30:-0.14172636 31:0.015758395 32:-0.081182823 33:-0.055140238 34:0.13741066 35:-0.16292587 36:-0.10921031 37:0.18681373 38:0.021306854 39:0.062740535 40:0.022268459 41:0.045587163 42:0.39145899 43:-0.038087744 44:-0.26227841 45:0.058968011 46:0.1513229 47:-0.19101067 48:0.022145625 49:-0.049143586 50:-0.10285956 #
0.5 1:0.0087960651 2:0.15252241 3:0.15925109 4:-0.23293994 5:-0.046456516 6:0.1680264 7:-0.016693963 8:-0.03707277 9:-0.11207198 10:0.10687596 11:0.16439569 12:0.17069569 13:0.050517172 14:0.11519133 15:0.017875262 16:-0.047837518 17:0.25720924 18:0.067111596 19:0.048538174 20:0.27368411 21:-0.17841971 22:0.037782237 23:0.10162694 24:0.1009063 25:-0.025299959 26:-0.069474757 27:-0.34575143 28:-0.16477631 29:0.088114925 30:-0.074506082 31:-0.027470941 32:-0.0513907 33:0.18679705 34:-0.017216498 35:-0.11209325 36:-0.27803305 37:0.11364467 38:0.04849162 39:0.035862587 40:0.32316321 41:0.095118672 42:0.098849326 43:-0.079666704 44:0.098391734 45:0.11969891 46:-0.21331565 47:-0.016855514 48:-0.058023456 49:0.084259905 50:-0.21067189 #
-0.5 1:-0.16564769 2:0.20318723 3:0.071162775 4:-0.21131745 5:-0.28761074 6:0.16866878 7:0.089461975 8:-0.085719183 9:-0.24829437 10:-0.15006095 11:0.18988542 12:0.15700649 13:0.045900658 14:0.037471481 15:-0.1611339 16:0.10676571 17:0.16429697 18:0.16623572 19:0.18677741 20:0.15831995 21:0.0091559887 22:0.12613411 23:0.0080769798 24:0.1208223 25:0.11511035 26:-0.09012229 27:-0.31189555 28:-0.073335022 29:0.12411242 30:0.092933886 31:0.089203425 32:-0.047631007 33:0.0085890694 34:0.086151503 35:0.014346899 36:-0.16564585 37:0.12250572 38:0.099394552 39:0.068727747 40:0.021847678 41:-0.030587608 42:0.31150201 43:0.048582833 44:-0.095095687 45:0.1869383 46:-0.025275556 47:0.020120258 48:-0.03532967 49:0.033138346 50:-0.22982225 #
0.5 1:0.0049342602 2:0.089047126 3:0.012552185 4:0.16217664 5:-0.080624565 6:0.13334127 7:0.023445863 8:-0.08945509 9:-0.22133406 10:-0.014943055 11:0.30229878 12:-0.12806866 13:-0.19688956 14:-0.025912896 15:-0.10564709 16:0.13508253 17:0.19013107 18:0.24792822 19:-5.8921538e-005 20:0.14856756 21:-0.052361526 22:0.16265333 23:-0.1318581 24:0.087429993 25:0.11628702 26:-0.055727009 27:-0.077555336 28:0.057478201 29:-0.036213186 30:0.048907109 31:0.19472094 32:-0.14025518 33:-0.086069204 34:0.40539163 35:-0.056844473 36:0.053959921 37:-0.064629853 38:0.12014084 39:0.045114718 40:0.055425838 41:0.019740909 42:0.12890293 43:-0.022596061 44:-0.20942503 45:0.12032032 46:-0.13803951 47:-0.20599453 48:-0.10100838 49:0.040228684 50:-0.30819082 #
-0.5 1:0.029619934 2:0.042694189 3:-0.015036912 4:-0.031130077 5:-0.066752605 6:0.21810728 7:-0.073752888 8:0.14795052 9:-0.028562766 10:0.14401078 11:0.049254764 12:0.15462181 13:0.10615381 14:-0.13203579 15:0.058998283 16:0.019081194 17:-0.3186456 18:0.22010541 19:0.30399805 20:0.088927753 21:-0.20698266 22:0.12221517 23:-0.072051719 24:0.23751174 25:0.048688319 26:0.17014968 27:-0.01415407 28:-0.14142609 29:-0.036204074 30:0.21208228 31:-0.14064619 32:0.013197104 33:-0.044265185 34:0.06412261 35:-0.055862237 36:-0.14616585 37:0.066393889 38:-0.1634388 39:0.011862433 40:-0.032882951 41:-0.038861524 42:-0.05957365 43:-0.063629374 44:-0.25234208 45:0.08333832 46:-0.27221781 47:-0.19140515 48:-0.16189069 49:-0.094396845 50:-0.24570897 #
-0.5 1:-0.14160551 2:0.23704718 3:0.0099041546 4:0.15148742 5:-0.1165107 6:0.096249804 7:0.095274329 8:-0.12913117 9:-0.04702381 10:0.28460476 11:0.015502201 12:0.12858185 13:0.1178797 14:-0.046906225 15:0.12430217 16:0.27439022 17:0.22370411 18:0.17942466 19:0.1183596 20:0.065773331 21:-0.25231415 22:-0.23267601 23:-0.027977454 24:0.22294238 25:0.024953546 26:-0.15344056 27:0.022970779 28:-0.095596507 29:-0.050797757 30:0.088145711 31:0.062327098 32:-0.22864389 33:-0.20062208 34:0.13446383 35:0.0040523559 36:-0.21524853 37:0.0089039039 38:-0.14491107 39:0.13904268 40:0.089630991 41:0.017154304 42:-0.074285641 43:-0.026408549 44:-0.13796124 45:0.1218034 46:0.16089045 47:-0.029870078 48:-0.12998709 49:-0.083419807 50:-0.17876601 #
-0.5 1:-0.13990565 2:-0.031053811 3:-0.022917962 4:-0.12071788 5:-0.090217263 6:0.20776981 7:-0.2199716 8:0.017020075 9:-0.022732593 10:0.024828676 11:0.081153505 12:0.037071832 13:0.18513003 14:-0.067145757 15:-0.057744142 16:-0.2096121 17:-0.10117821 18:-0.024435131 19:0.19616604 20:0.23972555 21:0.010111006 22:0.2790592 23:-0.088064693 24:-0.011866583 25:0.19886464 26:0.023806889 27:-0.2012938 28:-0.050301772 29:0.13322596 30:0.024459528 31:0.011510693 32:-0.082270764 33:0.02017905 34:-0.032604661 35:0.052375577 36:-0.20372376 37:0.013323816 38:0.030101771 39:-0.01901512 40:-0.11069757 41:0.025722375 42:0.10707133 43:-0.27720577 44:-0.2254107 45:-0.027815808 46:-0.43276629 47:-0.021625943 48:-0.23872258 49:0.014784499 50:0.15242964 #
-0.5 1:-0.023379622 2:0.16080634 3:0.16902013 4:0.11140547 5:-0.12862433 6:0.084752008 7:0.1065182 8:-0.28703368 9:-0.01247119 10:0.14103813 11:0.14161365 12:0.20694007 13:-0.1073729 14:0.019965179 15:0.076687887 16:-0.054018334 17:0.15480565 18:0.36966789 19:-0.092061773 20:0.094133593 21:0.13282569 22:0.062056284 23:-0.010214469 24:0.34840974 25:-0.11171319 26:-0.03556155 27:-0.034120604 28:-0.11942261 29:-0.13934451 30:0.12376961 31:0.031823277 32:0.019325914 33:0.12914547 34:-0.026105136 35:-0.1040635 36:-0.023268884 37:-0.27020106 38:0.34976009 39:0.20355818 40:0.13593543 41:0.12426022 42:-0.0099768844 43:0.05138208 44:-0.075034186 45:-0.067045562 46:0.071572766 47:-0.00461881 48:0.06950061 49:0.02485144 50:-0.048816297 #
0.5 1:0.012949566 2:0.12155454 3:0.0018112205 4:-0.24716322 5:-0.092601165 6:0.15938276 7:-0.091068357 8:0.0080078328 9:-0.13495478 10:-0.065038629 11:0.17813866 12:0.2397196 13:0.065838568 14:0.07038983 15:-0.048022859 16:-0.0043286821 17:0.13562034 18:-0.0049302252 19:0.147432 20:0.083394095 21:-0.025224451 22:0.25336587 23:-0.077334635 24:0.19674432 25:0.060433242 26:0.0093687586 27:-0.14645183 28:-0.016904073 29:0.30503246 30:0.18741573 31:0.096485317 32:0.051030628 33:0.00068 34:0.047252078 35:-0.085256107 36:-0.1597852 37:0.12789597 38:0.029809337 39:-0.10497871 40:-0.19299291 41:-0.13791603 42:0.25246158 43:-0.16810356 44:0.0073590637 45:0.25756976 46:0.0030311185 47:0.24143697 48:0.14002353 49:0.23671843 50:-0.15584008 #
0.5 1:-0.005551192 2:0.22815572 3:0.070242167 4:-0.20136276 5:-0.12777822 6:0.155314 7:-0.13710465 8:-0.057810888 9:-0.32338005 10:-0.16759227 11:0.18837999 12:0.055710219 13:0.11340383 14:0.075229578 15:-0.11850948 16:0.045248978 17:0.15605992 18:0.15893099 19:0.19843389 20:0.016691582 21:-0.0023036655 22:0.28003526 23:0.025076529 24:0.22015546 25:-0.013936459 26:-0.11543915 27:-0.27540743 28:-0.15019752 29:0.26908776 30:0.021959651 31:-0.13099924 32:-0.042849366 33:0.021152314 34:0.062542789 35:-0.05791064 36:-0.1683307 37:0.15700296 38:0.049848121 39:0.072441436 40:0.028333863 41:-0.10080433 42:0.18009174 43:-0.02137503 44:0.14804582 45:0.11129954 46:-0.089467481 47:0.070370592 48:-0.037159871 49:0.22591141 50:-0.037540901 #
0.5 1:-0.12224413 2:0.24580316 3:0.051825557 4:-0.21731684 5:-0.30347645 6:0.25740609 7:-0.031098174 8:-0.072660446 9:-0.22782925 10:-0.13402651 11:0.14519003 12:0.062936842 13:0.028560732 14:0.14567089 15:-0.17495602 16:0.065313272 17:0.14452429 18:0.14261855 19:0.13058172 20:0.19758846 21:7.4090596e-005 22:0.29724738 23:0.060660727 24:0.21533498 25:0.056882076 26:-0.099673942 27:-0.12736088 28:-0.096407309 29:0.26851657 30:-0.007368383 31:0.073177435 32:-0.10787604 33:0.041693117 34:0.037177455 35:0.0099421516 36:-0.076465137 37:0.075820304 38:0.05346407 39:-0.061078236 40:-0.013936082 41:0.0011047631 42:0.3055563 43:-0.013973631 44:0.040136497 45:0.22775614 46:0.02921268 47:0.020373268 48:0.044435985 49:0.13725801 50:-0.063375682 #
0.5 1:-0.11080109 2:0.30786794 3:0.079514727 4:-0.21997277 5:-0.21541347 6:0.31729493 7:0.0068576369 8:-0.14454761 9:-0.20619401 10:-0.13406208 11:0.17140657 12:0.055592496 13:-0.0076471129 14:0.15735176 15:-0.14431185 16:0.02461846 17:0.089118928 18:0.0018521657 19:0.085770987 20:0.18612877 21:-0.055063091 22:0.32689193 23:0.085334308 24:0.15903805 25:0.11699291 26:-0.086193189 27:-0.068679623 28:0.019561097 29:0.24660358 30:0.02118882 31:0.17093119 32:-0.1624943 33:0.013166893 34:0.10181445 35:-0.027757531 36:-0.068010069 37:0.023605835 38:0.055602852 39:-0.078079581 40:-0.11243443 41:-0.0086172419 42:0.27883804 43:0.071255364 44:0.0066542239 45:0.17746547 46:0.061389595 47:0.059331045 48:0.015967516 49:0.17301327 50:-0.072445914 #
0.5 1:-0.17096083 2:0.22205086 3:0.067455575 4:-0.23164189 5:-0.33896753 6:0.28225514 7:0.015470637 8:-0.061037242 9:-0.25170499 10:-0.13440222 11:0.15549639 12:0.11668051 13:0.058715813 14:0.13849291 15:-0.20045602 16:0.081642121 17:0.13812894 18:0.094235539 19:0.13334359 20:0.20181349 21:-0.046811767 22:0.20361044 23:0.069457076 24:0.20089526 25:0.081284277 26:-0.13839473 27:-0.16271001 28:-0.024010878 29:0.24458045 30:0.025051571 31:0.077862196 32:-0.096049137 33:0.091256134 34:-0.011621412 35:-0.0091310302 36:-0.082825623 37:0.067367673 38:0.015978916 39:-0.075775869 40:0.026031896 41:0.043662976 42:0.28263 43:0.027931295 44:0.057724867 45:0.19282024 46:0.041181713 47:0.0055615236 48:0.035552058 49:0.12194433 50:-0.068050005 #
-0.5 1:-0.16565214 2:0.20320544 3:0.071136892 4:-0.21131861 5:-0.28760251 6:0.16866463 7:0.089454636 8:-0.085720628 9:-0.24831095 10:-0.15008785 11:0.1899159 12:0.15697983 13:0.045922898 14:0.037485264 15:-0.16108383 16:0.10678358 17:0.16427848 18:0.16617982 19:0.18679669 20:0.1583287 21:0.0091563305 22:0.12617458 23:0.0080809994 24:0.12083881 25:0.11508877 26:-0.090151884 27:-0.31183878 28:-0.073332086 29:0.12413718 30:0.092918575 31:0.089241318 32:-0.047650311 33:0.0085359467 34:0.0862047 35:0.014370567 36:-0.16566005 37:0.12249631 38:0.099341869 39:0.068681583 40:0.02186837 41:-0.030574845 42:0.31151035 43:0.048599552 44:-0.09510237 45:0.18695843 46:-0.025300186 47:0.020133022 48:-0.035336573 49:0.0331681 50:-0.22982383 #
0.5 1:-0.19852039 2:0.13773951 3:0.13045998 4:-0.04346418 5:0.045293488 6:-0.11579622 7:0.16026938 8:-0.025425738 9:-0.16626683 10:-0.14331861 11:-0.023373196 12:0.011768069 13:0.11602934 14:0.0040490604 15:-0.030326989 16:-0.021364631 17:0.18705174 18:0.1457618 19:0.1492884 20:0.056505069 21:-0.098579988 22:0.051759325 23:-0.064052247 24:-0.20251136 25:-0.12495842 26:-0.14689341 27:0.0087183509 28:0.17374973 29:-0.094268739 30:0.076900221 31:-0.011286475 32:0.090055369 33:-0.16338368 34:0.37264267 35:-0.068328939 36:0.063016184 37:-0.102244 38:0.0086826105 39:0.27782452 40:-0.13262725 41:0.055256691 42:0.1783504 43:0.12878372 44:-0.30775711 45:0.088441558 46:0.093720034 47:-0.26196164 48:-0.094814405 49:-0.088360518 50:-0.24449854 #
-0.5 1:-0.16564694 2:0.20318504 3:0.071163416 4:-0.2113141 5:-0.28761041 6:0.16866867 7:0.089458868 8:-0.085715413 9:-0.24829446 10:-0.15005948 11:0.18988934 12:0.15700562 13:0.045898102 14:0.03747455 15:-0.16113402 16:0.10676739 17:0.16429909 18:0.16623603 19:0.18678078 20:0.15831749 21:0.0091549149 22:0.12613083 23:0.0080804033 24:0.12082049 25:0.11511233 26:-0.090122208 27:-0.3118968 28:-0.073334932 29:0.12411606 30:0.092932448 31:0.08920674 32:-0.047630727 33:0.0085933385 34:0.086149991 35:0.014350166 36:-0.16564216 37:0.12250197 38:0.099394694 39:0.068728611 40:0.021851851 41:-0.030589426 42:0.3115041 43:0.048582014 44:-0.095098287 45:0.1869362 46:-0.025276611 47:0.020122448 48:-0.035330761 49:0.033138603 50:-0.22982411 #
0.5 1:0.051947959 2:0.020790314 3:0.10710241 4:0.20516485 5:-0.10401996 6:0.15295961 7:0.19990745 8:-0.24056908 9:0.092944451 10:0.27690521 11:-0.014506337 12:0.21666299 13:0.077478327 14:-0.059697647 15:-0.13431883 16:0.16436175 17:0.064349167 18:0.083609581 19:0.17367898 20:-0.014374961 21:0.10040388 22:-0.14642774 23:-0.10979467 24:0.14535534 25:-0.11226586 26:0.080705307 27:-0.27939835 28:-0.058267459 29:-0.12124296 30:0.13434906 31:0.0042911116 32:0.055674843 33:0.13290183 34:-0.071365573 35:-0.047036368 36:-0.22553864 37:0.35251057 38:0.31930643 39:0.11356439 40:-0.064310983 41:0.1162774 42:0.036449671 43:0.064514741 44:0.026917007 45:0.030200986 46:0.1698544 47:-0.0083906865 48:0.084093586 49:-0.034174796 50:-0.067917593 #
-0.5 1:-0.16563591 2:0.20321558 3:0.071096621 4:-0.21129967 5:-0.28761974 6:0.1686811 7:0.089431077 8:-0.085715763 9:-0.24833126 10:-0.15010129 11:0.18994886 12:0.15695442 13:0.045947164 14:0.037484206 15:-0.16103554 16:0.10678568 17:0.16427194 18:0.16612275 19:0.18683824 20:0.15833798 21:0.0091646221 22:0.12622203 23:0.0080771986 24:0.12087461 25:0.11505717 26:-0.090184212 27:-0.31178215 28:-0.073324256 29:0.12417731 30:0.092893697 31:0.089280747 32:-0.047686782 33:0.0084862653 34:0.086251773 35:0.014386171 36:-0.16567974 37:0.1224608 38:0.09928976 39:0.068630643 40:0.0218702 41:-0.030548519 42:0.31150159 43:0.048625324 44:-0.095105484 45:0.18698531 46:-0.025320631 47:0.020140778 48:-0.035331853 49:0.033214554 50:-0.22983335 #
0.5 1:-0.016432283 2:0.34093684 3:0.12235271 4:-0.3789216 5:-0.13015601 6:0.22868477 7:0.23377383 8:0.0086860778 9:-0.20894276 10:-0.2008974 11:0.11065652 12:0.019118041 13:-0.0077728932 14:0.081006095 15:-0.059614412 16:-0.080223672 17:0.099645577 18:0.032093205 19:-0.06669908 20:0.069717184 21:-0.13427171 22:-0.14494282 23:-0.073488794 24:0.14247599 25:0.18454565 26:-0.03090412 27:-0.16009265 28:-0.087582476 29:-0.044664908 30:0.18559113 31:-0.047146332 32:-0.089750446 33:-0.035829838 34:-0.16980937 35:0.19835421 36:-0.039526511 37:-0.032876488 38:-0.20970647 39:0.12798762 40:0.16998854 41:0.036365412 42:-0.095833704 43:0.1961814 44:-0.039101411 45:0.11900392 46:0.013461935 47:0.032719601 48:-0.17211856 49:-0.14494278 50:-0.098857917 #
-0.5 1:-0.051119197 2:0.15795684 3:0.001828298 4:-0.084092073 5:0.099669963 6:0.063848458 7:-0.056166779 8:0.11558115 9:-0.28576881 10:-0.15520634 11:-0.069545716 12:0.031299721 13:-0.15362108 14:-0.1998561 15:0.17589296 16:0.018426325 17:0.13560572 18:-0.023027353 19:-0.11022624 20:0.10281571 21:0.062084462 22:-0.018473124 23:-0.17493555 24:-0.04046933 25:-0.013404503 26:-0.039160341 27:-0.29844674 28:-0.14280644 29:0.013334699 30:-0.19728197 31:-0.066758044 32:-0.062799811 33:-0.014877878 34:-0.22755566 35:-0.044750631 36:-0.14393589 37:-0.11397368 38:0.12439662 39:-0.030766649 40:0.1499747 41:0.12329037 42:0.023351993 43:-0.1631871 44:0.47605613 45:0.1439182 46:0.10978322 47:0.16660596 48:0.071230672 49:0.16785361 50:-0.047892243 #
-0.5 1:0.055010859 2:0.013590262 3:0.25287214 4:-0.16094235 5:-0.3294141 6:-0.1020992 7:-0.17314272 8:-0.09396825 9:0.1228902 10:0.10440348 11:-0.027816189 12:0.059817038 13:0.30623227 14:-0.1455674 15:-0.27176988 16:-0.077279955 17:0.21863441 18:0.12243758 19:-0.16272372 20:-0.17385784 21:-0.098086767 22:-0.015630798 23:-0.12840235 24:0.055818751 25:-0.037552521 26:0.051111583 27:-0.13800889 28:-0.076053552 29:0.068946823 30:0.073333666 31:0.31844971 32:-0.108678 33:0.160855 34:0.14075415 35:-0.17973568 36:0.049572341 37:0.13649876 38:-0.052053433 39:0.11010949 40:-0.027848639 41:0.006202315 42:-0.0087320805 43:0.21982212 44:0.079691574 45:0.11790305 46:-0.013765819 47:0.018310329 48:0.17956385 49:-0.081561126 50:-0.008567756 #
-0.5 1:-0.16548768 2:0.21532471 3:-0.080031589 4:0.13883883 5:0.075204551 6:0.17323489 7:0.22815628 8:-0.095861688 9:0.017703125 10:-0.1036365 11:0.308516 12:-0.12057741 13:0.016117711 14:-0.060305402 15:-0.0097689303 16:0.027536165 17:0.21743104 18:0.23044425 19:0.058604676 20:-0.20896214 21:-0.15845016 22:0.078026332 23:-0.038067751 24:-0.19611987 25:-0.044316359 26:-0.064837255 27:-0.043147665 28:0.18124966 29:0.043543462 30:-0.08295799 31:0.102515 32:-0.0070865033 33:-0.24897414 34:0.03660477 35:-0.15013529 36:0.070426494 37:0.1979555 38:-0.1461751 39:0.12025774 40:-0.030828983 41:-0.013343124 42:0.25581935 43:0.18585587 44:0.0016366141 45:-0.20554332 46:-0.11908504 47:0.22591196 48:-0.020015577 49:0.092985146 50:-0.12590709 #
-0.5 1:0.15930016 2:0.28984192 3:0.025821542 4:0.071660809 5:0.089676641 6:0.11980703 7:0.15172756 8:0.37593827 9:0.14266229 10:0.22068393 11:0.10149992 12:-0.062190235 13:-0.06801451 14:0.26928052 15:-0.14933532 16:0.012357309 17:0.10089485 18:-0.054216247 19:0.22220397 20:-0.141811 21:0.11772445 22:0.1858831 23:-0.075577453 24:0.19736545 25:-0.041998714 26:-0.0222941 27:0.080253199 28:-0.087142326 29:0.031033851 30:-0.17568699 31:0.029012883 32:-0.033191375 33:0.17841235 34:0.027264334 35:-0.1403427 36:-0.11544071 37:0.299887 38:0.010374043 39:-0.070601471 40:-0.13135259 41:0.069136605 42:0.0095183905 43:-0.18077815 44:0.052975301 45:-0.074570529 46:-0.16050732 47:-0.087170146 48:0.051436182 49:-0.076721847 50:-0.15432532 #
0.5 1:-0.22724083 2:0.11949428 3:0.015799252 4:-0.067767225 5:-0.37524182 6:0.28951359 7:0.033484772 8:-0.25719664 9:-0.17888267 10:-0.084699892 11:0.10476701 12:0.067206256 13:-0.15344337 14:0.095339134 15:0.13168217 16:0.2433158 17:0.0015932774 18:0.21256 19:0.20556326 20:0.1860664 21:-0.024816873 22:0.039338179 23:0.027083233 24:0.12011544 25:0.16371444 26:-0.077205472 27:-0.053009342 28:-0.12429714 29:0.14536193 30:-0.13283794 31:0.16952382 32:-0.083820961 33:0.049052797 34:0.12661317 35:0.053562474 36:-0.037488021 37:0.065108843 38:0.080251276 39:0.097175948 40:0.10571595 41:-0.12089005 42:0.29190415 43:-0.072036438 44:-0.034441799 45:0.13652231 46:-0.14324865 47:0.054170366 48:0.043735124 49:0.052946039 50:-0.039192408 #
-0.5 1:-0.16563712 2:0.20321949 3:0.071091212 4:-0.21129955 5:-0.28761613 6:0.16868089 7:0.089430258 8:-0.085718125 9:-0.24833454 10:-0.15010664 11:0.18995692 12:0.15694676 13:0.045949783 14:0.037488174 15:-0.16102777 16:0.10679255 17:0.16426867 18:0.16611002 19:0.18684311 20:0.15834016 21:0.0091661429 22:0.12623478 23:0.0080780527 24:0.12087909 25:0.11505394 26:-0.090188146 27:-0.31176892 28:-0.073322959 29:0.12418239 30:0.092890255 31:0.089287125 32:-0.047693156 33:0.0084756585 34:0.086262397 35:0.014389344 36:-0.1656817 37:0.12245771 38:0.099280499 39:0.068622209 40:0.021873845 41:-0.030541699 42:0.31150135 43:0.048626821 44:-0.095107384 45:0.18699166 46:-0.025324291 47:0.020144114 48:-0.035331972 49:0.033222731 50:-0.22983311 #
0.5 1:0.094076872 2:0.028446434 3:0.057329286 4:0.15895441 5:-0.071145035 6:0.10276532 7:0.26163813 8:-0.28504592 9:0.07560458 10:0.2064455 11:0.012371203 12:0.25198713 13:0.10297181 14:-0.049482953 15:-0.12329452 16:0.22810854 17:-0.0027998907 18:0.049575422 19:0.182422 20:-0.044532645 21:0.10716119 22:-0.16478601 23:-0.11195906 24:0.12778339 25:-0.13912731 26:0.045602169 27:-0.24503382 28:-0.0052115289 29:-0.1030697 30:0.082952641 31:-0.0082670264 32:0.089419603 33:0.11901317 34:-0.084523134 35:-0.077122092 36:-0.2487022 37:0.39307001 38:0.20968725 39:0.077529661 40:-0.029292494 41:0.17578341 42:-0.032209959 43:0.096543103 44:0.01898016 45:0.10218302 46:0.1320321 47:0.0014817845 48:0.12689368 49:-0.092422709 50:-0.057411242 #
-0.5 1:-0.10449402 2:0.10215079 3:0.05710746 4:0.059790548 5:-0.075709768 6:0.056414358 7:0.0094341598 8:-0.19052203 9:-0.0034936897 10:-0.17548777 11:0.090499997 12:0.25060251 13:0.22966678 14:0.13142577 15:-0.021911109 16:0.1141297 17:0.063580967 18:0.0010132451 19:0.011247193 20:0.33827728 21:-0.30174342 22:-0.01494736 23:-0.16901809 24:-0.04322309 25:-0.022759156 26:-0.069139242 27:-0.075375788 28:-0.10420882 29:0.23420012 30:-0.090776302 31:0.029387966 32:0.023076052 33:-0.067767613 34:-0.1357051 35:0.17809571 36:-0.065838084 37:0.25846955 38:0.025856541 39:0.095688418 40:0.26070401 41:-0.10972949 42:-0.044536691 43:0.057352189 44:-0.26093119 45:0.25877601 46:-0.088989429 47:-0.10058296 48:-0.017233256 49:-0.13760763 50:0.14579564 #
0.5 1:-0.041114092 2:0.2190745 3:0.24012509 4:-0.28295606 5:-0.11671945 6:0.10793071 7:-0.054625779 8:-0.025419014 9:-0.19505063 10:0.27914593 11:-0.025556671 12:0.029926734 13:0.11698329 14:-0.02270739 15:-0.25021064 16:-0.049590375 17:0.21638855 18:-0.067788407 19:0.15758227 20:-0.04736929 21:-0.10853323 22:-0.05097241 23:0.0013951424 24:0.087304562 25:0.23271839 26:-0.1193393 27:-0.12518317 28:0.047299918 29:0.17601956 30:-0.25885683 31:-0.145227 32:-0.075447492 33:0.030210787 34:-0.077707358 35:-0.020620685 36:-0.038968392 37:0.0070341616 38:0.16599682 39:-0.12437307 40:0.055036567 41:0.10801702 42:0.014907922 43:-0.24693146 44:-0.13622686 45:0.12227817 46:-0.074462041 47:0.28548908 48:-0.10168425 49:-0.12594083 50:0.026628429 #
-0.5 1:0.0090551684 2:-0.0009606338 3:-0.034359273 4:-0.24021009 5:-0.14567252 6:0.11981202 7:0.24985212 8:-0.078541562 9:-0.083337866 10:0.057206318 11:0.23000424 12:-0.036813587 13:-0.026268033 14:0.13180539 15:0.041630484 16:0.16543251 17:0.085280828 18:0.068447217 19:0.036005367 20:-0.01718046 21:-0.11558281 22:0.25649416 23:-0.0043895855 24:0.31967357 25:-0.030830359 26:-0.12832974 27:0.05876426 28:-0.031900566 29:0.37123993 30:-0.33401027 31:-0.051583949 32:-0.069200233 33:0.070279233 34:-0.0013198416 35:-0.03301087 36:0.051658921 37:0.043115377 38:0.31738731 39:-0.053058404 40:-0.13264546 41:-0.054197267 42:-0.075023361 43:-0.15018512 44:-0.036765527 45:-0.11749529 46:-0.1781064 47:0.056701288 48:-0.15624498 49:0.011389195 50:-0.11889697 #
0.5 1:-0.29249752 2:0.087763958 3:0.26580453 4:-0.078727573 5:-0.0059761028 6:-0.10468432 7:-0.016065216 8:0.0089182565 9:-0.098342076 10:-0.06133711 11:-0.089762747 12:0.26466927 13:0.17081001 14:0.10957175 15:-0.0024918488 16:-0.064943776 17:0.24724005 18:-0.1339405 19:0.14857645 20:0.24516411 21:-0.1291808 22:-0.055239305 23:-0.047264092 24:0.075823478 25:0.039995302 26:0.013541571 27:-0.2515102 28:-0.016401488 29:0.10950865 30:-0.12611155 31:0.063462719 32:0.11951195 33:-0.082469881 34:0.023834649 35:-0.123255 36:-0.0072606844 37:0.16135877 38:0.12535769 39:0.18280064 40:-0.050323941 41:0.031608935 42:0.25281295 43:0.19912659 44:-0.16269715 45:0.11005005 46:-0.090698712 47:0.064304814 48:-0.15919136 49:-0.10720436 50:-0.29744145 #
-0.5 1:-0.16563039 2:0.20321926 3:0.071084045 4:-0.21128835 5:-0.28762048 6:0.16865675 7:0.089427702 8:-0.085703894 9:-0.24834469 10:-0.15010476 11:0.18995079 12:0.156941 13:0.045950614 14:0.037488658 15:-0.1610302 16:0.10679378 17:0.16426644 18:0.16610309 19:0.18686996 20:0.15835571 21:0.0091601238 22:0.12623338 23:0.0080704978 24:0.12089778 25:0.11505397 26:-0.090201117 27:-0.31176853 28:-0.073310554 29:0.12418248 30:0.092883952 31:0.089284174 32:-0.04768895 33:0.0084673977 34:0.086284138 35:0.014396223 36:-0.16568793 37:0.1224441 38:0.09926483 39:0.068627089 40:0.021880383 41:-0.03054034 42:0.31149322 43:0.048634909 44:-0.095100291 45:0.18699566 46:-0.025358077 47:0.020132028 48:-0.035346568 49:0.033245858 50:-0.22983547 #
0.5 1:-0.13076046 2:0.09809912 3:-0.087138563 4:-0.052480265 5:-0.16419482 6:0.27366599 7:-0.10136637 8:-0.067998976 9:-0.016426666 10:0.089614637 11:0.2674123 12:-0.1114684 13:0.11304392 14:-0.0334429 15:-0.43495846 16:-0.015779998 17:0.21429151 18:0.33710435 19:0.15763146 20:0.19639795 21:-0.16148645 22:0.10784564 23:0.12314902 24:0.009503359 25:0.15253311 26:0.010631652 27:-0.010849298 28:0.0054404857 29:0.040334575 30:-0.016960183 31:0.03576662 32:0.069985315 33:0.22130658 34:-0.076734945 35:0.1575349 36:-0.037276443 37:0.19010146 38:0.043288093 39:0.14159372 40:0.059603613 41:0.091479376 42:0.22368003 43:-0.084923528 44:-0.081036106 45:0.070100613 46:0.05823442 47:-0.096563339 48:-0.092319496 49:-0.025199614 50:0.037313849 #
-0.5 1:-0.058750823 2:0.26465312 3:0.11017556 4:0.061426017 5:-0.056677964 6:0.23306449 7:-0.084307998 8:0.057195727 9:0.28622201 10:-0.15676633 11:-0.24358083 12:0.27103138 13:0.1285632 14:-0.096067697 15:0.12265185 16:0.030414989 17:0.077260815 18:-0.067398533 19:0.058991037 20:0.095331758 21:0.18483001 22:-0.062262267 23:0.10465243 24:0.096727163 25:0.069962621 26:0.047911044 27:-0.22600515 28:-0.09286169 29:-0.15111545 30:-0.08712624 31:0.22500516 32:-0.076895542 33:0.22703169 34:-0.091980457 35:-0.32149076 36:0.05144453 37:0.12761943 38:-0.04523135 39:0.28063229 40:0.042633526 41:-0.11365777 42:-0.062492136 43:0.022790663 44:-0.15485406 45:0.10840815 46:0.066233903 47:0.007139401 48:0.05430821 49:-0.023529749 50:0.021383565 #
-0.5 1:-0.21855992 2:0.20989031 3:0.28324956 4:-0.21225874 5:-0.2689434 6:0.076906122 7:-0.10015545 8:-0.14048873 9:-0.13806874 10:0.16711694 11:-0.075216293 12:0.16294211 13:-0.026960762 14:0.046784602 15:-0.11493908 16:-0.019780884 17:0.19536343 18:-0.13340291 19:0.15885301 20:-0.01367017 21:0.06980177 22:0.021752983 23:-0.041409917 24:0.10473506 25:0.1604683 26:-0.098965123 27:-0.18510021 28:-0.10577945 29:0.084724091 30:-0.22013745 31:-0.089028656 32:-0.14648864 33:0.13051246 34:0.037918597 35:-0.012600685 36:-0.13506186 37:0.097783357 38:-0.0068857176 39:-0.087174833 40:0.12419431 41:0.03966558 42:0.13336919 43:-0.050619427 44:-0.20056342 45:0.17402175 46:-0.10729416 47:0.076572463 48:-0.1632273 49:-0.27925643 50:-0.17260028 #
0.5 1:-0.25598884 2:-0.012098092 3:0.08067891 4:-0.13387306 5:0.047959734 6:0.067268319 7:0.32476792 8:0.023225764 9:-0.29998043 10:-0.1818805 11:0.14617746 12:-0.14477842 13:0.073488966 14:-0.027342545 15:0.17771497 16:0.12975483 17:0.096683949 18:0.024986317 19:0.022931879 20:0.13105157 21:-0.024840789 22:0.023369754 23:-0.078070447 24:0.23778279 25:-0.03287429 26:-0.1307424 27:-0.098307878 28:0.04879389 29:-0.039121978 30:0.32760215 31:0.10646207 32:0.11249059 33:-0.022209432 34:-0.077310644 35:0.21778889 36:-0.14300127 37:-0.056072779 38:0.14569025 39:-0.090099856 40:0.18193269 41:0.080820732 42:0.29661423 43:0.0098550804 44:-0.043013986 45:0.1224369 46:-0.025448935 47:0.015946392 48:-0.065613426 49:0.11059745 50:-0.2317933 #
0.5 1:-0.14587116 2:0.25274375 3:0.03682569 4:-0.14310777 5:-0.28025302 6:0.25865901 7:0.083023399 8:-0.055838484 9:-0.26044306 10:-0.21078148 11:0.21977745 12:0.12612586 13:0.00078615313 14:0.060148492 15:-0.035349634 16:0.029635325 17:0.14587244 18:0.14459088 19:0.13047081 20:0.12175783 21:0.035357237 22:0.22491215 23:0.028763438 24:0.14085212 25:0.090080723 26:-0.075655721 27:-0.27359325 28:-0.037186086 29:0.20221592 30:0.048416011 31:0.097369008 32:-0.10550195 33:-0.075678185 34:0.069937848 35:0.047169458 36:-0.12893832 37:0.042329215 38:0.034099627 39:-0.021959662 40:-0.00071252324 41:-0.020679308 42:0.39785713 43:-0.056827843 44:-0.0088422187 45:0.14298676 46:0.0068794452 47:0.080354564 48:0.017304568 49:0.12143901 50:-0.13397627 #
0.5 1:-0.1867654 2:0.20279364 3:0.0011200005 4:-0.10220657 5:-0.34543464 6:0.25826478 7:0.14584032 8:-0.1111237 9:-0.19911492 10:-0.24430248 11:0.27055871 12:0.19714357 13:0.086544335 14:0.026482793 15:0.11156961 16:0.17747051 17:0.073635057 18:0.046912637 19:0.20989268 20:0.15263462 21:-0.0061011817 22:-0.076111808 23:0.024774875 24:0.056846175 25:0.13702886 26:-0.16193533 27:-0.28026423 28:0.056851145 29:0.016812559 30:0.1369492 31:0.12267448 32:-0.0057788808 33:-0.015656665 34:0.059742972 35:0.15582982 36:-0.20226286 37:-0.062072933 38:0.078821473 39:-0.07639005 40:-0.0017691646 41:0.054509208 42:0.23566905 43:0.051647495 44:-0.05077786 45:0.13043799 46:0.032023627 47:0.059366751 48:-0.018568087 49:-0.072922319 50:-0.094462089 #
0.5 1:-0.1945392 2:0.15619752 3:0.10828424 4:-0.15629922 5:-0.29116943 6:0.19925728 7:0.081985913 8:-0.0090221073 9:-0.20880711 10:-0.078203797 11:0.1587148 12:0.21424067 13:0.028818082 14:0.054877952 15:-0.11055131 16:0.08962024 17:0.1850494 18:0.06001715 19:0.13548072 20:0.15257791 21:-0.091315545 22:0.29494882 23:0.025226032 24:0.088655561 25:0.05983226 26:-0.18402238 27:-0.18653527 28:-0.015623136 29:0.11622851 30:-0.079988465 31:0.1003458 32:-0.10514203 33:-0.039718002 34:-0.024671119 35:0.0070043113 36:-0.09856426 37:-0.068656549 38:0.13906327 39:0.061069146 40:-0.13282485 41:0.053995896 42:0.28903696 43:0.070760421 44:-0.14069703 45:0.30591449 46:-0.033676203 47:0.0079019992 48:-0.076690085 49:-0.16912715 50:-0.17518334 #
0.5 1:-0.047335394 2:0.11291084 3:-0.032021765 4:0.013491784 5:-0.090802833 6:0.14420678 7:0.058256455 8:-0.041777793 9:-0.31401801 10:-0.0565175 11:0.21636613 12:-0.021659676 13:-0.26952344 14:0.13521017 15:-0.15475921 16:0.10236201 17:0.1821264 18:0.17761378 19:0.11015026 20:0.20831563 21:-0.020040728 22:0.17715237 23:-0.041492742 24:0.26280421 25:0.036344323 26:-0.052957006 27:-0.24117626 28:0.1239794 29:-0.033724651 30:0.19577235 31:0.16223843 32:-0.002849323 33:-0.10018523 34:0.28781149 35:-0.012358006 36:0.062862724 37:-0.12167319 38:0.0091984747 39:-0.0014481725 40:-0.018923772 41:0.014194251 42:0.1559567 43:-0.045818906 44:-0.1709152 45:0.051991776 46:-0.078324072 47:-0.19603987 48:0.099868372 49:0.058266141 50:-0.28321764 #
-0.5 1:-0.16563521 2:0.20321999 3:0.071086548 4:-0.21129797 5:-0.28761601 6:0.16867654 7:0.089428045 8:-0.085712843 9:-0.24833752 10:-0.1501101 11:0.18996231 12:0.15694188 13:0.045952819 14:0.037488628 15:-0.16101919 16:0.10679585 17:0.16426602 18:0.16609974 19:0.18685293 20:0.15834422 21:0.0091646342 22:0.12624404 23:0.0080766417 24:0.12088483 25:0.11504968 26:-0.090196908 27:-0.31175858 28:-0.07332053 29:0.12418797 30:0.092884466 31:0.089292184 32:-0.047696631 33:0.008466715 34:0.08627557 35:0.014395209 36:-0.16568571 37:0.12245299 38:0.099270001 39:0.068614244 40:0.021879753 41:-0.030538976 42:0.3115012 43:0.048630856 44:-0.095107332 45:0.18699782 46:-0.025333466 47:0.020144176 48:-0.035337001 49:0.033232484 50:-0.22983354 #
0.5 1:-0.18602514 2:0.12946273 3:0.19448178 4:0.081677869 5:-0.028779883 6:-0.1359816 7:0.090650283 8:-0.0062330086 9:-0.1556401 10:-0.074189 11:0.16686305 12:-0.076286495 13:-0.095044106 14:0.026270127 15:0.10041326 16:-0.088082306 17:0.11006491 18:0.22170983 19:0.11581159 20:0.13882801 21:0.078100614 22:0.24262147 23:-0.14845295 24:0.069059648 25:0.2387329 26:-0.15680104 27:-0.25813645 28:-0.017579237 29:0.21038833 30:-0.034533516 31:-0.11884493 32:0.093659602 33:0.37020358 34:-0.097075373 35:-0.15614395 36:-0.12729955 37:-0.041565459 38:0.18021144 39:0.076182209 40:0.016542329 41:-0.083950415 42:0.15375419 43:-0.060575787 44:-0.11148503 45:0.088029981 46:-0.0032047466 47:0.17261519 48:-0.16819431 49:0.051465206 50:-0.20095751 #
-0.5 1:-0.1656352 2:0.20321998 3:0.071086548 4:-0.21129796 5:-0.28761601 6:0.16867654 7:0.089428045 8:-0.085712843 9:-0.24833752 10:-0.1501101 11:0.18996231 12:0.15694188 13:0.04595283 14:0.037488632 15:-0.16101919 16:0.10679585 17:0.16426602 18:0.16609974 19:0.18685293 20:0.15834422 21:0.0091646425 22:0.12624405 23:0.0080766473 24:0.12088482 25:0.11504968 26:-0.090196922 27:-0.31175858 28:-0.073320523 29:0.12418796 30:0.092884466 31:0.089292184 32:-0.047696628 33:0.0084667206 34:0.086275578 35:0.014395213 36:-0.16568571 37:0.12245299 38:0.099269986 39:0.068614222 40:0.021879753 41:-0.030538963 42:0.3115012 43:0.048630852 44:-0.095107324 45:0.18699783 46:-0.02533347 47:0.020144179 48:-0.035337009 49:0.033232484 50:-0.22983354 #
0.5 1:-0.21661013 2:0.25273746 3:0.063655116 4:-0.35797694 5:-0.18684541 6:0.20359537 7:0.01654022 8:0.022170357 9:-0.076936372 10:-0.2454817 11:0.079681098 12:0.094712652 13:-0.038692929 14:0.092728212 15:-0.21164639 16:0.053805593 17:0.19499767 18:0.030419432 19:-0.012290182 20:0.094672047 21:0.019262642 22:-0.030699609 23:-0.11329598 24:0.17811762 25:0.10994282 26:-0.064432435 27:-0.35035065 28:-0.030013375 29:0.27789053 30:-0.067269213 31:-0.083861955 32:-0.02357688 33:0.083552092 34:0.087292925 35:-0.20708118 36:-0.15787934 37:0.074931338 38:-0.059590738 39:0.023905039 40:-0.095173396 41:-0.17940114 42:0.066785336 43:0.093438976 44:0.082587495 45:0.13981552 46:-0.15533723 47:0.041632894 48:0.016883995 49:0.053044658 50:-0.12457785 #
-0.5 1:-0.16563657 2:0.20322147 3:0.071084902 4:-0.21129881 5:-0.28761435 6:0.16867839 7:0.089427769 8:-0.085714146 9:-0.24833919 10:-0.15011317 11:0.18996601 12:0.15693882 13:0.04595438 14:0.0374902 15:-0.16101381 16:0.10679748 17:0.1642641 18:0.16609482 19:0.18685286 20:0.15834358 21:0.0091646304 22:0.12624829 23:0.0080774724 24:0.12088476 25:0.11504711 26:-0.09019883 27:-0.31175295 28:-0.073320895 29:0.12419106 30:0.09288273 31:0.089296296 32:-0.047698956 33:0.0084616821 34:0.086279176 35:0.014396621 36:-0.16568618 37:0.12245367 38:0.099265814 39:0.068609044 40:0.021881137 41:-0.030537756 42:0.31150293 43:0.04863248 44:-0.095108934 45:0.18699984 46:-0.025333455 47:0.020145696 48:-0.035336599 49:0.03323362 50:-0.2298333 #
0.5 1:-0.080162838 2:0.17567079 3:-0.0038812431 4:0.022005992 5:-0.042606454 6:0.023556333 7:-0.049317542 8:-0.085945457 9:-0.10198077 10:0.12569079 11:0.23507409 12:0.054297589 13:0.27057639 14:-0.027833849 15:-0.25710151 16:-0.0059507638 17:0.035730761 18:0.0070125437 19:0.01041201 20:0.016832048 21:0.030385245 22:0.19120796 23:-0.020676497 24:-0.13676046 25:0.21185221 26:0.24643004 27:-0.094633304 28:-0.18698606 29:0.29578945 30:0.041781303 31:0.019418621 32:-0.16105525 33:0.057532899 34:-0.068025127 35:0.021979349 36:-0.14947401 37:0.38802224 38:0.12538737 39:-0.12333483 40:0.21360901 41:0.004763904 42:0.03451344 43:-0.030356117 44:-0.1557897 45:0.25243628 46:0.13613223 47:0.065817989 48:0.074032977 49:-0.031247748 50:0.15730469 #
-0.5 1:-0.10659585 2:0.22374131 3:-0.057619724 4:0.15160102 5:-0.20261507 6:0.14246924 7:-0.074974693 8:0.06869667 9:-0.046333738 10:0.03038425 11:0.350086 12:-0.070580095 13:0.074494883 14:0.18149152 15:-0.10572247 16:0.036770821 17:0.066144228 18:0.046699081 19:-0.034699265 20:0.074578553 21:-0.030319374 22:0.064198017 23:-0.038667589 24:-0.23310153 25:-0.099109411 26:0.269768 27:-0.13346663 28:0.096859299 29:0.011682025 30:-0.023655118 31:0.14642686 32:0.044283822 33:0.1148463 34:-0.044264637 35:0.14637436 36:-0.28624821 37:-0.031243958 38:0.092319891 39:-0.10107622 40:0.12805127 41:0.21157438 42:0.25486499 43:-0.065142579 44:-0.16586885 45:-0.06919001 46:-0.20564298 47:0.15382978 48:-0.051163007 49:-0.26355323 50:-0.10931737 #
0.5 1:-0.11443351 2:0.19612601 3:0.075260334 4:-0.1663895 5:-0.28339747 6:0.26950729 7:0.011587752 8:-0.06384442 9:-0.220817 10:-0.1590502 11:0.20831837 12:0.19883257 13:0.042092461 14:0.066589169 15:-0.14213748 16:0.078897722 17:0.16807568 18:0.16755639 19:0.17651565 20:0.14980645 21:0.0088430475 22:0.17224027 23:-0.0053519374 24:0.16475485 25:0.10501523 26:-0.08147116 27:-0.28527123 28:-0.076985218 29:0.14747347 30:0.008798575 31:0.098050848 32:-0.078880616 33:0.095637143 34:0.053731531 35:-0.012411855 36:-0.16778676 37:0.06809397 38:0.097437359 39:-0.0018003257 40:0.017582824 41:-0.0097642215 42:0.28468376 43:0.0045633134 44:-0.093242623 45:0.1998698 46:-0.034820013 47:0.08233808 48:-0.014792685 49:0.041805707 50:-0.25355157 #
-0.5 1:-0.1656349 2:0.20322138 3:0.07108625 4:-0.21129726 5:-0.287617 6:0.16868412 7:0.089423224 8:-0.085714675 9:-0.24833578 10:-0.15011556 11:0.18997116 12:0.15694334 13:0.045957379 14:0.037488885 15:-0.16100553 16:0.10679625 17:0.16426258 18:0.16609108 19:0.18685459 20:0.15834476 21:0.0091662612 22:0.12625735 23:0.0080805738 24:0.12088731 25:0.11504138 26:-0.09020102 27:-0.31174421 28:-0.073325209 29:0.12419394 30:0.092876859 31:0.089300685 32:-0.047703099 33:0.0084606353 34:0.086284265 35:0.014399183 36:-0.16569106 37:0.12245182 38:0.099262945 39:0.068602942 40:0.021885466 41:-0.030534249 42:0.31150535 43:0.04862716 44:-0.095107161 45:0.18700093 46:-0.025330022 47:0.020153344 48:-0.035332821 49:0.0332358 50:-0.2298324 #
0.5 1:-0.15218389 2:0.17635773 3:-0.034669098 4:-0.27488345 5:-0.17967772 6:0.25012505 7:-0.12767923 8:-0.079888307 9:-0.18881872 10:-0.27684093 11:0.20552298 12:0.13338412 13:-0.029303787 14:0.094630778 15:-0.19545381 16:0.14445426 17:0.13273634 18:-0.035348721 19:0.080084473 20:-0.018423188 21:0.21364105 22:0.20555545 23:-0.052492358 24:0.2198115 25:0.045983013 26:-0.0879618 27:-0.29826471 28:-0.028841117 29:0.16169225 30:0.27420875 31:0.0050380882 32:-0.029304843 33:-0.0011898491 34:-0.080986179 35:0.066945471 36:-0.091821142 37:-0.0082858559 38:-0.035109967 39:-0.0059415065 40:-0.06838578 41:0.10504449 42:0.22578065 43:0.0023976332 44:-0.041942053 45:0.049308214 46:-0.052321292 47:0.05401003 48:0.090787254 49:-0.046012688 50:-0.18993525 #
0.5 1:-0.077491008 2:0.13938934 3:0.00075238582 4:0.021721859 5:-0.040697169 6:0.16333061 7:0.16809286 8:0.014233293 9:-0.21972756 10:-0.1200082 11:0.2240932 12:-0.12669246 13:-0.16047876 14:-0.068334244 15:0.0098801339 16:0.13243452 17:0.11029587 18:0.16182832 19:0.040344916 20:0.13133778 21:0.00627393 22:0.19434421 23:-0.03439863 24:0.068769939 25:0.073815472 26:-0.031130001 27:-0.17849518 28:-0.00031705786 29:0.0085017299 30:0.17110284 31:0.24082693 32:0.037450962 33:-0.074913077 34:0.42935541 35:-0.011127893 36:0.02960345 37:0.02522005 38:0.13273661 39:0.090839654 40:-0.031498767 41:0.0053708125 42:0.23620214 43:-0.00075750158 44:-0.15108798 45:0.16760525 46:-0.123134 47:-0.18561943 48:-0.045838982 49:0.14500695 50:-0.3381868 #
-0.5 1:-0.16563492 2:0.20322134 3:0.071086228 4:-0.21129726 5:-0.287617 6:0.16868412 7:0.089423232 8:-0.085714661 9:-0.24833578 10:-0.15011558 11:0.18997113 12:0.15694334 13:0.04595739 14:0.03748887 15:-0.16100554 16:0.10679626 17:0.16426256 18:0.1660911 19:0.1868546 20:0.15834476 21:0.0091662854 22:0.12625735 23:0.0080805896 24:0.12088732 25:0.11504138 26:-0.090201005 27:-0.31174421 28:-0.073325239 29:0.12419394 30:0.092876859 31:0.089300692 32:-0.04770311 33:0.0084606213 34:0.08628431 35:0.014399203 36:-0.16569109 37:0.12245184 38:0.099262916 39:0.068602972 40:0.021885477 41:-0.030534267 42:0.31150535 43:0.048627168 44:-0.095107146 45:0.18700092 46:-0.025330029 47:0.020153318 48:-0.035332829 49:0.033235803 50:-0.2298324 #
0.5 1:-0.14170276 2:0.17834321 3:0.08306618 4:-0.18904895 5:-0.31459224 6:0.25444174 7:0.011434488 8:-0.072466515 9:-0.21556488 10:-0.16392554 11:0.19702852 12:0.19912344 13:0.052064616 14:0.057848938 15:-0.13597126 16:0.09666425 17:0.14439929 18:0.1728193 19:0.18306081 20:0.1446137 21:0.0045480593 22:0.17036873 23:0.020793604 24:0.151024 25:0.093995288 26:-0.085923664 27:-0.27423441 28:-0.090316854 29:0.1340223 30:0.060214303 31:0.10357937 32:-0.0502479 33:0.06015617 34:0.0748704 35:0.013535269 36:-0.18855152 37:0.085625052 38:0.089942433 39:0.024938537 40:0.016425598 41:-0.0013229122 42:0.30000743 43:0.0088872937 44:-0.0935596 45:0.19870114 46:-0.032065708 47:0.070152491 48:-0.0066963965 49:0.033908434 50:-0.22824766 #
-0.5 1:-0.16563442 2:0.20322374 3:0.071080633 4:-0.21129759 5:-0.2876178 6:0.1686928 7:0.089416191 8:-0.085716151 9:-0.24833587 10:-0.15012319 11:0.1899828 12:0.15694043 13:0.045964263 14:0.037491959 15:-0.16098858 16:0.10679936 17:0.16425623 18:0.16607659 19:0.18686016 20:0.15834704 21:0.0091676777 22:0.12627676 23:0.0080840085 24:0.12089171 25:0.11503068 26:-0.090207018 27:-0.31172401 28:-0.073328488 29:0.12420375 30:0.092868008 31:0.089312561 32:-0.047712207 33:0.0084474673 34:0.08629597 35:0.014404632 36:-0.16569741 37:0.12244916 38:0.099248417 39:0.068586625 40:0.02189355 41:-0.030527739 42:0.31150785 43:0.048627947 44:-0.095108561 45:0.18700844 46:-0.025330825 47:0.020164479 48:-0.035329856 49:0.033245776 50:-0.22983119 #
0.5 1:-0.048240103 2:0.14615746 3:0.079074368 4:-0.16979091 5:-0.16716641 6:0.2646715 7:0.090447605 8:0.032992858 9:-0.21165676 10:-0.021966068 11:0.1507708 12:0.13881896 13:0.093124792 14:0.076733202 15:-0.2604925 16:-0.011445103 17:0.27856874 18:0.27004981 19:0.23846939 20:0.18700485 21:-0.092155829 22:0.11091824 23:0.015857823 24:0.13693133 25:0.11473878 26:-0.040103324 27:-0.3121722 28:-0.091555655 29:0.15812601 30:0.0021953736 31:0.035452753 32:0.019714229 33:0.21195623 34:-0.020255089 35:-0.042308167 36:-0.11070322 37:-0.02631261 38:0.083808258 39:0.12029297 40:0.10679407 41:0.011824277 42:0.21055399 43:0.011459305 44:-0.10182115 45:0.090748012 46:-0.036586903 47:0.046986979 48:-0.015836351 49:-0.018922925 50:-0.27271602 #
0.5 1:-0.18055105 2:0.19606037 3:0.056845404 4:-0.2342611 5:-0.28491116 6:0.1799441 7:0.091663249 8:-0.1106624 9:-0.2330327 10:-0.15450279 11:0.22214049 12:0.14090188 13:0.066140905 14:0.022004792 15:-0.11264171 16:0.11226993 17:0.16629402 18:0.13894296 19:0.1797927 20:0.16212708 21:0.017497329 22:0.16005161 23:0.0052538239 24:0.09586966 25:0.10706455 26:-0.077280357 27:-0.25026909 28:-0.098027296 29:0.13707343 30:0.073445864 31:0.11015361 32:-0.081142291 33:-0.039222252 34:0.10444364 35:0.0090192975 36:-0.1809752 37:0.1363133 38:0.074910313 39:0.066440679 40:0.045851313 41:-0.038336441 42:0.31040201 43:0.072326645 44:-0.11486518 45:0.19662419 46:0.015795184 47:0.055492613 48:-0.037123844 49:0.038099069 50:-0.22085741 #
