SVM-light Version V6.02
0 # kernel type
3 # kernel parameter -d 
1 # kernel parameter -g 
1 # kernel parameter -s 
1 # kernel parameter -r 
empty# kernel parameter -u 
71748 # highest feature index 
21188 # number of training documents 
3631 # number of support vectors plus 1 
1.1582598 # threshold b, each following line is a SV (starting with alpha*y)
-0.33192117871733473 18263:0.22185752 23198:0.51359046 31599:0.54756564 66651:0.62223464 #
-0.14571358608431106 51974:1 #
-0.089033550028892114 12130:0.16764934 13323:0.12250056 17948:0.36376283 44167:0.63878834 44990:0.39919758 58022:0.28909329 66957:0.41662899 #
-0.3204532738032187 4552:0.47025263 10822:0.19173872 18263:0.21657857 38551:0.65894169 60789:0.51087016 #
-0.1434014150120394 10666:0.2466853 11954:0.50509715 14715:0.3054128 40793:0.51377076 55626:0.57165188 #
1.0000000003668752 13861:0.33811644 14713:0.40003294 36865:0.74363178 42038:0.41552705 #
1.0000000003668752 1688:0.4008837 6571:0.43129596 9348:0.38370246 10635:0.16986397 11693:0.21010438 12120:0.65806597 #
1.0000000003668752 627:0.35830644 12012:0.22594558 13323:0.10431626 15850:0.39990878 15985:0.32230172 17423:0.19729404 17709:0.18031941 21236:0.36405766 23829:0.32828146 24402:0.069557197 26702:0.19532929 27552:0.37523663 50029:0.22435865 #
1.0000000003668752 5538:0.2247839 7912:0.27320877 10635:0.086006865 11972:0.16702713 13307:0.20236474 14515:0.21469048 16293:0.29604673 17089:0.11387503 19398:0.29227418 20767:0.15483256 21096:0.42597339 21836:0.27320877 23732:0.077442668 24583:0.27846047 26017:0.16638632 26586:0.13538168 29922:0.25211886 30327:0.19781549 44503:0.2326811 #
1.0000000003668752 3566:0.54534405 26586:0.2651349 26868:0.22346084 31409:0.35501322 36284:0.52614957 59512:0.24905622 68178:0.34274167 #
-1.0000000003668752 32757:1 #
-0.2000090591702256 5862:0.30605695 8046:0.3247675 16238:0.28884163 23732:0.083260283 25927:0.24566977 27866:0.24860157 41355:0.22398408 46081:0.22099237 52589:0.20939337 62863:0.22477181 68838:0.62846053 #
-0.16591215109446206 6815:0.29972783 8575:0.24548544 11214:0.33104917 12095:0.22388439 12639:0.27930394 13238:0.20556258 13246:0.18065824 13832:0.26760674 14209:0.22096807 15351:0.19050205 17264:0.22328587 18200:0.32173344 19478:0.23668352 20502:0.18585639 22806:0.2115678 48356:0.30307657 #
-0.26235001731444768 1666:0.076434635 7299:0.12321753 7796:0.10751966 8876:0.090189204 10464:0.12258025 10958:0.086228728 11093:0.12167548 11383:0.0807501 12486:0.1340543 13250:0.061719269 13323:0.078056335 13354:0.15864246 14274:0.099488109 14434:0.053998206 15833:0.16377492 16260:0.15649073 17069:0.13274054 17460:0.12577368 18263:0.059516352 18846:0.10608592 20478:0.085775591 20554:0.17064653 25324:0.40703061 26435:0.1893595 26868:0.068398602 27115:0.28466982 32976:0.080501348 35828:0.3090885 39175:0.12282097 40875:0.20351531 44169:0.40703061 46069:0.15276726 47472:0.14565396 48897:0.15649073 49155:0.098037377 51685:0.13149814 60646:0.078931436 #
-0.57647978059717242 3002:0.1805661 3459:0.17201841 9054:0.20610315 10676:0.35180309 11673:0.11831712 11693:0.072583273 13246:0.046466414 13249:0.076374136 14696:0.12368218 14878:0.065698542 15205:0.14834195 15317:0.14315502 17423:0.084015019 18737:0.29178572 18996:0.17201841 21701:0.20370568 22520:0.23164019 22723:0.23523596 22826:0.15107979 23173:0.17113329 23294:0.054993503 24189:0.10238317 24402:0.059239995 24443:0.083022349 24538:0.20148741 24990:0.077176273 27285:0.2155281 28244:0.2155281 48062:0.19941603 51545:0.1942291 54902:0.11470858 55152:0.17201841 59635:0.088375069 61464:0.11352388 65948:0.13190925 71200:0.18999107 #
1.0000000003668752 10771:0.23175341 11081:0.25075406 12896:0.25946936 13250:0.17614111 13323:0.1113828 14360:0.1828094 15380:0.57166833 23294:0.27578112 23732:0.13248694 23990:0.26260754 25547:0.21230966 25831:0.22739239 63547:0.30476943 71554:0.24534635 #
1.0000000003668752 13246:0.20409907 14434:0.26995915 23732:0.23208752 31781:0.31085214 33282:0.35757762 41024:0.49429691 61382:0.4037028 66983:0.44699532 #
1.0000000003668752 4195:0.79618853 61382:0.6050486 #
-0.2033082361535922 1212:0.12660654 2794:0.17612933 3630:0.2553274 10615:0.22717896 12971:0.18273537 15985:0.075641319 21660:0.20546967 25842:0.18960878 28834:0.18771 30437:0.20204836 30886:0.11736695 33411:0.22717896 34970:0.2553274 45477:0.2094193 47273:0.22717896 49654:0.23756771 53180:0.14149867 53643:0.21409069 58302:0.23689437 62859:0.2553274 67576:0.23738709 71187:0.22717896 71602:0.2553274 #
1.0000000003668752 1666:0.14777316 6785:0.2100853 10640:0.25197214 10771:0.15699707 11189:0.18486279 12784:0.16497526 13078:0.24781215 16072:0.22744609 19141:0.30670777 20298:0.22352253 22153:0.20037404 22359:0.36853212 27505:0.1769032 41795:0.12044454 61382:0.4683491 63422:0.20157972 67591:0.13396557 71554:0.16620536 #
-0.073918065379225517 10822:0.11372262 13246:0.088112704 14953:0.22369294 15726:0.23048764 15917:0.14405721 49871:0.43925154 58302:0.20377018 59875:0.29736874 65098:0.19860193 65841:0.34759316 69782:0.6101079 #
-0.89193963007395993 15985:0.59827942 61382:0.80128753 #
-0.37970666666827668 10666:0.14173712 10822:0.11881748 13896:0.61094385 14360:0.14444689 14434:0.12176683 24402:0.058683749 26429:0.70577824 63422:0.23512085 #
-0.20535097171258038 4973:0.29394034 8951:0.25529334 12339:0.27326316 14220:0.15956366 14715:0.13404159 20130:0.2286395 24735:0.29394034 26702:0.12587956 27044:0.22650684 30420:0.14272265 30424:0.32617357 33965:0.23732354 36681:0.2095872 39291:0.19962738 42059:0.1861764 58894:0.38691092 66633:0.17826097 71080:0.20371057 #
1.0000000003668752 1212:0.30098557 11926:0.28771499 17709:0.20121413 18308:0.33932516 24990:0.20223524 36865:0.52454025 40683:0.38957736 62958:0.45076269 #
1.0000000003668752 11926:0.28754121 17709:0.2010926 18308:0.67824042 24293:0.32274553 36865:0.52422345 40683:0.19467103 #
1.0000000003668752 17948:0.65388077 44470:0.55991584 62438:0.50885576 #
1.0000000003668752 6785:0.48011619 10464:0.13539936 12120:0.44124538 12351:0.16434476 13246:0.090187922 13250:0.2726948 19535:0.15384202 23701:0.18688132 24146:0.30090013 24427:0.23397943 26794:0.18906921 48754:0.17049669 54388:0.20584688 62438:0.19924188 70812:0.31013975 #
1.0000000003668752 24281:0.46075928 35814:0.49595472 36782:0.45236123 53364:0.42429328 64043:0.39632604 #
-0.3626566532729889 16251:0.73525345 17147:0.67779225 #
-0.15981787112741519 48:0.32953587 64:0.26583618 4325:0.21377018 10956:0.35732207 10958:0.19172415 11415:0.23112965 14219:0.19172415 15333:0.19380884 15380:0.14845943 15985:0.13405518 17241:0.2524024 23294:0.10742848 26062:0.21746394 26081:0.2366516 33912:0.2767193 42634:0.19350509 45977:0.24668638 60611:0.15177707 63517:0.25768152 #
-1.0000000003668752 18308:0.79121244 36865:0.61154139 #
-0.76399076261561139 11765:0.45001394 13250:0.29895657 31781:0.30117747 50380:0.41152954 51065:0.48129672 52604:0.46518973 #
-1.0000000003668752 6785:1 #
1.0000000003668752 10464:0.19043979 10958:0.26792863 12055:0.25044066 13246:0.12684971 24140:0.21201947 24518:0.3583869 26466:0.28981102 26479:0.41243616 54808:0.43621293 61382:0.25090554 67591:0.21530543 68853:0.29335371 #
1.0000000003668752 10132:0.59711987 12079:0.31916958 12689:0.544447 13246:0.18538058 13323:0.17722298 26466:0.42353532 #
1.0000000003668752 2638:0.25257349 12130:0.1273732 12175:0.29196507 13246:0.097355045 13781:0.28511846 14878:0.13764963 15310:0.29679099 18689:0.33262125 24140:0.16272141 24254:0.40694302 26466:0.44485027 56466:0.21681146 71048:0.29886371 #
1.0000000003668752 10464:0.21568422 11081:0.3091974 12689:0.42193109 13246:0.14366473 13250:0.21719439 13323:0.13734283 13719:0.30029029 21623:0.31627211 26634:0.32381362 29147:0.29684684 46372:0.35951352 61382:0.2841652 #
-1.0000000003668752 12689:0.73694021 19974:0.34096426 21623:0.27619869 24402:0.079975456 26466:0.28663966 37389:0.28895372 41024:0.30384895 #
-0.6613702786470036 12689:0.77202022 13246:0.26286775 21623:0.57869279 #
-0.079807721614015933 2279:0.23673636 3871:0.17845631 10589:0.33602071 10822:0.086996071 11600:0.22488748 19507:0.21163437 27924:0.23179299 30725:0.25223145 31470:0.28927585 33708:0.25223145 37847:0.27040604 38062:0.22488748 39275:0.27040604 46599:0.21163437 51552:0.22022915 66179:0.28927585 69679:0.2404868 #
-1.0000000003668752 8575:0.10627106 10788:0.089786924 11662:0.10334598 12012:0.080970101 12047:0.071432889 12113:0.18521424 12161:0.08797197 12689:0.45937607 13246:0.11731087 13323:0.03738289 14652:0.079578221 15985:0.11550039 19593:0.12906624 19974:0.21254212 21623:0.086085059 24069:0.19598413 24402:0.074779771 24619:0.083360866 26269:0.13951375 26466:0.62537491 31976:0.1797554 37389:0.090060525 46523:0.13360065 48754:0.1478477 68313:0.13046409 69426:0.097992063 69799:0.18137681 #
-0.47957042471473416 11765:0.64574927 19535:0.48403209 50380:0.59052593 #
1.0000000003668752 10635:0.099799566 10666:0.12166809 10742:0.22326863 11386:0.24009626 11611:0.21310003 11770:0.13385595 13246:0.079025105 13314:0.22171815 14434:0.10452546 15917:0.12919971 15957:0.16305488 16293:0.1717615 17162:0.27968583 17607:0.25339779 21660:0.31702256 21692:0.55509686 24402:0.050374523 30420:0.16038877 47805:0.22171815 66365:0.19186024 #
0.56080786547335471 2865:0.55765563 2912:0.45738864 11190:0.29564321 17709:0.18485774 18308:0.31174192 24402:0.14261565 36865:0.24095058 49155:0.26863381 50634:0.22858056 71310:0.2413419 #
-0.84535139682830618 1666:0.17453541 11926:0.22027539 12060:0.25978827 14360:0.14626887 15985:0.13767405 17709:0.1540501 18308:0.25978827 23742:0.27536431 35766:0.37397343 35880:0.28045672 36631:0.24813248 36865:0.40158945 42510:0.19750154 62958:0.34510514 67576:0.21603301 #
-1.0000000003668752 6202:0.27673373 9260:0.54895276 10822:0.14212437 11944:0.28662008 12891:0.24727218 13859:0.14263937 14434:0.14565226 18308:0.30687684 21403:0.25310177 36865:0.23719026 50634:0.2250133 65602:0.38973159 #
-1.0000000003668752 10464:0.26978013 13246:0.17969738 13250:0.27166909 24140:0.30035028 26479:0.5842638 41637:0.50302589 50029:0.36947784 #
-0.0049386134007068727 2257:0.50860953 12437:0.50860953 67004:0.50860953 70135:0.47323245 #
1.0000000003668752 12689:0.68431723 13246:0.23300546 26466:0.53234297 48754:0.44048759 #
1.0000000003668752 12689:0.75017822 13859:0.11028869 17076:0.24055503 18263:0.12412687 20767:0.19357291 21304:0.22053614 21623:0.18744013 24157:0.17022456 24539:0.21018833 26466:0.19452581 34450:0.26525128 40683:0.13620824 50029:0.17506465 #
1.0000000003668752 11186:0.19303845 12689:0.32054925 13246:0.21828978 13323:0.10434201 15852:0.30692875 18263:0.1591173 19752:0.26802972 21623:0.24027807 24402:0.069574364 29215:0.35319099 33925:0.30026197 46268:0.36216187 50029:0.4488281 #
1.0000000003668752 10742:0.33135757 12689:0.34444955 13246:0.11728279 14434:0.15512839 18492:0.44957334 20148:0.33540544 20251:0.32131618 21623:0.25819331 24140:0.1960291 26466:0.26795363 47466:0.37281254 #
1.0000000003668752 13323:0.37142769 24402:0.24766482 37389:0.89482045 #
-0.091179543172732136 12073:0.28091586 12689:0.63806701 13246:0.10862879 14434:0.14368185 15351:0.22909564 18263:0.15836489 23732:0.12352524 24157:0.21717775 26466:0.24818203 37389:0.25018564 60243:0.46619311 #
-1.0000000003668752 12689:0.77018237 13246:0.13112098 20002:0.29018307 21623:0.28865758 26466:0.29956952 63630:0.36380643 #
-0.44601214009384965 1635:0.29926836 10464:0.13682662 12264:0.19646761 12689:0.26766634 13246:0.18227722 13323:0.087128095 21623:0.20063797 23701:0.37770253 24926:0.22182252 26769:0.24768539 26794:0.38212442 40683:0.14579879 49073:0.19678755 50029:0.37478226 51459:0.17440593 67591:0.15469201 68686:0.21535388 #
1.0000000003668752 8453:0.54555672 11770:0.22600521 12079:0.22972229 15380:0.21822599 15421:0.29122603 16210:0.26230031 17423:0.24124797 18308:0.37183455 18558:0.33974597 66983:0.29221857 #
1.0000000003668752 1666:0.15774688 10635:0.10640363 10678:0.12976229 10822:0.10874298 11242:0.28434768 15952:0.25347963 18308:0.23479928 20002:0.18646303 20329:0.25957349 26769:0.22897649 26868:0.14116199 29229:0.20021719 30420:0.17100222 31781:0.12832336 36865:0.18148032 37389:0.19404852 42510:0.17850392 52589:0.24095099 54962:0.36158782 59424:0.17496216 60283:0.3908028 #
1.0000000003668752 2170:0.25920397 13859:0.083694279 14360:0.10138012 15558:0.13997056 15658:0.46009815 17147:0.14703912 18996:0.47839028 23294:0.1529392 24538:0.1400862 30756:0.17390332 43197:0.32210046 58877:0.28659067 60646:0.12492353 62364:0.28659067 68352:0.2772921 #
1.0000000003668752 64:0.28720358 6785:0.26103032 11463:0.15767927 12130:0.12830471 13850:0.31587863 13859:0.12702878 14360:0.15387186 14434:0.12971194 15489:0.15739323 15917:0.16033171 17709:0.16205755 18573:0.18808912 21636:0.23809093 24140:0.16391142 24402:0.062512778 24506:0.22609141 25634:0.24715361 25823:0.21422744 26702:0.17554729 26777:0.25200742 41795:0.14965194 54063:0.34442654 54902:0.24209161 #
1.0000000003668752 15917:0.32998353 31217:0.56628096 63039:0.75527263 #
-0.50981284856725451 1597:0.23096903 7730:0.26637933 10635:0.10958455 11000:0.21900612 11386:0.26363683 13323:0.082954817 13725:0.34810546 17784:0.33719632 21790:0.28213242 23294:0.10269706 23732:0.098672591 33786:0.17184857 40683:0.13881528 52770:0.38488522 56466:0.19324557 59963:0.1986437 60169:0.22548683 69978:0.21199901 71310:0.18720919 #
-1.0000000003668752 13323:0.31914848 17948:0.94770473 #
-0.76921669269643667 1212:0.23756391 1666:0.17993467 17948:0.81847292 25700:0.33753642 39581:0.21402808 47420:0.28556979 #
-1.0000000003668752 11039:0.54015476 17948:0.59856045 31217:0.59157264 #
-1.0000000003668752 44470:1 #
1.0000000003668752 10464:0.2302742 12689:0.45047268 12784:0.32060343 13246:0.15338294 15380:0.50172722 17200:0.37378848 21623:0.33766639 24409:0.33506513 #
1.0000000003668752 8785:0.46374586 10464:0.16222857 12689:0.31735876 13246:0.10805855 15489:0.17342921 17709:0.17856874 18544:0.2387214 24140:0.36122301 24402:0.20664564 26479:0.35133901 30886:0.24761805 41637:0.3024877 69066:0.27899632 #
-0.31186096538302688 11779:0.2127901 11972:0.22110778 14953:0.22887602 17723:0.29312563 24402:0.057468839 24926:0.21942686 26441:0.60157603 60765:0.5951305 #
-0.058458396387110881 4025:0.47490218 10635:0.12030757 10822:0.12295261 13246:0.095264129 15952:0.28660223 19287:0.21985474 24402:0.060726084 43472:0.33715901 46599:0.29910544 53037:0.20552792 57321:0.35648179 60611:0.15928994 64548:0.20845886 66365:0.23128597 66802:0.24149138 68853:0.22030862 #
-0.68041459138958993 5853:0.2168313 9733:0.27387795 10822:0.11120111 11496:0.48021385 12891:0.19347098 13246:0.086159036 13250:0.13025646 13685:0.42951226 13859:0.11160406 14434:0.34188423 15351:0.18170744 16207:0.1343561 18313:0.2203847 24402:0.10984408 24538:0.18680117 24990:0.14310192 26466:0.19684583 50380:0.1793049 67591:0.14624004 #
-0.2035648214797435 11767:0.34226292 13250:0.13827713 14434:0.12097871 14536:0.32910004 15917:0.14953691 20050:0.29328486 24205:0.27517062 24418:0.31889009 24992:0.23504026 26938:0.39252996 33106:0.22985491 41208:0.32910004 49802:0.22762251 61382:0.18091419 #
-0.37869474537101511 8718:0.58389002 12079:0.10082857 14360:0.091888793 15029:0.20726772 15207:0.17401697 19033:0.16965078 23984:0.18615836 24417:0.1773371 25823:0.12793179 29647:0.47559938 32169:0.18537708 32917:0.14867572 33925:0.16111028 49790:0.22448772 58022:0.13212411 62477:0.25975969 70610:0.10964635 #
1.0000000003668752 9041:0.36439127 10786:0.32161441 16311:0.31812528 18263:0.16009678 19807:0.28004667 20502:0.45190623 26586:0.21830264 32346:0.47129142 42059:0.29074296 #
1.0000000003668752 13246:0.1461812 16128:0.47085679 18200:0.26033345 22350:0.30465841 24189:0.32209274 24402:0.093183152 31781:0.22264059 41795:0.22307502 42583:0.3830291 45139:0.48771432 #
1.0000000003668752 13213:0.45467165 19810:0.67702383 26586:0.35965523 69426:0.45338783 #
1.0000000003668752 11496:0.72212553 50380:0.53926241 60611:0.43327913 #
1.0000000003668752 10920:0.51413476 19157:0.54474735 19807:0.47954279 44470:0.45711538 #
-0.31734477295680991 6091:0.61201966 10695:0.28362471 11372:0.37426814 11939:0.2739073 15129:0.50197798 60593:0.27911511 #
-0.89168354562022811 2035:0.12516911 4076:0.16441669 5307:0.13480428 7711:0.18275376 8599:0.17777038 10132:0.18518567 11181:0.15168001 11496:0.16021898 12130:0.07521937 12896:0.12803651 13246:0.11498471 13408:0.16057625 14434:0.076044373 14873:0.21283638 15726:0.30078018 16207:0.08965338 18313:0.1470587 18492:0.44076425 19769:0.16837476 19807:0.29322559 21623:0.1265671 22359:0.13422324 24402:0.10994543 24427:0.14915554 26466:0.13135163 40683:0.091973267 50029:0.23642136 62161:0.17649192 63261:0.17777038 65098:0.12958509 69426:0.14407344 #
-0.44696799058251391 10920:0.59560442 13246:0.21784446 16207:0.33970591 19807:0.55553102 51459:0.41687453 #
-0.26234945303930612 5307:0.1186097 5853:0.12730567 8208:0.16696377 8876:0.1117529 10822:0.065288238 12896:0.11265498 12972:0.11966424 13250:0.076475978 13323:0.048359569 13859:0.065524809 14346:0.18539216 15351:0.10668381 15558:0.10958389 19595:0.1644727 19627:0.19149487 20636:0.1169846 21213:0.42289421 23173:0.093151957 24056:0.34790897 31781:0.077044107 34275:0.23463424 38378:0.26691616 42059:0.13392672 44112:0.15317923 50240:0.16610588 51065:0.12312035 61058:0.23463424 63994:0.25217462 65946:0.2114471 70269:0.16220503 71546:0.189293 #
-0.36625005818740358 1168:0.10160868 2995:0.13609137 5965:0.30603659 10666:0.10622812 10678:0.10626336 10822:0.089050479 10920:0.094321199 11130:0.084828615 11419:0.065504141 11726:0.085505478 12060:0.096139483 12100:0.13839583 12130:0.045135424 13213:0.086696148 13232:0.078053877 13336:0.10628337 13417:0.12308294 13861:0.067572959 15802:0.073600926 15894:0.12524298 15957:0.071181417 15985:0.15284653 16207:0.10759312 18512:0.091497317 19115:0.12209652 19752:0.084718347 20767:0.3137261 21402:0.11386587 21623:0.075946651 21691:0.10628337 22674:0.11786625 22825:0.10047662 24287:0.11713176 24402:0.021990938 24443:0.061638743 25077:0.18677624 28610:0.1132808 35543:0.1530183 35822:0.12308294 42634:0.073543303 42800:0.14420259 45133:0.2681174 48676:0.068026595 48754:0.065217696 48980:0.12209652 50843:0.17197791 54322:0.16001573 57080:0.10628337 58310:0.11447147 60109:0.1530183 60934:0.19987452 61917:0.095307626 63261:0.10667121 64581:0.14420259 65605:0.2453794 68994:0.13767876 69934:0.10345949 #
1.0000000003668752 10464:0.31855837 12351:0.38665912 17069:0.34496266 23701:0.43968162 26794:0.44482914 37389:0.48869538 #
1.0000000003668752 10464:0.42024246 13859:0.3625859 51459:0.5356617 60593:0.63639164 #
1.0000000003668752 10464:0.50016403 19535:0.28414553 19974:0.45270184 24402:0.10618425 27120:0.56912255 31781:0.25370386 41795:0.25419891 #
1.0000000003668752 10464:0.38496494 10822:0.33094919 13323:0.24513696 39818:0.82594341 #
1.0000000003668752 5216:0.3648068 10740:0.14011179 11693:0.16678953 11768:0.2752474 11867:0.25923359 12307:0.23445137 12383:0.33392912 13249:0.17550057 13323:0.10207684 15380:0.34927052 16251:0.26358953 17423:0.1930586 17490:0.32778275 17948:0.30311501 48754:0.20185472 #
-0.34637747301995436 11765:0.28860825 13232:0.28693864 13250:0.19173037 13323:0.12124066 15489:0.20354271 17709:0.20957465 18263:0.18488702 18573:0.24323897 24402:0.080842234 26868:0.21247965 34976:0.40144143 42634:0.27035704 50380:0.26392698 59512:0.23681724 61382:0.25084949 65948:0.36002159 #
-0.29765629939202543 652:0.36285952 11435:0.28804657 11693:0.13560034 13246:0.086808719 16449:0.30053946 16502:0.24033818 17089:0.14515176 35162:0.27713296 36506:0.26464006 38595:0.3424491 46400:0.38504264 53037:0.18728577 55119:0.2446844 62486:0.28804657 #
-0.25213620401702469 4593:0.37215167 10142:0.17659688 13323:0.071367592 16966:0.64076108 18108:0.29948169 22321:0.20804107 38133:0.23937729 44121:0.37215167 60611:0.12482575 61464:0.18238676 66885:0.19244076 #
-1.0000000003668752 8453:0.58441353 11867:0.34701329 12307:0.31383952 14436:0.35521987 17069:0.23236863 17709:0.236196 60593:0.32495183 66983:0.31303158 #
-0.11273332780063147 24402:0.13889453 26702:0.39004117 32358:0.83522898 32757:0.36189613 #
1.0000000003668752 3808:0.68549263 19807:0.4671503 21192:0.55845362 #
1.0000000003668752 15351:0.30817005 19807:0.37263215 26586:0.2904751 26769:0.39711523 37281:0.4470011 41056:0.41788268 42059:0.38686472 #
1.0000000003668752 10464:0.20420019 12130:0.17795394 13200:0.33849424 13246:0.13601537 14817:0.44223714 16369:0.38519582 19807:0.34685645 24402:0.086702943 25982:0.46181151 41024:0.32940853 #
1.0000000003668752 11972:0.40060949 14434:0.21605322 15070:0.37697294 24157:0.32656839 27044:0.52613968 51030:0.34042811 69007:0.38905433 #
-0.16264528105649512 26586:1 #
-0.96699705421037718 27044:0.5872516 41226:0.41820166 47466:0.57953966 51030:0.37996936 #
-0.066421596400293881 11496:1 #
1.0000000003668752 1666:0.48665285 3980:0.48112419 10678:0.20015988 11181:0.34287804 12351:0.23682572 13246:0.1299635 15985:0.19193661 24140:0.21722393 24409:0.28390533 31976:0.29871452 60611:0.21731032 #
1.0000000003668752 12351:0.32502902 13246:0.17836708 13859:0.23104356 16207:0.27814502 24402:0.22740005 31976:0.40996769 41873:0.71554965 #
1.0000000003668752 2035:0.25229523 10666:0.17841589 10943:0.4442099 12351:0.21116863 12649:0.32587883 13246:0.1158836 15985:0.1711427 16207:0.18070848 19202:0.53751022 31781:0.17649597 39894:0.40119922 #
1.0000000003668752 10464:0.15355 13246:0.20455572 17709:0.16901605 19119:0.3786321 24140:0.34189907 24402:0.065196984 26794:0.21441445 36458:0.28965113 42268:0.32944199 44922:0.31625029 48754:0.19335224 59512:0.19098642 60646:0.39549348 60961:0.26983601 #
-0.23601335272402846 32324:1 #
-1.0000000003668752 13246:0.32573912 40683:0.52110046 41024:0.7888906 #
-1.0000000003668752 1666:0.26203775 13246:0.27991489 22359:0.32674852 24402:0.089215815 27120:0.47817576 33474:0.46440333 35729:0.45727715 50380:0.29126436 #
-1.0000000003668752 13249:0.31846637 16251:0.4783141 26702:0.34683874 31781:0.29510003 42038:0.46640632 63422:0.49485227 #
-1.0000000003668752 13246:0.21506536 13250:0.3251389 23990:0.48474729 41024:0.52085561 60889:0.42382321 70610:0.40265986 #
1.0000000003668752 10822:0.29089969 21192:0.68711144 23742:0.66577417 #
1.0000000003668752 24619:0.7313621 26586:0.68198937 #
1.0000000003668752 14219:0.72820812 26586:0.68535608 #
1.0000000003668752 6472:0.27019385 6785:0.26142463 10958:0.20744747 12351:0.17897236 14360:0.15410429 15985:0.29009813 16415:0.28017887 17423:0.17758092 18263:0.14318334 20172:0.28927532 24619:0.20937447 24926:0.23904614 26868:0.16455209 30776:0.23028843 31781:0.14958614 38658:0.28230003 41226:0.22528763 41795:0.14987801 62484:0.32417101 #
1.0000000003668752 9824:0.38209793 12073:0.27695298 12891:0.24048598 15380:0.17516015 23821:0.35933486 23841:0.34043247 24443:0.19135094 25646:0.30047676 45172:0.37903568 56521:0.41617101 #
-1.0000000003668752 4195:0.22767955 8217:0.30497676 9733:0.27805704 13323:0.08362449 14219:0.36951944 15963:0.20335206 17423:0.15815955 17759:0.33113736 20767:0.19887051 24417:0.26488107 25823:0.1910864 26586:0.17388736 29147:0.18074234 29229:0.20786726 33786:0.17323586 50380:0.1820409 62331:0.2952123 66035:0.23588268 #
-0.15849390144149975 2438:0.23099646 9011:0.17579055 10678:0.12680161 10822:0.10626188 11186:0.14561616 11463:0.13237953 11638:0.27785996 12130:0.10771812 13775:0.14886306 14332:0.23429315 14360:0.12918301 15433:0.18663792 15453:0.17634714 15489:0.13213937 15712:0.21291216 17364:0.22995369 23635:0.18627977 23701:0.17060299 24402:0.10496512 24443:0.14710419 24619:0.17551506 24996:0.20461628 26794:0.17260031 30926:0.24391495 37677:0.26061469 46260:0.2585021 69007:0.19609912 70141:0.17350554 70610:0.15414768 #
-0.65329900549518594 15489:0.41298676 24518:0.72700208 24619:0.54855257 #
-1.0000000003668752 3042:0.3545329 13246:0.10505089 14219:0.44377148 24619:0.44789371 25634:0.52950948 26777:0.2699542 64846:0.3353703 #
1.0000000003668752 13246:0.29283059 41024:0.70919114 66983:0.64132529 #
1.0000000003668752 10464:0.40408158 13246:0.26915401 18263:0.39238721 40683:0.43057856 41024:0.6518501 #
1.0000000003668752 13246:0.27994901 41024:0.67799389 69183:0.67967111 #
1.0000000003668752 13246:0.07980644 14434:0.10555892 16127:0.590886 26466:0.54699653 26702:0.14285949 35729:0.26074827 36441:0.26341081 41024:0.38655812 50029:0.16409092 #
-1.0000000003668752 13246:0.38165304 41024:0.92430568 #
-1.0000000003668752 10740:0.15661874 13246:0.11935494 13859:0.3092072 14434:0.1578692 14878:0.33751026 24402:0.076082766 41024:0.57811904 41795:0.1821377 42522:0.40280718 50671:0.43742657 #
-0.35224677775099561 10822:0.2446627 13246:0.18956555 16011:0.61634898 23742:0.5599528 41024:0.45909896 #
-1.0000000003668752 10740:0.1808369 13246:0.13781096 13250:0.20834458 13859:0.17851016 14322:0.22166316 17709:0.22773515 17755:0.35753044 24140:0.23034035 41024:0.66751438 44044:0.38154268 #
1.0000000003668752 23990:0.76923192 70610:0.63896966 #
1.0000000003668752 70610:1 #
1.0000000003668752 13250:0.60534334 26586:0.79596448 #
-0.63751258307068648 23990:0.76923192 70610:0.63896966 #
-0.057214640785825263 3963:0.28288269 10666:0.11207813 11431:0.56842989 11765:0.16566303 12047:0.13298127 12891:0.16346483 13246:0.0727963 13323:0.13918586 15985:0.10750922 17069:0.11834791 18689:0.24871434 23294:0.17231041 24402:0.13921191 25823:0.47707063 26702:0.13031082 31781:0.22174412 41795:0.1110884 50532:0.21260245 #
1.0000000003668752 432:0.76974827 10678:0.32347417 13246:0.21003129 41024:0.50866383 #
1.0000000003668752 11770:0.17724656 12047:0.19115533 13246:0.1046418 16312:0.25189131 23105:0.43740159 23173:0.19269507 23737:0.19782117 24402:0.066703878 29335:0.32010707 31391:0.31792563 32917:0.26565558 41024:0.25342655 60889:0.20621464 69679:0.37334058 69978:0.25565442 #
1.0000000003668752 12307:0.28893512 13232:0.29772514 13246:0.1315888 14436:0.32703179 15489:0.21119422 17709:0.21745291 18573:0.25238273 24140:0.2199405 24402:0.083881229 26777:0.33814994 29229:0.31269965 54902:0.32484463 60589:0.41828778 #
1.0000000003668752 9733:0.4745124 10666:0.11491399 12098:0.15861878 13246:0.074638225 13249:0.1226785 13250:0.11283914 13859:0.096680857 14434:0.19744599 15489:0.11979106 16011:0.24267697 16057:0.26022586 16538:0.14364374 17730:0.18756992 18313:0.19091584 23708:0.15261829 24402:0.047578111 26182:0.25189418 29147:0.15422101 41024:0.18076244 45567:0.37207979 45977:0.20284267 50380:0.3106581 #
1.0000000003668752 4027:0.30646175 10666:0.11960661 11186:0.13739915 11693:0.12135035 13246:0.077686153 13323:0.074267603 14209:0.19004016 15380:0.12705864 16236:0.19932409 24140:0.12984638 24409:0.50911629 24506:0.17910376 31391:0.23602821 41024:0.18814404 41310:0.30646175 42754:0.21416701 48754:0.14686258 49743:0.2205361 51184:0.32472727 60646:0.15020047 67591:0.1318588 #
-1.0000000003668752 10958:0.81316519 13250:0.58203298 #
-0.013918772730505445 10822:0.19729778 12889:0.36537075 24402:0.097445041 31011:0.43396026 31599:0.5500344 59534:0.572034 #
-0.59127494490901034 10959:0.41526985 20668:0.56183946 21376:0.55886716 38378:0.44671568 #
-0.038760701094932008 23732:0.19362865 33965:0.5746662 36040:0.56811053 44203:0.55634266 #
1.0000000003668752 32757:0.41277918 50671:0.91083115 #
1.0000000003668752 13238:0.42556998 13246:0.18700564 13323:0.17877653 19507:0.58715069 24518:0.52834463 51459:0.35786033 #
1.0000000003668752 3303:0.71722913 51585:0.45563558 70610:0.34556419 71310:0.39820093 #
-0.097417089484925307 11779:0.26541874 12048:0.27871656 12264:0.24241267 12351:0.20491521 13246:0.11245189 16207:0.17535709 16903:0.37730396 17423:0.20332208 17723:0.36562341 19404:0.43105534 19515:0.26114425 20122:0.36221302 24402:0.071682416 #
-1.0000000003668752 3808:0.30563441 5853:0.20554903 10464:0.12262033 11130:0.20083471 12689:0.23987536 13246:0.081675969 14219:0.17251383 14434:0.21606344 16207:0.12736523 18263:0.23814324 20100:0.37065876 20148:0.23357701 21623:0.17980635 24402:0.10412863 26702:0.1462061 30886:0.37432379 31781:0.1243962 32757:0.27131197 66035:0.22024837 66305:0.24732473 #
-0.1376764852894754 8876:0.15584588 10666:0.10861122 10788:0.16197917 11189:0.16522847 13250:0.10665017 13323:0.067440212 14360:0.11068769 15597:0.27041411 15846:0.44660419 19478:0.18484314 20720:0.24967119 21079:0.21733542 24817:0.35925394 28543:0.21505786 40683:0.11285339 48793:0.29487517 57694:0.17728212 62438:0.15584588 65675:0.24595304 66957:0.22936668 71554:0.14855266 #
-1.0000000003668752 2638:0.42663181 10822:0.21224245 12891:0.36926568 13238:0.3742314 13246:0.16444623 15070:0.37951624 24402:0.10482618 24893:0.39078006 31781:0.25045907 51459:0.31468987 #
-0.057311445190742064 13921:0.97129548 24402:0.23787613 #
1.0000000003668752 10740:0.47498652 10958:0.38227651 12351:0.32980362 13246:0.18098724 13293:0.54108334 23732:0.20580633 24402:0.11537025 24890:0.37187088 #
1.0000000003668752 7299:0.51937699 13246:0.17208086 18313:0.44016266 22359:0.40174472 40683:0.27528599 59512:0.32133156 65605:0.40799186 #
1.0000000003668752 10958:0.16662203 10959:0.3869459 12120:0.19297656 12130:0.10321015 13246:0.078886516 13859:0.20436756 15985:0.23300713 18313:0.20178246 22359:0.18417065 23701:0.16346331 24189:0.34763396 24402:0.15085854 33474:0.26175931 34202:0.25295341 41016:0.29519621 45972:0.2662316 50029:0.32439893 65098:0.17780654 #
1.0000000003668752 1666:0.13900612 10666:0.11430827 13246:0.074244805 23268:0.21683282 24417:0.67446679 25839:0.43861961 31638:0.2186749 31781:0.1130782 65605:0.35205862 70614:0.28851151 #
-0.33305936977609962 1666:0.13900612 10666:0.11430827 13246:0.074244805 23268:0.21683282 24417:0.67446679 25839:0.43861961 31638:0.2186749 31781:0.1130782 65605:0.35205862 70614:0.28851151 #
-0.99693471155272273 18313:0.42698777 20229:0.60063523 24402:0.10640956 40683:0.26704615 50671:0.61178601 #
-1.0000000003668752 10740:0.48442191 24402:0.23532405 54388:0.84259003 #
-1.0000000003668752 13246:0.30883425 15985:0.45610189 22359:0.3605065 23701:0.31997272 40683:0.24702846 50029:0.63499761 #
-0.68390812873279438 11972:0.65457249 13246:0.26689488 50029:0.5487656 60611:0.44627157 #
1.0000000003668752 10822:0.19023409 12130:0.19284111 12891:0.33097488 13238:0.33542567 14377:0.37474784 14878:0.20839946 18576:0.33477318 32348:0.33641541 51459:0.2820583 54362:0.46464714 #
1.0000000003668752 10822:0.11751562 12891:0.40891427 13238:0.20720659 19807:0.23219296 24410:0.26591709 24506:0.20991737 24893:0.21636935 26017:0.22245149 26818:0.34468135 30756:0.24506347 31781:0.13867562 35753:0.49200529 51459:0.17423931 66985:0.20132732 #
1.0000000003668752 11986:0.22559959 12012:0.1992289 12889:0.22996652 13238:0.43791616 13246:0.096215419 14434:0.25452572 15380:0.15736397 15985:0.14209576 16207:0.150038 23019:0.36422959 23294:0.113872 24402:0.061332483 26984:0.42676634 31781:0.14654045 46575:0.35262203 56466:0.2142735 #
1.0000000003668752 5307:0.23718697 10142:0.23929578 16251:0.49944079 17423:0.18290055 17759:0.38293737 20100:0.22953409 31781:0.15406716 41562:0.50428027 68410:0.3552801 #
1.0000000003668752 13859:0.30522677 18263:0.34352425 20002:0.52148676 24893:0.55995339 51459:0.45092291 #
-0.96514242583252341 10464:0.42496911 10740:0.37144327 24402:0.18044092 70701:0.80552608 #
-0.92328004739375891 13250:0.32580176 24893:0.51211023 51459:0.41239542 54362:0.67935729 #
-0.44078143914151918 12130:0.22039522 13238:0.38335299 14377:0.42829368 19704:0.4542563 24893:0.400305 37389:0.38797164 51459:0.32236019 #
-0.073110599483299607 1061:0.23631309 3822:0.23631309 10253:0.36738789 11693:0.11511913 11770:0.12483106 12417:0.23848237 12972:0.17433631 13236:0.22704791 13250:0.22283249 16128:0.23738177 17738:0.19835418 18200:0.13124675 21859:0.23328122 24140:0.12317891 24157:0.14733993 24402:0.046978153 26062:0.17655911 26702:0.13192321 29147:0.15227629 32095:0.19581063 37610:0.36738789 64194:0.29072523 #
1.0000000003668752 13246:0.34936154 24402:0.22270039 40683:0.5588904 50029:0.71832627 #
1.0000000003668752 13246:0.28345609 14332:0.40331674 24402:0.090344489 40683:0.22672914 47144:0.31255397 50029:0.58281732 67633:0.50995493 #
1.0000000003668752 13246:0.25450203 15351:0.53673899 26702:0.45557767 40683:0.40713909 50029:0.52328455 #
1.0000000003668752 11081:0.44069478 12130:0.26789948 13246:0.20476337 26634:0.46152708 36865:0.4410511 40683:0.32756975 50029:0.42101628 #
1.0000000003668752 3212:0.2437434 12826:0.28284076 15957:0.21925159 15985:0.15693162 24140:0.17760709 31446:0.37911767 50029:0.65545356 50532:0.31033662 66983:0.23272122 67591:0.18035971 #
-0.84563516790206239 8913:0.32962757 11496:0.25302994 12130:0.11879213 13232:0.20543034 13246:0.18159255 13859:0.1176108 23294:0.10745838 24402:0.17363416 29803:0.33976293 40683:0.29050228 50029:0.56006175 54808:0.31223175 60980:0.26742435 #
-1.0000000003668752 13200:0.39105386 13246:0.15713513 14434:0.20784055 15351:0.3313944 15558:0.34040302 24402:0.10016572 34307:0.3548471 50029:0.64617461 #
-0.46895885942584387 5307:0.55019176 11515:0.78730875 13246:0.23464994 24402:0.14957751 #
-1.0000000003668752 13246:0.11552817 13859:0.14964668 24189:0.25455248 24402:0.073643394 24408:0.25544852 39151:0.39225158 40683:0.18481596 50029:0.71261638 62438:0.25522318 65098:0.26039511 #
1.0000000003668752 16049:0.78377193 24893:0.62104881 #
1.0000000003668752 1057:0.28395638 2137:0.21635318 6785:0.18485261 12307:0.30497834 13246:0.069447659 14436:0.34519035 15917:0.11354136 15985:0.10256378 19481:0.18386464 20173:0.20513965 22350:0.2894738 24402:0.044269383 24619:0.1480481 24893:0.16503121 24926:0.16902885 37670:0.2628985 44044:0.19227242 66802:0.17604749 67149:0.21171413 68994:0.13857874 69066:0.17930686 69103:0.21319272 69183:0.16860774 71487:0.22690347 #
1.0000000003668752 8545:0.23952353 8876:0.16274707 10695:0.17019014 11130:0.18114462 12891:0.16542304 13250:0.11137287 13262:0.17546377 13859:0.095424555 14321:0.22092934 14377:0.18730099 14434:0.097440153 14878:0.10415918 15802:0.31433758 15985:0.10879712 16103:0.18539675 18558:0.18758124 20502:0.15157609 22806:0.17254515 24140:0.24626189 24402:0.046959862 24893:0.175061 26375:0.17162149 26794:0.15443772 29025:0.21455964 32976:0.14526527 38867:0.25684437 44246:0.19903684 50137:0.25684437 51065:0.1793016 51459:0.14097425 #
1.0000000003668752 11181:0.36764598 13859:0.18050563 24893:0.33114639 48676:0.27478459 51459:0.26666769 63080:0.75893211 #
1.0000000003668752 10220:0.32817388 12500:0.42545342 13246:0.13550556 13859:0.17552392 14219:0.28621128 14907:0.31435135 24157:0.27091154 24893:0.32200721 51459:0.25930804 59512:0.25303349 62161:0.41597944 #
-0.15244218254331976 19535:1 #
-1.0000000003668752 66983:1 #
1.0000000003668752 6202:0.20576777 10654:0.5082379 12047:0.14957419 12130:0.2142521 12161:0.18420556 13249:0.13458064 13323:0.078276478 18618:0.23357822 23829:0.24633472 26702:0.14657052 31781:0.24941254 40683:0.13098663 49577:0.21107039 50029:0.50506043 50532:0.2391302 #
1.0000000003668752 13246:0.18862616 13323:0.18032575 15380:0.30850521 17423:0.34105128 18263:0.54997873 39581:0.4200739 40683:0.30175427 50029:0.38783637 #
1.0000000003668752 11431:0.38784724 13250:0.22527489 14434:0.19709307 24402:0.094986133 25823:0.3255116 42522:0.50288785 44393:0.54610872 50029:0.30638039 #
1.0000000003668752 23732:0.28469855 32193:0.77133298 60593:0.56920308 #
-1.0000000003668752 14482:0.39453205 14907:0.39820397 16049:0.51477778 42059:0.45445195 66035:0.46287718 #
-0.10511279577019247 13200:0.20817193 13246:0.16729727 15351:0.17641307 16266:0.23689313 16427:0.25085995 18463:0.35898787 18512:0.22185504 20100:0.18980552 26955:0.20233594 27305:0.27068555 28729:0.38799277 31638:0.24637222 40683:0.13381673 57784:0.30097809 59736:0.27756086 60011:0.23109396 #
-0.25675007822430473 17423:0.5454154 20502:0.62066799 59512:0.56328797 #
-0.41775844988468858 1863:0.16913357 10464:0.16109601 11100:0.14413106 11693:0.083807714 12120:0.13124669 12307:0.35341847 13249:0.088184804 13323:0.051291149 13859:0.069496952 14434:0.070964903 14436:0.13333914 14878:0.07585831 17709:0.088661052 19157:0.1554233 19481:0.14204541 19752:0.13175471 21207:0.16714457 21912:0.19861972 22350:0.11181711 24402:0.034200501 24876:0.27405375 26702:0.09604124 28345:0.43874341 29147:0.11085846 30292:0.15712796 39151:0.18216434 46268:0.17802702 50380:0.11165494 50769:0.23025417 54902:0.13244738 56466:0.11948417 57694:0.13483059 68584:0.26746154 68853:0.12407625 #
1.0000000003668752 1168:0.69425619 13323:0.22534229 23732:0.26803878 31781:0.35900435 66983:0.51623666 #
1.0000000003668752 10678:0.31074357 12087:0.4449546 15453:0.43216118 21689:0.56870812 66983:0.44188416 #
1.0000000003668752 13323:0.16340996 15117:0.34022057 15917:0.27945969 18263:0.24919349 21550:0.47222877 37389:0.39367709 51030:0.35624138 66035:0.46093652 #
1.0000000003668752 1666:0.11445245 6202:0.15362401 10635:0.15440124 11463:0.0982899 14661:0.23141299 17836:0.20630702 19704:0.16484495 19974:0.16613273 20107:0.18004875 23701:0.12667027 24926:0.14878544 26064:0.19270833 27514:0.2555244 27619:0.26234823 37108:0.22782238 41795:0.093286037 41865:0.30474177 49771:0.26234823 50731:0.24994892 61507:0.19431819 63517:0.34707499 63630:0.16961154 67329:0.2555244 #
-0.38312134779427776 3632:0.2265363 11693:0.10485242 12079:0.11556818 12922:0.26479739 15170:0.28057966 15503:0.24849451 18512:0.17802928 20172:0.19770329 21623:0.29554373 23294:0.079442568 24402:0.042788483 26082:0.18505038 26868:0.11246203 29865:0.19393849 31391:0.61181849 35318:0.29773265 #
-0.44846114974826423 38062:1 #
-0.17541124305915703 13284:0.63925856 13768:0.45384461 24402:0.1634849 26702:0.22954772 64643:0.4983092 70610:0.24008757 #
-0.71607852184079246 1688:0.53527969 13250:0.27151793 19129:0.47804418 19974:0.48808792 23732:0.20422591 24047:0.36233875 #
-0.51651882173249908 11765:0.19952357 11939:0.19560993 12055:0.17309846 14322:0.14102226 14599:0.26728228 15917:0.1433423 18313:0.22426347 20767:0.19932906 21403:0.20151754 22723:0.22192818 24205:0.26377162 30420:0.17794541 42510:0.18575168 44470:0.42625368 48794:0.3213236 67115:0.29768345 68091:0.30149972 #
1.0000000003668752 10464:0.27950117 12062:0.46268615 13246:0.18617247 14434:0.24624786 18558:0.47404975 50029:0.38279131 60961:0.49117213 #
1.0000000003668752 5853:0.75123256 66985:0.66003764 #
1.0000000003668752 10464:0.22981514 11669:0.43561304 13246:0.30615434 26062:0.36673343 26441:0.5107218 50029:0.31474373 59512:0.28584546 60646:0.29596347 #
1.0000000003668752 4720:0.25845721 9011:0.19199178 9348:0.25651523 13249:0.14779624 14360:0.14108878 14693:0.24949072 17147:0.20463154 17423:0.16258259 18308:0.25058791 19974:0.24437357 20229:0.64708638 24402:0.057319462 24619:0.19169088 38378:0.23723269 40683:0.14384931 #
1.0000000003668752 24402:1 #
-0.21375021749501666 10635:0.12719756 12069:0.27426893 12351:0.1835366 12486:0.33073005 13246:0.10071989 13250:0.15226977 13859:0.13046512 14434:0.26644173 14482:0.23149957 15489:0.16165097 19763:0.27708447 24402:0.12840772 25077:0.27265215 40683:0.32225284 42510:0.21338804 49295:0.46717545 67591:0.17095457 #
1.0000000003668752 23732:0.56492865 32757:0.82513976 #
1.0000000003668752 4195:0.31637499 5984:0.52164698 14482:0.27937704 18704:0.36806884 23732:0.13821863 24140:0.20316181 26586:0.2416274 57516:0.43366638 66035:0.32777378 #
1.0000000003668752 1212:0.24263437 10822:0.12668559 10920:0.26836771 11693:0.15332617 13249:0.16133404 15917:0.16047794 19807:0.2503114 23294:0.23233846 23732:0.11161681 26586:0.19512334 33282:0.17196821 33684:0.30463547 38487:0.22515297 39291:0.27864736 42020:0.36730498 42059:0.25987199 54388:0.22403441 67259:0.32748607 #
1.0000000003668752 6269:0.40646937 13249:0.14403573 13250:0.13248341 13859:0.11351212 14482:0.20141786 14907:0.20329246 15380:0.14332557 16266:0.49634844 16369:0.24817422 16538:0.50595242 23701:0.18158525 26702:0.15686795 45956:0.24421197 #
1.0000000003668752 13323:0.29750535 34307:0.70275986 59424:0.64623457 #
-0.4325947708096462 13246:0.13658369 15917:0.22330338 17089:0.22837986 18200:0.2432413 19810:0.51110107 21719:0.34179357 32757:0.22685245 38378:0.36034384 42510:0.28937012 43864:0.42079082 #
-0.56431851938903632 5853:0.40452117 10464:0.1206586 12891:0.18047003 13246:0.24110785 13781:0.2353732 13859:0.20820889 13861:0.15742189 14907:0.18644395 18263:0.23433334 21628:0.25547379 21773:0.24027374 24817:0.20464379 24876:0.20526233 25989:0.28226939 26868:0.13465267 53435:0.29454717 66985:0.35541484 #
-1.0000000003668752 10464:0.44928169 18263:0.43627921 40683:0.4787426 50029:0.61531454 #
-0.268106928882965 8705:0.2579847 11867:0.24888155 12079:0.17649406 14360:0.16084555 15019:0.25407904 15917:0.16759817 16103:0.2579847 18573:0.19661358 20390:0.42849717 26027:0.31697288 36681:0.30552977 51030:0.21364586 68951:0.43994027 #
-1.0000000003668752 12062:0.31011128 13246:0.12478045 14434:0.16504544 15489:0.20026711 20173:0.36858574 24402:0.15908249 31976:0.57360309 50029:0.513125 50380:0.25967962 #
1.0000000003668752 13250:0.26301184 14219:0.36745697 23732:0.19782795 23990:0.39212254 24402:0.2217955 34307:0.39286637 59424:0.36126685 69188:0.51851052 #
1.0000000003668752 11139:0.42254224 11972:0.43856838 53085:0.79316825 #
1.0000000003668752 1212:0.14827649 9210:0.21067476 10678:0.092383511 12439:0.22707501 13297:0.14173892 15117:0.1193924 15985:0.17717615 22017:0.27948564 23207:0.23663093 24417:0.18164025 24619:0.12787452 25674:0.33736733 27305:0.19410871 32334:0.2990292 36042:0.22993501 39151:0.20366463 40061:0.17718658 41083:0.21776813 42634:0.12787452 61061:0.2990292 65098:0.1352022 68686:0.14173892 68994:0.11969551 69906:0.15053065 70701:0.17069833 #
1.0000000003668752 2278:0.26913998 2899:0.22928782 11186:0.14709993 11986:0.19501393 12351:0.15155821 13250:0.12573913 13297:0.19652705 17466:0.26551977 17723:0.27042028 22674:0.28416041 24402:0.10603467 24412:0.31122893 26174:0.24158099 27299:0.23668048 33912:0.25355038 43408:0.2678979 44470:0.20217724 58741:0.27905938 59963:0.19039741 #
1.0000000003668752 8686:0.35889563 10956:0.26195845 13719:0.27818957 14482:0.30590367 14907:0.30875072 23732:0.15134236 24402:0.084839016 24817:0.33888957 26586:0.26456973 42059:0.35236305 53200:0.44404167 #
-0.038347031952831047 11662:0.23741893 12130:0.11753262 14942:0.39845955 15733:0.50761145 22769:0.28435999 24240:0.27480763 24402:0.17179316 41902:0.41668084 58803:0.23306018 61183:0.3155095 #
-0.95631035541769771 11139:0.2887072 11189:0.28617331 11693:0.19085552 12130:0.15985526 14220:0.2772409 14360:0.19170947 17069:0.19863629 18573:0.23434086 20024:0.46252781 24443:0.21830475 32348:0.27887091 56521:0.47479311 #
-0.91311734045938553 59424:1 #
1.0000000003668752 7365:0.31069753 10464:0.1005637 12130:0.17527609 12161:0.15069552 13200:0.16670029 14434:0.1771985 14652:0.13631706 15489:0.10750685 15917:0.10951397 17716:0.19156177 24189:0.29518375 24402:0.042699117 24427:0.17378102 31976:0.15396002 40683:0.21431598 50029:0.41318154 50380:0.41820157 51222:0.2389863 62438:0.29596153 65098:0.15097949 #
1.0000000003668752 11463:0.22512354 12784:0.29265794 13246:0.14001328 15241:0.32084286 24047:0.28247756 24140:0.23402137 26868:0.23458169 40683:0.22398594 41637:0.39193842 46114:0.44137985 48754:0.26468953 50029:0.28788289 #
1.0000000003668752 7912:0.61404902 10464:0.45959589 13246:0.15306573 18263:0.4462949 24402:0.097571686 44044:0.42377695 #
-0.53582184667024324 10464:0.15555708 11463:0.16659933 12079:0.17839342 13250:0.15664625 14652:0.21086222 14878:0.14650019 15917:0.16940181 17423:0.37468764 17709:0.17122528 23294:0.12262918 24140:0.17318404 24402:0.066049181 24619:0.22088529 26868:0.17359871 41637:0.29004821 42268:0.33374816 48754:0.19587956 51742:0.29631758 59512:0.19348283 60646:0.20033151 67149:0.31587395 #
-1.0000000003668752 11867:0.32957003 14209:0.33206996 17709:0.22432315 22825:0.39536196 24140:0.22688934 26702:0.24299593 27552:0.46680644 64720:0.43927249 67591:0.23040575 #
-0.29669938279213415 3792:0.42216218 11463:0.16238871 26441:0.33695987 26984:0.44797075 27299:0.28740519 40683:0.16156814 46575:0.37014249 47225:0.38714215 71080:0.29257265 #
-1.0000000003668752 6785:0.34617433 12130:0.1701557 14434:0.17202196 14693:0.36084861 17069:0.21143562 20172:0.38305378 22359:0.3036299 24189:0.28656048 24619:0.27725035 30776:0.30494428 50380:0.27065635 62438:0.28731555 #
-0.20610883923755616 5052:0.23583794 7521:0.29847893 9678:0.27616575 9731:0.21469548 12130:0.084191561 12850:0.24666935 14698:0.13500305 15193:0.27616575 15939:0.17097598 15985:0.095035389 23732:0.073174484 27115:0.22435617 28004:0.29847893 29046:0.20823567 35193:0.28542656 44475:0.24666935 52306:0.29847893 61245:0.24666935 61959:0.17893495 64548:0.14081207 #
1.0000000003668752 14219:0.27802682 35578:0.45892972 42510:0.55775297 59424:0.54668641 66365:0.31957805 #
1.0000000003668752 14878:0.31410792 23077:0.4405182 23732:0.25262311 56293:0.65622735 59424:0.46133196 #
1.0000000003668752 1212:0.69248468 31781:0.42666745 59424:0.58173865 #
1.0000000003668752 12231:0.56388789 19535:0.29997262 23266:0.64449537 23294:0.20812646 59424:0.36517942 #
-1.0000000003668752 59424:1 #
-0.18971467902275921 48946:0.82546198 54761:0.56445777 #
1.0000000003668752 8217:0.42606041 10666:0.094072707 10878:0.15399127 10956:0.12026374 12889:0.14604005 13323:0.058412783 14693:0.33906287 15238:0.14519796 15333:0.13046032 17069:0.099335238 17630:0.20620959 17855:0.16774343 18519:0.17182496 20502:0.12571925 22350:0.12734261 23737:0.11551001 24402:0.038949143 24408:0.13510379 24619:0.26051173 25823:0.26695263 26868:0.102371 27959:0.28341109 29221:0.18441755 29803:0.2286441 54761:0.12652016 59512:0.11409666 62356:0.17517802 67072:0.20620959 #
1.0000000003668752 10788:0.27059036 12130:0.15418278 13323:0.11266061 17709:0.58422995 19390:0.3276895 24619:0.25122419 26868:0.19744273 30886:0.27004704 38194:0.37000802 55762:0.28505614 59512:0.22005796 #
1.0000000003668752 10464:0.11517465 11383:0.15174328 11463:0.12335035 12313:0.29811636 13859:0.099372886 14693:0.21285649 15985:0.22659752 17069:0.12472112 17180:0.18579568 17755:0.19902976 19924:0.22727831 22359:0.17910445 24189:0.16903558 24402:0.048902899 24506:0.35373646 24619:0.16354375 41016:0.28707588 50029:0.31547529 57694:0.19279271 62326:0.25065261 62438:0.33896196 #
1.0000000003668752 10740:0.191037 13250:0.22009623 13859:0.18857901 14715:0.2775043 17423:0.26322791 18263:0.21224044 19515:0.33808652 23708:0.2976867 23732:0.16554838 24219:0.46083334 24402:0.18560515 26868:0.2439153 51459:0.27859482 59512:0.27185357 #
1.0000000003668752 108:0.24883933 1666:0.10503679 10740:0.073616795 11770:0.19005363 12048:0.13904956 12120:0.13723831 12130:0.073399514 12264:0.24187563 12889:0.13408911 13323:0.10726534 13713:0.16251862 15917:0.18344253 17423:0.10143583 18308:0.15634264 22013:0.16295373 23252:0.17545126 23294:0.13279319 23995:0.14826892 24402:0.035761803 24607:0.14263716 26082:0.15466161 26868:0.093993634 26929:0.22506016 36284:0.22131266 36865:0.12083986 40451:0.16004071 40683:0.08974807 51668:0.26021859 53118:0.16988179 54388:0.25609401 60169:0.14578371 65604:0.31268528 70073:0.26021859 70610:0.10503679 #
-1.0000000003668752 1212:0.726668 13246:0.29396969 14219:0.62091506 #
-1.0000000003668752 1212:1 #
-0.161212158240749 11976:0.75823009 13246:0.21423759 26384:0.61578351 #
-0.99810447945941005 12231:0.53042305 13323:0.15813954 14219:0.34939307 16293:0.3595385 18519:0.46517763 51030:0.34475163 61382:0.32719404 #
1.0000000003668752 10666:0.19338182 12889:0.30020919 13246:0.12560417 14322:0.20202905 17069:0.20419981 22649:0.55712098 28543:0.38290963 59424:0.26082864 60611:0.21002114 69239:0.38696483 70610:0.23516458 #
1.0000000003668752 12891:0.30979612 14607:0.36210757 17069:0.44858238 19264:0.46560511 26586:0.27425295 62075:0.52884358 #
1.0000000003668752 3792:0.40287665 11000:0.24325818 12130:0.12610044 14471:0.2948404 15985:0.14234211 16910:0.30383667 24409:0.21054702 26479:0.31337488 48477:0.35680649 48754:0.18220676 54388:0.21998487 61476:0.32338625 69297:0.32724553 #
1.0000000003668752 11383:0.17505729 11515:0.29695052 13215:0.25064155 13232:0.2002424 14434:0.11706215 16235:0.24052347 17948:0.25124392 18263:0.12902488 18558:0.22535539 19535:0.1509684 21072:0.26377898 21623:0.19483645 22359:0.20662227 23732:0.30191973 31460:0.24398799 50380:0.36836711 60621:0.24450582 66035:0.23865904 #
-1.0000000003668752 13323:0.086095892 18551:0.25628135 23077:0.17857808 23732:0.20481764 31199:0.32404298 32757:0.14957921 46069:0.33700362 49149:0.30577597 49283:0.25885645 50634:0.18402404 51585:0.44464496 52624:0.26449531 60593:0.20474784 65372:0.20762886 70792:0.25504699 #
-0.37559589146216965 12784:0.52568853 24402:0.16031836 32757:0.83543378 #
-1.0000000003668752 10635:0.074875355 10958:0.12522902 13200:0.29509962 13859:0.076798812 14878:0.083828539 15850:0.43458036 15985:0.087561212 18512:0.15724823 20100:0.13453192 23294:0.14033875 23970:0.18265972 24329:0.23784849 24427:0.1538171 24992:0.15235814 27358:0.26297885 42369:0.43458036 50029:0.24381025 50532:0.17315471 56293:0.35026547 59635:0.11276283 #
-1.0000000003668752 14360:0.32117891 24990:0.33998162 26586:0.40691262 62075:0.78465194 #
0.021982263241654393 10865:0.22105435 12113:0.19703355 13793:0.31891808 15070:0.19200799 15649:0.30799851 23364:0.31132987 33181:0.20100035 35880:0.25030124 47741:0.257254 50634:0.17000465 51585:0.20538543 53180:0.22984898 56001:0.31891808 61068:0.31891808 63613:0.29220426 #
-0.59353503676641939 7299:0.58680028 8686:0.52427423 12055:0.38384458 18854:0.48318246 #
1.0000000003668752 1212:0.2882587 6865:0.27807227 18838:0.35429844 24402:0.074335247 30886:0.26722193 31781:0.17760769 33181:0.28172985 35766:0.46781486 46762:0.44700789 71533:0.32793149 #
1.0000000003668752 1212:0.16356258 7145:0.17308506 8951:0.24021822 11039:0.16951056 12264:0.14263923 13250:0.10003429 15382:0.16378106 21402:0.21839672 21850:0.28396928 23294:0.078310989 23841:0.21033265 24992:0.17003597 26613:0.29349178 27044:0.21313156 27299:0.37659183 30886:0.15162598 34406:0.1927159 51030:0.1379025 62011:0.20241398 67213:0.2536394 67576:0.1533398 68962:0.20241398 68994:0.26407024 #
1.0000000003668752 13246:0.25666586 15852:0.72177577 24402:0.16361156 41024:0.62160569 #
1.0000000003668752 11463:0.14864501 12130:0.12095346 12351:0.16846362 14713:0.21424127 17655:0.72939253 22153:0.23469962 61382:0.36572057 65269:0.41005689 #
-1.0000000003668752 3808:0.64317715 12351:0.31320602 15453:0.36814752 15712:0.44448179 30886:0.39386356 #
-0.24822027936341137 12012:0.27256846 17200:0.64157403 24409:0.28755444 63542:0.49257904 68976:0.43447381 #
-0.95688184738112458 19066:0.48757094 25650:0.55917889 36284:0.51399934 63080:0.35480624 70610:0.24394827 #
-0.4797627383303833 55:1 #
-0.080523835547157266 7184:0.5229876 37696:0.65693247 42510:0.32430577 70701:0.4356024 #
1.0000000003668752 32757:1 #
1.0000000003668752 2035:0.29106075 10464:0.20070803 12307:0.29354721 12892:0.3287313 13323:0.12780634 13859:0.17317122 14219:0.28237495 24047:0.26971883 24157:0.53456062 24402:0.085220173 35281:0.43467411 #
-1.0000000003668752 32757:1 #
1.0000000003668752 11972:0.47938967 15453:0.41866866 15712:0.50547832 65983:0.58257514 #
1.0000000003668752 55:0.64774537 10802:0.5829339 15963:0.49052426 #
1.0000000003668752 2350:0.50143117 10067:0.47316951 10740:0.16401726 10771:0.24862804 13249:0.20544396 24402:0.079676837 34702:0.3016077 42634:0.26645964 58835:0.25167876 60040:0.40260905 #
1.0000000003668752 5204:0.38243231 10176:0.51656896 13246:0.13094701 14515:0.41279921 20173:0.386801 42634:0.27915204 63800:0.41450077 #
1.0000000003668752 11386:0.69094765 21628:0.72290474 #
-0.38600921728180526 12130:0.31550753 13323:0.23053981 15985:0.35614473 19157:0.69858563 24157:0.48212594 #
-0.65067581480401093 10958:0.35133231 12891:0.37351105 24443:0.29719692 31638:0.48991567 62161:0.51062632 68853:0.38467196 #
-0.54281022554877478 11868:0.60591072 67085:0.79553264 #
-0.36612160897238266 7184:0.26413441 9184:0.30042115 14322:0.12434926 14332:0.44000119 17364:0.43185174 24538:0.16761474 30420:0.15690699 35105:0.23112644 49073:0.1669278 51805:0.26765266 64571:0.30042115 70961:0.38539687 #
-0.028239133653993196 15453:0.51721442 18738:0.84189993 24402:0.15392786 #
1.0000000003668752 32757:1 #
1.0000000003668752 16207:0.35294551 32757:0.37592024 61723:0.85680419 #
1.0000000003668752 32757:0.39301908 56521:0.91953033 #
-1.0000000003668752 32757:1 #
1.0000000003668752 11189:0.15916684 11370:0.17717116 13843:0.21694799 14219:0.14353587 15917:0.11110337 17089:0.11362915 17423:0.24574153 17709:0.11229931 17840:0.29164308 17948:0.19291539 21636:0.16498736 23294:0.16085443 23732:0.077275448 24402:0.086637646 24506:0.15667218 26702:0.24329431 29229:0.16148762 29415:0.25429553 32348:0.15510531 36865:0.14637518 40061:0.20073485 42038:0.16358323 47466:0.21601655 50064:0.21990596 59424:0.14111787 60169:0.17659004 66802:0.17226736 67072:0.2293441 67198:0.24451572 67591:0.11534433 #
1.0000000003668752 7796:0.20991571 10635:0.10065676 11130:0.39197093 12120:0.19497599 12130:0.10427952 12161:0.17931089 13323:0.076196529 14357:0.20356286 14713:0.18470719 15305:0.37376875 16538:0.30678543 18573:0.15286922 20107:0.23475359 24189:0.1756179 24402:0.050807197 31781:0.1213926 42369:0.29210845 55348:0.19374907 60589:0.25335857 65033:0.28678432 #
1.0000000003668752 12307:0.16232842 13246:0.14785743 14436:0.18373173 15985:0.21836326 17709:0.12216856 18559:0.17315497 21403:0.1699214 24069:0.37052456 24140:0.12356612 24189:0.32578611 24402:0.047125831 24926:0.17993531 26702:0.13233793 32535:0.3090212 36250:0.24037006 50029:0.30401134 62438:0.48996678 #
1.0000000003668752 10464:0.28001761 13246:0.18651646 14360:0.29265329 14434:0.24670286 22359:0.43544653 24402:0.11889485 24990:0.30978602 50029:0.38349864 65908:0.54176122 #
1.0000000003668752 12307:0.6334697 13200:0.7179724 13246:0.28849909 #
-0.13764257769484076 4095:0.29396534 10740:0.18868415 10822:0.18558395 24890:0.14772238 34406:0.20939638 57565:0.33347774 61723:0.81649566 #
-0.49718143470812953 11726:0.37436929 13213:0.37958238 14713:0.35003272 19462:0.70059806 42510:0.32000667 #
-1.0000000003668752 24443:0.28995958 36988:0.49142233 41795:0.24765153 43449:0.46410626 56521:0.63063592 #
-0.1370187500129747 10678:0.15904653 10959:0.25327134 11463:0.33208573 13713:0.29915625 14219:0.21812135 16600:0.37490743 17069:0.16788806 42133:0.51480567 46837:0.47899759 #
0.24573854045518956 5016:0.45835936 9605:0.24631229 11078:0.43831548 11721:0.16881183 11939:0.22047244 13202:0.15575951 13246:0.049409598 14434:0.065353423 15380:0.08081127 17130:0.20653158 18298:0.16308236 18618:0.14095102 19535:0.084282592 23173:0.090986446 24130:0.20653158 24643:0.15575951 25145:0.1606492 25547:0.090036541 27505:0.11074378 29628:0.21204706 34202:0.15843424 50634:0.10096231 51585:0.24394847 60593:0.11233215 70142:0.22917968 #
1.0000000003668752 1666:0.41075903 10635:0.27706572 29647:0.59389949 29865:0.63387305 #
1.0000000003668752 7261:0.31064722 12428:0.32884714 13249:0.14748114 14219:0.18952172 14360:0.14078797 14715:0.17103496 15104:0.33576643 16024:0.29615903 16297:0.37506321 24402:0.057197254 34307:0.40525401 46383:0.27744609 59424:0.18632905 70373:0.2613343 #
1.0000000003668752 17451:0.61612022 23294:0.19022669 23737:0.30385524 24402:0.10245781 25531:0.42405036 46523:0.54914969 #
1.0000000003668752 6297:0.29012927 10740:0.10173887 10802:0.21419697 13323:0.074120685 15558:0.67183667 15963:0.18024139 18263:0.113031 23957:0.26489586 26702:0.13878891 29046:0.25089371 31781:0.11808546 58069:0.28147453 71310:0.33454534 #
-1.0000000003668752 12161:0.46467781 13250:0.31226483 26017:0.50462955 29647:0.55913711 60611:0.34536919 #
-0.57168058857332971 11693:0.17366576 18176:0.55423194 18294:0.34769604 19565:0.27518836 32757:0.18465516 47703:0.51568151 71106:0.40745679 #
-0.70863925161340058 13246:0.13423765 15241:0.30760792 17451:0.51456547 26586:0.26684847 26868:0.22490507 27183:0.3465881 34303:0.48300359 41056:0.38389298 #
-1.0000000003668752 13323:0.2272388 15917:0.3886182 23829:0.71511656 24402:0.15152089 71310:0.5128237 #
-1.0000000003668752 11081:0.24871941 12079:0.1989671 14425:0.43747631 15852:0.32498118 24402:0.073666476 26082:0.31859064 54962:0.49595803 71310:0.49864954 #
1.0000000003668752 10740:0.20803046 14322:0.509992 14357:0.40489531 54902:0.39136356 56521:0.61605668 #
1.0000000003668752 1688:0.24575402 10956:0.16229403 11375:0.16380884 11435:0.27360198 11770:0.13966659 12098:0.1752319 12351:0.15025446 14434:0.10906287 16299:0.25136927 17423:0.14908628 18200:0.14684473 18891:0.27215454 25826:0.49302179 31815:0.20382309 40683:0.13190809 41691:0.28354952 43449:0.23580648 59512:0.15397164 64034:0.25403136 67591:0.13995403 #
1.0000000003668752 13250:0.25747216 15874:0.73089123 16450:0.43108845 24402:0.10856196 38378:0.44931415 #
1.0000000003668752 10666:0.18198377 16450:0.29919589 24402:0.075347163 24418:0.41210717 24443:0.42238346 26017:0.28878134 35519:0.58924484 66885:0.30470031 #
1.0000000003668752 9200:0.23143189 10703:0.24737915 11463:0.15938859 11770:0.16791061 12012:0.2052642 15489:0.15909943 15957:0.20453812 17089:0.33150837 23173:0.18254541 23215:0.27504498 23294:0.11732155 23990:0.22343463 24402:0.12638089 26868:0.166085 30776:0.23243372 33106:0.24911933 33282:0.17367402 39175:0.298233 50828:0.34816027 58835:0.19960247 #
-0.0024386670928412107 5307:0.12609619 9806:0.20898035 11611:0.14501964 11792:0.28786501 13314:0.15088446 15101:0.19523779 15305:0.12609619 16172:0.26809156 17147:0.24476802 20237:0.20124094 20360:0.15839492 21304:0.13929527 26017:0.13138823 31359:0.21574138 37792:0.26809156 38393:0.53618312 39813:0.19908758 43318:0.21214904 46539:0.18749836 #
-1.0000000003668752 14360:0.28201202 14715:0.34259966 15957:0.37085155 44470:0.43690965 46762:0.68896574 #
-1.0000000003668752 17089:0.29708245 24140:0.29696435 24402:0.1132567 26479:0.57767725 48754:0.33588111 59424:0.3689515 59512:0.33177134 60646:0.34351501 #
-0.16303088203717137 10447:0.28740892 10464:0.19455974 12866:0.20510891 18618:0.1848467 19484:0.42774057 22350:0.4051331 24079:0.21500775 24179:0.19432436 24427:0.16810633 24538:0.14048617 24990:0.1076216 24992:0.16651185 29147:0.13388658 35770:0.3230201 42038:0.1559778 50029:0.13322981 52446:0.25179777 60169:0.16837989 67591:0.10998166 68994:0.1292986 #
-1.0000000003668752 1666:0.13547051 9348:0.4128229 10635:0.1827555 10678:0.1114378 11186:0.12797269 11496:0.2016419 13249:0.11892799 14322:0.11638223 14878:0.1023042 15433:0.1640241 15453:0.15498017 15489:0.11612881 15985:0.10685954 17089:0.12098621 17423:0.13082619 17709:0.11957027 18313:0.18507917 19974:0.19664137 22359:0.16892524 23737:0.13678688 24140:0.24187621 24402:0.092247106 24996:0.17982411 25831:0.14121816 31181:0.2059052 42038:0.17417464 44044:0.20032552 55348:0.17588839 60111:0.23882101 60646:0.13989577 60961:0.19089527 64825:0.2280973 #
1.0000000003668752 13859:0.24617326 16638:0.40780506 26046:0.34825426 34303:0.34190679 34322:0.33373779 36681:0.28321251 41637:0.26599917 50088:0.4407542 60889:0.1872604 64548:0.20793262 #
1.0000000003668752 12161:0.2843751 12307:0.27755284 13246:0.126405 13250:0.1911009 13323:0.12084261 14436:0.31414875 23829:0.38028961 30292:0.37019554 42267:0.4912034 50029:0.25990278 67576:0.29293329 #
1.0000000003668752 1974:0.36313206 10635:0.12513056 12161:0.44581753 12472:0.37077275 13569:0.29267919 18263:0.14444876 26466:0.22637331 28514:0.29267919 31976:0.22773762 50029:0.20372601 59810:0.33439258 61784:0.26006177 #
1.0000000003668752 11081:0.37205175 27676:0.63996094 68079:0.55940181 71310:0.37295729 #
1.0000000003668752 13250:0.28405905 41145:0.62346137 51685:0.60521197 71310:0.40537003 #
-0.63123011092179826 11431:0.41187441 12161:0.35599652 13246:0.1582408 20251:0.43352765 33106:0.39766771 39175:0.4760676 50029:0.32536069 #
-0.28947435628203194 2679:0.26977715 6785:0.25593928 10635:0.12143183 11189:0.22521162 11868:0.45289645 12130:0.25160462 12307:0.21113022 12784:0.20098335 16407:0.35981306 29754:0.35596293 30776:0.22545642 47225:0.36858296 #
-1.0000000003668752 12120:0.24010257 13250:0.44515857 19807:0.50059533 24189:0.21626411 51685:0.63229877 62438:0.21683395 #
-0.40208071610172946 10740:0.45163113 13250:0.52033013 71554:0.72476608 #
1.0000000003668752 10464:0.19249722 11496:0.35732234 12351:0.23364891 13238:0.29179147 13246:0.12822016 15195:0.41114405 17709:0.21188617 19974:0.34846109 24140:0.21431006 33474:0.42545694 40683:0.20511991 42634:0.27333894 #
1.0000000003668752 10740:0.1637857 14357:0.31878054 15489:0.20032527 17089:0.20870441 17709:0.20626187 20478:0.26224914 23294:0.1477219 24140:0.20862143 24402:0.079564348 26868:0.20912096 48754:0.23596099 49283:0.35876086 59512:0.23307383 60593:0.28376928 60646:0.2413239 65098:0.281331 68394:0.32329622 #
1.0000000003668752 8291:0.46830046 12491:0.31527293 13323:0.10431806 14878:0.15428376 15380:0.1784696 24140:0.36477068 26206:0.3454088 26868:0.18282205 31781:0.16619444 36988:0.33042806 41024:0.26427165 41795:0.16651873 55119:0.30757186 #
1.0000000003668752 11130:0.41768703 18573:0.32579708 33786:0.33640826 34764:0.66009068 44470:0.4129208 #
-1.0000000003668752 12351:0.44599882 13238:0.55698377 41024:0.5927521 41795:0.37349573 #
-0.017268511362940275 6067:0.49794492 33218:0.33612835 60028:0.43526298 60143:0.67053318 #
-0.082392774569895341 9146:0.28790611 10740:0.10674532 14322:0.13084444 14878:0.11501701 17147:0.18512362 18573:0.31204426 20847:0.2277163 23990:0.18335402 24402:0.051855087 34307:0.18370184 34764:0.63222635 62324:0.20189589 66802:0.20621382 67706:0.3400327 70610:0.15230472 #
-0.88540597358305773 11911:0.4507525 12087:0.26851687 12351:0.22187574 13238:0.27708861 13433:0.3378318 18263:0.17750734 21550:0.33638149 36681:0.36289674 48754:0.23018123 68079:0.3940112 #
-0.16528657818045686 13238:0.57074553 13246:0.25079924 20502:0.51603115 22806:0.58741903 #
1.0000000003668752 13246:0.55168837 13250:0.83405036 #
1.0000000003668752 10740:0.8994838 24402:0.43695417 #
1.0000000003668752 1283:0.64625549 39175:0.50721043 41795:0.2572749 59424:0.35009769 66983:0.36923251 #
1.0000000003668752 24402:1 #
1.0000000003668752 10822:0.060088653 12307:0.51113492 13666:0.12807994 13861:0.091192499 14436:0.57852906 16103:0.11716699 18519:0.13092372 20502:0.095793016 22806:0.10904504 23742:0.13752325 24140:0.077816263 24402:0.029677683 24661:0.14504066 24990:0.15465315 25823:0.10170358 27115:0.16232045 31781:0.14181656 32169:0.14737162 37192:0.2690278 39826:0.15620996 46372:0.11650623 50634:0.095133193 60889:0.091748379 71191:0.21594785 #
-0.074002769060469153 13238:0.57074553 13246:0.25079924 20502:0.51603115 22806:0.58741903 #
1.0000000003668752 11779:0.2225997 15272:0.35701811 15454:0.55554932 16207:0.14706737 16266:0.26708737 16538:0.36300707 24294:0.23012131 24538:0.2044742 27871:0.39421657 71554:0.19859901 #
1.0000000003668752 12141:0.51816159 13433:0.40934521 15286:0.61668968 61126:0.42853105 #
1.0000000003668752 6785:0.22572072 11463:0.13634999 12130:0.11094892 12784:0.17725338 14434:0.1121658 15985:0.12523907 17709:0.140136 22359:0.59393966 23099:0.2203631 24140:0.14173912 27710:0.27989754 27855:0.32953423 30776:0.19883694 32976:0.16721848 40683:0.13566099 41627:0.27441615 60646:0.16395745 69183:0.20588435 #
1.0000000003668752 11431:0.50394756 17730:0.48656499 39581:0.43118414 41795:0.29545981 69906:0.48587561 #
-1.0000000003668752 10678:0.41693538 22359:0.63201994 34702:0.65323484 #
-0.76818895898685113 20641:0.89457101 31781:0.44692579 #
-1.0000000003668752 13246:0.29319 13250:0.44324884 29865:0.84709507 #
-0.69189951109746217 12491:0.80278444 13250:0.42006293 31781:0.42318353 #
-0.68846866335655543 8876:0.15998955 10464:0.21744908 10666:0.111499 12016:0.19418554 12891:0.16262017 13246:0.07242015 13250:0.10948581 13600:0.22231776 13859:0.18761544 15351:0.15273245 15558:0.15688431 19535:0.12353384 19565:0.17925556 24402:0.13849258 24893:0.17209485 26091:0.42418596 27881:0.31079951 37281:0.22153862 39175:0.21787609 50072:0.33591095 51065:0.1762636 64183:0.22231776 66035:0.19528902 #
1.0000000003668752 1666:0.18008479 13859:0.12459148 15421:0.20993918 15733:0.54350287 17520:0.48412815 18263:0.14022426 20641:0.29322529 23701:0.1993089 24402:0.1226267 26702:0.17217907 27505:0.21558434 55348:0.23381342 63422:0.24565655 67591:0.16325808 #
1.0000000003668752 7314:0.27811596 7490:0.3901726 13232:0.20569912 14360:0.42795032 23990:0.20491831 27183:0.23473355 34444:0.40325645 46144:0.3901726 60177:0.36472112 #
1.0000000003668752 14482:0.50204742 14698:0.4582521 15453:0.46785262 15712:0.5648604 #
1.0000000003668752 10822:0.21581124 12135:0.51331085 17147:0.38052398 18817:0.52711934 26868:0.28015 60169:0.43451136 #
1.0000000003668752 13859:0.17750326 18263:0.199775 21523:0.51278472 24402:0.08735203 24427:0.35551378 43053:0.39489162 61382:0.27104905 71086:0.54973352 #
-0.42343374908136833 14698:0.52313268 15453:0.53409249 15712:0.64483488 24402:0.15895092 #
-0.012567317403692621 12174:0.32207996 13250:0.1562991 15070:0.23859672 15658:0.24539781 16266:0.2927869 21096:0.32332623 25566:0.298704 25854:0.35552245 26027:0.31967402 53037:0.22304857 68352:0.44368929 #
-0.20851295453522908 11000:0.29033726 11233:0.53357691 11972:0.2821303 14713:0.26658562 23294:0.13614589 30420:0.2334754 45879:0.51024377 54388:0.26255974 66365:0.27928793 #
-0.17032342830154057 10464:0.17741175 13250:0.17865396 13451:0.58909988 14715:0.22525257 15985:0.17452218 18263:0.17227735 23732:0.134377 24402:0.075328626 25950:0.396496 26794:0.24773458 40793:0.37892383 49577:0.30462536 #
-0.7436255455037355 427:0.16324997 2040:0.18601488 2438:0.13229735 6529:0.19710159 7700:0.23506595 11575:0.14926043 11770:0.079870716 11936:0.39420319 13713:0.27319613 14599:0.14374979 16210:0.092697479 17552:0.15053581 22551:0.19710159 23173:0.17366421 25787:0.14475371 43865:0.16110408 44472:0.23506595 47741:0.14580227 50634:0.096352488 56748:0.23506595 58302:0.32714352 58835:0.28483713 60593:0.10720319 60889:0.092924289 68487:0.17456242 68962:0.14424641 #
1.0000000003668752 10666:0.17529601 12130:0.14896357 13433:0.31590652 14322:0.18313453 15380:0.18621774 16501:0.33534616 17423:0.20586297 17948:0.32321873 24714:0.363484 26091:0.3334474 26775:0.4364422 31781:0.17340966 59424:0.23643495 #
1.0000000003668752 1666:0.26062775 9011:0.29722077 10635:0.17579898 11765:0.31678829 13249:0.22880207 14357:0.35552648 15917:0.22758795 17709:0.23003775 24402:0.088735759 31781:0.42402905 41795:0.21242821 42038:0.33508947 50380:0.28969708 #
1.0000000003668752 10464:0.3285006 13250:0.33080071 13323:0.41836351 22350:0.45602605 29865:0.63219494 #
1.0000000003668752 13323:0.20817618 23732:0.24762015 31781:0.33165613 40683:0.34835875 54057:0.81486028 #
0.21279412464252739 5012:0.4642666 10822:0.17424759 10884:0.4115766 25547:0.24601744 32757:0.22423483 33106:0.33928159 36794:0.49013296 41795:0.20602401 50634:0.27587122 #
-1.0000000003668752 22350:1 #
-0.32687862872618095 2229:0.33470356 10550:0.42296305 11186:0.15006109 13742:0.19745021 14342:0.34037116 14360:0.13312632 15649:0.31409675 21247:0.21352504 22064:0.28634161 23077:0.16823998 24580:0.25954801 28885:0.39354321 60593:0.19289474 #
-0.23650039531366235 18263:0.28801265 18559:0.4627212 19535:0.33699554 51712:0.76770556 #
1.0000000003668752 2693:0.40246192 13323:0.086743146 15453:0.38869464 15712:0.4692893 16207:0.28298661 20654:0.36400253 30420:0.18415698 32757:0.15070373 34406:0.26426911 60593:0.2062871 62161:0.27854416 #
1.0000000003668752 10678:0.18418123 12087:0.26372966 12351:0.21792005 15453:0.25614682 15957:0.24675074 26403:0.55469531 62202:0.43828288 64148:0.34462002 66035:0.32248399 #
1.0000000003668752 24402:0.23289914 59756:0.97250092 #
1.0000000003668752 12135:0.53679848 12351:0.31864271 13250:0.26435953 14434:0.46257645 24160:0.50521886 41795:0.26684308 #
-0.63824121817785395 26868:0.32689911 42059:0.51657033 58894:0.53676701 65983:0.58152664 #
-0.36227041010779137 10464:0.18441744 12130:0.16071391 12892:0.30204964 14471:0.37577152 19115:0.4347496 19974:0.33383495 24655:0.40134451 31391:0.37321073 59756:0.32696539 #
-0.1560488738671087 10740:0.16035736 12351:0.22268607 13246:0.12220404 14482:0.2808798 14878:0.3455669 18996:0.45239872 23294:0.14462981 26868:0.20474365 41506:0.28684869 51459:0.2338538 65983:0.36422211 69565:0.41751984 #
-0.31491387149429201 1244:0.19973017 12458:0.38127232 13200:0.19033727 13859:0.099069439 15380:0.12508957 16210:0.15035348 19752:0.37563848 29541:0.27287295 35559:0.28030142 40930:0.33923918 58069:0.27766174 64359:0.38127232 67591:0.12981534 71546:0.28619924 #
-1.0000000003668752 14482:0.5269168 15957:0.47301602 24402:0.14613459 60593:0.52119458 61382:0.45344839 #
1.0000000003668752 9011:0.1416343 11081:0.14276697 11463:0.10665808 11765:0.15095878 12058:0.19710942 12130:0.086788408 12383:0.20745552 13323:0.063415863 14439:0.15421017 15380:0.10849324 17374:0.17099915 17423:0.11993884 18263:0.096706592 21701:0.14540391 22350:0.69124782 23294:0.078508079 24189:0.14616099 24402:0.042285156 24410:0.19373186 29147:0.13706429 32976:0.13080455 35406:0.16531067 65098:0.14951578 68169:0.20997705 69916:0.21894637 #
1.0000000003668752 1212:0.2321644 8876:0.20748866 13859:0.12165818 14322:0.15106779 18559:0.43996075 22350:0.39148381 22723:0.23773696 26801:0.55167526 31781:0.14304575 65628:0.37050563 #
1.0000000003668752 13250:0.29807705 13323:0.18848896 15333:0.42097515 22350:0.41091478 24926:0.47988075 63630:0.54705155 #
1.0000000003668752 125:0.50698715 11267:0.40695503 13246:0.12128911 22350:0.25278044 22380:0.33580038 24402:0.077315696 62438:0.26795018 63812:0.37503439 69380:0.40933475 #
1.0000000003668752 10740:0.22859699 11386:0.52928245 14322:0.2802057 15380:0.28492317 22350:0.36306873 24402:0.11104859 28492:0.60312217 #
-1.0000000003668752 12135:0.82734877 22350:0.56168854 #
-1.0000000003668752 15380:0.58730215 23990:0.80936778 #
-1.0000000003668752 32:0.039464321 33:0.038798071 36:0.03502332 99:0.048551157 2840:0.033649474 4888:0.061353825 5015:0.12270765 6115:0.061353825 7267:0.32238355 8607:0.12270765 10678:0.037909891 10802:0.034001388 11370:0.032087002 13742:0.02864157 14014:0.061353825 15915:0.037917033 15963:0.028611315 16574:0.045561988 16638:0.10563742 17027:0.04204927 18559:0.028826287 18838:0.037392732 19970:0.18406148 20329:0.075834066 21053:0.13200317 21095:0.048551157 21241:0.031827185 23364:0.046054795 25132:0.061353825 25313:0.044680949 26868:0.020620149 28211:0.061353825 30420:0.099916168 30868:0.061353825 31254:0.12063453 32367:0.061353825 32513:0.043910347 33941:0.061353825 34138:0.046590503 36681:0.036681544 36844:0.041294433 37712:0.061353825 39180:0.051444866 39504:0.051444866 40479:0.061353825 40637:0.05708627 42493:0.033447593 42510:0.026074845 43138:0.061353825 43188:0.046590503 43761:0.041062072 43819:0.044283599 43906:0.054589909 44470:0.029917628 47360:0.061353825 47777:0.046590503 49155:0.02955536 49296:0.061353825 50634:0.02514866 51585:0.030382512 51878:0.054589909 51902:0.061353825 52832:0.23295252 54834:0.18870924 55444:0.061353825 55844:0.061353825 56796:0.051444866 59412:0.061353825 60593:0.027980769 60724:0.05032235 63542:0.046054795 63812:0.45666471 64049:0.039826587 64182:0.061353825 64548:0.24238199 66283:0.061353825 68100:0.061353825 69007:0.029313887 69188:0.51354164 71345:0.05708627 #
-0.55415232468529652 22350:1 #
-0.018491568375420042 11693:0.24681263 12130:0.20672338 17089:0.26419762 19848:0.51130044 22723:0.39994889 24157:0.31589326 24402:0.10072003 27552:0.54334915 #
1.0000000003668752 4195:0.33776265 5456:0.60190785 10635:0.16388108 11181:0.34236041 13323:0.12405694 14482:0.29826355 14907:0.30103949 26586:0.25796193 42059:0.34356257 #
1.0000000003668752 4306:0.27653977 10464:0.11730606 12055:0.15426506 13246:0.1562724 14878:0.11047623 14953:0.19836544 19105:0.25657284 19535:0.13328424 19763:0.21495582 20172:0.23013631 21772:0.33533058 23732:0.17770229 24063:0.19925721 24140:0.1305986 24189:0.17216374 24402:0.049807888 24890:0.16054487 26375:0.18202999 30312:0.28114364 31976:0.17959209 41024:0.18923399 48754:0.14771338 51685:0.25168049 62438:0.17261736 68853:0.18069841 69066:0.20173979 #
1.0000000003668752 14434:0.143447 14482:0.24926963 14907:0.25158957 15339:0.34775403 15957:0.22377066 23721:0.32949948 24992:0.27869219 26384:0.31172156 44824:0.4350704 62438:0.23958889 63080:0.295322 68686:0.25626233 #
1.0000000003668752 4195:0.32745326 13250:0.19019601 13921:0.32745326 14482:0.28915977 14907:0.29185098 24402:0.080195278 42059:0.33307615 61365:0.49629012 63734:0.46573484 #
-1.0000000003668752 13250:0.468402 13859:0.13377601 23732:0.11743832 24402:0.065833189 26403:0.47903121 26586:0.20530023 32757:0.17153142 49283:0.29684618 51459:0.19763228 63080:0.5624584 #
-1.0000000003668752 13250:0.23507157 14439:0.36147028 14907:0.36071143 26586:0.30909505 36382:0.47241315 42059:0.41166341 70701:0.44247842 #
-0.27264540408199189 12062:0.21576291 13246:0.086817198 18691:0.30491546 27200:0.309746 36425:0.32487306 36441:0.28655064 41795:0.13248453 48641:0.38508022 51459:0.33227265 58894:0.2388376 66386:0.27368376 69426:0.21756029 71644:0.33736718 #
-0.026407662752862011 3822:0.22405314 5821:0.21938565 13246:0.069873631 13498:0.28569809 14322:0.11238881 15149:0.24190868 23732:0.079455517 30653:0.2472969 31781:0.10642071 32976:0.13778251 42328:0.29987082 46162:0.24028261 59963:0.15995666 63045:0.59974164 64548:0.15289886 65342:0.29987082 #
-1.0000000003668752 10464:0.29342058 14907:0.45339903 15339:0.62670058 26384:0.56176513 #
1.0000000003668752 7855:0.36032844 8686:0.19491363 10822:0.09328936 11081:0.15556413 11186:0.12783925 12135:0.2218904 13719:0.15108275 14878:0.10219752 15241:0.16563302 15985:0.10674811 17147:0.16449022 20733:0.28996718 21636:0.17548649 21859:0.22879867 24403:0.2061962 26634:0.16291787 27847:0.45759735 40683:0.11563127 43335:0.22268513 48754:0.13664424 57415:0.24856089 59635:0.13747205 65098:0.16291787 #
1.0000000003668752 15351:0.48444533 23990:0.51774728 62768:0.7051599 #
1.0000000003668752 9348:0.23208614 14434:0.10760918 14693:0.22573061 15985:0.12015137 19974:0.22110079 24619:0.1734353 26432:0.81114233 50380:0.16931041 61382:0.32184222 #
1.0000000003668752 9733:0.81135648 13323:0.24401206 50380:0.53118622 #
1.0000000003668752 26868:1 #
-0.048215735799346529 24402:0.23713471 38701:0.97147679 #
-0.90131387387331974 26868:1 #
-0.44351429206351234 2040:0.40565705 7822:0.39959812 10811:0.46666616 11086:0.30287206 11181:0.27129677 11419:0.19525276 14715:0.19601166 23990:0.2317775 31409:0.27371231 59635:0.19557664 71310:0.22185425 #
-0.21841738005816744 10740:0.15738896 13250:0.18132988 13859:0.15536389 16049:0.35970241 53702:0.44402426 59628:0.76919883 #
1.0000000003668752 13250:0.54747689 13859:0.46907958 51459:0.69298875 #
1.0000000003668752 2923:0.52960962 13250:0.20296521 13859:0.17390111 15380:0.21957543 41506:0.31513053 62725:0.59548199 70701:0.3820442 #
1.0000000003668752 14907:0.46436614 24402:0.12759927 26586:0.39791721 43489:0.61023146 51065:0.48719808 #
1.0000000003668752 12351:0.22021474 14219:0.25525165 14907:0.28034779 15093:0.41288629 15339:0.3875044 15380:0.19765122 16538:0.23257567 22089:0.44289795 26384:0.34735322 31976:0.27776265 #
1.0000000003668752 10740:0.27271771 11770:0.35203236 13250:0.31420165 13859:0.26920876 18263:0.30298701 37389:0.47866035 51459:0.39771217 70610:0.38911492 #
-1.0000000003668752 13250:0.29234979 13859:0.25048602 18263:0.28191507 20502:0.39788178 22806:0.45292482 51459:0.37005237 66035:0.52146208 #
-0.40086186067935226 6202:0.16476876 10666:0.10094494 11431:0.17065513 12130:0.1715626 12307:0.14396416 13246:0.065565139 14434:0.086722136 14713:0.15194185 15489:0.10522915 17069:0.10659191 20251:0.17962687 24402:0.041794471 24443:0.11714637 26702:0.1173665 32324:0.19725278 32348:0.14964728 33155:0.13125029 33218:0.16384478 45062:0.5816322 50029:0.13480923 50671:0.48058224 60646:0.12676537 69109:0.23591143 #
-0.11165659239874094 4248:0.43047196 8213:0.40052983 9735:0.43047196 15917:0.14117785 29464:0.43047196 58302:0.1996973 60593:0.19631924 68008:0.43047196 #
-0.5374399509757195 14907:0.230591 21773:0.29716682 24817:0.25310025 24893:0.2362069 27020:0.34412977 40890:0.25872031 49155:0.23870058 51459:0.38042843 53037:0.21444975 53085:0.44088933 68783:0.33350989 #
-0.27090447411133611 3927:0.21864606 4565:0.42079982 10788:0.20830844 11926:0.21436855 13859:0.1175141 14482:0.20851904 14907:0.21045972 15985:0.13398223 20148:0.25944579 24157:0.18137656 24926:0.44161519 40683:0.14513171 41024:0.21971396 50029:0.18653375 59512:0.1694071 68572:0.29943767 69183:0.22025748 #
1.0000000003668752 12130:0.20353261 13323:0.14872028 14471:0.4758876 30756:0.4187026 47252:0.54237974 64825:0.49040806 #
1.0000000003668752 3212:0.12130825 4325:0.12454648 5853:0.13309222 8624:0.16539198 10464:0.15879239 10635:0.066787489 11693:0.082609296 12972:0.12510346 13250:0.15990423 13323:0.050557707 14439:0.24588522 15215:0.15531839 15489:0.084877893 15664:0.23457244 17221:0.15531839 18263:0.077098422 21773:0.15810578 23077:0.1048656 23294:0.062589832 23732:0.060137074 23753:0.14154093 24402:0.033711445 24930:0.21215662 25755:0.11475456 26868:0.26581389 27483:0.22105822 29213:0.24529928 31781:0.080546074 32677:0.14770758 36535:0.22696163 36615:0.30890185 37108:0.098546378 38286:0.19789712 41872:0.21623479 44044:0.1464168 66802:0.1340614 66985:0.23387133 #
1.0000000003668752 8181:0.37464681 10464:0.13105975 10788:0.20044592 12639:0.26992956 13246:0.087297365 14450:0.23819552 24990:0.14499259 28526:0.35020813 29147:0.18037793 34450:0.27196112 38487:0.20024422 41173:0.38721004 47805:0.24492736 60011:0.24117422 63039:0.3266699 #
1.0000000003668752 2288:0.58925802 11515:0.39660239 13238:0.26899675 13246:0.11820361 50029:0.24303979 50380:0.49198523 52915:0.32868281 #
-1.0000000003668752 11515:0.81504107 24402:0.15484627 31976:0.55832851 #
-0.58773845874069852 12095:0.30082139 12130:0.15879336 13246:0.12137038 14434:0.16053499 15733:0.68581235 20636:0.28068215 27305:0.39275244 37389:0.27953109 50029:0.24955101 #
-0.29378061538333677 11463:0.18683425 11986:0.13622865 12130:0.15202831 12686:0.28498518 12784:0.12144116 13323:0.055543169 14219:0.24543385 14356:0.30710113 14637:0.17535776 17297:0.13822329 17423:0.10504916 17709:0.096011028 23252:0.18170118 24619:0.2477137 29229:0.27612981 33357:0.23307726 36865:0.25028881 42038:0.13985656 42634:0.12385685 46372:0.14539179 51065:0.14140932 54057:0.43482327 60611:0.097147986 68313:0.19384241 #
-1.0000000003668752 13323:0.08930999 16103:0.23510689 17730:0.23477188 18737:0.29331827 24140:0.15614586 24412:0.34958449 28514:0.27595368 33786:0.18501389 39581:0.20805013 39818:0.60182679 51685:0.30091339 62438:0.2063842 #
-0.0063059011103750451 10631:0.23635232 10822:0.10558086 11673:0.2082981 11792:0.21894112 12307:0.17962147 13246:0.081804432 14434:0.10820165 22350:0.17048985 23701:0.33901924 24157:0.16354875 24402:0.052146204 27552:0.28131044 53140:0.34194162 67576:0.37915021 71162:0.52699214 #
1.0000000003668752 13859:0.36474928 51459:0.5388577 66035:0.75933546 #
1.0000000003668752 11926:0.35421225 13859:0.1941746 58894:0.41239199 59512:0.5598402 60646:0.28982839 69632:0.51898092 #
1.0000000003668752 11816:0.40687174 12062:0.24190977 13859:0.12608446 14698:0.20421001 20502:0.40055493 22806:0.45596781 26345:0.25680333 46082:0.33699271 51459:0.18626927 56996:0.36847913 #
1.0000000003668752 8281:0.64093065 10666:0.22993322 12016:0.40044934 20502:0.30728391 22806:0.34979364 24402:0.095199786 33282:0.26164922 51459:0.28579128 #
-0.12111880749141421 10884:0.26629338 11256:0.40516591 14237:0.35042349 21938:0.2595574 24135:0.36512643 24506:0.40277198 24890:0.17947845 25925:0.22773531 26375:0.20349738 58835:0.17588487 63142:0.35042349 #
-0.38351587476103283 9143:0.47478551 11383:0.21172528 12826:0.56983608 13250:0.16182679 13323:0.10233114 17297:0.25465861 23732:0.12172022 23989:0.4031837 25556:0.35518229 #
-0.79054457682830981 10788:0.29129356 11765:0.28870288 13246:0.12686294 13859:0.16432892 14434:0.16779995 17221:0.37258568 17709:0.20964336 19535:0.21640205 20478:0.26654848 20502:0.26102647 22806:0.29713693 24992:0.3260057 50380:0.2640135 59512:0.23689488 71554:0.26714814 #
-1.0000000003668752 20502:0.50582403 22806:0.57579988 24402:0.1567096 32757:0.40831411 51459:0.47044471 #
-1.0000000003668752 1283:0.70077538 10635:0.11543729 10706:0.24157898 10956:0.1799141 13249:0.15024143 13859:0.11840273 14434:0.12090369 15489:0.14670524 18846:0.23752972 23294:0.10818195 23701:0.18940876 23737:0.17280254 24402:0.058267772 30060:0.24032612 33282:0.16014445 54761:0.18927367 60646:0.17672999 65372:0.21073841 #
1.0000000003668752 11673:0.29886892 18737:0.73705041 22350:0.24462113 24189:0.25861976 53140:0.49062246 #
1.0000000003668752 13323:0.14069314 27352:0.45178503 29229:0.34972411 31781:0.22414546 39581:0.32774863 42510:0.31179702 54962:0.63159406 #
1.0000000003668752 1212:0.28184313 1835:0.33879676 10740:0.14961573 11463:0.18332666 12079:0.19630495 12351:0.20776932 14434:0.15081029 15433:0.25846678 18573:0.21868281 22321:0.31774434 23732:0.12965365 24996:0.28336421 31781:0.17365481 47691:0.28776932 49155:0.27380621 68313:0.38040653 #
1.0000000003668752 4720:0.13705388 8760:0.2211687 11515:0.31997314 12130:0.062384762 12161:0.10727195 13246:0.047682486 13249:0.078372926 16538:0.091766521 17102:0.14690153 17709:0.078796186 18313:0.12196621 19127:0.18529171 22350:0.29812735 22359:0.11132086 24079:0.15821886 24189:0.31518793 24402:0.12158073 26702:0.085355222 27665:0.23770244 35766:0.19128636 41795:0.072764292 42634:0.20329846 50029:0.49020252 54761:0.098733962 55348:0.11590953 56466:0.21237954 59411:0.12493933 68994:0.095147617 #
1.0000000003668752 14425:0.51972193 14696:0.36543363 15985:0.20275751 16538:0.26422012 19974:0.3731114 24926:0.33415177 25925:0.35793385 29229:0.32624885 #
-0.21940448859157968 4195:0.27633113 7145:0.27771068 9075:0.42590088 10635:0.13407476 10740:0.13931143 15489:0.17039095 31976:0.24401605 43691:0.36755437 53566:0.41255376 57516:0.37877685 69485:0.30066097 #
-0.57475726223425982 9011:0.27488929 15985:0.19013755 17147:0.2929866 17853:0.41661763 18194:0.37395746 22267:0.40585855 24189:0.28367487 24402:0.082068652 27352:0.39522663 62438:0.28442234 #
-1.0000000003668752 9348:0.55669469 13246:0.19514625 19974:0.53034467 24189:0.42998135 62438:0.43111429 #
-1.0000000003668752 10220:0.20571092 12130:0.11112969 14652:0.17285727 15305:0.19916089 15985:0.12544313 16538:0.3269383 17655:0.67015171 19720:0.22861344 24069:0.42571047 24538:0.18415743 65098:0.19145 #
1.0000000003668752 10678:0.22175285 11415:0.18331248 13246:0.071991891 15985:0.10632123 17297:0.17127343 17931:0.40584153 19478:0.37727135 20502:0.29625335 22806:0.50585568 26062:0.172474 53037:0.15531914 66483:0.33392453 71487:0.23521611 #
1.0000000003668752 10788:0.44956478 13859:0.25361526 19535:0.33398175 23732:0.22264193 32757:0.32519275 36506:0.59688193 67591:0.33232397 #
1.0000000003668752 11956:0.21503811 12095:0.21532688 12130:0.11366371 12307:0.19075836 13200:0.21620488 13250:0.1313411 13719:0.18159057 14219:0.1834982 14436:0.21591024 18274:0.2639505 18558:0.221213 20502:0.17875241 21051:0.24907477 22806:0.20348106 24140:0.1452073 24157:0.17368911 24990:0.28858706 29025:0.25302839 31409:0.23124383 31976:0.19968118 63517:0.24662568 65607:0.22880618 67591:0.14745778 #
1.0000000003668752 32757:1 #
-0.1463926214455632 10635:0.13649935 10678:0.1664649 15453:0.23150814 17102:0.33299249 22324:0.27732128 24592:0.11949576 26634:0.24361944 26702:0.096740469 31781:0.082309477 38379:0.15341687 44112:0.32729569 50029:0.3333534 52915:0.6010952 66885:0.13931212 #
-1.0000000003668752 32757:1 #
1.0000000003668752 10464:0.22647628 11765:0.34329766 12351:0.27489194 23294:0.1785364 24189:0.33238694 24992:0.38765457 33786:0.29875466 62438:0.33326274 64586:0.51219022 #
1.0000000003668752 10635:0.2158026 11463:0.27475446 12130:0.22356957 15985:0.50473046 17069:0.27780774 23294:0.2022392 24189:0.37651518 55762:0.41333982 62438:0.37750727 #
1.0000000003668752 11693:0.2086702 13246:0.13358665 15798:0.28750718 18200:0.23790386 24069:0.66952515 56581:0.59252751 #
1.0000000003668752 5919:0.33644181 6202:0.26928794 9787:0.47529203 10464:0.16087303 14220:0.24314483 15985:0.15825284 19935:0.34675384 24047:0.2161871 24069:0.2685276 24402:0.068306327 24539:0.2645281 51459:0.20505667 66874:0.3501052 #
-0.060729851615433421 3838:0.37924644 9011:0.39608085 12335:0.24556592 13238:0.21107841 14241:0.27478737 18496:0.46238342 21701:0.20331129 49681:0.3658981 57201:0.36043301 #
-1.0000000003668752 5375:0.43720222 13719:0.15330726 19146:0.22937948 20002:0.16231979 24402:0.046753865 25531:0.19350398 25646:0.41156441 26138:0.26168063 27847:0.23216747 33282:0.12849936 37677:0.23216747 44470:0.17829202 47088:0.34020165 47117:0.34020165 50634:0.14987169 70610:0.1373218 #
-0.17410714023445692 1666:0.3160426 12130:0.22084999 13246:0.16880207 16207:0.26322937 17450:0.49163732 20251:0.46246204 31781:0.25709319 40451:0.48154253 #
-0.4190985345161361 767:0.51040804 10703:0.35700563 10742:0.40418497 13250:0.2162798 23737:0.2704488 38487:0.32815298 61382:0.28296861 61784:0.37548637 #
-1.0000000003668752 6229:0.27908826 11181:0.2306402 12307:0.19195443 12383:0.27340072 13250:0.13216461 13859:0.11323898 14436:0.21726401 15985:0.12910801 17373:0.28854424 17649:0.29166931 24402:0.05572661 26586:0.17378293 33925:0.24049924 42634:0.18636398 54902:0.43162194 57874:0.29331979 66035:0.23574102 67576:0.20259149 #
1.0000000003668752 32757:1 #
1.0000000003668752 13323:0.20561418 16207:0.33539286 31181:0.61205107 32757:0.35722503 66991:0.58567756 #
1.0000000003668752 32757:0.44950584 61744:0.89327741 #
1.0000000003668752 11463:0.37056386 17423:0.41670543 19515:0.53521109 20478:0.4842312 24402:0.14691199 32757:0.38278601 #
1.0000000003668752 13323:0.097718738 13393:0.35388336 15758:0.35150462 15798:0.2199924 18519:0.28744596 20767:0.23238857 23732:0.11623389 32757:0.33954448 33346:0.31378829 36681:0.30465108 60593:0.23238857 66468:0.42726484 #
-1.0000000003668752 32757:1 #
1.0000000003668752 70:0.33320376 5853:0.2387577 7730:0.29123995 12079:0.16334036 13246:0.094871603 13859:0.12288968 14434:0.12548541 17373:0.31313518 18551:0.26997691 21525:0.32017913 26396:0.30997005 26772:0.33320376 30886:0.21739992 63080:0.25834355 63261:0.29334962 #
1.0000000003668752 399:0.1231816 3478:0.26904488 9011:0.11523286 9348:0.46187893 10220:0.1307064 10464:0.16204968 10666:0.083092451 11823:0.15107708 12098:0.22938934 12130:0.070610553 13249:0.088706851 13262:0.12854539 13859:0.069908366 15241:0.1236725 15914:0.16289215 17101:0.21290343 17755:0.28003305 18194:0.15676197 19141:0.20972349 22359:0.12599915 22975:0.20972349 23294:0.063873723 38820:0.26904488 40683:0.086337909 41506:0.12668268 42463:0.17633295 50029:0.11096771 61619:0.25033107 66985:0.11933434 68994:0.10769338 #
1.0000000003668752 1283:0.27069467 7796:0.18598546 10635:0.35672784 11189:0.16539989 13246:0.14123535 14322:0.11358558 14360:0.11080253 14434:0.18681014 15489:0.11333825 15985:0.10429173 16128:0.22746299 16415:0.20145142 18200:0.25152543 18854:0.17550297 22350:0.14717536 23732:0.080301598 24189:0.15559758 24402:0.045015212 24443:0.12617384 26264:0.22544378 31781:0.32266179 39955:0.32755044 49487:0.24448463 54902:0.17432922 56466:0.15726686 #
-0.31482594825528665 9888:0.42936635 15537:0.42936635 23998:0.79453701 #
-0.27502069996700707 13920:1 #
-1.0000000003668752 2357:0.27893028 10867:0.28758317 11190:0.68341941 11463:0.13859296 15351:0.18178639 16207:0.13441448 32757:0.2863282 42510:0.36523661 46523:0.2944971 #
-0.1900154260938931 64:0.16837896 992:0.13585363 12130:0.075221255 13262:0.13693909 13293:0.34376934 13859:0.14894643 15241:0.13174802 16538:0.11064869 18539:0.17083868 18666:0.20045184 19661:0.28661287 20636:0.13296062 22052:0.1674511 22153:0.14596027 24063:0.14661646 24069:0.2881541 24276:0.18693393 24539:0.14193115 24578:0.16982941 26702:0.10291819 31781:0.087565646 33155:0.11509282 33952:0.23507962 51030:0.11982366 55004:0.22341792 60700:0.19904856 66962:0.28661287 70622:0.18604891 71106:0.21071026 #
1.0000000003668752 12351:0.33875385 14219:0.39265075 20148:0.53163385 23701:0.38520709 26794:0.38971686 54761:0.38493237 #
1.0000000003668752 10635:0.11973304 12062:0.23562506 12161:0.21329355 12689:0.27844653 13246:0.094809189 15957:0.39124531 15985:0.14001897 17855:0.26028186 19720:0.51035422 22350:0.19759326 24189:0.20890068 26466:0.21660867 27305:0.3068009 43449:0.27113542 #
1.0000000003668752 26868:0.32878089 51418:0.87041658 59512:0.36643973 #
1.0000000003668752 350:0.32351083 6957:0.32351083 7711:0.41257253 9717:0.44934738 13323:0.062039729 13859:0.1681215 13947:0.19283211 17709:0.10724088 18263:0.094608039 24140:0.10846768 26868:0.10872739 33925:0.17852993 36458:0.18378398 37389:0.14946225 41024:0.15716685 45262:0.27126217 48754:0.24536444 59512:0.24236222 #
-0.10097973277798068 22350:0.24633683 22359:0.55189353 22380:0.32724053 24189:0.26043364 25674:0.33238533 60714:0.4291046 66257:0.40645894 #
-1.0000000003668752 10132:0.44256681 10678:0.21161048 13323:0.1313522 26345:0.36249316 36506:0.41886473 58063:0.57432365 68686:0.3246623 #
-0.19039568948493277 10678:0.17546253 13775:0.2059902 13904:0.48893338 18515:0.34385785 27221:0.48893338 38776:0.3274622 58302:0.26346982 60593:0.25901297 60611:0.19049682 60889:0.2245138 #
-0.077289801417672346 6785:0.42741939 11496:0.22374849 13249:0.39589924 13323:0.076755956 13859:0.1040005 17374:0.20697033 17423:0.14516905 24069:0.40240198 24402:0.10236043 32348:0.18325344 44922:0.24825931 55099:0.25745064 58303:0.34456977 69925:0.27796772 #
-0.15918382153873045 66991:1 #
1.0000000003668752 12130:0.19032465 15957:0.300154 17423:0.26302266 19515:0.33782291 24402:0.092730217 24427:0.37740245 29163:0.55068839 49594:0.3915315 61382:0.28773728 #
1.0000000003668752 5307:0.43432537 12351:0.33754295 17423:0.33491868 19515:0.4301652 24402:0.11807758 58741:0.62150723 #
1.0000000003668752 13250:0.2175447 15658:0.34155664 15837:0.53846568 15963:0.33451918 17423:0.26017639 19515:0.33416718 20767:0.32714692 24402:0.091726735 24427:0.3733184 #
1.0000000003668752 11190:0.40610516 13238:0.349686 13246:0.15366039 13859:0.19904035 16258:0.45938641 18263:0.22401439 22806:0.35990158 44246:0.41515899 51459:0.29404974 #
-0.18411853768707309 14434:0.1226353 17069:0.15073349 22380:0.25669527 24189:0.61287111 24427:0.7216208 #
-0.19492105368199208 760:0.4958283 10464:0.24248494 14715:0.3078734 23990:0.36405042 30776:0.37871298 33082:0.48287287 70610:0.30240187 #
-0.19367882845897064 10822:0.10768237 12731:0.30289474 14296:0.74013633 18820:0.28885135 20050:0.26753092 21247:0.20997009 41314:0.38699114 #
-0.69386221976814377 10740:0.36226255 11163:0.38553283 13250:0.20868371 22017:0.32157391 24063:0.35200748 24402:0.087990545 63089:0.51653302 66305:0.41798759 #
-1.0000000003668752 13246:0.55168837 13250:0.83405036 #
1.0000000003668752 17774:0.79400724 24876:0.521851 41795:0.31180766 #
1.0000000003668752 5853:0.24154326 10771:0.38182786 13246:0.095978461 13249:0.1577542 13859:0.12432342 14333:0.23631217 16207:0.14966848 18313:0.24550164 21719:0.24018109 25755:0.20826304 25823:0.20966499 29779:0.32021949 50380:0.19974004 52208:0.42571527 66007:0.37296739 #
1.0000000003668752 2840:0.29971892 10678:0.16883342 11941:0.36182487 12121:0.38220108 13249:0.1801814 14360:0.17200419 18211:0.32104778 21241:0.28348762 43713:0.47046107 60611:0.18329969 68538:0.32287592 #
1.0000000003668752 24402:0.17173283 42510:0.57077152 65983:0.80294937 #
-1.0000000003668752 5307:0.67727691 14878:0.40840328 42510:0.61196631 #
-0.58203639493515424 10666:0.45713928 15380:0.48562109 69906:0.74511462 #
-1.0000000003668752 1835:0.22388604 3871:0.099740677 10666:0.058002047 10678:0.11604257 10802:0.41631439 11386:0.11445955 12174:0.11736467 13307:0.11194302 14322:0.060595654 14376:0.089938357 15253:0.12791118 15658:0.089421995 15917:0.061592549 15963:0.26273862 16415:0.21494068 17316:0.13555256 17320:0.12569144 18838:0.11445955 22116:0.12308786 22350:0.15703027 24402:0.048029445 24538:0.081679016 25854:0.12955099 25883:0.13333282 26027:0.11648795 26271:0.1486156 26487:0.1036403 28415:0.22004965 33155:0.075415224 38210:0.1036403 38487:0.086415283 40683:0.060267512 42510:0.31926149 44470:0.091578171 44522:0.14261402 46567:0.25280538 53964:0.1208007 62716:0.13333282 65003:0.11736467 65741:0.12248953 68162:0.11975343 69007:0.17946023 #
-0.33671075910685616 399:0.49862549 15421:0.47682929 15963:0.50786644 20767:0.49667388 24402:0.13925938 #
-1.0000000003668752 42510:1 #
1.0000000003668752 3126:0.49926439 10822:0.17219913 12351:0.24312526 13246:0.13342051 15489:0.21413404 19535:0.22758791 24402:0.17009772 24619:0.28442505 32095:0.35449395 56796:0.55769628 #
1.0000000003668752 11926:0.33061251 12351:0.25496256 15333:0.59748268 26702:0.25046104 31781:0.2130992 68700:0.60046804 #
1.0000000003668752 4076:0.45433918 10464:0.23851326 12891:0.35674623 13250:0.24018329 24410:0.46398434 26479:0.51654905 32757:0.26386937 #
-0.6550645874297284 10142:0.23491609 10464:0.14908816 18573:0.38093042 23294:0.11752959 24929:0.29876184 25448:0.28123447 25531:0.26199514 31409:0.26432785 32757:0.16493757 33282:0.17398198 44246:0.5366084 51459:0.19003509 61917:0.27434981 #
-0.65649821466692371 13262:0.30586433 13892:0.39707419 14237:0.51516628 18836:0.42385566 47818:0.55111629 #
-1.0000000003668752 10464:0.28692472 15957:0.39433786 17709:0.31582469 24140:0.31943759 24402:0.12182758 26702:0.34211406 31781:0.29108015 34307:0.43158638 59424:0.39687249 #
-0.22857957852525576 15453:0.39948365 15712:0.48231533 28938:0.77960551 #
-0.11433415607779168 5698:0.48918626 8624:0.43226671 15985:0.20412928 24189:0.30454978 24427:0.35859001 42917:0.46647209 62438:0.30535224 #
1.0000000003668752 2638:0.4885084 10802:0.52020252 15963:0.43773741 18194:0.54693222 #
1.0000000003668752 6425:0.54098135 11186:0.2584562 15917:0.23891477 18226:0.40999889 26586:0.29049382 42510:0.30960029 58310:0.48489293 #
1.0000000003668752 42510:1 #
1.0000000003668752 399:0.26656154 11600:0.38965082 12422:0.45383573 19974:0.31739464 24402:0.074447043 36382:0.35483131 53443:0.58220559 #
1.0000000003668752 10678:0.17065799 13408:0.3094869 15963:0.25759766 20130:0.3602784 21927:0.36573511 27183:0.28609502 28415:0.323616 55099:0.35531107 60611:0.18528061 61464:0.2707192 64548:0.24247219 67576:0.25678843 #
1.0000000003668752 11139:0.2415818 11181:0.26973182 13323:0.097739413 16103:0.25729719 18573:0.58826888 19807:0.26072079 21192:0.31167799 26027:0.31612816 38108:0.31973988 61917:0.28245133 #
-1.0000000003668752 10802:0.72149295 15963:0.60711825 24402:0.3329494 #
-1.0000000003668752 10802:0.60051429 15963:0.50531775 19515:0.50478601 24402:0.1385605 41795:0.33170575 #
-0.065929989582743168 1013:0.29170841 9951:0.19825651 10956:0.24756934 11130:0.15464243 11181:0.16592143 11415:0.16013736 13200:0.15651195 13232:0.1422921 13250:0.095078573 13323:0.060122915 15985:0.09287966 16538:0.24206921 17287:0.27895212 22324:0.32272336 24992:0.16161236 25755:0.13646543 29229:0.29889777 32922:0.24438879 36441:0.2075773 38502:0.21101281 44044:0.17411797 54388:0.14354236 58981:0.31351545 #
-0.14762514384689923 12512:0.33066049 13232:0.23921916 13246:0.10573029 14434:0.13984805 15433:0.2396791 17089:0.17679028 17423:0.19116887 17709:0.17472124 19515:0.24553482 21051:0.30312863 23294:0.12513295 24402:0.13479546 24992:0.27170008 24996:0.26276678 38502:0.35475132 41795:0.16134623 48754:0.1998789 50380:0.22003448 60961:0.2789444 #
-0.59091009370570702 12130:0.22397687 27837:0.52012032 51418:0.75932729 70610:0.32051724 #
1.0000000003668752 10132:0.77833128 10464:0.36277333 10678:0.37215409 18263:0.35227445 #
1.0000000003668752 13246:0.16190766 32757:0.26891315 40919:0.7181462 44246:0.43744141 66991:0.44088849 #
1.0000000003668752 13246:0.13993984 18263:0.20401183 24926:0.34059998 26702:0.25050279 31781:0.21313472 41024:0.33891302 42634:0.29832292 66643:0.35422233 68529:0.62070727 #
1.0000000003668752 10666:0.123991 10840:0.27343577 11919:0.21514368 13250:0.12175225 14322:0.25907072 14434:0.31956324 15277:0.29515037 15971:0.21137579 17709:0.1330837 23099:0.20927337 23266:0.29515037 30312:0.28977078 31781:0.12265673 34702:0.19432773 37281:0.24635909 42634:0.17168161 55307:0.26581177 61382:0.31858793 #
-1.0000000003668752 10132:0.38185495 10464:0.17797922 15837:0.44361791 18263:0.17282839 25755:0.25724062 25981:0.36523175 32887:0.34719065 34202:0.38013586 37108:0.22090741 41024:0.28710979 #
-0.98081227784617253 3980:0.39336815 11419:0.20175962 13246:0.10625844 14715:0.20254381 18200:0.18923518 19535:0.181255 20767:0.24157731 23732:0.12082984 27676:0.39336815 40683:0.1699867 40793:0.34072274 60765:0.3507188 69632:0.36787608 71310:0.22924761 #
-0.8635889465653338 10771:0.40938562 13246:0.20581107 13250:0.31114811 35281:0.66916925 42038:0.49542364 #
-0.29700589866038807 5216:0.53336966 12422:0.60664392 14434:0.20648749 17180:0.37807992 18200:0.27801949 37108:0.29090145 #
-1.0000000003668752 4195:0.20098032 7481:0.25762093 10678:0.11892217 10822:0.099658765 11186:0.13656758 11342:0.38493013 12079:0.13294268 12087:0.17028499 15453:0.16538893 16207:0.12041033 16498:0.21332261 16903:0.25907874 19507:0.24243876 19807:0.19691053 23642:0.30976492 26586:0.15349618 32757:0.12824836 41145:0.25621614 42059:0.20443147 43335:0.23788913 53037:0.16658987 57516:0.27549082 #
1.0000000003668752 10802:0.43620282 12866:0.49979106 15963:0.36705378 16498:0.43620282 27352:0.48470053 #
1.0000000003668752 2840:0.42637816 5838:0.61519986 10802:0.4308373 13250:0.23576646 15963:0.36253881 32757:0.25901696 #
1.0000000003668752 10802:0.45642048 11189:0.3869521 15963:0.3840664 20767:0.37560222 24702:0.59444463 #
1.0000000003668752 10802:0.30923459 11370:0.29182371 11693:0.17484601 13246:0.11193305 15963:0.52042633 16207:0.17454801 26264:0.35734126 30420:0.45435697 32757:0.18591009 60611:0.18716183 69007:0.26660287 #
-1.0000000003668752 15963:1 #
-1.0000000003668752 992:0.46033522 15963:0.45289218 20767:0.44291118 26264:0.62194037 #
1.0000000003668752 1212:0.26464462 4552:0.33889043 11190:0.28294769 11939:0.23885953 14360:0.16798319 16210:0.21046627 19535:0.18262328 20002:0.23693511 22895:0.44751203 24402:0.13649145 24592:0.23672549 24890:0.21997523 26868:0.17937192 63089:0.40062454 #
1.0000000003668752 7303:0.18551673 10608:0.3553133 10666:0.10973579 11186:0.12605995 11383:0.14097998 11463:0.11460099 12130:0.093251608 12404:0.21053712 13323:0.068138495 14322:0.11464272 14360:0.11183376 14607:0.18707398 15489:0.11439309 16415:0.20332631 17069:0.11587453 17221:0.20932835 20834:0.3553133 42038:0.34314263 44681:0.3553133 51367:0.24351642 59512:0.26618743 66983:0.15609847 71310:0.15377229 #
1.0000000003668752 10956:0.15017338 12120:0.18664317 12784:0.15947823 13719:0.15947823 14953:0.19369753 15117:0.15186167 15215:0.22407928 15339:0.2446516 16538:0.29367414 17373:0.25182915 17423:0.13795203 17655:0.30098373 18313:0.19516008 23732:0.086760312 23833:0.216594 24140:0.12752537 24189:0.1681124 24402:0.048635814 26384:0.21930207 26702:0.13657823 31976:0.35073188 51685:0.24575798 54902:0.18835063 57694:0.19173977 #
1.0000000003668752 13250:0.15916759 13859:0.13637519 17944:0.51708949 19287:0.24297558 19535:0.17959024 19807:0.26848373 24402:0.13422458 26177:0.2768054 29534:0.52484483 71546:0.39397088 #
